svm_type epsilon_svr
kernel_type linear
nr_class 2
total_sv 5
rho -0.103669
SV
-0.5 1:4.54244 2:4.2323 3:4.08902 
-0.04118661552231322 1:7.43902 2:6.97305 3:6.55115 
0.5 1:4.54917 2:3.87898 3:3.45336 
0.2011585408501834 1:6.35907 2:6.54778 3:6.80099 
-0.1599719253278699 1:3.67447 2:3.3545 3:3.08106 
