svm_type epsilon_svr
kernel_type linear
nr_class 2
total_sv 3
rho -0.12455
SV
0.04130879928113437 1:8.45509 2:8.5134 3:8.57538 
0.002011753041066067 1:7.99856 2:8.32098 3:8.65699 
-0.04332055232220046 1:1.00002 2:1.00001 3:1 
