svm_type epsilon_svr
kernel_type linear
nr_class 2
total_sv 3
rho -0.121165
SV
0.05737584220240973 1:8.07058 2:8.53031 3:9 
-0.04822068420013842 1:1.888 2:2.83366 3:4.25435 
-0.009155158002271315 1:2.45803 2:2.14086 3:1.87632 
