svm_type epsilon_svr
kernel_type linear
nr_class 2
total_sv 9
rho -0.118139
SV
-0.5 1:7.90821 2:6.89791 3:6.03244 
0.07831720385196295 1:7.79643 2:8.39045 3:9 
-0.5 1:1 2:1 3:1 
-0.02209448230431679 1:1 2:1 3:1.00001 
0.5 1:4.63405 2:3.70815 3:3.01861 
0.5 1:6.10724 2:5.36652 3:4.81489 
0.5 1:3.79979 2:3.39076 3:3.16947 
-0.05622272154764515 1:2.67718 2:2.46618 3:2.31186 
-0.5 1:5.66377 2:5.04278 3:4.4739 
