svm_type epsilon_svr
kernel_type linear
nr_class 2
total_sv 5
rho -0.0924315
SV
-0.5 1:4.89097 2:5.55514 3:6.49194 
0.5 1:5 2:5.5984 3:7 
-0.007422408793807643 1:3 2:3.79318 3:8 
-0.07298769581646128 1:1.77874 2:2.07037 3:2.43389 
0.08041010461026889 1:5.22404 2:5.02519 3:5 
