svm_type epsilon_svr
kernel_type linear
nr_class 2
total_sv 14
rho -0.100713
SV
0.5 1:1.29334 2:1.44782 3:1.6593 
0.5 1:3.86759 2:3.32809 3:2.90597 
0.5 1:5.49407 2:5.06247 3:4.72478 
0.5 1:6.16984 2:6.28704 3:6.46093 
-0.09222154998119234 1:7 2:6.81902 3:6.64069 
-0.4999999999999999 1:3 2:3 3:3 
-0.2011040563949532 1:2 2:2 3:2 
-0.06587978216974455 1:5 2:5 3:5 
-0.5 1:5 2:5 3:5 
-0.2462895438514835 1:6 2:6 3:6 
-0.3120619807258747 1:1 2:1 3:1 
-0.4989696950398241 1:6 2:6 3:6 
-0.001234509376654791 1:9 2:8.64865 3:8.30585 
0.4177611175397272 1:5.0981 2:5.64045 3:6.28968 
