svm_type epsilon_svr
kernel_type linear
nr_class 2
total_sv 4
rho -0.12019
SV
0.2290644206215489 1:6.91213 2:5.90299 3:5.0348 
-0.1432579638038448 1:1.00001 2:1.00006 3:1.00038 
-0.5 1:6.05757 2:6.30701 3:7.17487 
0.4141935431822958 1:4.57518 2:5.54356 3:7 
