svm_type epsilon_svr
kernel_type linear
nr_class 2
total_sv 9
rho -0.109235
SV
-0.5 1:4.08026 2:4.46038 3:5.87467 
-0.5 1:7.47144 2:6.77839 3:6.16217 
-0.5 1:5.39458 2:5.04905 3:4.78672 
0.5 1:5.52646 2:4.24238 3:3.26937 
0.5 1:6.82117 2:5.79391 3:5.01549 
0.5 1:5.44154 2:6.0921 3:7 
-0.2903623831290066 1:4.01512 2:4.14143 3:4.85636 
0.4461340038078356 1:3.10263 2:3.79411 3:6 
-0.1557716206788295 1:1.26428 2:1.19129 3:1.13709 
