svm_type epsilon_svr
kernel_type linear
nr_class 2
total_sv 12
rho -0.100006
SV
-0.1239525097709189 1:1 2:1 3:1 
0.5 1:2.18679 2:2.0371 3:2.00374 
-0.004414130267742868 1:2 2:2 3:2 
0.5 1:4.14943 2:4.02968 3:4.00299 
-0.1097448861237352 1:4 2:4 3:4 
-0.4017186755791409 1:4 2:4 3:4 
-0.0007138162941917089 1:3 2:3 3:3 
-0.5 1:2 2:2 3:2 
0.5 1:5 2:5 3:5.01633 
-0.2348770270704823 1:5 2:4.94522 3:4.89085 
-0.03552751458315008 1:6 2:5.66379 3:5.33012 
-0.08905144031063858 1:8.36106 2:7.7675 3:7.25507 
