svm_type epsilon_svr
kernel_type linear
nr_class 2
total_sv 5
rho -0.0990451
SV
-0.2817785319065158 1:4.88824 2:4.58383 3:4.37305 
-0.08652901821702411 1:5.09011 2:5.51834 3:6.05013 
-0.005076804587630449 1:8.32505 2:7.67003 3:7.05335 
0.5 1:6 2:6 3:6 
-0.1266156452888294 1:6.42544 2:6.66035 3:6.97801 
