svm_type epsilon_svr
kernel_type linear
nr_class 2
total_sv 3
rho -0.0166685
SV
-0.156939331778792 1:5.96104 2:4.51351 3:4.09652 
0.1245630415543284 1:7 2:6.5188 3:6.057 
0.03237629022446358 1:9 2:8.65298 3:8.31431 
