svm_type epsilon_svr
kernel_type linear
nr_class 2
total_sv 3
rho -0.114046
SV
0.0825629341979125 1:3.66047 2:3.90413 3:4.20867 
0.04453175024663431 1:3.3551 2:2.99509 3:2.71043 
-0.1270946844445467 1:1.01628 2:1.01055 3:1.00797 
