svm_type epsilon_svr
kernel_type linear
nr_class 2
total_sv 4
rho -0.108901
SV
-0.1865501663528853 1:7.4969 2:8.23428 3:9 
-0.4874635541231986 1:1.00009 2:1.00012 3:1.00019 
0.5 1:2.75819 2:3.01334 3:3.32559 
0.1740137204760831 1:4.60655 2:4.81067 3:5.06047 
