svm_type epsilon_svr
kernel_type linear
nr_class 2
total_sv 3
rho -0.131062
SV
-0.04129649651288478 1:1.03842 2:1.03696 3:1.03696 
0.03835112161096309 1:8.96651 2:8.98324 3:9 
0.002945374901921686 1:8.20316 2:7.83236 3:7.49216 
