svm_type epsilon_svr
kernel_type linear
nr_class 2
total_sv 3
rho -0.12458
SV
-0.06497526480754277 1:1.00012 2:1.00007 3:1.00004 
0.0424659047200022 1:5.62609 2:6.13512 3:6.71344 
0.02250936008754061 1:6.01133 2:5.68995 3:5.44854 
