svm_type epsilon_svr
kernel_type linear
nr_class 2
total_sv 7
rho -0.09059
SV
-0.5 1:5.93922 2:5.40456 3:4.98229 
0.01662138748124632 1:5.32184 2:5.13187 3:5.04661 
0.5 1:6.54432 2:6.28193 3:6.1313 
0.5 1:8.1485 2:7.80182 3:7.51675 
-0.1687561638741504 1:7.3684 2:7.41823 3:7.50018 
-7.813029085123474e-05 1:8.63106 2:8.81363 3:9 
-0.3477870933162445 1:8.29132 2:8.18214 3:8.08962 
