svm_type epsilon_svr
kernel_type linear
nr_class 2
total_sv 14
rho -0.101067
SV
-0.03521299502362042 1:4.49164 2:4.24138 3:4.10928 
-0.09784944213432957 1:6.28386 2:6.36682 3:6.50325 
0.5 1:1.08386 2:1.37837 3:2.12291 
0.5 1:2.60336 2:2.25262 3:1.95617 
-0.5 1:2 2:2 3:2 
-0.007728209459320701 1:4 2:4 3:4 
0.5 1:5.00775 2:5 3:5 
-0.00107257988975237 1:3 2:3 3:3 
0.5 1:6.24991 2:6.12176 3:6.05783 
-0.3227101593289738 1:5 2:5 3:5 
-0.2081942019335524 1:4.87932 2:4.93943 3:5 
-0.4652809998763693 1:1.00037 2:1.00037 3:1.00064 
-0.3551449740236151 1:6.0278 2:6.07389 3:6.178 
-0.006806438330466292 1:8.09865 2:8.54083 3:9 
