svm_type epsilon_svr
kernel_type linear
nr_class 2
total_sv 26
rho -0.134084
SV
-0.5 1:7.90566 2:8.44644 3:9 
-0.5 1:6.5831 2:6.99998 3:7.46009 
-0.2116188387297162 1:1.05668 2:1.04536 3:1.03611 
0.5 1:7 2:6.57493 3:6.15467 
0.5 1:3.79979 2:4.46484 3:5.41957 
-0.2622868584603581 1:7.97708 2:8.48421 3:9 
0.5 1:3.32524 2:3.5921 3:3.97342 
0.5 1:2.90918 2:4.53388 3:7 
-0.5 1:4.0337 2:4.46936 3:7 
0.07307514411284173 1:6.45669 2:5.94129 3:5.47742 
-0.5 1:6.23039 2:6.60999 3:7 
0.5 1:6.73995 2:7.33732 3:8 
0.5 1:6.67222 2:6.4546 3:6.29405 
0.4008305530772316 1:3.15319 2:3.92274 3:6 
0.5 1:2.1131 2:2.0063 3:2.00018 
-0.5 1:3.32212 2:3.64197 3:4.00959 
-0.5 1:4.08945 2:4.43257 3:4.80706 
0.5 1:5.06432 2:5.02743 3:5.00949 
0.5 1:5.13131 2:5.23313 3:5.38449 
0.5 1:3.30752 2:4.45719 3:7 
0.5 1:3.19759 2:3.05847 3:3.01436 
-0.5 1:1 2:1 3:1 
-0.5 1:1 2:1 3:1 
-0.5 1:3.1163 2:3.37874 3:3.66019 
-0.5 1:4.46819 2:4.7088 3:4.95734 
-0.5 1:6.01778 2:6.34752 3:9 
