svm_type epsilon_svr
kernel_type linear
nr_class 2
total_sv 3
rho -0.121714
SV
-0.08596557789984675 1:4.69961 2:5.59915 3:7.08117 
0.1175598269664229 1:8.20748 2:8.59961 3:9 
-0.0315942490665761 1:7 2:5.86342 3:4.97843 
