svm_type epsilon_svr
kernel_type linear
nr_class 2
total_sv 3
rho -0.123635
SV
-0.09243168064503347 1:1 2:1 3:1 
0.04088888062287441 1:8.64454 2:8.29686 3:7.96422 
0.05154280002215909 1:1.01236 2:1.18692 3:2.37493 
