svm_type epsilon_svr
kernel_type linear
nr_class 2
total_sv 3
rho -0.108091
SV
-0.1063932613897085 1:1 2:1 3:1 
0.08174391669612986 1:3.82048 2:3.44778 3:3.13002 
0.02464934469357871 1:5.89842 2:6.21988 3:6.6013 
