svm_type epsilon_svr
kernel_type linear
nr_class 2
total_sv 13
rho -0.113661
SV
0.5 1:3.9372 2:3.44237 3:2.98809 
-0.5 1:1.00236 2:1.00356 3:1.00529 
-0.2581175046766891 1:3.20108 2:3.31563 3:3.43313 
-0.5 1:4.79921 2:4.89953 3:5 
0.5 1:3.69858 2:3.25848 3:2.90437 
-0.5 1:6.25964 2:6.50484 3:6.75194 
-0.173125850828422 1:7.61138 2:7.80544 3:8 
0.5 1:8.34818 2:8.15659 3:8.04956 
0.5 1:3.11818 2:3.65739 3:5.24684 
0.5 1:5.13159 2:5.03827 3:5.00695 
-0.5 1:4.66038 2:4.84809 3:5.04262 
0.4312433555051113 1:4.46716 2:5.43617 3:7 
-0.5 1:6.27924 2:6.51535 3:6.75642 
