svm_type epsilon_svr
kernel_type linear
nr_class 2
total_sv 4
rho -0.108269
SV
-0.4402759432561553 1:1 2:1 3:1 
-0.224180229113873 1:6.41541 2:6.79729 3:7.19128 
0.5 1:3.22321 2:3.54023 3:4.13957 
0.1644561723700291 1:3.23411 2:2.88291 3:2.61208 
