svm_type epsilon_svr
kernel_type linear
nr_class 2
total_sv 3
rho -0.113983
SV
-0.06253185141216845 1:1 2:1.00001 3:1.00002 
0.04550996032118249 1:5.83985 2:6.1626 3:6.55109 
0.01702189109098597 1:6.65857 2:6.42188 3:6.25673 
