svm_type epsilon_svr
kernel_type linear
nr_class 2
total_sv 3
rho -0.124071
SV
-0.06391915862759183 1:1 2:1 3:1 
0.05954165835012157 1:6.82117 2:5.79391 3:5.01549 
0.004377500277470221 1:8.9099 2:8.95489 3:9 
