svm_type epsilon_svr
kernel_type linear
nr_class 2
total_sv 3
rho -0.122585
SV
-0.07504359874051604 1:1.00556 2:1.00556 3:1.00601 
0.03770631488731129 1:4.7509 2:5.66676 3:6.77722 
0.03733728385320474 1:5.92121 2:4.91956 3:4.05613 
