svm_type epsilon_svr
kernel_type linear
nr_class 2
total_sv 4
rho 0.014124
SV
-0.1702576485504344 1:1.3474 2:0.514212 3:0.173045 
-0.05085976127282295 1:2.0554 2:3.28685 3:4.90851 
0.1731659945120032 1:1.08011 2:1.52286 3:1.40563 
0.04795141531125417 1:9 2:8.09575 3:7.20594 
