svm_type epsilon_svr
kernel_type linear
nr_class 2
total_sv 3
rho -0.056395
SV
-0.08014615665476735 1:1.52995 2:0.628796 3:0.22663 
0.04356953269393496 1:2.93592 2:3.51848 3:4.16362 
0.03657662396083243 1:8 2:6.51898 3:5.11713 
