svm_type epsilon_svr
kernel_type linear
nr_class 2
total_sv 13
rho -0.0462473
SV
0.4033270988906701 1:-3.07018 2:-2.26566 3:0.239023 
-0.5 1:0.892104 2:2.09782 3:2.84669 
0.5 1:-3.13034 2:-3.83101 3:-3.84557 
-0.5 1:-3.58616 2:-4.06661 3:-0.0432188 
0.476188332073901 1:8.40293 2:8.70011 3:9 
-0.5 1:0.485872 2:0.689544 3:0.555068 
0.2021576237359615 1:7.82707 2:8.41095 3:9 
0.1303616046764303 1:8.21077 2:8.60378 3:9 
0.4932846257093383 1:0.513798 2:1.45332 3:-0.121532 
-0.5 1:0.896133 2:0.761807 3:0.00463641 
0.5 1:-5.32243 2:-6.38491 3:-6.39125 
-0.2053192850863017 1:2.82101 2:0.0315315 3:-2.7764 
-0.5 1:2.6874 2:2.52554 3:1.85292 
