svm_type epsilon_svr
kernel_type linear
nr_class 2
total_sv 30
rho -0.100124
SV
0.5 1:-6.4132 2:3.09154 3:1.1345 
-0.5 1:1.2401 2:2.79743 3:3.22086 
0.5 1:-4.18236 2:-5.4748 3:-4.96045 
0.5 1:8.78402 2:8.89195 3:9 
0.5 1:-2.17523 2:-6.25297 3:-8.10407 
0.5 1:-4.97134 2:-6.90717 3:-6.12026 
-0.5 1:5.87543 2:5.15114 3:0.0697711 
0.5 1:-2.94756 2:-6.79154 3:-6.51204 
-0.5 1:-1.8188 2:0.658513 3:2.63151 
-0.5 1:-1.02176 2:4.26828 3:7.98538 
-0.5 1:0.208186 2:0.234446 3:0.147115 
-0.5 1:3.09718 2:-4.6104 3:2.1325 
-0.332178499193511 1:0.801787 2:0.636551 3:0.557167 
-0.5 1:6.53893 2:5.78211 3:2.32242 
-0.5 1:5.58498 2:3.7091 3:1.02549 
-0.5 1:0.21768 2:0.295469 3:0.309096 
0.5 1:-4.16752 2:-0.671825 3:3.29287 
0.5 1:-6.73178 2:-4.93647 3:-2.25707 
0.4936476869839169 1:9.81049 2:7.15432 3:-1.56451 
0.5 1:7.19356 2:8.08945 3:9 
-0.5 1:2.30687 2:5.24641 3:3.96298 
0.4811975842380017 1:7.56243 2:8.03784 3:8.51778 
-0.5 1:2.23315 2:3.72359 3:3.388 
0.5 1:7.25914 2:8.123 3:9 
-0.5 1:-0.57876 2:2.6981 3:4.22606 
-0.4568959116770073 1:-0.000454224 2:0.000882156 3:0.00164672 
-0.5 1:1.50605 2:0.667918 3:0.292701 
0.5 1:6.8711 2:7.92224 3:9 
0.5 1:7.89613 2:8.4424 3:9 
0.3142291396486002 1:4.87152 2:5.91526 3:7 
