svm_type epsilon_svr
kernel_type linear
nr_class 2
total_sv 4
rho -0.0715221
SV
-0.3600680194840437 1:0.0741503 2:0.0633629 3:0.0276294 
0.5 1:3.24321 2:2.72743 3:2.26931 
-0.1048530908408365 1:9 2:6.65494 3:4.55772 
-0.03507888967512009 1:9 2:8.9118 3:8.82371 
