svm_type epsilon_svr
kernel_type linear
nr_class 2
total_sv 37
rho -0.100002
SV
-0.5 1:0.150079 2:-0.154908 3:0.114495 
-0.4535210693302588 1:6.72059 2:5.65756 3:4.68094 
-0.4090037683343399 1:4.27007 2:4.22116 3:4.26928 
-0.5 1:4.84526 2:4.92253 3:5 
-0.5 1:0.24252 2:0.619474 3:0.778722 
0.5 1:2.83204 2:3.66727 3:4.6264 
-0.5 1:0.08601 2:0.313782 3:0.417866 
-0.5 1:0.0209315 2:0.147243 3:0.159572 
-0.5 1:0.0652219 2:0.236639 3:0.264408 
0.5 1:0.641644 2:0.973643 3:1.43062 
-0.07546089530265049 1:4.82078 2:4.91022 3:5 
-0.5 1:0.778627 2:0.445247 3:-0.0251602 
-0.5 1:0.00142739 2:0.00365214 3:0.00419504 
0.5 1:3.11438 2:2.51471 3:1.99331 
0.5 1:0.736457 2:0.328077 3:0.0699146 
-0.5 1:0.00487012 2:0.00599942 3:0.00585754 
-0.5 1:0.112045 2:0.103562 3:0.0228005 
0.5 1:0.145189 2:-0.0823351 3:-0.249847 
-0.5 1:0.0184395 2:0.013768 3:0.00727204 
0.5 1:1.08065 2:0.850858 3:0.664341 
0.5 1:4.14046 2:5.61915 3:7.26388 
0.5 1:3.72132 2:2.17797 3:1.15431 
0.5 1:2.89797 2:2.38364 3:1.9317 
0.5 1:1.99749 2:1.60534 3:1.2712 
0.274267281812869 1:0.475228 2:0.759378 3:-0.57755 
-0.5 1:6.71956 2:5.65674 3:4.68117 
-0.0616561145816055 1:5.01468 2:5.70683 3:6.46755 
-0.5 1:4.29451 2:4.24745 3:4.2969 
-0.2386011454092124 1:9 2:8.4503 3:7.91183 
-0.03602428885480136 1:8.07636 2:8.53344 3:9 
0.5 1:0.389791 2:0.213842 3:0.106397 
0.5 1:3.35892 2:2.66429 3:2.06985 
-0.5 1:0.0191195 2:0.133271 3:0.146696 
0.5 1:3.7167 2:4.32583 3:4.9867 
0.5 1:1.6146 2:1.35398 3:1.12636 
0.5 1:2.46559 2:2.09361 3:1.76316 
0.5 1:0.858615 2:0.660062 3:0.499883 
