svm_type epsilon_svr
kernel_type linear
nr_class 2
total_sv 32
rho -0.0996067
SV
-0.5 1:0.000380903 2:0.00220538 3:0.00759205 
-0.5 1:0.73957 2:0.798299 3:0.984128 
0.4181565687283032 1:9 2:8.30197 3:7.61825 
-0.5 1:0.000218688 2:0.000138093 3:8.70194e-05 
-0.5 1:7.66067 2:6.9289 3:5.51413 
-0.5 1:2.64636 2:1.36588 3:-0.453023 
-0.3063973017658619 1:-0.000911253 2:-0.000691136 3:0.000420762 
-0.5 1:2.42288 2:2.4442 3:0.98152 
0.5 1:-3.17998 2:-4.27649 3:-3.79704 
0.5 1:0.84847 2:1.15254 3:2.63795 
0.5 1:5.29571 2:3.49354 3:1.70575 
-0.5 1:-0.659854 2:0.602097 3:4.97892 
-0.5 1:2.1049 2:2.96281 3:4.01171 
-0.5 1:1.95168 2:1.72992 3:0.699504 
-0.5 1:0.000282731 2:-0.000236962 3:-0.000625434 
0.5 1:-2.30053 2:-2.59743 3:-2.32869 
0.5 1:0.673591 2:-0.641699 3:-1.50902 
0.5 1:-3.01278 2:-2.03321 3:-0.689503 
-0.1468895292581602 1:2.10565 2:-2.07337 3:-3.9561 
0.5 1:9 2:8.18946 3:7.3896 
0.5 1:9 2:8.38412 3:7.77429 
0.5 1:5.11857 2:2.21591 3:0.126314 
0.5 1:-0.346947 2:-0.493263 3:-0.350875 
-0.5 1:2.70199 2:-3.42362 3:-2.24039 
-0.5 1:0.387863 2:0.674961 3:0.406122 
0.03513026229571901 1:3.10211 2:4.81995 3:8 
-0.5 1:0.804922 2:0.712764 3:0.374835 
0.5 1:-4.33176 2:-3.11307 3:-1.37945 
-0.5 1:1.55103 2:2.20844 3:1.57341 
0.5 1:-0.694689 2:-1.40039 3:-1.52543 
0.5 1:-1.31592 2:-1.16897 3:-0.611977 
0.5 1:1.21864 2:1.68397 3:2.19521 
