svm_type epsilon_svr
kernel_type linear
nr_class 2
total_sv 13
rho -0.100885
SV
-0.1139230232924292 1:9 2:6.64453 3:4.54116 
0.5 1:1.68083 2:2.31475 3:3.10076 
-0.5 1:5.09429e-05 2:3.48857e-05 3:6.56883e-05 
-0.1123905064760385 1:0.00243703 2:0.000752636 3:-0.000676216 
0.5 1:2.07289 2:1.43707 3:0.911908 
0.5 1:1.48519 2:2.29465 3:3.23622 
-0.3687839911086858 1:5 2:4.93287 3:4.86586 
-0.5 1:6.9147e-05 2:8.3494e-05 3:0.000128854 
-0.5 1:0.000105785 2:0.000152474 3:0.000248632 
-0.4013442108902626 1:2.91262 2:4.61852 3:6.70452 
-0.003558268232583086 1:7.15852 2:8.0691 3:9 
0.5 1:1.50892 2:1.85139 3:2.23258 
0.5 1:2.07007 2:1.63919 3:1.2783 
