svm_type epsilon_svr
kernel_type linear
nr_class 2
total_sv 23
rho -0.0999982
SV
-0.5 1:3.39239 2:2.6202 3:1.99564 
-0.5 1:2.02609 2:1.95685 3:2.02236 
-0.5 1:-0.772235 2:0.825926 3:2.15152 
0.5 1:8.8052 2:8.90255 3:9 
-0.5 1:5.0995 2:6.38601 3:5.39851 
0.5 1:1.33213 2:-2.65708 3:-5.03305 
0.289116252559955 1:-1.05489 2:-1.87509 3:-1.25926 
-0.5 1:-1.59528 2:2.62795 3:5.88273 
0.5 1:-1.91689 2:-3.11953 3:-2.81073 
0.5 1:-0.420579 2:5.6477 3:8 
-0.3574784830423661 1:4.31114 2:3.30254 3:2.45027 
-0.5 1:0.917091 2:1.10145 3:1.38041 
0.5 1:-4.66128 2:-4.179 3:-2.78666 
0.5 1:0.772426 2:1.4316 3:2.24966 
-0.1262537023031212 1:1.10345e-05 2:1.75975e-05 3:1.40121e-05 
-0.5 1:2.51218 2:2.32016 3:2.25924 
-0.5 1:0.313011 2:0.24567 3:0.138606 
0.0001629668729789809 1:1.21445 2:1.53009 3:1.88962 
0.5 1:1.61568 2:2.15966 3:2.82254 
0.5 1:1.88639 2:2.32968 3:2.84025 
0.5 1:6.22134 2:6.75634 3:7.30497 
0.1944529659125536 1:8.64065 2:8.82021 3:9 
-0.5 1:0.00165332 2:0.0024251 3:0.00234622 
