svm_type epsilon_svr
kernel_type linear
nr_class 2
total_sv 18
rho -0.100283
SV
-0.5 1:4.74768 2:4.87368 3:5 
0.5 1:2.50995 2:2.92618 3:3.38433 
-6.622007587665068e-06 1:8.76358 2:8.88173 3:9 
-0.5 1:0.0413613 2:0.180892 3:0.256024 
-0.5 1:0.0281024 2:0.024638 3:0.000333773 
0.5 1:2.23311 2:3.45392 3:4.86634 
-0.3307717463781799 1:-0.00115284 2:0.000248071 3:0.00144689 
0.5 1:1.01631 2:1.34999 3:1.73121 
0.5 1:1.79007 2:1.23252 3:0.796812 
0.5 1:5.6896 2:4.24962 3:3.03475 
-0.5 1:-0.000441628 2:0.00122901 3:0.000911733 
-0.382409777246077 1:5.60854 2:5.80406 3:6 
-0.2868118543681565 1:6 2:5.83183 3:5.664 
-0.5 1:0.000200901 2:0.0015272 3:0.000612738 
0.5 1:1.84026 2:2.36447 3:2.97165 
0.5 1:3.9791 2:3.12671 3:2.38839 
0.5 1:1.17025 2:1.43838 3:1.75042 
-0.5 1:6.85547 2:6.9277 3:7 
