svm_type epsilon_svr
kernel_type linear
nr_class 2
total_sv 4
rho -0.0534192
SV
-0.06531715431761853 1:8 2:7.35142 3:6.70961 
-0.5 1:0.291849 2:0.542585 3:0.70357 
0.2679898729009856 1:1.09519 2:1.79922 3:2.77924 
0.2973272814166328 1:2.51262 2:1.85323 3:1.33125 
