svm_type epsilon_svr
kernel_type linear
nr_class 2
total_sv 3
rho -0.096637
SV
0.002396381303735477 1:8.80983 2:8.90486 3:9 
-0.03733223096061462 1:0.268263 2:0.155839 3:0.0871059 
0.03493584965687914 1:9 2:8.90187 3:8.80386 
