svm_type epsilon_svr
kernel_type linear
nr_class 2
total_sv 25
rho -0.0467744
SV
-0.5 1:0.536589 2:1.18425 3:1.41502 
-0.5 1:6.70908 2:3.0917 3:-1.66502 
0.5 1:-3.41277 2:-1.69776 3:0.839823 
-0.5 1:-1.79891 2:0.785019 3:2.73001 
0.5 1:1.93115 2:-1.78472 3:-4.66631 
-0.5 1:5.12495 2:5.33239 3:4.3786 
-0.5 1:7 2:6.4301 3:5.14021 
-0.5 1:6.04822 2:4.56184 3:2.25846 
0.3133168552809747 1:1.10706 2:1.44201 3:1.85722 
0.5 1:6.36276 2:7.21967 3:8.10308 
0.332361465470578 1:8.59972 2:8.69925 3:8.79924 
-0.5 1:-1.89095 2:1.84355 3:4.09413 
-0.5 1:-1.44272 2:0.421694 3:2.07931 
-0.5 1:0.719891 2:-2.58718 3:-1.69147 
0.5 1:0.497612 2:3.80454 3:1.43189 
0.5 1:1.11356 2:-2.01647 3:-3.48563 
0.2649548741355218 1:2.35035 2:4.6879 3:3.33617 
0.5 1:-2.62495 2:-2.08763 3:-0.829972 
0.5 1:-3.32607 2:-5.28613 3:-6.37179 
-0.4106331948870723 1:2.84743 2:0.0693666 3:-2.74929 
-0.5 1:1.7486 2:3.14162 3:3.232 
0.5 1:4.89358 2:5.64445 3:6.44081 
0.5 1:5.34018 2:4.69465 3:4.09163 
0.5 1:8.81927 2:8.90958 3:9 
-0.5 1:1.16044 2:2.30989 3:2.64909 
