svm_type epsilon_svr
kernel_type linear
nr_class 2
total_sv 3
rho -0.0630764
SV
-0.02774806630297004 1:-0.410707 2:-0.476226 3:-0.371968 
-0.005807666709632364 1:-1.38011 2:-3.12975 3:-4.31876 
0.03355573301260242 1:9 2:8.89665 3:8.79346 
