svm_type epsilon_svr
kernel_type linear
nr_class 2
total_sv 6
rho -0.0849607
SV
0.5 1:2.48108 2:1.97864 3:1.55371 
-0.2763951679291933 1:0.0786437 2:0.0342935 3:-0.0235677 
-0.03645613979868761 1:8.2398 2:8.61911 3:9 
-0.5 1:0.12704 2:0.0781794 3:0.0168817 
-0.1871486922721188 1:8.6475 2:8.82344 3:9 
0.5 1:2.21411 2:2.66786 3:3.17298 
