svm_type epsilon_svr
kernel_type linear
nr_class 2
total_sv 11
rho -0.0610977
SV
-0.5 1:2.29173 2:3.2123 3:2.83081 
-0.3098715957417946 1:0.250917 2:0.287641 3:0.261678 
-0.257651746146162 1:0.955679 2:0.794756 3:0.180841 
-0.5 1:1.76341 2:2.08922 3:1.64512 
0.5 1:5.33701 2:3.7645 3:2.39035 
0.5 1:-2.05314 2:-2.34146 3:-2.17485 
-0.5 1:1.59144 2:1.28222 3:0.743403 
0.5 1:1.69248 2:2.66614 3:3.92157 
-0.2480268412145645 1:0.280083 2:0.955536 3:2.15636 
0.3155501831025218 1:6.6249 2:5.87832 3:5.1683 
0.5 1:-1.53787 2:-0.660118 3:0.459628 
