svm_type epsilon_svr
kernel_type linear
nr_class 2
total_sv 24
rho -0.108834
SV
-0.5 1:0.00268958 2:0.00198957 3:0.00150902 
-0.1622222495336325 1:0.0289143 2:0.0334032 3:0.0421106 
-0.5 1:0.0273487 2:0.0319942 3:0.0405578 
0.5 1:4.48056 2:3.91222 3:3.38135 
0.5 1:2.9131 2:2.52199 3:2.16555 
-0.5 1:0.00194742 2:0.000997419 3:0.000363195 
-0.5 1:0.00418589 2:0.00334999 3:0.00291839 
-0.5 1:0.00958379 2:0.00611784 3:0.00528883 
-0.5 1:0.680456 2:0.87339 3:1.11053 
-0.4794966066372968 1:4.55697 2:5.19335 3:5.86361 
-0.5 1:0.0176203 2:0.0300382 3:0.0502823 
0.5 1:0.0223715 2:-1.62585 3:-1.89885 
-0.5 1:0.903037 2:0.683228 3:0.22767 
0.5 1:2.42855 2:2.04571 3:1.70377 
0.5 1:-5.48842 2:-5.51572 3:-4.63066 
0.5 1:-2.11916 2:-0.919305 3:0.432612 
0.5 1:7.45548 2:6.9149 3:6.38211 
0.5 1:-0.914557 2:-0.358088 3:0.959942 
0.5 1:-1.86982 2:-2.28874 3:-1.75866 
0.5 1:0.548749 2:1.63602 3:3.13134 
-0.5 1:0.000495036 2:0.000738855 3:0.00110577 
0.1417188561709305 1:3.30409 2:2.98262 3:2.68207 
0.5 1:-0.94284 2:-1.69512 3:-1.8528 
-0.5 1:0.000793577 2:0.00115345 3:0.00167001 
