svm_type epsilon_svr
kernel_type linear
nr_class 2
total_sv 29
rho -0.0996833
SV
0.5 1:-2.69373 2:-1.88549 3:-0.279231 
-0.5 1:9 2:8.5953 3:7.65252 
0.5 1:3.81195 2:3.36467 3:2.9513 
0.5 1:8.70949 2:8.41946 3:8.1304 
0.3552934501094435 1:-6.48316 2:-3.52867 3:0.699132 
-0.5 1:6.03704 2:4.78865 3:1.65263 
-0.5 1:-3.8465 2:0.624206 3:4.56693 
-0.02181391005568675 1:2.82245 2:5.85803 3:5.3369 
0.5 1:9 2:8.69665 3:8.39451 
-0.5 1:-1.5651 2:0.398899 3:2.0574 
-0.159070610292784 1:0.000209114 2:0.000292529 3:0.000525579 
-0.5 1:7.13823 2:3.90415 3:-0.768667 
0.5 1:0.860888 2:-1.73558 3:-2.90667 
-0.5 1:5.33785 2:4.80824 3:2.24476 
-0.5 1:3.20463 2:0.886017 3:-1.62555 
-0.5 1:0.559655 2:0.687151 3:0.665006 
-0.5 1:0.0111341 2:0.00838413 3:0.0038537 
0.5 1:0.281427 2:-2.41533 3:-4.67951 
0.5 1:-0.667561 2:-0.8875 3:-0.881872 
0.3255910702390271 1:8.78722 2:8.57476 3:8.36298 
-0.5 1:2.61282 2:2.69756 3:1.84382 
0.5 1:1.24767 2:2.77398 3:-0.187585 
0.5 1:-2.36496 2:-2.78121 3:-1.34017 
0.5 1:-1.8636 2:-2.71388 3:-1.92975 
-0.5 1:-3.40128 2:-2.5763 3:2.09469 
-0.5 1:0.243385 2:0.359733 3:0.519339 
-0.5 1:-0.000146905 2:-0.000175009 3:-5.74385e-05 
0.5 1:1.16045 2:1.50779 3:1.92779 
0.5 1:8.63765 2:8.27621 3:7.91662 
