svm_type epsilon_svr
kernel_type linear
nr_class 2
total_sv 7
rho -0.139343
SV
0.04428289810708064 1:7.41888 2:7.93252 3:8.46219 
-0.4957766412545698 1:4.67007 2:4.34318 3:4.02619 
-0.4991218266648857 1:3.37281 2:3.16805 3:2.96956 
0.5 1:2.92292 2:3.21056 3:3.63737 
0.4506155698123749 1:5.46306 2:4.43228 3:3.63936 
-0.5 1:2.74379 2:2.57394 3:2.40629 
0.5 1:3.11822 2:2.61213 3:2.30825 
