svm_type epsilon_svr
kernel_type linear
nr_class 2
total_sv 4
rho -0.174211
SV
0.1130270679355086 1:9 2:7.84286 3:6.73264 
0.2125578555585389 1:5.49303 2:5.98909 3:6.59299 
-0.5 1:5.13568 2:5.0958 3:5.04308 
0.1744150765059526 1:4.23071 2:4.01542 3:3.84792 
