svm_type epsilon_svr
kernel_type linear
nr_class 2
total_sv 7
rho -0.205798
SV
-0.04754853750000731 1:2.94814 2:3.15811 3:3.36847 
-0.5 1:4.32143 2:4.27585 3:4.22414 
-0.002035079468552476 1:4.28027 2:4.25859 3:4.23124 
0.4236296409618387 1:4.98882 2:4.11175 3:3.36987 
0.5 1:3.23141 2:3.23437 3:3.5436 
0.1259539760067208 1:6.92606 2:7.56876 3:8.2693 
-0.5 1:3.76472 2:3.5295 3:3.2945 
