svm_type epsilon_svr
kernel_type linear
nr_class 2
total_sv 13
rho -0.212733
SV
0.5 1:5.63331 2:6.66854 3:7.80693 
-0.5 1:3.72095 2:3.90698 3:4.09302 
-0.3514085335468433 1:9.31725 2:9.32225 3:9.24193 
-0.02396229692414023 1:10.969 2:11.0063 3:10.969 
-0.5 1:8.22954 2:8.18004 3:8.09985 
0.5 1:5.96376 2:5.72903 3:5.52196 
0.3642345443690938 1:7.29845 2:6.97644 3:6.68746 
-0.4888637138981088 1:4.09142 2:4.16862 3:4.24333 
-0.5 1:5.48139 2:5.49992 3:5.48139 
-0.5 1:4.53545 2:4.46506 3:4.38458 
0.5 1:6.7244 2:6.91949 3:7.14761 
0.5 1:3.62927 2:3.0505 3:2.60706 
0.5 1:6.41851 2:6.24071 3:6.08278 
