svm_type epsilon_svr
kernel_type linear
nr_class 2
total_sv 13
rho -0.220262
SV
0.07426755503763699 1:2.90108 2:2.74124 3:2.60874 
0.5 1:5.88273 2:6.19076 3:6.5293 
0.1038415002262486 1:5.58966 2:5.77433 3:6.00118 
0.5 1:2.70947 2:2.88573 3:3.14605 
0.5 1:3.88317 2:3.50776 3:3.21319 
-0.4796836268754235 1:5.13446 2:5.00781 3:4.87576 
-0.5 1:4.25877 2:4.299 3:4.33589 
-0.5 1:4.39498 2:4.27804 3:4.1536 
-0.5 1:4.1318 2:4.13546 3:4.13645 
-0.5 1:4.10704 2:4.10866 3:4.10867 
0.5 1:7.91189 2:7.39845 3:6.92028 
0.5 1:2.0741 2:2.22072 3:2.49136 
-0.1984254283884621 1:3.90043 2:4.20011 3:4.50002 
