svm_type epsilon_svr
kernel_type linear
nr_class 2
total_sv 7
rho -0.240051
SV
0.2881050551680614 1:6.62782 2:6.34526 3:6.09984 
-0.1953390924815468 1:3.31067 2:3.38042 3:3.45913 
0.5 1:3.64118 2:3.83023 3:4.17096 
-0.5 1:4.36823 2:4.40235 3:4.42737 
-0.5 1:4.08063 2:4.08298 3:4.08555 
0.5 1:3.82705 2:3.87512 3:4.0605 
-0.09276596268651464 1:5.29813 2:5.48111 3:5.65618 
