svm_type epsilon_svr
kernel_type linear
nr_class 2
total_sv 3
rho -0.113841
SV
0.1514251111505767 1:6.71076 2:4.69708 3:3.16144 
0.0247473665716715 1:9.22507 2:9.57633 3:9.9167 
-0.1761724777222482 1:5.07537 2:3.48893 3:2.4328 
