svm_type epsilon_svr
kernel_type linear
nr_class 2
total_sv 61
rho -0.0820554
SV
-0.5 1:4.66844 2:6.71952 3:9 
0.2863633619433973 1:8.47526 2:8.37155 3:8.26851 
0.5 1:-9.55824 2:-4.7556 3:1.74047 
-0.5 1:6.75689 2:9.81956 3:9.01146 
0.5 1:1.43077 2:-1.84825 3:-4.39871 
0.4621486316833899 1:-4.15668 2:5.02921 3:9.96116 
-0.5 1:0.660016 2:-3.09065 3:-4.22705 
0.5 1:1.54212 2:-6.74199 3:-10.9327 
-0.5 1:-4.3532 2:-1.03031 3:2.91813 
0.5 1:9 2:8.73727 3:8.47557 
-0.5 1:4.40357 2:4.58093 3:1.25003 
-0.5 1:-1.86972 2:-1.0025 3:0.632475 
0.5 1:-11.9077 2:-10.5727 3:-5.34149 
0.5 1:-6.48637 2:-3.79926 3:0.312276 
-0.5 1:-1.48281 2:2.67025 3:5.52956 
-0.5 1:-6.96402 2:-0.955564 3:5.83145 
-0.5 1:-0.519113 2:1.40501 3:2.18438 
0.5 1:-7.94987 2:5.2453 3:2.00005 
-0.5 1:1.03304 2:1.39115 3:1.85695 
-0.5 1:0.699346 2:0.702156 3:0.792111 
-0.5 1:10.7996 2:9.61834 3:3.94091 
-0.5 1:-2.88767 2:-0.0424646 3:2.82259 
0.5 1:-5.27614 2:-8.01026 3:-8.99997 
-0.5 1:4.6614 2:4.19396 3:2.83614 
-0.5 1:-4.74412 2:1.80171 3:7.08977 
-0.06539487584336111 1:3.29238 2:2.73421 3:0.26729 
-0.5 1:9.69407 2:7.81073 3:4.52853 
0.5 1:-5.68391 2:-4.95959 3:-3.34704 
-0.1831171177834265 1:0.0331025 2:0.0689265 3:0.0924105 
0.5 1:4.29714 2:11.9444 3:6.363 
0.5 1:9 2:8.46725 3:7.93947 
0.5 1:8.76053 2:8.52323 3:8.29025 
-0.5 1:4.31426 2:9.81173 3:7.41148 
0.5 1:-0.309292 2:-2.77128 3:-3.00214 
0.5 1:9 2:8.55897 3:8.1198 
0.5 1:9 2:8.73965 3:8.48022 
0.5 1:8.7485 2:8.49788 3:8.24903 
0.5 1:-1.67839 2:-7.06685 3:-8.98977 
0.5 1:1.81106 2:1.46922 3:1.78107 
-0.5 1:11.8511 2:-2.90075 3:-11.3503 
-0.5 1:-0.724466 2:7.59966 3:10.9977 
-0.5 1:1.96797 2:1.40386 3:-0.0702295 
0.5 1:-6.22826 2:-8.99792 3:-6.50179 
-0.5 1:1.35862 2:1.93447 3:1.37822 
0.5 1:-1.73933 2:10.0655 3:6.84414 
-0.5 1:-1.70142 2:-2.62873 3:0.368249 
-0.5 1:0.660153 2:0.611767 3:0.681965 
-0.5 1:1.05463 2:0.87085 3:0.817275 
-0.5 1:8.77083 2:10.5277 3:3.61339 
-0.5 1:-0.790524 2:1.46187 3:2.51019 
-0.5 1:0.593671 2:-2.77998 3:-3.80214 
-0.5 1:-2.15445 2:1.36158 3:4.40781 
0.5 1:-8.10749 2:-4.47654 3:-0.105114 
-0.5 1:4.53748 2:5.48258 3:5.5208 
0.5 1:2.08379 2:1.67436 3:1.32739 
0.5 1:7.411 2:6.89481 3:6.38989 
0.5 1:9 2:8.49721 3:7.99687 
0.5 1:9 2:8.52759 3:8.05721 
0.5 1:8.64832 2:8.53176 3:8.41577 
0.5 1:8.54673 2:8.43444 3:8.32285 
0.5 1:8.73158 2:8.64261 3:8.55408 
