svm_type epsilon_svr
kernel_type linear
nr_class 2
total_sv 4
rho 0.0394221
SV
-0.5 1:0.881418 2:-0.485321 3:0.258029 
0.2608778026511745 1:2.22615 2:1.78644 3:1.41363 
0.01344003336886074 1:8 2:4.07001 3:1.04173 
0.2256821639799652 1:-0.43819 2:-0.476211 3:-0.228622 
