svm_type epsilon_svr
kernel_type linear
nr_class 2
total_sv 3
rho -0.0980298
SV
-0.4003061623606656 1:0.287947 2:0.416595 3:0.653932 
0.02853936112423767 1:5.3312 2:4.78949 3:4.27705 
0.371766801236428 1:0.763637 2:0.986592 3:1.25796 
