svm_type epsilon_svr
kernel_type linear
nr_class 2
total_sv 24
rho -0.0860788
SV
-0.06993680320034305 1:3.83823 2:6.20872 3:9 
0.5 1:1.64884 2:2.25756 3:2.97603 
0.5 1:4.04935 2:5.52994 3:7.21062 
0.5 1:2.52773 2:3.22862 3:4.02682 
0.5 1:6.92329 2:4.96833 3:3.26392 
-0.5 1:-0.0594939 2:0.0272003 3:0.100556 
-0.5 1:0.0201784 2:0.0414558 3:0.0424036 
-0.5 1:-0.0121398 2:0.0802841 3:0.0441635 
0.5 1:-0.000841832 2:0.322674 3:0.804935 
-0.5 1:-1.17514 2:-0.768716 3:1.28157 
-0.5 1:-0.368177 2:-0.434446 3:0.42676 
-0.4851870489099905 1:7.39707 2:8.19012 3:9 
-0.5 1:7.55541 2:8.27023 3:9 
-0.3397699091962983 1:9 2:8.41887 3:7.84963 
0.5 1:0.68736 2:0.195499 3:0.28911 
-0.08981439814564521 1:0.133921 2:0.0626894 3:-0.117001 
0.4139925206012038 1:0.897876 2:1.88846 3:2.95975 
-0.5 1:-0.126581 2:0.0572819 3:0.22138 
0.5 1:4.68057 2:6.26226 3:8 
0.5 1:2.01259 2:2.24279 3:2.65083 
-0.5 1:0.192884 2:0.465311 3:0.660772 
0.5 1:4.66009 2:3.87818 3:3.14067 
-0.4292843611489248 1:8.81579 2:8.90784 3:9 
0.5 1:0.109442 2:0.305453 3:0.588374 
