svm_type epsilon_svr
kernel_type linear
nr_class 2
total_sv 11
rho -0.0978855
SV
0.5 1:0.735067 2:2.7088 3:-5.35857 
0.348362253231458 1:8.82186 2:8.91088 3:9 
0.4636300877572737 1:-5.07907 2:-5.98016 3:-3.2504 
-0.5 1:0.0957071 2:2.40687 3:2.757 
-0.5 1:4.80824 2:2.24476 3:-0.625858 
0.2838871825217902 1:-6.10561 2:-6.43823 3:-5.61779 
0.4296071143337158 1:7.19214 2:8.08905 3:9 
-0.02543665594103904 1:-3.22966 2:2.86098 3:2.73575 
-0.5 1:0.0201154 2:0.0641878 3:0.0553916 
-4.998190319735134e-05 1:0.0296122 2:0.0147725 3:-0.00619245 
-0.5 1:0.0154918 2:0.0340164 3:0.040609 
