svm_type epsilon_svr
kernel_type linear
nr_class 2
total_sv 27
rho -0.0966197
SV
-0.4372413448054385 1:4.73202 2:1.75055 3:0.69366 
-0.5 1:0.0230129 2:-0.0230104 3:0.017093 
-0.5 1:7.65621 2:8.32113 3:9 
-0.2598616786922959 1:7.66187 2:8.32399 3:9 
-0.5 1:0.0846569 2:0.0746114 3:0.0343436 
0.5 1:1.01836 2:1.44569 3:1.9842 
-0.1042621346177093 1:0.00244574 2:0.00388219 3:0.00403745 
-0.5 1:-0.183068 2:0.202983 3:0.518448 
0.5 1:0.231771 2:0.194553 3:0.244484 
0.5 1:0.629163 2:0.403037 3:0.287483 
-0.5 1:-0.0173924 2:0.00709938 3:0.0255881 
-0.5 1:0.195571 2:0.197291 3:0.0792265 
-0.5 1:-0.314561 2:0.110328 3:0.495761 
-0.5 1:0.180205 2:0.222151 3:0.156464 
-0.08381731139463562 1:6.77636 2:6.88801 3:7 
-0.1148175304899175 1:7 2:6.89719 3:6.79465 
0.5 1:0.312164 2:-0.135422 3:-0.377627 
0.5 1:1.24802 2:2.03409 3:2.96519 
0.5 1:3.72107 2:2.62043 3:1.58415 
0.5 1:0.52827 2:0.317032 3:0.232139 
0.5 1:4.19501 2:3.41754 3:2.69408 
0.5 1:1.44346 2:2.17591 3:3.12757 
0.5 1:1.88094 2:2.54662 3:3.31072 
-0.5 1:0.306999 2:0.163428 3:-0.118376 
0.5 1:5.06981 2:4.16301 3:3.30394 
0.5 1:-0.735686 2:-0.646475 3:-0.437742 
-0.5 1:0.0574751 2:0.0415547 3:0.00155413 
