svm_type epsilon_svr
kernel_type linear
nr_class 2
total_sv 40
rho -0.0991074
SV
0.5 1:-0.424303 2:0.403982 3:-0.264834 
-0.5 1:0.0627851 2:-0.0222527 3:-0.024786 
-0.1878945913420957 1:5.08711 2:3.99262 3:3.05113 
-0.5 1:1.08796 2:1.28546 3:1.62072 
-0.5 1:2.67164 2:2.73324 3:2.91958 
0.5 1:1.74524 2:1.03981 3:0.545153 
0.5 1:0.716772 2:0.477454 3:0.339544 
0.5 1:2.92443 2:3.60261 3:4.3587 
0.5 1:-1.40901 2:-1.22911 3:-0.611532 
0.5 1:2.96469 2:1.81873 3:0.871877 
0.5 1:-1.23581 2:-1.0183 3:-0.399392 
0.5 1:-0.673813 2:-0.861861 3:-0.710171 
-0.5 1:0.271158 2:0.231811 3:0.101087 
0.5 1:0.565533 2:1.97989 3:3.99671 
-0.5 1:-0.151986 2:0.0243992 3:0.18212 
-0.5 1:-0.0720808 2:0.0350094 3:0.11529 
0.5 1:-1.69564 2:-2.09164 3:-1.71684 
-0.5 1:0.239707 2:1.08011 3:1.52286 
-0.5 1:0.497699 2:0.589654 3:0.464313 
0.5 1:-0.279362 2:-0.524007 3:-0.514738 
0.5 1:2.28288 2:1.53496 3:0.98464 
-0.5 1:0.000502243 2:-0.0291232 3:0.032554 
-0.1725737779718109 1:0.573448 2:0.576398 3:0.662278 
0.5 1:-0.585449 2:-0.388172 3:-0.00943546 
-0.5 1:1.00492 2:1.57567 3:1.87507 
-0.5 1:0.333813 2:0.602096 3:0.73926 
0.5 1:1.99886 2:2.90894 3:4.03716 
-0.5 1:0.0445409 2:0.0670771 3:0.0427952 
0.5 1:3.88312 2:2.95163 3:2.10295 
0.5 1:0.409266 2:0.744527 3:1.27913 
0.5 1:4.43778 2:3.24476 3:2.27677 
0.5 1:5.20133 2:3.57848 3:2.26591 
-0.5 1:5.439 2:1.8346 3:-0.0663474 
-0.5 1:1.07733 2:0.780384 3:0.613653 
-0.5 1:2.19836 2:2.26953 3:2.4718 
-0.5 1:3.05959 2:3.00255 3:3.06564 
-0.1395316306860924 1:3.59276 2:3.99689 3:4.50255 
-0.5 1:0.0134272 2:0.00383433 3:-0.00706464 
0.5 1:1.30507 2:0.991472 3:0.738847 
-0.5 1:0.250741 2:0.283686 3:0.270065 
