svm_type epsilon_svr
kernel_type linear
nr_class 2
total_sv 3
rho -0.0651255
SV
-0.04071972144254277 1:0.0599104 2:0.13514 3:0.155595 
0.02242987001211804 1:6.91612 2:7.9469 3:9 
0.01828985143042472 1:9 2:8.41204 3:7.828 
