svm_type epsilon_svr
kernel_type linear
nr_class 2
total_sv 30
rho -0.0983229
SV
-0.4983187547217078 1:2.76462 2:3.52931 3:4.42978 
-0.5 1:2.62605 2:2.56109 3:2.62345 
0.5 1:5.56589 2:4.95013 3:4.36979 
-0.5 1:0.0059978 2:0.0150173 3:0.0198839 
0.5 1:2.83659 2:3.7894 3:4.9122 
-0.1799782496564559 1:5.99698 2:5.0586 3:4.19099 
-0.5 1:0.509473 2:0.788454 3:0.698868 
0.5 1:0.215632 2:0.363594 3:0.596556 
-0.5 1:0.845512 2:1.33681 3:1.62922 
0.5 1:2.01731 2:2.41115 3:2.97048 
0.5 1:0.263783 2:0.465709 3:0.712784 
-0.5 1:0.0689808 2:0.0516625 3:0.0230948 
0.5 1:-1.88004 2:-1.4561 3:-0.771375 
0.5 1:-0.811419 2:-0.793322 3:-0.523286 
0.5 1:1.97145 2:2.71867 3:3.58349 
0.5 1:2.30467 2:3.02186 3:3.84478 
-0.5 1:0.00669164 2:0.0740092 3:0.105033 
-0.5 1:0.0189863 2:0.0133572 3:0.0012192 
0.4624660108376791 1:2.4884 2:1.33454 3:0.647696 
0.5 1:1.98907 2:1.47927 3:1.07105 
0.5 1:1.70461 2:1.26769 3:0.917994 
-0.5 1:2.87275 2:3.8262 3:4.94603 
-0.5 1:2.27609 2:2.34655 3:2.54713 
-0.1273390171534183 1:5.69255 2:5.42429 3:5.2289 
-0.5 1:0.249616 2:0.277858 3:0.210224 
-0.5 1:0.0845329 2:0.0793581 3:0.0468142 
-0.1568299893060966 1:0.00581264 2:0.00324631 3:-0.000440148 
0.5 1:-1.4864 2:-1.57743 3:-1.40754 
-0.5 1:0.171995 2:0.247273 3:0.177841 
0.5 1:0.196835 2:0.308198 3:0.471847 
