svm_type epsilon_svr
kernel_type linear
nr_class 2
total_sv 11
rho 0.00632312
SV
-0.1203909495839406 1:7.50256 2:7.98442 3:8.48698 
-0.5 1:0.749271 2:0.808241 3:0.5794 
-0.5 1:1.27176 2:1.17512 3:0.650944 
-0.5 1:0.629166 2:0.888536 3:0.825103 
0.5 1:-0.116657 2:-0.0735603 3:0.126371 
-0.5 1:0.731477 2:0.869797 3:0.854952 
0.5 1:5.40455 2:4.59716 3:3.84865 
0.5 1:0.195515 2:0.313011 3:0.487438 
0.0968867178856065 1:0.338886 2:3.57013 3:6.15602 
0.02350423169833549 1:0.170294 2:0.226426 3:0.322851 
0.5 1:0.508087 2:0.337307 3:0.21622 
