svm_type epsilon_svr
kernel_type linear
nr_class 2
total_sv 7
rho -0.0837204
SV
-0.2189816507285027 1:4.47547 2:6.60486 3:9 
-0.5 1:0.0895984 2:0.104384 3:0.0462992 
-0.5 1:-0.175073 2:0.197464 3:0.534636 
0.3599685674491925 1:0.865206 2:1.30332 3:1.88986 
-0.1409869167206901 1:4.76928 2:3.62404 3:2.66516 
0.5 1:1.01539 2:0.574966 3:0.259203 
0.5 1:2.30283 2:3.24658 3:4.37694 
