svm_type epsilon_svr
kernel_type linear
nr_class 2
total_sv 11
rho -0.0759627
SV
-0.5 1:1.67569 2:2.01626 3:2.49428 
-0.5 1:0.889593 2:1.61416 3:2.70196 
0.5 1:-0.0350383 2:7.0408 3:10.8254 
-0.5 1:2.75251 2:6.34112 3:8.54882 
-0.212901309081702 1:-7.35778 2:-3.89783 3:0.260213 
0.5 1:-7.84605 2:-8.81433 3:-5.46011 
-0.005325525171892958 1:-9.26487 2:-10.6323 3:-5.10792 
-0.3514091573858921 1:1.74063 2:2.08928 3:2.57274 
0.5 1:8 2:6.10115 3:3.95206 
0.5 1:2.828 2:4.24378 3:6.02201 
0.06963599163948871 1:9 2:8.83047 3:8.66114 
