svm_type epsilon_svr
kernel_type linear
nr_class 2
total_sv 41
rho -0.0646108
SV
-0.5 1:-0.0112726 2:1.42372 3:3.38744 
-0.5 1:2.83778 2:2.89816 3:3.08053 
0.5 1:9 2:8.32297 3:7.65981 
0.5 1:4.01187 2:4.88289 3:5.83738 
0.5 1:7.65979 2:7.22113 3:6.78928 
-0.5 1:-0.0762484 2:0.608193 3:1.07606 
-0.5 1:0.468554 2:0.270558 3:0.151868 
-0.5 1:1.39007 2:1.76731 3:2.24514 
-0.5 1:4.69826 2:5.46586 3:6.28227 
0.5 1:-3.49539 2:-6.26675 3:-7.67339 
-0.5 1:8.519 2:8.71432 3:7.34895 
-0.5 1:2.00725 2:2.66862 3:3.46087 
0.5 1:8.62065 2:8.24273 3:7.86766 
0.5 1:-5.99109 2:-5.98411 3:-3.04256 
-0.5 1:0.985426 2:1.28825 3:1.65684 
-0.5 1:4.59553 2:5.59504 3:6.67925 
0.5 1:7.40115 2:6.62696 3:5.88205 
-0.5 1:2.93131 2:3.42939 3:3.98283 
0.2512625505505346 1:8.20167 2:7.81056 3:7.42906 
0.5 1:8.70928 2:8.4209 3:8.13719 
0.3784692146892464 1:8.71095 2:8.42422 3:8.14213 
0.5 1:-1.51419 2:4.29941 3:7.32254 
0.1714248932396338 1:5.95539 2:5.4445 3:4.94696 
0.5 1:0.173137 2:-3.49344 3:-1.74429 
-0.3011566584794154 1:0.897837 2:1.19764 3:1.56665 
-0.5 1:5.30873 2:3.77298 3:2.53901 
-0.5 1:3.72912 2:4.61004 3:5.6008 
-0.5 1:3.9499 2:4.61461 3:5.37183 
-0.5 1:5.43531 2:6.05623 3:6.73748 
-0.5 1:1.20981 2:1.63041 3:2.14568 
-0.5 1:2.89882 2:3.59464 3:4.36873 
-0.5 1:4.82582 2:-1.66474 3:-2.59125 
0.5 1:8 2:7.35983 3:6.72608 
0.5 1:7.49081 2:6.98487 3:6.48533 
0.5 1:7.52106 2:7.04506 3:6.57489 
0.5 1:-4.73706 2:-4.01293 3:-1.90414 
0.5 1:-8.33254 2:-9.43949 3:-6.60934 
0.5 1:7.5385 2:7.0794 3:6.62508 
-0.5 1:7 2:8.30157 3:8.59205 
0.5 1:-8.41013 2:-5.00906 3:0.468976 
0.5 1:9 2:8.73068 3:8.46177 
