svm_type epsilon_svr
kernel_type linear
nr_class 2
total_sv 12
rho 0.00654008
SV
0.004199570425486936 1:5.60954 2:6.24963 3:6.91456 
-0.5 1:1.69724 2:2.03104 3:1.64206 
0.5 1:-1.13355 2:-0.64235 3:0.149526 
0.5 1:0.00808007 2:-0.587219 3:-0.68582 
-0.5 1:0.249515 2:0.905772 3:1.01209 
-0.5 1:1.07 2:1.99849 3:2.19183 
-0.4746217504245157 1:0.525827 2:1.11997 3:2.14098 
-0.5 1:0.517329 2:0.478239 3:0.10529 
-0.02957782000097139 1:0.555211 2:-1.58649 3:-1.24074 
0.5 1:0.939431 2:1.61075 3:2.58668 
0.5 1:1.63844 2:2.32281 3:3.11485 
0.5 1:3.71573 2:3.28383 3:2.88317 
