svm_type epsilon_svr
kernel_type linear
nr_class 2
total_sv 5
rho -0.0229872
SV
-0.5 1:7.45825 2:9.61746 3:10.1858 
-0.4518089892246741 1:-9.5032 2:-6.8883 3:-0.242212 
0.4939405562010684 1:-7.85411 2:-1.77853 3:5.0345 
0.368290579439627 1:9 2:8.89458 3:8.78928 
0.08957785358397895 1:2.55848 2:-1.91518 3:-5.71704 
