svm_type epsilon_svr
kernel_type linear
nr_class 2
total_sv 10
rho -0.036284
SV
-0.5 1:1.92205 2:2.36532 3:1.8762 
0.5 1:-2.65424 2:-3.56947 3:-3.16928 
-0.5 1:0.270149 2:0.71097 3:1.60519 
0.5 1:-1.44917 2:-0.960853 3:-0.0233754 
-0.5 1:0.957329 2:1.99336 3:2.67239 
0.4458845316724254 1:7.51352 2:4.36627 3:-0.0820524 
-0.2461237221830307 1:0.303145 2:0.221945 3:0.037313 
-0.5 1:5.13042 2:2.42187 3:0.523182 
0.3002391905106065 1:4.85473 2:6.83572 3:9 
0.5 1:3.76867 2:4.50378 3:5.30862 
