svm_type epsilon_svr
kernel_type linear
nr_class 2
total_sv 9
rho -0.100565
SV
-0.06469154382495246 1:5.01461 2:6.92029 3:9 
-0.03426220027524003 1:4.70632 2:4.85297 3:5 
0.5 1:0.29769 2:0.199805 3:0.128913 
0.5 1:5.14418 2:5.85901 3:6.61049 
-0.5 1:0.0146338 2:0.0135481 3:0.00307448 
-0.5 1:5 2:4.92473 3:4.84958 
-0.1960703574821376 1:4.79922 2:4.86597 3:4.93293 
0.5 1:3.10865 2:2.64955 3:2.23809 
-0.204975898417671 1:3.15218e-05 2:4.20468e-05 3:6.31992e-05 
