svm_type epsilon_svr
kernel_type linear
nr_class 2
total_sv 14
rho -0.22404
SV
0.5 1:6.10414 2:5.31672 3:4.69698 
0.5 1:5.98909 2:6.59299 3:7.27568 
-0.5 1:4.1477 2:4.02051 3:3.89138 
-0.5 1:4.09683 2:3.93246 3:3.76584 
-0.5 1:4.20208 2:4.16487 3:4.12431 
-0.3199977700415987 1:4.0955 2:4.09307 3:4.09046 
0.5 1:5.57562 2:4.96078 3:4.45094 
0.5 1:4.86403 2:4.78349 3:4.76683 
0.5 1:6.74415 2:6.14977 3:5.59381 
-0.5 1:6.62509 2:6.54504 3:6.45272 
-0.3682507524407629 1:8.68086 2:8.71303 3:8.72381 
0.1882485224823618 1:5.54553 2:5.42989 3:5.33958 
-0.5 1:7.64303 2:7.48174 3:7.28515 
0.5 1:5.2331 2:5.78804 3:6.3835 
