svm_type epsilon_svr
kernel_type linear
nr_class 2
total_sv 7
rho -0.225744
SV
-0.5 1:3.41288 2:3.57751 3:3.74858 
0.5 1:4.25447 2:4.11616 3:4.07773 
0.5 1:4.73414 2:5.17619 3:5.68826 
-0.5 1:5.26121 2:5.26278 3:5.24871 
-0.198961836672543 1:4.03167 2:4.07795 3:4.12463 
0.07103431584903069 1:8 2:7.40143 3:6.81483 
0.1279275208235121 1:2.95299 2:2.71418 3:2.59511 
