svm_type epsilon_svr
kernel_type linear
nr_class 2
total_sv 3
rho -0.193725
SV
0.04734055392632312 1:8.95906 2:8.91818 3:8.87739 
-0.04994641297402709 1:2.60532 2:2.45975 3:2.33019 
0.002605859047703976 1:8.91586 2:8.94377 3:8.97184 
