svm_type epsilon_svr
kernel_type linear
nr_class 2
total_sv 3
rho -0.264819
SV
-0.003458742968758436 1:3.79764 2:4.00408 3:4.2123 
-0.0609750184914439 1:4.03807 2:4.00152 3:3.96635 
0.06443376146020233 1:8.92956 2:8.96473 3:9 
