svm_type epsilon_svr
kernel_type linear
nr_class 2
total_sv 3
rho -0.262702
SV
0.008719004782092947 1:8 2:6.99206 3:6.03674 
-0.06911069970475112 1:4.09628 2:4.10101 3:4.10424 
0.06039169492265822 1:8.95516 2:8.97756 3:9 
