svm_type epsilon_svr
kernel_type linear
nr_class 2
total_sv 18
rho -0.284195
SV
0.5 1:5.74069 2:6.00659 3:6.32886 
0.2157916787540761 1:6.1402 2:6.37133 3:6.64317 
-0.5 1:4.59665 2:4.52492 3:4.44663 
-0.03577583665960164 1:3.76993 2:3.84971 3:3.9315 
0.5 1:1.5323 2:1.39039 3:1.3782 
-0.5 1:4.0442 2:3.97992 3:3.91621 
-0.5 1:3.9428 2:3.94087 3:3.94376 
-0.5 1:3.9852 2:3.99365 3:4.00433 
-0.5 1:4.12712 2:4.13753 3:4.15013 
-0.5 1:4.1456 2:4.14558 3:4.14689 
-0.5 1:4.28453 2:4.27507 3:4.26708 
-0.5 1:4.47026 2:4.13049 3:3.7989 
0.5 1:4.34388 2:3.40945 3:2.83651 
0.5 1:7.66888 2:7.86154 3:8.06969 
0.5 1:1.99487 2:2.02917 3:2.1636 
0.3199841579055253 1:8.87568 2:8.93774 3:9 
0.5 1:2.05405 2:2.04515 3:2.19686 
0.5 1:3.18377 2:2.45334 3:2.0268 
