svm_type epsilon_svr
kernel_type linear
nr_class 2
total_sv 3
rho -0.16102
SV
-0.08993043523667126 1:2.58723 2:2.72313 3:2.86192 
-0.006750455808085953 1:9.84579 2:9.91219 3:9.91724 
0.09668089104475723 1:6.19125 2:6.59662 3:7.03493 
