svm_type epsilon_svr
kernel_type linear
nr_class 2
total_sv 6
rho -0.136251
SV
0.5 1:6.49271 2:5.75701 3:5.09914 
-0.5 1:2.79403 2:2.65799 3:2.52505 
-0.1899812000076208 1:2.57751 2:2.41347 3:2.25684 
-0.2216632048365513 1:9.89909 2:9.74827 3:9.5567 
-0.08835559515582757 1:6.42472 2:5.78587 3:5.14818 
0.5 1:3.53801 2:3.76621 3:4.06932 
