svm_type epsilon_svr
kernel_type linear
nr_class 2
total_sv 11
rho -0.148784
SV
0.1679387666280818 1:12.6375 2:12.66 3:11.8676 
-0.5 1:8.49927 2:8.54362 3:8.54546 
0.5 1:4.80235 2:3.91615 3:3.24259 
0.5 1:5.40569 2:4.35154 3:3.5404 
0.5 1:2.38414 2:2.4487 3:2.64274 
-0.06817552166840238 1:4.04017 2:3.90319 3:3.76541 
-0.4742173671710551 1:3.38782 2:4.4979 3:7 
-0.5 1:4.99641 2:3.60889 3:3.04286 
-0.5 1:1.91341 2:2.13175 3:2.37732 
0.5 1:4.19717 2:6.10697 3:9 
-0.1255458777886237 1:5.31675 2:4.02164 3:3.3111 
