svm_type epsilon_svr
kernel_type linear
nr_class 2
total_sv 6
rho -0.12618
SV
-0.2317005213755795 1:6.35295 2:5.64713 3:4.94202 
0.4830644309690063 1:1.76817 2:1.81011 3:1.9876 
-0.5 1:2.93037 2:2.4294 3:2.75473 
-0.5 1:4.28579 2:3.81021 3:3.3382 
0.2486360904065731 1:10.6574 2:10.6779 3:10.0311 
0.5 1:3.76711 2:2.65763 3:1.97673 
