svm_type epsilon_svr
kernel_type linear
nr_class 2
total_sv 24
rho -0.209876
SV
-0.3738640450348567 1:10.2136 2:10.1616 3:10.0575 
-0.3941448299429005 1:10.2136 2:10.1616 3:10.0575 
0.5 1:5.65238 2:5.64555 3:5.67253 
-0.5 1:2.74286 2:3.08571 3:3.42857 
0.5 1:5.88266 2:6.07473 3:6.2902 
-0.5 1:4.43556 2:4.44135 3:4.38663 
-0.5 1:3.91779 2:3.78166 3:3.6253 
-0.08573414958288857 1:3.62046 2:3.63253 3:3.64087 
0.5 1:1.5523 2:1.57953 3:1.65254 
-0.5 1:4.37793 2:4.50197 3:4.62049 
0.5 1:0.909091 2:1.21212 3:1.51515 
0.5 1:3.88735 2:3.71705 3:3.64924 
-0.5 1:1.37143 2:1.54286 3:1.71429 
-0.5 1:4.45054 2:4.35063 3:4.24224 
0.5 1:5.39378 2:5.88076 3:6.42526 
-0.1462569754393544 1:10.0211 2:10.1505 3:10.2194 
0.5 1:5.80864 2:5.56158 3:5.33822 
-0.5 1:3.86364 2:4.05545 3:4.20518 
-0.5 1:3.52258 2:3.35596 3:3.1882 
-0.5 1:3.51795 2:3.52238 3:3.52565 
0.5 1:5.53566 2:5.47892 3:5.48941 
0.5 1:6.74511 2:6.24946 3:5.79569 
0.5 1:4.57752 2:4.37788 3:4.22779 
0.5 1:6.23436 2:6.47147 3:6.7317 
