svm_type epsilon_svr
kernel_type linear
nr_class 2
total_sv 3
rho 0.0277414
SV
-0.02839358477094234 1:3.97987 2:5.876 3:9 
-0.0789881976719664 1:8.26747 2:7.56143 3:6.90648 
0.1073817824429087 1:10.5393 2:10.5636 3:9.98782 
