svm_type epsilon_svr
kernel_type linear
nr_class 2
total_sv 9
rho -0.1398
SV
0.5 1:4.16938 2:4.46597 3:4.91934 
0.5 1:5.01864 2:4.45845 3:3.9747 
-0.5 1:4.9661 2:5.05501 3:5.13198 
-0.06164408073235832 1:4.48302 2:4.4106 3:4.33307 
-0.5 1:4.37883 2:4.40836 3:4.43294 
0.5 1:4.82241 2:5.24774 3:5.72655 
-0.00502857108303578 1:3.33224 2:3.4096 3:3.48505 
-0.3945459596411111 1:3.54167 2:3.75 3:3.95833 
-0.03878138854349503 1:7.81605 2:7.92824 3:8.0276 
