svm_type epsilon_svr
kernel_type linear
nr_class 2
total_sv 9
rho -0.15822
SV
0.5 1:5.63401 2:5.28192 3:4.97367 
-0.5 1:4.45976 2:4.46779 3:4.47018 
-0.4168757312308862 1:3.76521 2:3.59781 3:3.43015 
-0.5 1:4.18179 2:4.0425 3:3.89896 
-0.008180068176745579 1:4.2825 2:4.30176 3:4.31401 
0.07389324281563744 1:5.60683 2:5.00338 3:4.50072 
-0.1488374434080062 1:7.51512 2:7.53163 3:7.53356 
0.5 1:5.03088 2:5.22834 3:5.4653 
0.5 1:3.32082 2:3.14986 3:3.09919 
