svm_type epsilon_svr
kernel_type linear
nr_class 2
total_sv 17
rho -0.21624
SV
0.5 1:9.20394 2:9.3212 3:9.38122 
0.5 1:6.73426 2:7.15149 3:7.59219 
-0.4994720616482637 1:5 2:4.669 3:4.35061 
-0.2718351668874964 1:11.2854 2:11.3773 3:11.2854 
-0.5 1:2.37209 2:2.23256 3:2.09302 
-0.5 1:5.05653 2:5.09826 3:5.12693 
-0.5 1:2.22857 2:2.4 3:2.57143 
-0.5 1:5.06881 2:5.03865 3:4.9891 
-0.5 1:4.38866 2:4.38546 3:4.37372 
0.5 1:4.8746 2:3.21011 3:2.2289 
0.5 1:6.54313 2:6.89095 3:7.25271 
0.5 1:1.42603 2:1.55364 3:1.70682 
-0.228692771464239 1:3.50029 2:3.57588 3:3.635 
0.5 1:5.21169 2:4.76776 3:4.39476 
-0.5 1:8.30706 2:8.47279 3:8.53274 
0.5 1:5.23171 2:5.77693 3:6.37472 
0.5 1:1.89482 2:1.70243 3:1.60603 
