svm_type epsilon_svr
kernel_type linear
nr_class 2
total_sv 5
rho -0.16501
SV
-0.06154426534197177 1:7.71669 2:8.25779 3:9 
0.348437432241266 1:3.68533 2:3.12116 3:2.65533 
0.5 1:3.7921 2:4.53965 3:5.46572 
-0.5 1:2.63161 2:2.89473 3:3.15783 
-0.286893166899294 1:3.77329 2:3.86824 3:3.98289 
