svm_type epsilon_svr
kernel_type linear
nr_class 2
total_sv 13
rho -0.173619
SV
0.5 1:3.42408 2:3.224 3:3.13824 
0.5 1:3.66512 2:3.39509 3:3.25574 
0.3999936627914836 1:8 2:6.73328 3:5.56758 
-0.5 1:6.7662 2:6.61433 3:6.44593 
-0.2131143865381014 1:6.36718 2:6.41169 3:6.43865 
-0.1868792762533823 1:3.67395 2:3.67574 3:3.6691 
0.5 1:5.81608 2:6.26164 3:6.79063 
-0.5 1:4.5722 2:4.46912 3:4.36015 
-0.5 1:4.7217 2:4.77415 3:4.81706 
-0.5 1:4.58718 2:4.46703 3:4.33703 
0.5 1:4.75424 2:4.77005 3:4.84234 
0.5 1:4.60338 2:4.80446 3:5.04333 
-0.5 1:3.15468 2:2.93711 3:2.73843 
