svm_type epsilon_svr
kernel_type linear
nr_class 2
total_sv 10
rho -0.157602
SV
-0.5 1:6.16128 2:6.07861 3:5.98535 
0.5 1:4.89848 2:4.97096 3:5.11916 
0.5 1:5.69762 2:6.16056 3:6.66894 
-0.1866902419069097 1:7.16103 2:7.26766 3:7.36005 
-0.3704561326860673 1:7.19877 2:7.17795 3:7.14342 
0.5 1:5.10642 2:5.34397 3:5.69935 
-0.5 1:4.69947 2:4.73914 3:4.76966 
0.1670154620499781 1:4.43011 2:4.22554 3:4.10598 
-0.5 1:4.59874 2:4.43973 3:4.27594 
0.3901309125429985 1:9 2:7.59664 3:6.30138 
