svm_type epsilon_svr
kernel_type linear
nr_class 2
total_sv 4
rho -0.0730629
SV
0.03860350179128958 1:12.2302 2:12.2638 3:11.6938 
-0.03860350179128959 1:3.19285 2:2.73026 3:2.9499 
-0.5 1:2.98135 2:2.48728 3:2.67543 
0.5 1:2.80455 2:2.64096 3:2.57983 
