svm_type epsilon_svr
kernel_type linear
nr_class 2
total_sv 3
rho -0.112457
SV
-0.04675340996946752 1:2.52245 2:2.2658 3:2.15995 
0.04067870917636895 1:9.65714 2:9.40419 3:9.11032 
0.006074700793098561 1:8.10018 2:8.64738 3:9.10415 
