svm_type epsilon_svr
kernel_type linear
nr_class 2
total_sv 3
rho -0.00164588
SV
-0.04039897908588115 1:4.74206 2:4.10882 3:3.88893 
-0.01814451501809944 1:6.54607 2:4.66892 3:3.63459 
0.05854349410398059 1:10.3234 2:10.3522 3:9.88055 
