svm_type epsilon_svr
kernel_type linear
nr_class 2
total_sv 14
rho -0.177383
SV
0.5 1:4.56537 2:4.35031 3:4.18272 
0.5 1:5.18244 2:5.47342 3:5.80637 
-0.5 1:6.66658 2:6.5652 3:6.44934 
-0.5 1:6.10042 2:6.04962 3:5.98849 
-0.5 1:5.97293 2:6.00925 3:6.03553 
0.5 1:4.00993 2:4.14029 3:4.31221 
0.5 1:5.75306 2:5.98191 3:6.23817 
-0.5 1:5.2374 2:5.20841 3:5.16485 
-0.5 1:4.5477 2:4.53098 3:4.50311 
0.4510331771483372 1:9 2:8.13573 3:7.30287 
0.4629121369029178 1:6.84852 2:7.1417 3:7.4691 
-0.5 1:7.86114 2:7.84458 3:7.80985 
-0.4139453140512547 1:3.00791 2:3.15819 3:3.3168 
0.5 1:5.61366 2:5.4723 3:5.35741 
