svm_type epsilon_svr
kernel_type linear
nr_class 2
total_sv 5
rho -0.183937
SV
-0.5 1:3.72093 2:3.53488 3:3.34884 
0.2931294014600753 1:6.24803 2:6.64649 3:7.07829 
0.06372942580277945 1:5.44676 2:5.08765 3:4.77817 
-0.3568588272628544 1:3.29878 2:3.1532 3:3.03655 
0.5 1:2.48648 2:1.79809 3:1.38001 
