svm_type epsilon_svr
kernel_type linear
nr_class 2
total_sv 5
rho -0.114715
SV
-0.0990796707802158 1:7.38338 2:7.40689 3:7.38338 
-0.3013969240405621 1:2.75002 2:2.50019 3:2.25129 
0.5 1:3.22045 2:2.63305 3:2.21534 
-0.5 1:5 2:3.09387 3:1.80343 
0.4004765948207779 1:7 2:5.20677 3:3.66934 
