svm_type epsilon_svr
kernel_type linear
nr_class 2
total_sv 9
rho -0.103173
SV
-0.4041566633660508 1:7.47359 2:6.16887 3:5.21198 
-0.5 1:5.42751 2:5.96178 3:6.60448 
-0.2601841635809864 1:7.82 2:8.40256 3:9 
-0.5 1:5.35381 2:5.53573 3:5.78716 
-0.3356591730529639 1:1 2:1 3:1 
0.5 1:5.27344 2:5.09023 3:5.01877 
0.5 1:4.29073 2:3.37048 3:3.07245 
0.5 1:5.66017 2:6.23618 3:7 
0.5 1:7.09588 2:7.24434 3:7.69125 
