svm_type epsilon_svr
kernel_type linear
nr_class 2
total_sv 4
rho -0.120059
SV
0.5 1:2.46796 2:1.91036 3:1.51962 
-0.4501468278760412 1:1.00001 2:1.00001 3:1 
-0.1776412547912473 1:8.0898 2:7.31018 3:6.73614 
0.127788082667289 1:8.29189 2:8.64148 3:9 
