svm_type epsilon_svr
kernel_type linear
nr_class 2
total_sv 3
rho -0.113757
SV
-0.02071085510779842 1:4.8082 2:5.73732 3:7.18487 
-0.04220673061259754 1:3.20283 2:2.71575 3:2.39799 
0.06291758572039596 1:8.95427 2:8.97712 3:9 
