svm_type epsilon_svr
kernel_type linear
nr_class 2
total_sv 15
rho -0.1015
SV
-0.5 1:4.60159 2:4.31612 3:4.15439 
-0.5 1:5.51313 2:5.93945 3:6.44213 
-0.5 1:6.01045 2:6.23279 3:6.51159 
-0.5 1:2 2:2 3:2 
0.5 1:2.90618 2:3.21126 3:3.58177 
0.5 1:4.72494 2:4.96901 3:5.26541 
0.5 1:5.09672 2:5.95148 3:6.93883 
-0.09937184705555223 1:5 2:5 3:5 
-0.01091877329841107 1:3 2:3 3:3 
-0.000451945141725619 1:4 2:4 3:4 
-0.1242571612152678 1:3 2:3 3:3 
-0.03549196809107449 1:9 2:8.32151 3:7.69733 
-0.2295083051979662 1:7.15302 2:7.39116 3:7.6651 
0.5 1:7 2:5.12642 3:4.22273 
0.5 1:5.02519 2:5.22404 3:5.87234 
