svm_type epsilon_svr
kernel_type linear
nr_class 2
total_sv 3
rho -0.11697
SV
-0.1078275381594099 1:1 2:1 3:1 
0.09625370056343117 1:3.58942 2:3.96007 3:4.37861 
0.01157383759597874 1:5.66382 2:4.47604 3:3.53628 
