svm_type epsilon_svr
kernel_type linear
nr_class 2
total_sv 3
rho -0.132443
SV
-0.0340943132328865 1:7.75575 2:7.83829 3:7.90198 
0.1835661476264993 1:5.73944 2:5.449 3:5.19375 
-0.1494718343936128 1:2.89362 2:2.7234 3:2.55319 
