svm_type epsilon_svr
kernel_type linear
nr_class 2
total_sv 4
rho -0.126074
SV
0.1569618858199307 1:4.02609 2:4.29986 3:4.809 
0.2886127947304897 1:7.3681 2:6.63502 3:5.99372 
0.0544253194495793 1:3.27774 2:3.29819 3:3.38621 
-0.5 1:5.37818 2:4.68026 3:4.72782 
