svm_type epsilon_svr
kernel_type linear
nr_class 2
total_sv 16
rho -0.112684
SV
-0.5 1:5.70428 2:5.19213 3:5.4327 
0.5 1:7.85364 2:7.30241 3:6.77667 
0.5 1:2.17695 2:4.0383 3:7 
0.5 1:2.3399 2:4.53429 3:8 
0.3103478702468279 1:6.30164 2:5.93606 3:5.60529 
-0.5 1:2.14286 2:2.57143 3:3 
-0.002463592037026749 1:11.4703 2:12.2213 3:12.7652 
0.5 1:8.33317 2:7.68452 3:7.07124 
-0.5 1:5.53846 2:6.23077 3:6.92308 
-0.5 1:3.2 2:3.6 3:4 
-0.0184719543278302 1:10.588 2:11.2815 3:11.785 
-0.5 1:6.1875 2:6.87498 3:7.56231 
0.5 1:0.851064 2:1.02128 3:1.19149 
-0.312081891911977 1:0.855013 2:1.40463 3:5 
0.5 1:1.5 2:1.2 3:0.9 
-0.4773304319699941 1:2.82353 2:3.05882 3:3.29412 
