svm_type epsilon_svr
kernel_type linear
nr_class 2
total_sv 3
rho -0.115176
SV
-0.006403666314162629 1:7.00032 2:6.91935 3:7.16293 
-0.03382905427477872 1:2.27231 2:2.06921 3:1.94008 
0.04023272058894138 1:11.3601 2:11.1407 3:10.6245 
