svm_type epsilon_svr
kernel_type linear
nr_class 2
total_sv 5
rho -0.153194
SV
0.5 1:3.58162 2:2.53578 3:1.91323 
-0.164215988423978 1:3.85733 2:3.43041 3:3.0129 
0.01895537842754227 1:9.81435 2:9.88096 3:9.81477 
-0.5 1:4.02164 2:3.3111 3:3.15257 
0.1452606099964358 1:7.07179 2:7.66637 3:8.21808 
