svm_type epsilon_svr
kernel_type linear
nr_class 2
total_sv 3
rho -0.0837288
SV
-0.02773471573895532 1:1.52646 2:1.50524 3:1.64558 
-0.03015981061784408 1:3.33702 2:3.92026 3:4.85194 
0.05789452635679941 1:8.05836 2:8.56034 3:8.91421 
