svm_type epsilon_svr
kernel_type linear
nr_class 2
total_sv 18
rho -0.201679
SV
0.5 1:2.8444 2:2.78748 3:2.79444 
-0.4723153466765152 1:3.70378 2:3.67055 3:3.64691 
-0.5 1:4.72577 2:4.59372 3:4.45885 
-0.5 1:4.67282 2:4.73518 3:4.78839 
0.4710044356886175 1:5.75364 2:6.03942 3:6.37088 
0.5 1:2.43085 2:2.06461 3:1.82646 
-0.5 1:4.20723 2:4.21157 3:4.21113 
0.5 1:5.73908 2:5.85837 3:6.03135 
0.5 1:3.81531 2:4.29875 3:4.88734 
-0.498689089012102 1:5.33246 2:4.95227 3:4.57195 
0.5 1:3.52914 2:3.08203 3:2.73724 
0.5 1:3.54964 2:3.39996 3:3.47594 
-0.5 1:3.4194 2:3.15751 3:2.89481 
-0.5 1:3.28505 2:3.34299 3:3.40769 
-0.5 1:3.69651 2:3.65339 3:3.61993 
-0.5 1:3.65713 2:3.64521 3:3.64141 
0.5 1:4.2043 2:3.91368 3:4.08706 
0.5 1:5.89449 2:4.86472 3:3.97394 
