svm_type epsilon_svr
kernel_type linear
nr_class 2
total_sv 5
rho -0.156535
SV
0.112483008461282 1:10.5345 2:11.4727 3:12.0516 
0.5 1:3.26953 2:3.08114 3:2.97301 
-0.1250021205848193 1:3.71062 2:3.65356 3:3.59178 
-0.04528778044768692 1:9.02963 2:9.0337 3:8.98726 
-0.4421931074287755 1:3.59937 2:3.71424 3:3.80138 
