svm_type epsilon_svr
kernel_type linear
nr_class 2
total_sv 16
rho -0.191558
SV
-0.5 1:6.29929 2:6.16241 3:6.01583 
-0.0054150318897472 1:9.59483 2:9.56489 3:9.50223 
0.5 1:3.50327 2:3.72673 3:4.02154 
0.5 1:5.61697 2:5.44871 3:5.33545 
-0.5 1:7.38933 2:7.49156 3:7.57731 
0.5 1:5.80411 2:6.0196 3:6.31055 
0.5 1:3.11406 2:2.86908 3:2.67498 
-0.5 1:4.63896 2:4.56277 3:4.47954 
-0.5 1:4.41025 2:4.4285 3:4.4416 
0.5 1:4.37595 2:4.62833 3:4.98406 
0.1221093137354067 1:4.95613 2:4.80473 3:4.71266 
-0.5 1:4.39046 2:4.24032 3:4.08441 
-0.5 1:4.2263 2:4.26994 3:4.30699 
-0.5 1:3.86063 2:3.97117 3:4.03999 
0.4935631384207613 1:7.42038 2:6.05833 3:5.06903 
0.3897425797335791 1:6.69589 2:7.33604 3:8.12703 
