svm_type epsilon_svr
kernel_type linear
nr_class 2
total_sv 10
rho -0.104181
SV
-0.5 1:7.26598 2:8.11095 3:9 
-0.5 1:1.00001 2:1.00001 3:1.00003 
0.5 1:2.06353 2:2.1653 3:2.38112 
0.2881039561843092 1:4.96109 2:4.37547 3:3.8597 
-0.2916763081449505 1:6.00501 2:6.32501 3:6.65893 
-0.4964276480393593 1:2 2:2 3:2 
0.5 1:2.42388 2:3.95338 3:6 
-0.5 1:5.18333 2:5.58948 3:6 
0.5 1:8.28098 2:7.96769 3:7.69795 
0.5 1:4.07037 2:4.17766 3:4.39448 
