svm_type epsilon_svr
kernel_type linear
nr_class 2
total_sv 4
rho -0.108189
SV
-0.241006187364018 1:4.28727 2:4.7466 3:5.65798 
-0.2940040445703495 1:1 2:1 3:1 
0.03501023193436736 1:7.72278 2:6.57521 3:5.64797 
0.5 1:2.70296 2:3.09814 3:3.63122 
