svm_type epsilon_svr
kernel_type linear
nr_class 2
total_sv 3
rho -0.121004
SV
-0.008872173022745207 1:3.07506 2:3.61257 3:5.24996 
0.04442375117740038 1:8.97611 2:8.98805 3:9 
-0.03555157815465518 1:1.13869 2:1.08583 3:1.05159 
