svm_type epsilon_svr
kernel_type linear
nr_class 2
total_sv 3
rho -0.124834
SV
0.03196095470529983 1:8.14051 2:8.18048 3:8.22826 
-0.0507443592236935 1:1 2:1.00001 3:1.00001 
0.01878340451839368 1:5.67635 2:6.07241 3:6.51177 
