svm_type epsilon_svr
kernel_type linear
nr_class 2
total_sv 3
rho -0.0165958
SV
0.05250852793772427 1:11.5365 2:11.5765 3:11.2135 
-0.02755813291444756 1:7 2:4.80065 3:3.35001 
-0.02495039502327672 1:3.59319 2:4.92979 3:7 
