svm_type epsilon_svr
kernel_type linear
nr_class 2
total_sv 3
rho -0.0703551
SV
-0.02858645093117624 1:4.50822 2:5.38482 3:6.96015 
-0.03774178838199026 1:4.42882 2:3.92009 3:3.59423 
0.06632823931316649 1:9.74624 2:9.78022 3:9.47635 
