svm_type epsilon_svr
kernel_type linear
nr_class 2
total_sv 9
rho -0.213635
SV
-0.5 1:8.62754 2:8.57974 3:8.4873 
0.02081326172309435 1:7.66129 2:7.41444 3:7.17852 
0.5 1:6.24803 2:6.64649 3:7.07829 
0.5 1:4.63506 2:4.38734 3:4.2427 
0.05303810273598949 1:10.4622 2:10.5376 3:10.4634 
0.08032708863050195 1:9 2:8.68634 3:8.39289 
-0.5 1:3.34149 2:3.53456 3:3.70794 
-0.1551188002532336 1:3.71823 2:3.80605 3:3.86107 
0.0009403471636482975 1:8.71777 2:8.97832 3:9.0206 
