svm_type epsilon_svr
kernel_type linear
nr_class 2
total_sv 39
rho -0.212257
SV
0.3678849098496791 1:9.65191 2:8.67956 3:7.73439 
0.5 1:4.61391 2:4.81609 3:5.06425 
0.5 1:1.14817 2:1.1846 3:1.31776 
-0.5 1:6.5603 2:6.48779 3:6.40097 
-0.2509720888140206 1:6.31247 2:6.28024 3:6.23551 
0.5 1:4.7302 2:4.92114 3:5.16744 
0.5 1:5.07075 2:5.33518 3:5.66358 
0.5 1:5.87669 2:6.23518 3:6.6363 
0.5 1:6.57838 2:6.27313 3:5.99902 
0.5 1:5.54299 2:5.42465 3:5.34466 
0.5 1:1.34536 2:1.21041 3:1.29999 
0.5 1:5.04542 2:4.99232 3:5.00227 
0.5 1:1.80758 2:1.64039 3:1.56299 
-0.5 1:2.14267 2:2.26461 3:2.44711 
-0.5 1:3.35101 2:3.53113 3:3.69828 
-0.5 1:3.87176 2:3.94513 3:3.9862 
-0.5 1:3.67256 2:3.66681 3:3.65528 
-0.1169128210356579 1:3.77933 2:3.82323 3:3.87494 
0.5 1:1.81022 2:1.20935 3:0.958329 
-0.5 1:4.70948 2:4.60802 3:4.49965 
-0.5 1:4.72704 2:4.67006 3:4.6049 
-0.5 1:4.56168 2:4.60476 3:4.64014 
0.5 1:4.60464 2:4.57537 3:4.60974 
-0.5 1:4.3652 2:4.22085 3:4.07031 
-0.5 1:4.02599 2:4.04845 3:4.07026 
0.5 1:4.44484 2:4.35802 3:4.34754 
0.5 1:1.69694 2:1.90974 3:2.20293 
-0.5 1:6.66018 2:6.6255 3:6.57746 
-0.5 1:6.25745 2:6.29516 3:6.32234 
-0.5 1:3.89796 2:4.10657 3:4.27331 
-0.5 1:4.19749 2:4.04947 3:3.85949 
-0.5 1:3.53162 2:3.54354 3:3.54653 
-0.5 1:3.51018 2:3.52106 3:3.52654 
0.5 1:4.86842 2:5.79583 3:7.23826 
0.5 1:6.79041 2:7.49721 3:8.23949 
0.5 1:7.24956 2:6.71118 3:6.20935 
-0.5 1:5.68258 2:6.07922 3:7.2556 
-0.5 1:2.82502 2:3.05922 3:3.29421 
0.5 1:3.0891 2:3.0836 3:3.15421 
