svm_type epsilon_svr
kernel_type linear
nr_class 2
total_sv 15
rho -0.200433
SV
0.5 1:4.17006 2:3.96785 3:3.82024 
-0.5 1:3.46768 2:3.25493 3:3.04813 
0.5 1:2.66397 2:2.48324 3:2.71654 
-0.4846732092297559 1:4.04651 2:3.90698 3:3.76744 
0.5 1:1.27051 2:1.23726 3:1.37689 
0.5 1:6.7583 2:7.26412 3:7.81589 
-0.5 1:4.65651 2:4.01681 3:3.81144 
-0.3447970889680454 1:4.95238 2:4.57143 3:4.19048 
-0.5 1:2.04302 2:2.21277 3:2.38298 
-0.5 1:2.36842 2:2.10528 3:1.84238 
0.04499523081241488 1:4.54745 2:2.46814 3:2.23304 
-0.1745439073761245 1:7 2:5.93024 3:5.01532 
-0.04098102523848919 1:6.1367 2:6.01024 3:6.45528 
0.5 1:7 2:4.76666 3:3.02649 
0.5 1:1.43063 2:1.49217 3:1.6678 
