svm_type epsilon_svr
kernel_type linear
nr_class 2
total_sv 14
rho -0.157064
SV
0.3532826391853053 1:10.3067 2:10.6175 3:10.6657 
0.5 1:4.98567 2:5.12451 3:5.29624 
0.5 1:4.62172 2:4.41079 3:4.24707 
-0.5 1:4.71732 2:4.49453 3:4.24936 
-0.5 1:2.09302 2:1.95349 3:1.81395 
-0.5 1:4.94475 2:4.88675 3:4.8184 
0.5 1:5.34309 2:3.27941 3:2.07526 
-0.5 1:4.39091 2:4.43952 3:4.47826 
0.5 1:1.75924 2:1.9304 3:2.20764 
-0.0517161435001211 1:3.5625 2:3.375 3:3.1875 
-0.5 1:7.28644 2:7.13654 3:6.97421 
-0.5 1:3.15789 2:2.89474 3:2.63158 
0.1984335043148173 1:2.70881 2:4.41407 3:9 
0.5 1:3.0325 2:1.92082 3:1.4184 
