svm_type epsilon_svr
kernel_type linear
nr_class 2
total_sv 5
rho -0.172872
SV
0.5 1:4.63788 2:3.87757 3:3.28773 
-0.08345172342842666 1:5 2:3.47739 3:2.30331 
-0.120908352014218 1:3.68706 2:3.58921 3:3.48987 
0.2043600754426451 1:2.29539 2:2.65063 3:3.12691 
-0.5 1:3.15198 2:2.91027 3:2.67981 
