svm_type epsilon_svr
kernel_type linear
nr_class 2
total_sv 3
rho -0.123142
SV
-0.04894902748903419 1:1.00156 2:1.00174 3:1.00212 
0.006012889162685988 1:7.81024 2:8.18729 3:8.58757 
0.0429361383263482 1:7.68227 2:7.58021 3:7.48892 
