svm_type epsilon_svr
kernel_type linear
nr_class 2
total_sv 3
rho -0.124435
SV
-0.06306238361884581 1:1.0018 2:1.00233 3:1.00312 
0.04402152880388643 1:4.96627 2:5.47341 3:6.04291 
0.01904085481495938 1:7.82831 2:7.71639 3:7.61445 
