svm_type epsilon_svr
kernel_type linear
nr_class 2
total_sv 12
rho -0.100541
SV
-0.1588163071644043 1:5.99254 2:7.35873 3:9 
-0.05924581883355826 1:1 2:1 3:1 
-0.5 1:5 2:5 3:5 
-0.4900177989710329 1:5.94092 2:5.97044 3:6 
-0.0157752989563793 1:2 2:2 3:2 
0.5 1:6.54432 2:6.95156 3:7.51642 
0.5 1:6.12 2:6.04401 3:6 
-0.5 1:6 2:6 3:6 
0.5 1:5.35685 2:5.11435 3:5.03638 
0.5 1:5.41205 2:5.62543 3:5.90017 
-0.2616195921373264 1:7 2:7 3:7 
-0.01452518393729921 1:5 2:5 3:5 
