svm_type epsilon_svr
kernel_type linear
nr_class 2
total_sv 3
rho -0.036636
SV
0.02217913179472026 1:9 2:8.878 3:8.75612 
-0.04113446455665476 1:0.83571 2:0.937326 3:0.885652 
0.0189553327619345 1:8.69917 2:8.84949 3:9 
