svm_type epsilon_svr
kernel_type linear
nr_class 2
total_sv 12
rho -0.0348431
SV
-0.5 1:0.757193 2:0.128921 3:0.0701984 
-0.5 1:9.12132 2:8.38936 3:4.88875 
0.371699628719218 1:6.05811 2:7.0082 3:7.99515 
0.5 1:2.90238 2:2.32155 3:1.826 
0.5 1:0.0363561 2:-0.0916385 3:-0.0105555 
-0.5 1:0.406053 2:1.06935 3:2.57413 
0.1786606830054654 1:7 2:5.92501 3:4.88496 
-0.5 1:7.4202 2:5.5572 3:2.48402 
0.5 1:7.80072 2:6.63468 3:5.53239 
-0.5 1:3.55172 2:5.13782 3:6.99376 
-0.05036031172468271 1:0.876079 2:1.30175 3:1.89066 
0.5 1:4.67607 2:3.97096 3:3.32053 
