svm_type epsilon_svr
kernel_type linear
nr_class 2
total_sv 3
rho -0.0325542
SV
0.04139435862233989 1:2.46346 2:2.97949 3:3.55728 
0.03653939398376557 1:6.54784 2:5.84286 3:5.16269 
-0.07793375260610547 1:0.0165825 2:0.0909013 3:0.133334 
