svm_type epsilon_svr
kernel_type linear
nr_class 2
total_sv 11
rho 0.00678644
SV
-0.5 1:1.92481 2:1.3636 3:0.352379 
0.5 1:9 2:8.88856 3:8.77724 
-0.1045699967644333 1:2.29407 2:1.46939 3:0.890167 
0.5 1:-4.02718 2:-3.59338 3:-2.37669 
-0.5 1:4.68207 2:5.03321 3:4.48292 
0.3789406735472097 1:9 2:8.86349 3:8.7272 
-0.4541020169040366 1:3.12607 2:4.72366 3:6.65788 
0.5 1:-0.993635 2:-1.36897 3:-1.06961 
-0.5 1:0.857398 2:1.34295 3:0.957999 
-0.3202686598787386 1:-0.00875752 2:0.965447 3:1.37465 
0.5 1:1.26292 2:1.70783 3:2.2593 
