svm_type epsilon_svr
kernel_type linear
nr_class 2
total_sv 3
rho -0.0618525
SV
0.02676465016072778 1:7.98179 2:6.98333 3:6.02381 
0.03302639551360741 1:3.81929 2:4.53325 3:5.31353 
-0.05979104567433519 1:0.12843 2:0.0822775 3:0.0225162 
