svm_type epsilon_svr
kernel_type linear
nr_class 2
total_sv 11
rho 0.0197879
SV
-0.2315801547578055 1:7.47373 2:6.01639 3:4.68769 
-0.02398884392812092 1:1.70904 2:0.857893 3:0.404332 
-0.5 1:3.44804 2:2.03319 3:-0.0832254 
-0.5 1:4.19408 2:6.63518 3:7.97875 
0.5 1:4.68304 2:5.43853 3:6.25481 
0.2555689986859262 1:4.96586 2:5.67691 3:6.42753 
-0.5 1:-2.84213 2:0.975032 3:4.38791 
0.5 1:0.588256 2:0.843806 3:1.18137 
0.5 1:5.32251 2:4.51907 3:3.78436 
-0.5 1:4.10391 2:2.3631 3:-0.206624 
0.5 1:0.553891 2:0.724858 3:0.934526 
