svm_type epsilon_svr
kernel_type linear
nr_class 2
total_sv 22
rho -0.0974786
SV
0.03849257656145932 1:-0.290383 2:-0.284073 3:-0.184014 
0.5 1:-1.16433 2:-2.5196 3:-2.86461 
-0.5 1:2.01124 2:1.84562 3:0.952577 
-0.5 1:1.26998 2:0.676059 3:-0.489702 
-0.5 1:0.61172 2:1.5928 3:1.60681 
0.5 1:0.494823 2:1.69249 3:3.2617 
-0.5 1:2.22503 2:3.13633 3:2.89188 
-0.007252358871218301 1:5 2:4.28672 3:3.39453 
0.5 1:-1.0341 2:-1.18357 3:-0.779773 
-0.5 1:7 2:6.37467 3:5.66458 
-0.5 1:0.941478 2:0.417589 3:-0.397818 
0.5 1:3.99736 2:4.88672 3:5.84898 
0.3479212537232265 1:1.91811 2:2.7646 3:0.549247 
0.5 1:1.04866 2:1.53068 3:2.05975 
-0.5 1:-0.236065 2:-0.255126 3:0.138568 
0.5 1:2.81888 2:2.20631 3:1.68811 
0.5 1:2.41613 2:1.89104 3:1.44688 
-0.5 1:0.23161 2:0.55411 3:1.20795 
-0.5 1:0.429549 2:0.680287 3:1.06785 
-0.3791614714134662 1:3.39935 2:3.81667 3:4.3392 
0.5 1:4.87293 2:4.15968 3:3.49258 
0.5 1:3.47998 2:3.06395 3:2.67798 
