svm_type epsilon_svr
kernel_type linear
nr_class 2
total_sv 31
rho -0.0873209
SV
-0.5 1:0.120334 2:0.334655 3:0.829466 
-0.5 1:0.359442 2:0.58103 3:0.93625 
0.5 1:0.604578 2:0.999534 3:1.49864 
0.5 1:2.97801 2:3.66414 3:4.42671 
0.5 1:7.90988 2:6.84477 3:5.82795 
-0.5 1:5.71432 2:3.71932 3:2.19618 
-0.5 1:1.26707 2:1.26916 3:1.3655 
-0.5 1:1.17815 2:1.04931 3:0.430083 
-0.5 1:0.124396 2:0.192513 3:0.170639 
-0.5 1:-2.02314 2:0.878053 3:3.58803 
0.5 1:-0.543028 2:-1.26378 3:-1.70932 
-0.5 1:0.97584 2:0.622446 3:-0.165477 
-0.5 1:7.06658 2:7.2286 3:6.09601 
0.5 1:-2.19986 2:-1.44403 3:-0.304683 
0.5 1:1.92399 2:2.96156 3:4.09722 
-0.5 1:0.612081 2:0.226097 3:-0.341878 
-0.5 1:1.40205 2:3.39353 3:3.72083 
-0.5 1:2.02491 2:1.55253 3:1.22384 
0.5 1:-2.23075 2:-0.458997 3:1.47114 
-0.4052212983476581 1:-3.08252 2:-0.0723807 3:2.94973 
0.5 1:-1.08598 2:-1.72595 3:-2.08043 
0.5 1:-1.02353 2:-1.08621 3:-0.969227 
0.5 1:-0.491501 2:-0.554389 3:-0.525575 
-0.5 1:1.33533 2:3.96756 3:4.95467 
0.5 1:6.32344 2:5.08687 3:3.96684 
0.5 1:5.00663 2:5.5265 3:6.06884 
0.03312075854794645 1:8.27465 2:7.91429 3:7.55668 
-0.5 1:2.76817 2:0.837811 3:-1.38643 
0.5 1:3.09368 2:3.91081 3:4.85434 
0.3721005397997115 1:0.198041 2:0.138551 3:0.090074 
0.5 1:1.30299 2:0.95697 3:0.688466 
