svm_type epsilon_svr
kernel_type linear
nr_class 2
total_sv 4
rho 0.0347415
SV
-0.04459747694517848 1:9 2:7.95553 3:6.93618 
-0.1695245540011778 1:-0.770041 2:-1.77427 3:-1.70125 
0.1585051213756485 1:3.37937 2:2.88672 3:1.33027 
0.0556169095707079 1:0.314931 2:1.11393 3:1.37322 
