svm_type epsilon_svr
kernel_type linear
nr_class 2
total_sv 7
rho -0.107052
SV
-0.03406109121736629 1:5.02759 2:5.37263 3:5.8035 
-0.5 1:1.00351 2:1.00236 3:1.00157 
-0.3850208118955279 1:1.00961 2:1.00732 3:1.00559 
0.5 1:2.67823 2:3.06935 3:3.60094 
0.3169851474891515 1:7 2:5.71068 3:4.62594 
0.5 1:2.78954 2:1.84912 3:1.34384 
-0.3979032443762579 1:9 2:7.17487 3:6.30701 
