svm_type epsilon_svr
kernel_type linear
nr_class 2
total_sv 4
rho -0.100812
SV
-0.09076740032182946 1:9 2:5.87467 3:4.46038 
-0.08725729559387531 1:6.37425 2:7.1679 3:8.05773 
0.5 1:3.99957 2:3.71405 3:3.49551 
-0.3219753040842949 1:1 2:1 3:1 
