svm_type epsilon_svr
kernel_type linear
nr_class 2
total_sv 3
rho -0.135041
SV
-0.08495712266102956 1:1.00996 2:1.01603 3:1.02524 
0.08074211311594945 1:4.9422 2:4.66444 3:4.45288 
0.004215009545080125 1:6.8244 2:7.86683 3:9 
