svm_type epsilon_svr
kernel_type linear
nr_class 2
total_sv 4
rho -0.0956193
SV
-0.08789737624435554 1:6.72132 2:7.80763 3:9 
-0.2850949550385398 1:5.67474 2:5.14134 3:4.72912 
0.5 1:6 2:6.09442 3:6.24372 
-0.1270076687171047 1:3.67412 2:4.34584 3:5.1462 
