svm_type epsilon_svr
kernel_type linear
nr_class 2
total_sv 6
rho -0.105749
SV
-0.03290865222026512 1:1.00441 2:1.00405 3:1.00405 
0.5 1:2.33508 2:2.586 3:2.96244 
0.5 1:4.26806 2:4.4688 3:4.76995 
0.01508421117838517 1:7.19438 2:6.77826 3:6.47425 
-0.4821755589581207 1:5.27853 2:5.78636 3:6.37162 
-0.5 1:1.0003 2:1.00074 3:1.00173 
