svm_type epsilon_svr
kernel_type linear
nr_class 2
total_sv 4
rho -0.10683
SV
0.5 1:1.89359 2:1.65507 3:1.46762 
-0.3191120048455361 1:1.01697 2:1.01459 3:1.01305 
0.1452618716646267 1:4.79131 2:5.48199 3:6.22671 
-0.3261498668190907 1:3.00006 2:3.00012 3:3.00021 
