svm_type epsilon_svr
kernel_type linear
nr_class 2
total_sv 3
rho -0.124368
SV
-0.01193473631194827 1:1 2:1 3:1 
0.04378737356233572 1:9 2:8.9292 3:8.85854 
-0.03185263725038745 1:1.99076 2:1.66742 3:1.43281 
