svm_type epsilon_svr
kernel_type linear
nr_class 2
total_sv 36
rho -0.0829092
SV
-0.5 1:3.10283 2:2.48679 3:2.00542 
-0.237335644559543 1:4.14163 2:3.8763 3:3.71476 
0.5 1:5.37096 2:4.7293 3:4.12913 
-0.5 1:2.74436 2:2.32012 3:1.0702 
0.5 1:-0.942613 2:-0.612102 3:-0.0636256 
0.5 1:-1.56925 2:-0.615483 3:0.580904 
-0.5 1:-0.164918 2:0.840985 3:1.13554 
0.5 1:0.892896 2:-0.796444 3:-1.43886 
-0.5 1:0.0468344 2:0.349646 3:0.384686 
-0.5 1:-0.343459 2:1.44373 3:2.70027 
-0.5 1:0.881321 2:1.19711 3:0.933298 
-0.5 1:0.318126 2:0.696849 3:2.1336 
-0.5 1:-0.0138243 2:0.686505 3:1.06592 
0.5 1:-1.65697 2:-1.36427 3:-0.774465 
0.5 1:3.20707 2:3.96162 3:4.87033 
0.5 1:0.484165 2:-0.50404 3:-0.681841 
0.5 1:-1.13537 2:-1.90157 3:-2.3272 
-0.5 1:-0.427166 2:-0.775883 3:0.0210843 
0.5 1:1.1175 2:2.19279 3:3.36486 
0.5 1:6.9951 2:5.11318 3:3.47268 
0.5 1:-0.0977335 2:0.0228771 3:0.274044 
-0.5 1:-0.00663933 2:-0.0259788 3:0.0111252 
0.5 1:0.144309 2:0.188232 3:0.199535 
0.5 1:-0.0738457 2:0.0933101 3:0.43193 
0.3431219301031743 1:0.120113 2:0.232752 3:0.381738 
0.5 1:-0.708103 2:0.400824 3:1.109 
-0.5 1:2.14172 2:1.27036 3:0.704483 
-0.5 1:0.489395 2:0.754411 3:1.158 
-0.5 1:3.73975 2:3.32242 3:3.02046 
-0.5 1:3.85023 2:3.57266 3:3.4051 
-0.5 1:0.241267 2:0.0828095 3:-0.143852 
-0.5 1:-0.148207 2:0.755769 3:1.02048 
0.5 1:0.149695 2:-0.0454027 3:-0.163203 
-0.5 1:1.74318 2:1.97048 3:1.87184 
0.5 1:4.3136 2:5.14274 3:6.04092 
0.3942137144563688 1:6.40957 2:7.25147 3:8.11914 
