svm_type epsilon_svr
kernel_type linear
nr_class 2
total_sv 35
rho -0.0995956
SV
0.5 1:-1.15476 2:0.564734 3:0.206857 
0.5 1:-1.44668 2:-1.32171 3:-0.648781 
-0.5 1:0.742342 2:0.627064 3:0.257814 
0.5 1:-0.0288321 2:-0.673952 3:-1.09666 
0.5 1:-2.10866 2:-2.8555 3:-2.54016 
0.5 1:2.37927 2:0.500666 3:-1.0399 
-0.5 1:-0.942889 2:0.153013 3:1.11951 
0.5 1:-1.01941 2:-1.57962 3:-0.921471 
0.5 1:-0.226696 2:-0.153365 3:0.494823 
0.5 1:-2.39032 2:-0.729022 3:1.20094 
0.5 1:0.0862706 2:-0.770995 3:-1.25471 
-0.5 1:0.2855 2:0.346033 3:0.186937 
-0.5 1:-0.203999 2:1.06884 3:4.81369 
0.5 1:-2.62073 2:-1.72639 3:-0.00747202 
-0.5 1:1.04218 2:0.415695 3:-0.404817 
-0.5 1:1.50892 2:0.0463617 3:-1.42629 
0.5 1:-1.59625 2:-1.80226 3:-1.61579 
-0.5 1:6.17536 2:7.35912 3:8.25969 
-0.5 1:1.57708 2:0.612777 3:-0.461266 
-0.4591736639189505 1:0.549247 2:-2.27441 3:-2.57912 
0.5 1:-0.210866 2:-0.607445 3:-0.515075 
-0.5 1:0.0132651 2:0.146711 3:0.20821 
0.5 1:5.99223 2:5.01674 3:4.10283 
0.004451717817480208 1:5.13649 2:4.30049 3:3.51703 
-0.5 1:0.253209 2:0.306487 3:0.452065 
-0.5 1:0.00227392 2:0.00817587 3:0.00716708 
0.5 1:1.86038 2:1.76595 3:1.78995 
-0.5 1:0.0656167 2:0.12199 3:0.158184 
-0.5 1:0.00222317 2:4.445e-05 3:-0.00216028 
-0.5 1:0.0561291 2:0.0844088 3:0.0776893 
0.5 1:1.53689 2:2.01003 3:2.57932 
-0.4364261351777473 1:-4.56383e-06 2:6.27595e-07 3:5.76773e-06 
0.3911480812792167 1:8.79216 2:8.89602 3:9 
0.5 1:5.92954 2:4.88449 3:3.89109 
-0.5 1:1.31674e-05 2:4.19906e-07 3:-1.23775e-05 
