svm_type epsilon_svr
kernel_type linear
nr_class 2
total_sv 5
rho 0.0870439
SV
-0.06435259157710742 1:9 2:4.56105 3:1.47801 
0.2839157880186113 1:2.44203 2:1.94147 3:1.51883 
0.08568179036934302 1:0.7397 2:0.876797 3:0.707084 
0.1947550131891523 1:-0.727224 2:-0.634554 3:-0.428237 
-0.5 1:-0.364586 2:-0.648751 3:0.104935 
