svm_type epsilon_svr
kernel_type linear
nr_class 2
total_sv 8
rho -0.0802106
SV
-0.1497631046466576 1:0.701984 2:1.63242 3:3.31756 
-0.4918622615732094 1:2.67439 2:1.90574 3:1.31876 
0.5 1:7.93042 2:6.88371 3:5.88059 
-0.5 1:6.53126 2:4.35002 3:2.64859 
0.5 1:0.00847676 2:-0.746391 3:-1.06445 
0.5 1:0.0494164 2:-0.321455 3:-0.559037 
0.1416253662198666 1:9 2:7.51743 3:6.07429 
-0.5 1:0.481546 2:0.55226 3:0.429258 
