svm_type epsilon_svr
kernel_type linear
nr_class 2
total_sv 28
rho -0.101225
SV
-0.5 1:3.70923 2:2.95349 3:2.3324 
-0.5 1:-0.00021089 2:-0.000306328 3:-0.000300025 
0.5 1:5.13871 2:4.46825 3:3.84726 
0.5 1:1.81026 2:1.51685 3:1.26052 
0.5 1:0.455887 2:0.674543 3:1.02324 
0.5 1:1.81841 2:2.42919 3:3.14545 
0.5 1:4.52925 2:3.50891 3:2.60905 
0.5 1:0.485724 2:0.743494 3:1.10018 
-0.5 1:0.00100729 2:4.65216e-05 3:-0.00086836 
-0.5 1:6.16003 2:5.29036 3:4.47795 
-0.04883724308469544 1:7.18972 2:6.39448 3:5.62876 
0.5 1:1.35327 2:0.917864 3:0.596735 
0.5 1:0.564524 2:0.973192 3:1.58194 
0.5 1:5.11016 2:4.23261 3:3.42955 
-0.4801690106886422 1:0.000512986 2:0.000262799 3:0.000130386 
0.02900625377333639 1:4.3803 2:3.62807 3:2.93963 
-0.5 1:0.000447742 2:0.000232223 3:0.000113534 
-0.5 1:-2.67744e-05 2:8.52921e-05 3:0.000288578 
-0.5 1:-0.328982 2:-0.388198 3:0.381332 
-0.5 1:6.93932 2:5.97106 3:5.07401 
-0.5 1:9 2:8.01597 3:7.05465 
-0.5 1:0.00155434 2:0.000937959 3:-0.000443155 
0.5 1:2.36443 2:1.77847 3:1.30452 
0.5 1:3.03138 2:1.87795 3:1.07654 
0.5 1:0.54195 2:0.37912 3:0.260893 
0.5 1:-0.33414 2:-0.625089 3:-0.811113 
-0.5 1:0.149203 2:0.0881746 3:0.0160069 
-0.5 1:0.018388 2:0.0138308 3:0.0035389 
