svm_type epsilon_svr
kernel_type linear
nr_class 2
total_sv 3
rho -0.0694373
SV
-0.01679346838909452 1:1.26194 2:2.13223 3:3.36731 
-0.02722189489953191 1:1.38 2:0.869622 3:0.530043 
0.04401536328862642 1:8.72306 2:8.86145 3:9 
