svm_type epsilon_svr
kernel_type linear
nr_class 2
total_sv 4
rho -0.0921724
SV
0.5 1:3.35536 2:4.26229 3:5.27191 
-0.08521625748702756 1:2.01868 2:3.56196 3:5.62281 
-0.1331709996252866 1:0.0359272 2:-0.032416 3:0.00979673 
-0.2816127428876858 1:4.22109 2:5.28042 3:6.45214 
