svm_type epsilon_svr
kernel_type linear
nr_class 2
total_sv 8
rho 0.0112253
SV
-0.5 1:0.175783 2:-0.232653 3:0.221652 
0.227016016532832 1:6.23762 2:6.90526 3:7.59238 
-0.5 1:0.63808 2:0.800724 3:0.821875 
0.1825936318395457 1:0.792143 2:0.715473 3:-0.153594 
0.5 1:-2.46581 2:-2.33765 3:-1.82281 
-0.5 1:0.410957 2:0.597074 3:0.442946 
0.4810565692963861 1:-0.0809334 2:-0.223997 3:-0.274182 
0.109333782331236 1:5.88006 2:4.77063 3:3.6883 
