svm_type epsilon_svr
kernel_type linear
nr_class 2
total_sv 7
rho -0.0327938
SV
-0.2221870713671316 1:5.53422 2:4.05736 3:2.83679 
0.5 1:-0.595391 2:-0.497844 3:-0.235999 
0.4889011681580425 1:2.81151 2:3.91212 3:5.17761 
-0.5 1:0.255408 2:0.267324 3:0.221563 
-0.5 1:1.06163 2:2.2446 3:4.09397 
-0.2667140967909114 1:0.294417 2:0.210886 3:0.0924706 
0.5 1:2.42304 2:1.858 3:1.39507 
