svm_type epsilon_svr
kernel_type linear
nr_class 2
total_sv 5
rho -0.363416
SV
-0.0001190039679085062 1:90 2:50 3:50 
-0.0006926633700572829 1:50 2:50 3:70 
-0.001808233760453282 1:62.8 2:50 3:50 
-0.00677181661115992 1:54.096 2:50 3:50 
0.009391717709578992 1:90 2:87.761172 3:85.553103 
