svm_type epsilon_svr
kernel_type linear
nr_class 2
total_sv 21
rho -0.23069
SV
0.1009947682050163 1:9.02886 2:9.02365 3:9.01675 
0.5 1:5.32625 2:3.88101 3:2.82391 
0.5 1:5.68342 2:5.16163 3:4.70641 
0.5 1:1.26126 2:1.35506 3:1.74119 
0.5 1:2.33752 2:3.05256 3:3.96836 
0.5 1:2.4238 2:2.39629 3:2.61267 
0.5 1:2.44981 2:2.46184 3:2.75568 
-0.5 1:3.15789 2:2.94737 3:2.73684 
-0.5 1:3.15789 2:2.94737 3:2.73685 
-0.5 1:3.42857 2:3.77143 3:4.11429 
0.5 1:2.0521 2:1.72374 3:1.63149 
0.5 1:4.8919 2:5.06096 3:5.26718 
-0.5 1:2.7813 2:2.81979 3:2.90911 
-0.5 1:2.7907 2:2.65116 3:2.51163 
0.5 1:1.54974 2:1.7234 3:1.91489 
-0.1689807940239604 1:3.84431 2:3.75549 3:3.639 
-0.5 1:3.59583 2:3.65972 3:3.701 
-0.5 1:3.59145 2:3.60524 3:3.60309 
-0.5 1:3.49027 2:3.50468 3:3.51519 
0.06798602581894439 1:9 2:8.66494 3:8.34596 
-0.5 1:2.82353 2:2.58824 3:2.35294 
