svm_type epsilon_svr
kernel_type linear
nr_class 2
total_sv 6
rho -0.214881
SV
-0.08553740043569469 1:3.27519 2:3.29744 3:3.3426 
0.02179188944578431 1:10.0948 2:9.61875 3:9.03433 
0.5 1:2.72321 2:2.40055 3:2.19179 
-0.4362544890100897 1:3.38588 2:2.17596 3:1.52298 
0.5 1:3.13574 2:2.73747 3:2.50319 
-0.5 1:2.16763 2:2.37202 3:2.59484 
