svm_type epsilon_svr
kernel_type linear
nr_class 2
total_sv 3
rho -0.106704
SV
-0.0186672615032648 1:9 2:6.64342 3:5.13102 
-0.03335621582533857 1:2.3484 2:2.38193 3:2.56889 
0.05202347732860337 1:10.3162 2:10.4046 3:10.3162 
