svm_type epsilon_svr
kernel_type linear
nr_class 2
total_sv 11
rho -0.104771
SV
0.4653605715702273 1:1.41026 2:1.71256 3:3.55602 
0.5 1:1.41026 2:1.80335 3:3.97708 
-0.03573458472409857 1:1.57143 2:1.71429 3:1.85714 
0.5 1:3.7511 2:1.22285 3:0.942857 
-0.5 1:5.46909 2:5.3744 3:5.41051 
-0.5 1:1.02128 2:1.19149 3:1.3617 
0.5 1:10.1208 2:10.1991 3:10.1208 
-0.3532413001071799 1:6.14108 2:6.74026 3:7.43533 
-0.5 1:3.82429 2:3.6654 3:3.67488 
0.4236153132610501 1:8.43716 2:8.52102 3:8.4372 
-0.5 1:7.67936 2:7.81323 3:8.10131 
