svm_type epsilon_svr
kernel_type linear
nr_class 2
total_sv 5
rho -0.142224
SV
0.5 1:2.22306 2:1.42572 3:1.06978 
-0.5 1:3.85876 2:3.6701 3:3.46603 
0.2425460407917182 1:6.92801 2:7.45563 3:8 
-0.4286710126856737 1:3.6785 2:3.58622 3:3.48012 
0.1861249718939553 1:6.15678 2:5.89588 3:5.66403 
