svm_type epsilon_svr
kernel_type linear
nr_class 2
total_sv 11
rho -0.176181
SV
0.5 1:6.29721 2:6.57489 3:6.87536 
-0.2377729191034034 1:5.90264 2:5.78853 3:5.66651 
-0.5 1:6.28722 2:6.21105 3:6.11998 
0.5 1:5.91188 2:5.69472 3:5.52863 
0.5 1:5.03924 2:5.20999 3:5.41538 
-0.03595247114774522 1:6.92667 2:6.95644 3:6.97452 
-0.5 1:3.68539 2:3.73236 3:3.76144 
-0.2218759517240222 1:4.14624 2:4.21066 3:4.27246 
0.5 1:2.55187 2:1.99461 3:1.67419 
-0.5 1:3.8788 2:3.8255 3:3.73998 
-0.004398658024829413 1:7.96777 2:7.96117 3:7.94127 
