svm_type epsilon_svr
kernel_type linear
nr_class 2
total_sv 9
rho -0.169721
SV
0.5 1:6.55622 2:5.47064 3:4.5314 
0.5 1:2.65533 2:2.30121 3:2.06063 
0.5 1:2.05629 2:2.15665 3:2.43163 
-0.4112085981206126 1:3.6279 2:3.48837 3:3.34884 
0.1612445341971083 1:4.45222 2:6.23378 3:9 
-0.5 1:2.74287 2:2.5715 3:2.40032 
-0.5 1:2.10526 2:2.36842 3:2.63158 
-0.09302284113580282 1:10.8329 2:10.8367 3:10.6056 
-0.1570130949406936 1:6.41667 2:5.5 3:4.58345 
