svm_type epsilon_svr
kernel_type linear
nr_class 2
total_sv 21
rho -0.185505
SV
0.5 1:1.68058 2:1.51776 3:1.40355 
-0.5 1:3.7931 2:4.13793 3:4.48276 
0.5 1:0.421053 2:0.631579 3:0.842105 
-0.2216440617067939 1:4.11429 2:4.45714 3:4.8 
0.5 1:0.8 2:0.6 3:4.04231 
-0.5 1:2.36842 2:2.63158 3:2.89474 
-0.5 1:2.71429 2:2.85714 3:3 
-0.5 1:1.71429 2:1.88571 3:2.05714 
0.5 1:2.32165 2:2.52237 3:3.33777 
0.5 1:5.3539 2:4.6618 3:4.10753 
0.5 1:3.92212 2:2.49939 3:1.86219 
0.5 1:5.49944 2:6.22582 3:7.0749 
0.3304119501307626 1:8.08687 2:8.10715 3:7.89952 
-0.5 1:4.93793 2:4.72559 3:4.81007 
-0.5 1:2.78253 2:2.87661 3:3.00638 
-0.02054499434369843 1:3.46503 2:3.51704 3:3.55922 
-0.5 1:4.43016 2:3.71701 3:3.46087 
-0.5 1:2.70833 2:2.91667 3:3.125 
0.5 1:4.07474 2:3.8965 3:3.77675 
-0.5 1:6.503 2:5.80416 3:5.46221 
0.411777105919729 1:7 2:6.10301 3:5.25191 
