svm_type epsilon_svr
kernel_type linear
nr_class 2
total_sv 7
rho -0.218528
SV
-0.5 1:2.79286 2:2.97754 3:3.16306 
-0.2473948653224453 1:3.61055 2:3.62766 3:3.63965 
0.5 1:1.63383 2:1.52578 3:1.50514 
0.5 1:3.1864 2:3.25335 3:3.53623 
0.05197994198013027 1:7.8752 2:7.5298 3:7.20864 
-0.5 1:3.24469 2:3.32609 3:3.41251 
0.1954149233423152 1:7.34965 2:7.86872 3:8.42482 
