svm_type epsilon_svr
kernel_type linear
nr_class 2
total_sv 23
rho -0.215325
SV
0.5 1:4.80878 2:4.94313 3:5.11314 
0.5 1:4.73747 2:4.80952 3:4.91352 
-0.5 1:7.18524 2:7.31491 3:7.41482 
0.5 1:5.56184 2:5.35157 3:5.18705 
0.5 1:5.24812 2:4.99956 3:4.82719 
0.5 1:5.93187 2:6.36961 3:6.84581 
-0.5 1:3.2707 2:3.09209 3:2.93903 
-0.5 1:3.35076 2:3.49124 3:3.62475 
-0.5 1:3.65284 2:3.59214 3:3.53385 
-0.5 1:4.32537 2:4.33828 3:4.34348 
-0.3055713918126058 1:4.29969 2:4.2978 3:4.28919 
0.5 1:9 2:7.96651 3:6.97987 
-0.08809779253842707 1:8.13938 2:8.22439 3:8.28332 
0.5 1:3.80599 2:3.90458 3:4.05074 
0.5 1:2.38537 2:2.67968 3:3.10554 
0.5 1:3.88917 2:2.97562 3:2.55891 
-0.5 1:4.53162 2:4.38666 3:4.17895 
-0.5 1:3.46578 2:3.51847 3:3.56113 
-0.5 1:3.50212 2:3.49827 3:3.49931 
0.3936691843510323 1:3.45177 2:4.8098 3:7 
-0.5 1:9.14949 2:9.13307 3:9.08568 
-0.5 1:3.06319 2:3.22038 3:4.03498 
0.5 1:2.36154 2:2.10279 3:2.02342 
