svm_type epsilon_svr
kernel_type linear
nr_class 2
total_sv 7
rho -0.209578
SV
0.5 1:1.76849 2:1.53422 3:1.52215 
0.5 1:1.30689 2:1.27168 3:1.36931 
-0.1614130214545784 1:3.27463 2:3.43328 3:3.59349 
-0.5 1:2.3689 2:2.63166 3:2.8947 
-0.1498777189675806 1:3.78056 2:3.7984 3:3.78503 
-0.5 1:3.57299 2:3.55298 3:3.54072 
0.3112907404221592 1:9.30568 2:9.91375 3:10.4349 
