svm_type epsilon_svr
kernel_type linear
nr_class 2
total_sv 30
rho -0.23605
SV
-0.5 1:8.37833 2:8.38023 3:8.34923 
-0.5 1:6.96323 2:7.09098 3:7.19639 
0.5 1:2.62318 2:2.76678 3:2.97422 
0.5 1:2.66709 2:2.78985 3:2.98558 
-0.5 1:3.57916 2:3.36911 3:3.15998 
-0.5 1:7.24506 2:7.14719 3:7.0177 
0.5 1:4.68729 2:4.23132 3:3.84564 
0.5 1:5.87586 2:5.57945 3:5.34324 
0.5 1:3.62252 2:3.5108 3:3.45489 
0.5 1:5.14353 2:4.88601 3:4.67128 
0.5 1:6.35324 2:5.99286 3:5.66598 
-0.5 1:3.61065 2:3.62273 3:3.63439 
-0.5 1:4.3292 2:4.38301 3:4.43188 
0.5 1:3.74016 2:3.66933 3:3.68726 
0.5 1:5.93631 2:5.52461 3:5.17456 
-0.5 1:4.01333 2:4.14413 3:4.26879 
-0.5 1:4.1116 2:4.11142 3:4.10961 
-0.5 1:4.10178 2:4.10502 3:4.10669 
0.5 1:7.14366 2:7.57006 3:8.0283 
0.5 1:6.69629 2:6.7859 3:6.90472 
0.5 1:3.47117 2:3.41509 3:3.40182 
0.04902244392130471 1:6.71681 2:7.13382 3:7.56366 
0.5 1:4.91416 2:5.11059 3:5.33832 
0.5 1:3.8851 2:4.06334 3:4.2776 
-0.5 1:3.64106 2:3.40182 3:3.15295 
-0.5 1:3.26978 2:3.18623 3:3.13234 
-0.5 1:3.48625 2:3.49563 3:3.50484 
-0.2309008546075936 1:3.69146 2:3.74423 3:3.80708 
-0.5 1:3.82173 2:3.74783 3:3.6866 
-0.3181215893137098 1:6.8441 2:6.76598 3:6.65968 
