svm_type epsilon_svr
kernel_type linear
nr_class 2
total_sv 6
rho -0.213643
SV
-0.05751684676268293 1:5.30658 2:5.50942 3:6.21021 
0.5 1:3.78242 2:3.37787 3:3.07277 
0.5 1:4.29298 2:4.74802 3:5.29193 
-0.1468464677196606 1:4.90697 2:4.8637 3:4.80414 
-0.2956366855176561 1:3.00435 2:3.02364 3:3.10935 
-0.5 1:3.62196 2:3.65881 3:3.70377 
