svm_type epsilon_svr
kernel_type linear
nr_class 2
total_sv 3
rho -0.207813
SV
0.000647496574433232 1:9.69098 2:8.66993 3:7.6621 
0.05460327791635569 1:9.01693 2:9.01668 3:9.01516 
-0.05525077449078893 1:3.34325 2:3.16396 3:3.04737 
