svm_type epsilon_svr
kernel_type linear
nr_class 2
total_sv 12
rho -0.209458
SV
0.0288877570723157 1:4.16887 2:5.01428 3:5.97579 
0.5 1:3.31695 2:3.37528 3:3.62178 
0.5 1:2.48838 2:2.43765 3:2.46772 
-0.5 1:1.6183 2:1.8526 3:2.10771 
-0.03712438084793589 1:3.67783 2:3.66973 3:3.66818 
0.5 1:2.13829 2:1.87726 3:1.7207 
0.5 1:3.90305 2:4.62977 3:5.59349 
0.06682246532394449 1:11.7205 2:11.8869 3:11.7205 
-0.05858584154832428 1:4.10506 2:4.17959 3:4.24883 
-0.5 1:2.4715 2:2.67772 3:2.90549 
-0.5 1:3.40775 2:3.46654 3:3.51992 
-0.5 1:4.7933 2:4.80444 3:5.31393 
