svm_type epsilon_svr
kernel_type linear
nr_class 2
total_sv 7
rho -0.157831
SV
-0.490177171255266 1:7.50565 2:7.42455 3:7.32761 
0.5 1:4.57794 2:4.28518 3:4.087 
-0.2489540152647991 1:4.07365 2:3.9174 3:3.75833 
-0.2608688134799344 1:4.46944 2:4.48595 3:4.49196 
-0.5 1:3.87892 2:3.78429 3:3.65986 
0.5 1:6.14383 2:5.88216 3:5.6498 
0.5 1:5.63923 2:5.77279 3:5.93178 
