svm_type epsilon_svr
kernel_type linear
nr_class 2
total_sv 34
rho -0.233482
SV
0.5 1:5.89481 2:5.61222 3:5.36171 
-0.5 1:11.6154 2:11.7451 3:11.6154 
0.2221594978168908 1:6.59612 2:7.28226 3:8 
-0.5 1:8.14157 2:8.28742 3:8.40098 
0.5 1:3.76046 2:3.97893 3:4.2714 
0.5 1:2.44961 2:1.76006 3:1.47799 
-0.5 1:3.36215 2:3.3883 3:3.42991 
-0.1058827771046469 1:3.68481 2:3.70612 3:3.73301 
0.5 1:4.44395 2:3.98476 3:3.57216 
-0.5 1:2.12121 2:2.42424 3:2.72727 
0.5 1:4.0663 2:4.78441 3:5.71527 
0.5 1:9.94118 2:10.7059 3:11.4706 
-0.5 1:5.80717 2:5.87148 3:5.80717 
-0.5 1:2.91429 2:3.08571 3:3.25714 
-0.5 1:5.06716 2:5.19148 3:5.29502 
0.5 1:5.02404 2:4.52493 3:4.14184 
-0.5 1:10.8598 2:10.8626 3:10.6743 
-0.5 1:8.53207 2:8.57741 3:8.57914 
-0.5 1:2.21277 2:2.38298 3:2.55319 
0.5 1:3.10887 2:3.54215 3:4.07968 
-0.5 1:4.73416 2:4.47368 3:4.21053 
-0.5 1:4.36426 2:4.49949 3:4.54794 
-0.5 1:3.40861 2:3.46163 3:3.51032 
-0.5 1:3.54801 2:3.54785 3:3.55388 
0.5 1:3.85396 2:3.99135 3:4.87102 
0.5 1:5.83913 2:4.62472 3:3.75926 
-0.1025318077289461 1:1.89102 2:1.85716 3:7 
-0.01374491298329662 1:2.08333 2:2.29167 3:2.5 
0.5 1:1.92501 2:2.10171 3:2.29528 
0.5 1:6.94539 2:6.00812 3:5.17146 
0.5 1:7.6591 2:8.32256 3:9 
0.5 1:10.9494 2:10.9536 3:10.0827 
-0.5 1:3.9 2:3.6 3:3.3 
0.5 1:3.84905 2:4.72588 3:5.80579 
