svm_type epsilon_svr
kernel_type linear
nr_class 2
total_sv 4
rho -0.118948
SV
-0.3893980612371909 1:3.82931 2:3.62024 3:3.39114 
0.08010017995867032 1:6.62129 2:7.7291 3:9 
-0.1907021187214815 1:9.52487 2:9.53074 3:9.48337 
0.5 1:6.28834 2:5.83934 3:5.43598 
