svm_type epsilon_svr
kernel_type linear
nr_class 2
total_sv 6
rho -0.166279
SV
0.5 1:3.78544 2:4.35541 3:5.06875 
0.454907060441801 1:8 2:6.86169 3:5.79323 
-0.5 1:8.7443 2:8.70787 3:8.57164 
0.05968584965194491 1:9.42857 2:9.85714 3:10.2857 
-0.5 1:2.625 2:2.4375 3:2.25 
-0.0145929100937458 1:3.05882 2:2.82353 3:2.58824 
