svm_type epsilon_svr
kernel_type linear
nr_class 2
total_sv 3
rho -0.174196
SV
0.05771707249653326 1:9.49128 2:9.47647 3:9.39596 
-0.04608364581886657 1:3.09885 2:3.04012 3:3.03397 
-0.01163342667766669 1:9 2:6.67649 3:5.05491 
