svm_type epsilon_svr
kernel_type linear
nr_class 2
total_sv 7
rho -0.192696
SV
0.5 1:9.8146 2:10.0525 3:10.1106 
0.5 1:2.08861 2:0.372093 3:0.55814 
-0.5 1:3.97431 2:3.91556 3:3.82903 
-0.3510979683489399 1:3.59141 2:3.61414 3:3.63189 
-0.2589355387151086 1:5.14104 2:5.22962 3:5.30374 
-0.389966492935952 1:6.23255 2:5.56365 3:5.07138 
0.5 1:3.09752 2:3.16181 3:3.29466 
