svm_type epsilon_svr
kernel_type linear
nr_class 2
total_sv 6
rho -0.158337
SV
-0.4797518270221098 1:9 2:6.82559 3:5.37369 
0.1627310218277113 1:9.09428 2:9.2981 3:9.43869 
0.5 1:3.91904 2:3.00176 3:2.50337 
0.5 1:4.33965 2:3.45484 3:2.77585 
-0.1829791948056015 1:2.3454 2:2.80426 3:3.44563 
-0.5 1:1.14398 2:1.14174 3:1.33363 
