svm_type epsilon_svr
kernel_type linear
nr_class 2
total_sv 8
rho -0.197443
SV
0.1752691042615123 1:9.2569 2:9.38766 3:9.44945 
0.5 1:3.25984 2:2.58396 3:2.22417 
0.5 1:3.60147 2:2.78768 3:2.33514 
-0.4435047083255238 1:2.89474 2:3.15789 3:3.42104 
-0.5 1:2.42857 2:2.57143 3:2.71429 
0.5 1:2.03215 2:2.15702 3:2.51333 
-0.2317643959359883 1:9 2:4.47511 3:2.47146 
-0.5 1:2.36842 2:2.63158 3:2.89474 
