svm_type epsilon_svr
kernel_type linear
nr_class 2
total_sv 27
rho -0.0974912
SV
-0.5 1:0.00204082 2:0.00685871 3:0.0225333 
-0.2543741256622454 1:0.0080418 2:0.00780385 3:0.00508169 
0.5 1:9 2:8.71982 3:8.44008 
-0.5 1:1.11146 2:3.93131 3:4.84641 
0.3167017942264336 1:-5.0417 2:-1.98401 3:2.69018 
-0.5 1:-5.24458 2:-0.025902 3:5.20489 
-0.5 1:5.16548 2:2.30892 3:-1.05045 
-0.5 1:7 2:6.66299 3:6.23053 
0.5 1:-4.8643 2:-1.64958 3:1.86056 
0.1254019698063434 1:9 2:8.68894 3:8.37851 
0.5 1:-5.91902 2:-6.33102 3:-1.64702 
0.5 1:9 2:8.71542 3:8.43186 
0.4427416992111879 1:8.4594 2:8.72922 3:9 
-0.5 1:-2.85995 2:0.835939 3:4.12188 
0.5 1:-1.617 2:4.49534 3:3.33492 
-0.5 1:0.0955387 2:0.204346 3:0.410048 
-0.5 1:4.85697 2:6.12393 3:3.42136 
-0.5 1:5.56362 2:0.482648 3:7 
-0.5 1:1.1949 2:1.53715 3:2.02017 
-0.5 1:0.176521 2:0.0842315 3:0.0378089 
0.5 1:0.0963496 2:-5.37912 3:-6.42405 
0.3695286624182796 1:0.817174 2:5.97876 3:6.08322 
0.5 1:-4.20605 2:-3.34509 3:-1.32989 
0.5 1:8 2:8.14996 3:8.33082 
-0.5 1:3.78271 2:6.7962 3:6.99171 
0.5 1:9 2:8.231 3:7.47076 
0.5 1:-4.03504 2:-5.30299 3:-4.7108 
