svm_type epsilon_svr
kernel_type linear
nr_class 2
total_sv 4
rho -0.0793732
SV
-0.08531951230650325 1:1.61887 2:2.81468 3:4.49817 
-0.4350371246246731 1:0.0141116 2:0.0554069 3:0.0875803 
0.5 1:0.756552 2:1.01975 3:1.35007 
0.02035663693117637 1:4.83968 2:4.17565 3:3.55616 
