svm_type epsilon_svr
kernel_type linear
nr_class 2
total_sv 10
rho -0.0758841
SV
-0.1863237397135808 1:7.59086 2:8.04431 3:8.51724 
0.5 1:3.37664 2:4.38671 3:5.47605 
0.3013979320452934 1:2.25613 2:1.14869 3:0.525127 
-0.5 1:2.31347 2:1.1997 3:0.563195 
-0.1827201855320711 1:5.80748 2:6.36418 3:6.97459 
0.5 1:2.89944 2:2.03823 3:1.37429 
0.5 1:1.0065 2:0.546519 3:0.320035 
-0.5 1:0.356836 2:0.513014 3:0.368965 
-0.5 1:0.222753 2:0.152388 3:0.0188356 
0.06764599320035863 1:-0.165581 2:-0.228405 3:-0.210923 
