svm_type epsilon_svr
kernel_type linear
nr_class 2
total_sv 20
rho -0.0896132
SV
-0.4788480762434076 1:3.22722 2:5.79369 3:9 
-0.1424755319749 1:1.11631 2:1.4446 3:1.91626 
0.5 1:7.76806 2:8.37767 3:9 
0.009869499016192978 1:8.24615 2:8.6192 3:9 
0.5 1:-4.08584 2:-2.00171 3:0.89379 
0.5 1:-2.91015 2:-2.27465 3:-0.829158 
0.5 1:-2.02841 2:-1.79732 3:-0.857743 
0.278563135512243 1:8.50703 2:8.75303 3:9 
-0.3455804951046218 1:0.0206291 2:0.0517933 3:0.121457 
-0.5 1:0.481161 2:0.257025 3:0.129922 
-0.5 1:1.04801 2:0.729019 3:0.508303 
0.5 1:-1.44229 2:-1.77565 3:-1.72207 
-0.3976874220121849 1:0.447765 2:0.949804 3:0.788873 
0.5 1:1.03117 2:-0.332949 3:-1.45473 
0.5 1:8.30383 2:8.6515 3:9 
-0.4238411091933223 1:-0.00810797 2:0.505385 3:0.612081 
-0.5 1:1.67298 2:2.91262 3:4.61852 
-0.5 1:1.17051 2:0.751997 3:0.462606 
-0.5 1:0.324048 2:0.254336 3:0.00512611 
0.5 1:-1.88302 2:-2.12395 3:-2.01356 
