svm_type epsilon_svr
kernel_type linear
nr_class 2
total_sv 42
rho -0.10133
SV
-0.5 1:2.29315 2:1.17799 3:0.544957 
-0.5 1:0.406333 2:0.454056 3:0.609714 
0.5 1:-0.454594 2:-0.876291 3:-0.942793 
-0.5 1:0.00128789 2:0.000759202 3:0.000469574 
-0.5 1:-0.139246 2:0.148927 3:0.387964 
0.5 1:1.17875 2:1.54078 3:1.97541 
0.5 1:2.25944 2:1.94728 3:1.66732 
-0.5 1:0.550019 2:0.440234 3:0.179148 
0.5 1:5.21851 2:4.38232 3:3.61744 
-0.5 1:0.256747 2:0.302713 3:0.261634 
0.5 1:5.30636 2:4.49226 3:3.74367 
0.5 1:3.06979 2:4.77579 3:6.80216 
0.5 1:-0.514993 2:-0.586954 3:-0.442511 
-0.5 1:0.00348791 2:0.00174573 3:0.000620957 
0.5 1:-0.733456 2:-0.513264 3:0.261519 
0.5 1:-1.55859 2:1.02835 3:0.392115 
-0.2469177312899348 1:1.4941 2:1.77924 3:2.15886 
0.5 1:-1.69424 2:-2.65227 3:-2.99949 
0.5 1:3.57264 2:2.77669 3:2.04403 
-0.5 1:1.85511 2:2.32717 3:2.1302 
0.5 1:-3.13034 2:-3.83101 3:-3.84557 
-0.5 1:0.471427 2:0.533652 3:0.500302 
0.3763806962697565 1:-0.536002 2:-4.29877 3:-3.0501 
0.5 1:1.95958 2:-0.288058 3:-1.35119 
0.5 1:0.0855818 2:-0.385571 3:-0.667612 
-0.5 1:0.00240816 2:0.00307161 3:0.00244729 
-0.5 1:-0.881352 2:-0.278715 3:0.77484 
0.5 1:0.848081 2:0.810947 3:-0.988167 
0.5 1:-0.0223174 2:-0.476284 3:-0.621524 
-0.5 1:4.46272 2:-1.8624 3:-4.21143 
0.5 1:-0.282427 2:-0.889014 3:-0.763359 
-0.5 1:1.01864 2:0.902191 3:0.474472 
-0.5 1:0.0165873 2:0.0231916 3:0.0218772 
-0.5 1:3.58555 2:3.20623 3:2.29656 
-0.5 1:1.01601 2:1.60737 3:1.93285 
0.2966080917259747 1:7.1436 2:6.28877 3:5.43905 
-0.5 1:1.23154 2:0.888507 3:0.0255016 
0.5 1:-0.48288 2:-0.708275 3:-0.639989 
-0.5 1:0.115453 2:0.0295407 3:-0.0686205 
-0.5 1:-0.000442578 2:-0.00122523 3:-0.00149978 
0.5 1:-0.447746 2:-0.406537 3:-0.135935 
-0.4260710567057967 1:-0.00243499 2:-0.00179858 3:-0.000515002 
