svm_type epsilon_svr
kernel_type linear
nr_class 2
total_sv 19
rho -0.0998592
SV
0.3848124097695087 1:1.38766 2:0.509194 3:-2.25699 
-0.5 1:4.52461 2:3.34695 3:2.38345 
-0.5 1:5.648 2:4.945 3:4.32643 
0.5 1:-0.648453 2:-1.22552 3:-1.39815 
-0.5 1:0.346729 2:0.334253 3:0.211467 
-0.3763537333709153 1:-0.00230816 2:0.00102932 3:0.00404079 
0.5 1:0.701414 2:-2.34655 3:-4.46823 
0.5 1:2.8382 2:1.1366 3:0.0114381 
-0.416892092259358 1:2.16966 2:-0.388403 3:-2.61793 
0.5 1:0.441267 2:1.11998 3:2.10967 
-0.5 1:0.196813 2:0.180726 3:0.140602 
-0.5 1:-0.088216 2:0.0995024 3:0.269402 
-0.0915665841392363 1:9 2:7.69338 3:6.42987 
0.5 1:2.1796 2:1.50289 3:0.995998 
-0.5 1:0.0119472 2:0.00341348 3:-0.00627695 
0.5 1:3.85592 2:4.5454 3:5.31944 
-0.5 1:-0.0249278 2:0.0436251 3:0.105121 
0.5 1:1.49988 2:1.79188 3:2.12331 
0.5 1:2.98227 2:3.55375 3:4.17573 
