svm_type epsilon_svr
kernel_type linear
nr_class 2
total_sv 10
rho -0.0775209
SV
-0.05734036939354337 1:4.88785 2:6.16516 3:7.55315 
0.5 1:0.68204 2:0.898389 3:1.16545 
0.5 1:0.764023 2:1.45597 3:2.41419 
-0.5 1:0.272496 2:0.322839 3:0.254213 
0.5 1:1.0662 2:1.62316 3:2.36552 
-0.5 1:1.75161 2:3.30209 3:5.46319 
0.5 1:0.617488 2:0.967049 3:1.44692 
-0.5 1:0.0238741 2:0.0643401 3:0.0933282 
-0.45127395113322 1:0.0392464 2:0.0567809 3:0.0642094 
0.008614320526763421 1:7.71793 2:6.4766 3:5.31288 
