svm_type epsilon_svr
kernel_type linear
nr_class 2
total_sv 3
rho -0.0665475
SV
-0.02265589980837742 1:1.46381 2:0.937212 3:0.580083 
0.04044425429296719 1:9 2:8.90258 3:8.80527 
-0.01778835448458978 1:0.294148 2:0.537369 3:0.928726 
