svm_type epsilon_svr
kernel_type linear
nr_class 2
total_sv 9
rho -0.121497
SV
0.5 1:4.87718 2:4.60959 3:4.38868 
0.5 1:5.64243 2:5.45993 3:5.32414 
-0.02043784339114599 1:9.44973 2:9.09148 3:8.72031 
-0.5 1:8.28284 2:8.33132 3:8.35 
0.5 1:2.5021 2:2.37975 3:2.30255 
-0.5 1:3.85189 2:3.55579 3:3.26049 
-0.5 1:1 2:1 3:1 
-0.1022274789888095 1:1.03038 2:1.0222 3:1.01607 
0.1226653223799553 1:6.39256 2:6.58612 3:6.84177 
