svm_type epsilon_svr
kernel_type linear
nr_class 2
total_sv 3
rho -0.126803
SV
0.03161993433640249 1:11.362 2:11.1729 3:10.9637 
0.001198537690850253 1:4.95055 2:5.84752 3:6.88546 
-0.03281847202725275 1:1.06057 2:1.05153 3:1.04429 
