svm_type epsilon_svr
kernel_type linear
nr_class 2
total_sv 18
rho -0.136334
SV
0.5 1:4.08121 2:4.47478 3:4.91602 
0.5 1:3.25248 2:3.29443 3:3.36515 
-0.5 1:8.5612 2:8.81102 3:9.03732 
-0.5 1:3.93615 2:3.97227 3:3.99729 
0.5 1:3.43352 2:3.40645 3:3.42213 
0.5 1:5.26759 2:5.38936 3:5.53731 
-0.5 1:3.19095 2:3.38156 3:3.56622 
-0.5 1:3.64137 2:3.73127 3:3.80431 
-0.5 1:6.15789 2:6.37442 3:6.56342 
0.5 1:4.5394 2:4.59749 3:4.69835 
0.5 1:6.5533 2:6.58648 3:6.64518 
-0.5 1:7.00217 2:7.206 3:7.39058 
-0.5 1:7.15446 2:7.32507 3:7.47823 
-0.5 1:1.04677 2:1.03765 3:1.03023 
0.495460064452787 1:5.58979 2:5.90488 3:6.31562 
0.2176347199748659 1:6.57736 2:6.13476 3:5.71752 
-0.213094784427654 1:2.0002 2:2.00007 3:2.00002 
0.5 1:6.58282 2:6.89732 3:7.30843 
