svm_type epsilon_svr
kernel_type linear
nr_class 2
total_sv 22
rho -0.143236
SV
-0.5 1:6.16658 2:6.28314 3:6.3807 
0.5 1:2.26618 2:2.48279 3:2.82725 
-0.5 1:3.55002 2:3.64409 3:3.73163 
0.5 1:3.6207 2:3.6084 3:3.63331 
-0.5 1:7.28248 2:7.24686 3:7.1992 
-0.5 1:4.25952 2:4.20769 3:4.12401 
-0.1732835288480186 1:3.52117 2:3.58022 3:3.62919 
0.5 1:4.22386 2:4.75607 3:5.42479 
0.5 1:4.81167 2:4.88453 3:4.99459 
0.5 1:6.38711 2:5.68671 3:5.10105 
0.5 1:6.65488 2:6.02834 3:5.45392 
0.5 1:3.26206 2:3.06656 3:2.9352 
-0.5 1:7.27144 2:7.23596 3:7.18846 
-0.08328100443379198 1:7.21396 2:7.22579 3:7.21409 
-0.5 1:5.97828 2:5.96922 3:5.94222 
-0.5 1:1.00176 2:1.00115 3:1.00074 
-0.5 1:1.1957 2:1.21652 3:1.24075 
0.5 1:3.21126 2:3.58177 3:4.01931 
0.5 1:4.96901 2:5.26541 3:5.61545 
0.256944829438602 1:4.95436 2:4.41747 3:3.99058 
-0.5 1:2.01231 2:2.00644 3:2.00325 
-0.0003802961567903299 1:2.03623 2:2.04855 3:2.06488 
