svm_type epsilon_svr
kernel_type linear
nr_class 2
total_sv 4
rho -0.101258
SV
0.0828471213892938 1:4.69475 2:5.1046 3:5.54756 
0.4543413297747221 1:6.22273 2:5.95283 3:5.72619 
-0.03718845116401587 1:9.58153 2:9.5292 3:9.42041 
-0.5 1:4.95833 2:4.9048 3:4.84162 
