svm_type epsilon_svr
kernel_type linear
nr_class 2
total_sv 3
rho -0.115143
SV
0.07956506812045526 1:4.58654 2:4.21484 3:3.89549 
0.01334593144580316 1:5.99735 2:6.34869 3:6.73395 
-0.09291099956625846 1:1.00298 2:1.00198 3:1.00131 
