svm_type epsilon_svr
kernel_type linear
nr_class 2
total_sv 8
rho -0.0577199
SV
0.2158319981911869 1:9 2:8.74712 3:8.49523 
-0.4030746411290408 1:-2.19751 2:-1.40663 3:0.574041 
0.5 1:-1.024 2:-0.840944 3:-0.367717 
-0.5 1:3.40037 2:2.65871 3:1.47728 
0.5 1:-2.3954 2:-2.01313 3:-1.28694 
-0.3127573570621457 1:0.540294 2:0.138244 3:-0.321128 
0.5 1:2.44968 2:1.36409 3:0.454523 
-0.5 1:0.252705 2:0.145512 3:-0.0127233 
