svm_type epsilon_svr
kernel_type linear
nr_class 2
total_sv 14
rho -0.091074
SV
-0.5 1:0.735551 2:0.88384 3:0.674605 
0.5 1:0.22995 2:0.685768 3:1.23592 
-0.5 1:0.0479191 2:0.0538375 3:0.0419885 
0.5 1:3.15271 2:0.800732 3:-1.3943 
0.5 1:-2.1117 2:-2.33057 3:-1.62901 
-0.0922649125473044 1:0.987166 2:2.17779 3:2.60683 
0.2192598296709194 1:-1.94373 2:-0.876091 3:0.723471 
-0.5 1:0.50697 2:0.110427 3:-0.370685 
-0.3256627363274602 1:0.200609 2:0.169537 3:0.127336 
0.5 1:2.93764 2:2.32924 3:1.80852 
-0.5 1:2.61405 2:2.39696 3:1.95212 
-0.5 1:0.247189 2:0.123314 3:-0.0516917 
0.1986678192038456 1:4.4074 2:5.08389 3:5.80659 
0.5 1:0.413874 2:0.806784 3:1.24496 
