svm_type epsilon_svr
kernel_type linear
nr_class 2
total_sv 6
rho -0.0462332
SV
-0.5 1:-0.782468 2:-1.98333 3:-1.50659 
0.1349579780009714 1:-1.50264 2:-2.30053 3:-2.59743 
0.5 1:-2.50958 2:-3.27439 3:-3.45277 
0.1539216141790848 1:7.73058 2:8.15085 3:8.57456 
-0.1143031660337001 1:0.118351 2:0.384689 3:0.409268 
-0.1745764261463562 1:-0.703453 2:-1.78305 3:-1.35445 
