svm_type epsilon_svr
kernel_type linear
nr_class 2
total_sv 22
rho -0.0234552
SV
0.5 1:-1.2534 2:-1.62118 3:-1.33182 
0.5 1:-0.102577 2:-0.855122 3:-1.32437 
0.5 1:-3.85913 2:-5.00157 3:-4.36298 
-0.5 1:-2.94795 2:-1.88699 3:0.770074 
0.5 1:3.64245 2:2.98717 3:0.518627 
0.5 1:7.56729 2:8.28003 3:9 
-0.3415151074422622 1:3.82637 2:5.39351 3:4.97305 
-0.5 1:-0.047306 2:1.87203 3:2.91628 
-0.5 1:1.03254 2:2.42805 3:3.29481 
-0.5 1:-1.62773 2:-2.30113 3:-1.36532 
0.5 1:-3.27317 2:-1.73398 3:0.115758 
0.5 1:7.34238 2:8.16562 3:9 
0.2339244276218384 1:7.2358 2:7.81716 3:8.40655 
-0.5 1:0.921932 2:0.490428 3:-0.18158 
0.3392904666201594 1:-1.962 2:-0.326258 3:1.52097 
0.5 1:-2.29484 2:-1.63238 3:-0.0146197 
-0.2316997867997348 1:2.95804 2:1.75698 3:-0.891225 
-0.5 1:2.32446 2:2.0588 3:1.08275 
-0.5 1:4.48252 2:2.49065 3:0.0867928 
-0.5 1:1.12155 2:1.26098 3:1.1926 
-0.5 1:-1.03747 2:0.748608 3:2.22428 
0.5 1:-0.102929 2:-1.34691 3:-2.11844 
