svm_type epsilon_svr
kernel_type linear
nr_class 2
total_sv 10
rho -0.0999372
SV
0.5 1:1.77159 2:2.3746 3:2.96836 
-0.2343520733515237 1:9.51848e-05 2:7.42263e-05 3:2.87921e-05 
-0.02877867151155088 1:6 2:5.86839 3:5.73743 
0.5 1:0.367812 2:0.578258 3:1.05225 
0.5 1:2.94321 2:1.79474 3:0.85513 
-0.2368692551369248 1:5.72453 2:5.81605 3:5.90794 
-0.5 1:1.73392e-05 2:0.00174479 3:0.00206244 
-0.5 1:0.383556 2:0.380591 3:0.219816 
0.5 1:-0.655516 2:-0.582314 3:-0.304852 
-0.5 1:0.167369 2:0.331143 3:0.397192 
