svm_type epsilon_svr
kernel_type linear
nr_class 2
total_sv 22
rho -0.100755
SV
0.5 1:-1.10599 2:-0.544162 3:0.244328 
-0.5 1:0.579033 2:0.149633 3:-0.329149 
0.5 1:1.88431 2:1.58705 3:1.32609 
-0.5 1:-0.928678 2:1.56356 3:3.49913 
-0.5 1:0.647155 2:2.36103 3:3.14421 
-0.1199845912786996 1:2.18376 2:1.63786 3:-0.293196 
0.5 1:-1.47695 2:-2.79763 3:-2.41974 
0.5 1:-0.0148493 2:1.39873 3:3.15682 
-0.5 1:1.86119 2:1.01817 3:-0.318161 
-0.03932900354540836 1:-1.40344 2:-0.00400736 3:1.40608 
0.5 1:-2.49032 2:-1.64839 3:-0.445606 
-0.5 1:-0.651119 2:0.794739 3:1.68579 
0.5 1:-3.50562 2:-2.71512 3:-1.43835 
-0.5 1:5.83913e-06 2:5.02961e-06 3:6.37872e-06 
-0.03341800278278945 1:2.75275e-05 2:8.31403e-05 3:0.00018654 
-0.5 1:0.000997624 2:0.00352175 3:0.00308427 
-0.5 1:-5.18091e-05 2:-8.44242e-05 3:-8.47252e-05 
0.5 1:1.38762 2:1.67251 3:1.99838 
0.5 1:2.22919 2:1.91805 3:1.63946 
0.1927315976068973 1:6.95438 2:6.46257 3:5.98339 
-0.5 1:6.25334e-06 2:5.39049e-06 3:3.42996e-06 
0.5 1:3.95893 2:3.51813 3:3.10463 
