svm_type epsilon_svr
kernel_type linear
nr_class 2
total_sv 26
rho -0.0999556
SV
-0.5 1:-0.176557 2:1.65113 3:2.80955 
-0.5 1:4.65003 2:4.01974 3:2.20988 
0.5 1:-7.57011 2:-6.88645 3:-3.74974 
-0.1923022073993462 1:-0.00293106 2:0.000181403 3:0.00363295 
-0.5 1:5.84762 2:3.01815 3:-1.00104 
0.5 1:5.94645 2:1.63178 3:-3.57983 
0.5 1:5.29171 2:6.57486 3:3.86609 
-0.5 1:0.000236217 2:0.000133148 3:0.000111638 
0.4703895726804038 1:-7.77188 2:-4.5576 3:0.341536 
-0.5 1:5.90899 2:5.2376 3:2.11785 
0.5 1:-5.54727 2:-4.1677 3:-1.88053 
0.5 1:4.48637 2:3.24951 3:-0.255833 
-0.5 1:2.29034 2:4.76896 3:6.39349 
-0.4235719266903956 1:-3.08846 2:1.01421 3:4.30051 
0.1454845614093388 1:9 2:8.75928 3:8.51941 
0.5 1:0.398887 2:-1.79786 3:-3.11295 
0.5 1:0.884761 2:2.00366 3:2.76716 
-0.5 1:0.451247 2:0.360745 3:0.158472 
0.5 1:-2.1271 2:-1.90572 3:-1.36823 
-0.5 1:0.776707 2:0.55634 3:0.243948 
-0.5 1:0.455255 2:0.318603 3:0.00314434 
-0.5 1:0.000678 2:0.010767 3:0.0176935 
0.5 1:8.34036 2:7.68626 3:7.0431 
0.5 1:9 2:8.87976 3:8.75967 
0.5 1:4.85434 2:5.89774 3:7 
-0.5 1:0.0231057 2:0.0150886 3:0.00180534 
