svm_type epsilon_svr
kernel_type linear
nr_class 2
total_sv 22
rho -0.0837015
SV
-0.5 1:1.07936 2:1.24274 3:0.902382 
-0.5 1:1.34845 2:1.33802 3:0.886621 
0.5 1:-0.785905 2:-0.788101 3:-0.508338 
0.1911441144935618 1:7.62375 2:7.17374 3:6.7311 
-0.5 1:7.31072 2:6.27932 3:4.67964 
0.5 1:5.3707 2:3.81403 3:1.27166 
-0.5 1:0.815834 2:0.759129 3:0.121053 
0.5 1:-4.23893 2:-2.43454 3:0.380684 
-0.5 1:1.90977 2:0.767069 3:-0.734204 
0.5 1:-1.98785 2:-0.880072 3:0.419359 
0.4755886730093005 1:1.39261 2:1.12785 3:0.90334 
0.5 1:5.72157 2:4.06032 3:1.96107 
0.5 1:-1.3786 2:-2.67092 3:-3.4849 
-0.4848670768952392 1:-0.810473 2:0.320707 3:1.23925 
0.5 1:8.26294 2:7.53362 3:6.81956 
-0.5 1:0.29014 2:0.415781 3:0.298098 
-0.5 1:0.164786 2:0.540905 3:0.472832 
-0.1818657106076232 1:1.62816 2:1.22077 3:-0.218506 
0.5 1:-0.689816 2:-0.456838 3:-0.066228 
-0.5 1:0.0371823 2:0.572552 3:0.798359 
0.5 1:0.016578 2:0.0339291 3:0.195342 
-0.5 1:0.350953 2:0.387147 3:0.287752 
