svm_type epsilon_svr
kernel_type linear
nr_class 2
total_sv 17
rho -0.101363
SV
-0.2650175028650134 1:0.00235388 2:0.00154387 3:0.0010918 
0.5 1:-1.25567 2:-0.964855 3:-0.0766619 
0.5 1:-0.861861 2:-0.710171 3:-0.278539 
-0.5 1:-0.337442 2:0.150833 3:0.547537 
0.1605980314542869 1:2.99576 2:3.77548 3:4.66422 
-0.5 1:-0.0831404 2:0.0211902 3:0.109293 
0.5 1:-1.36365 2:-0.688925 3:0.239707 
0.1044194714107265 1:2.13805 2:1.15154 3:0.315821 
0.5 1:0.214802 2:0.361016 3:0.652288 
-0.5 1:0.110024 2:0.291469 3:0.269444 
0.5 1:1.50116 2:0.545191 3:-0.22287 
0.5 1:0.573237 2:0.383765 3:0.251145 
-0.5 1:0.00462077 2:0.00124867 3:-0.00292962 
-0.5 1:-0.000181388 2:0.00673801 3:0.00974092 
-0.5 1:-0.00924806 2:0.00459042 3:0.014648 
0.5 1:0.645747 2:0.420424 3:0.278951 
-0.5 1:0.143112 2:0.345242 3:0.490276 
