svm_type epsilon_svr
kernel_type linear
nr_class 2
total_sv 21
rho -0.100164
SV
0.5 1:-0.377618 2:0.151961 3:0.655855 
-0.5 1:1.39059 2:3.55083 3:4.44664 
0.4575603189016492 1:4.78825 2:5.54296 3:6.33826 
0.5 1:-2.41795 2:-3.35949 3:-2.97676 
0.5 1:2.10397 2:2.88298 3:3.83417 
0.4965819900161618 1:7.40274 2:8.19634 3:9 
-0.1656686389584303 1:7.75202 2:7.13985 3:6.54157 
-0.5 1:0.804243 2:0.935952 3:0.351371 
-0.5 1:-0.559367 2:2.3369 3:4.37203 
-0.2884736699593805 1:0.00467988 2:0.00300108 3:0.000537507 
-0.5 1:0.920567 2:0.498974 3:-0.329165 
-0.5 1:1.5425 2:2.38716 3:2.11593 
-0.5 1:-0.47949 2:0.919505 3:2.1183 
-0.5 1:6.02239 2:5.54299 3:5.07462 
-0.5 1:1.33677 2:0.203967 3:-1.09302 
0.5 1:2.9473 2:3.8747 3:5 
0.5 1:0.247111 2:-0.209058 3:-0.400136 
0.5 1:0.127946 2:0.841553 3:1.48481 
0.5 1:1.96069 2:0.197668 3:-0.651539 
0.5 1:-0.695931 2:-0.735686 3:-0.646475 
-0.5 1:0.0052895 2:0.0111173 3:0.0123354 
