svm_type epsilon_svr
kernel_type linear
nr_class 2
total_sv 13
rho -0.100537
SV
-0.5 1:-0.00391755 2:0.00716063 3:0.0158757 
0.5 1:0.195021 2:-0.462792 3:-0.955806 
0.5 1:-0.357359 2:-0.21363 3:0.119391 
0.5 1:-0.233207 2:-0.441658 3:-0.381554 
-0.5 1:0.0746411 2:0.0694788 3:0.0112044 
-0.3901355225696234 1:4.73885 2:4.86918 3:5 
-0.5 1:0.00327592 2:0.00240425 3:0.000875664 
-0.3525686404969388 1:3.49451e-05 2:6.01484e-05 3:0.000123164 
-0.5 1:-0.0792806 2:0.0975476 3:0.207729 
0.5 1:2.75451 2:3.47397 3:4.26991 
-0.03123353004995016 1:6.47763 2:6.73848 3:7 
0.2739376931165119 1:3.98591 2:3.54466 3:3.13426 
0.5 1:0.338686 2:0.472243 3:0.645912 
