svm_type epsilon_svr
kernel_type linear
nr_class 2
total_sv 27
rho 0.0372498
SV
0.5 1:-3.50137 2:-3.76709 3:-2.50587 
-0.5 1:6.37702 2:7.77321 3:6.60409 
0.5 1:8.2536 2:7.51519 3:6.79254 
0.5 1:6.49615 2:6.84197 3:7.19319 
0.5 1:-5.70439 2:-0.592949 3:4.72964 
0.426182928455507 1:6.03974 2:6.68139 3:7.33712 
-0.5 1:0.830295 2:5.44301 3:7.91014 
0.5 1:2.91813 2:5.09483 3:4.17821 
-0.5 1:-0.964236 2:-1.8646 3:-1.33698 
0.5 1:-6.93839 2:-5.23062 3:-1.59528 
-0.5 1:4.37078 2:3.86491 3:1.55236 
-0.5 1:4.11808 2:4.6614 3:4.19396 
-0.5 1:0.26729 2:-2.38622 3:-3.37391 
-0.5 1:2.49521 2:4.39501 3:5.50769 
-0.5 1:2.30656 2:4.20323 3:9 
0.1641513597887724 1:4.11507 2:4.82054 3:5.58204 
0.4999877782894482 1:8.07269 2:8.5353 3:9 
-0.5 1:1.12653 2:1.87839 3:1.7091 
-0.5 1:1.54344 2:1.94605 3:1.08723 
0.006778075398743898 1:2.40397 2:2.75694 3:3.13957 
0.05213984517582131 1:-1.99415 2:-2.40394 3:-0.818047 
-0.5 1:-1.54992 2:0.729372 3:2.88802 
0.3507600128917072 1:4.26567 2:3.86625 3:3.48801 
0.5 1:3.15458 2:0.384987 3:-1.98018 
0.5 1:-0.182197 2:-1.53641 3:-2.25357 
-0.5 1:1.45328 2:0.527076 3:-0.584008 
0.5 1:2.30214 2:2.57244 3:2.8616 
