svm_type epsilon_svr
kernel_type linear
nr_class 2
total_sv 7
rho -0.091712
SV
0.2436655963916265 1:8.62708 2:8.81344 3:9 
-0.2763417702892019 1:0.359484 2:0.214115 3:0.119361 
0.5 1:-3.99502 2:-0.337365 3:3.53897 
-0.3480684224745196 1:0.094088 2:-3.14503 3:-4.5436 
-0.119255403627905 1:-5.70391 2:-3.40998 3:1.6926 
0.5 1:-1.13206 2:-4.49533 3:-5.99465 
-0.5 1:-0.667951 2:1.95707 3:3.8956 
