svm_type epsilon_svr
kernel_type linear
nr_class 2
total_sv 11
rho -0.0986392
SV
-0.1797127236899797 1:-4.69626 2:0.450337 3:5.44831 
0.5 1:-8.47186 2:-4.21509 3:1.54265 
0.5 1:8.74408 2:9.4548 3:6.27433 
0.5 1:8.38862 2:8.6937 3:9 
-0.5 1:10.6145 2:9.06711 3:4.17834 
-0.1837948143443825 1:1.76837 2:4.54176 3:5.11464 
-0.5 1:2.30729 2:5.42569 3:7.36254 
0.5 1:6.60578 2:6.64955 3:3.48572 
-0.5 1:6.79797 2:8.519 3:8.71432 
-0.4015230737500937 1:0.0215 2:0.00588968 3:-0.0106874 
0.2650306117844559 1:8.17355 2:8.44831 3:8.72394 
