svm_type epsilon_svr
kernel_type linear
nr_class 2
total_sv 3
rho -0.0647812
SV
-0.03680460766741458 1:-0.110056 2:-0.129728 3:0.0544436 
0.005576827530999561 1:8.50836 2:8.67128 3:8.83535 
0.03122778013641501 1:9 2:8.85189 3:8.70397 
