svm_type epsilon_svr
kernel_type linear
nr_class 2
total_sv 26
rho -0.100206
SV
-0.5 1:0.0693227 2:0.122654 3:0.132322 
0.03160549059338837 1:9 2:8.72444 3:8.44996 
0.5 1:8.67529 2:8.83732 3:9 
-0.5 1:0.00129511 2:0.00119294 3:0.00152067 
-0.5 1:0.283867 2:-2.53691 3:-4.12853 
-0.5 1:0.695545 2:-2.67368 3:-3.86449 
-0.5 1:4.08439e-05 2:9.59772e-05 3:0.000222601 
-0.0966306240101672 1:-4.32011 2:-0.0635293 3:4.22274 
0.5 1:-5.53057 2:-6.24433 3:-5.59826 
0.5 1:4.62026 2:1.78742 3:-1.27212 
-0.1376747799681235 1:0.000611523 2:0.000679187 3:0.000309034 
-0.5 1:7.06658 2:7.2286 3:6.09601 
0.5 1:8.87755 2:8.7553 3:8.63341 
-0.5 1:-4.57289 2:-4.95459 3:-1.34821 
-0.5 1:2.92757 2:3.82575 3:2.8478 
0.5 1:-4.0024 2:-1.69297 3:1.71384 
-0.5 1:6.27191e-05 2:0.00012146 3:0.000230771 
0.5 1:0.0671131 2:-2.65998 3:-3.83039 
0.2026999133849029 1:1.3921 2:4.56825 3:3.98173 
-0.5 1:-1.05061 2:0.9039 3:2.54651 
0.5 1:-7.43415 2:-6.24125 3:-4.01597 
-0.5 1:0.00668944 2:0.00427371 3:0.00131066 
0.5 1:-3.72962 2:-5.30192 3:-3.7714 
0.5 1:-1.71066 2:-4.1911 3:-4.93374 
0.5 1:8.7717 2:8.88578 3:9 
0.5 1:-3.57273 2:-3.62069 3:-2.39861 
