svm_type epsilon_svr
kernel_type linear
nr_class 2
total_sv 8
rho -0.0954924
SV
-0.5 1:1.04294 2:2.35267 3:2.70878 
-0.4000193174196424 1:8 2:7.55502 3:7.11222 
-0.3378556862491131 1:-0.0106845 2:0.0212077 3:0.0492437 
-0.5 1:0.14292 2:0.153642 3:0.136854 
0.2378750036687526 1:2.56324 2:3.15102 3:3.8017 
0.5 1:1.47338 2:1.82971 3:2.23187 
0.5 1:4.57667 2:3.84712 3:3.1898 
0.5 1:1.22313 2:1.66059 3:2.14936 
