svm_type epsilon_svr
kernel_type linear
nr_class 2
total_sv 3
rho -0.151741
SV
-0.04489331696879983 1:1.79908 2:1.92838 3:2.07741 
0.03622364398952314 1:9.07713 2:9.34906 3:9.51862 
0.008669672979276686 1:8.76747 2:8.64226 3:8.37727 
