svm_type epsilon_svr
kernel_type linear
nr_class 2
total_sv 10
rho -0.138059
SV
0.5 1:4.55512 2:5.84461 3:7.36092 
0.5 1:5.69736 2:3.82998 3:2.63047 
-0.5 1:7.10717 2:7.26644 3:7.3915 
-0.5 1:2.83772 2:1.52082 3:1.07988 
-0.05272285237485165 1:3.13297 2:3.23772 3:3.35707 
0.5 1:5.64409 2:3.79444 3:2.69673 
0.5 1:2.48291 2:2.72283 3:3.36992 
-0.5 1:3.08571 2:2.91429 3:2.74286 
-0.1875022806394342 1:4.81173 2:4.92333 3:5.01872 
-0.2597748669857139 1:4.53238 2:3.90703 3:3.3918 
