svm_type epsilon_svr
kernel_type linear
nr_class 2
total_sv 17
rho -0.199823
SV
0.3855055673000381 1:6.00345 2:6.61647 3:7.29188 
0.5 1:2.28773 2:2.46079 3:2.79478 
0.5 1:6.07104 2:5.24329 3:4.5607 
-0.5 1:3.59591 2:3.59004 3:3.59034 
0.5 1:2.3536 2:2.5571 3:2.83932 
-0.5 1:5.05949 2:5.07379 3:5.07538 
-0.04056965567247588 1:4.4867 2:4.45749 3:4.42303 
-0.5 1:4.92666 2:4.97291 3:5.00102 
-0.5 1:4.42568 2:4.45172 3:4.46782 
0.5 1:6.74335 2:5.76011 3:4.93168 
0.5 1:5.21909 2:5.38115 3:5.61726 
0.5 1:3.56732 2:3.98718 3:4.48296 
-0.5 1:3.31342 2:3.45479 3:3.58473 
-0.5 1:3.49753 2:3.49078 3:3.48989 
0.5 1:6.30138 2:5.20309 3:4.35768 
-0.5 1:5.62708 2:5.01119 3:4.41805 
-0.3449359116275616 1:7.98205 2:7.11969 3:6.53028 
