svm_type epsilon_svr
kernel_type linear
nr_class 2
total_sv 14
rho -0.179861
SV
0.5 1:4.25235 2:3.86799 3:3.55725 
0.5 1:5.4702 2:5.01616 3:4.66174 
-0.5 1:4.44126 2:4.46792 3:4.48876 
-0.5 1:4.33739 2:4.36937 3:4.39289 
-0.5 1:4.24507 2:4.26231 3:4.27343 
-0.2945478654757709 1:4.24392 2:4.24294 3:4.23648 
0.5 1:6.20329 2:6.81477 3:7.49948 
0.5 1:5.04284 2:4.79354 3:4.57972 
0.5 1:3.57442 2:3.79352 3:4.06112 
-0.4370513204367795 1:6.61984 2:6.62654 3:6.61985 
-0.5 1:3.85725 2:4.04644 3:4.19366 
0.2315991859125507 1:6.03372 2:5.04057 3:4.48592 
0.5 1:5.80394 2:6.45476 3:7.22774 
-0.5 1:7.22227 2:7.24546 3:7.22227 
