svm_type epsilon_svr
kernel_type linear
nr_class 2
total_sv 24
rho -0.179992
SV
0.5 1:7.00218 2:7.64512 3:8.31552 
-0.5 1:6.05752 2:5.99594 3:5.92455 
0.5 1:3.30516 2:3.25943 3:3.40235 
0.5 1:3.97298 2:3.46201 3:3.17251 
0.5 1:4.5013 2:4.25447 3:4.11616 
-0.2440350661674142 1:6.9857 2:6.98004 3:6.96253 
-0.5 1:3.65416 2:3.78444 3:3.8899 
-0.5 1:3.89273 2:3.90086 3:3.88092 
-0.5 1:3.61182 2:3.61161 3:3.61598 
0.5 1:8 2:6.50063 3:5.17336 
0.5 1:3.82952 2:4.49694 3:5.23085 
-0.5 1:3.49236 2:3.35832 3:3.22633 
-0.5 1:4.4614 2:4.42654 3:4.38692 
0.5 1:2.32709 2:1.96414 3:1.73829 
-0.5 1:4.51139 2:4.4957 3:4.46948 
-0.5 1:4.28746 2:4.33947 3:4.38342 
0.5 1:3.51178 2:3.68258 3:4.05095 
0.5 1:4.0146 2:3.98801 3:4.04463 
-0.3196703447133801 1:5.2653 2:3.98243 3:3.35584 
0.5 1:2.53131 2:2.36986 3:2.28628 
-0.5 1:3.71817 2:3.8658 3:3.97716 
-0.5 1:3.49088 2:3.49773 3:3.50621 
0.06370541088079226 1:4.9279 2:4.96429 3:5.03048 
0.5 1:5.1866 2:5.28848 3:5.42041 
