svm_type epsilon_svr
kernel_type linear
nr_class 2
total_sv 5
rho -0.157922
SV
-0.2233291041622462 1:5.4034 2:5.45504 3:5.47263 
-0.4999307533333712 1:3.35558 2:3.19575 3:3.04968 
0.2531255126095285 1:6.74026 2:7.43533 3:8.19954 
-0.02986565511391149 1:5.78003 2:6.19577 3:7.33957 
0.5 1:3.46224 2:2.79616 3:2.42228 
