svm_type epsilon_svr
kernel_type linear
nr_class 2
total_sv 24
rho -0.193935
SV
0.5 1:5.32231 2:5.41691 3:5.53611 
-0.5 1:6.76895 2:6.90148 3:7.01596 
-0.5 1:6.30796 2:6.23239 3:6.14484 
0.5 1:4.01434 2:3.78985 3:3.60504 
0.5 1:5.27962 2:5.41986 3:5.62804 
-0.5 1:3.65402 2:3.69488 3:3.72117 
-0.08879803489154875 1:3.41575 2:3.47617 3:3.53925 
-0.5 1:3.62242 2:3.64145 3:3.65325 
-0.5 1:4.62457 2:4.54987 3:4.46829 
-0.5 1:4.40836 2:4.43294 3:4.45224 
0.5 1:5.10888 2:5.2351 3:5.41874 
-0.5 1:4.55906 2:4.64021 3:4.70829 
-0.5 1:10.032 2:10.0932 3:10.0972 
0.5 1:5.59686 2:5.55802 3:5.56716 
0.5 1:3.40415 2:3.35479 3:3.3487 
0.5 1:3.87067 2:3.89953 3:3.96717 
0.2209628010887726 1:7.42327 2:6.075 3:5.11594 
-0.5 1:6.71679 2:6.7898 3:6.84774 
-0.5 1:2.39408 2:2.64031 3:2.89508 
-0.5 1:3.838 2:3.62593 3:3.39403 
0.5 1:7.35865 2:8.15927 3:9 
0.3678352338027771 1:3.81716 2:4.10221 3:4.59217 
0.5 1:6.71118 2:6.20935 3:5.75072 
0.5 1:5.60121 2:5.45984 3:5.3451 
