svm_type epsilon_svr
kernel_type linear
nr_class 2
total_sv 4
rho -0.0234089
SV
-0.08349304697059656 1:9 2:6.0199 3:3.54744 
0.1449034498655247 1:8.72621 2:8.863 3:9 
-0.1026153582476207 1:3.05357 2:4.64271 3:8 
0.04120495535269264 1:2.07684 2:2.9571 3:2.1068 
