svm_type epsilon_svr
kernel_type linear
nr_class 2
total_sv 4
rho -0.100414
SV
0.5 1:3.04343 2:3.49949 3:3.9944 
-0.01139702928245473 1:0.765595 2:1.36411 3:2.26643 
-0.2046474167128213 1:5.85839 2:6.86175 3:7.91743 
-0.2839555540047239 1:-0.00161456 2:-7.11588e-06 3:0.00161571 
