svm_type epsilon_svr
kernel_type linear
nr_class 2
total_sv 7
rho -0.0473763
SV
0.5 1:-0.241564 2:-2.01378 3:-3.12141 
0.3915604120603962 1:6.78696 2:5.48746 3:2.23391 
0.05950533767612879 1:9 2:8.78743 3:8.5757 
-0.4022928068445973 1:3.08633 2:4.83469 3:4.39141 
-0.3718178827503361 1:4.28628 2:2.12203 3:-0.422258 
-0.5 1:5.64016 2:2.76831 3:1.03239 
0.3230449398584084 1:9 2:8.5863 3:8.17397 
