svm_type epsilon_svr
kernel_type linear
nr_class 2
total_sv 20
rho -0.041785
SV
0.5 1:-1.74511 2:2.45776 3:0.0848194 
0.5 1:-0.667153 2:-1.02317 3:-0.964463 
-0.5 1:0.580243 2:0.411064 3:0.106227 
-0.5 1:3.71261 2:3.00176 3:1.222 
0.1983013704704223 1:2.83795 2:2.10241 3:1.50684 
0.5 1:1.36247 2:2.31182 3:4.68079 
0.5 1:2.70034 2:3.75696 3:6 
-0.5 1:-0.484236 2:1.37152 3:2.39465 
-0.5 1:0.60213 2:0.662471 3:0.215467 
0.5 1:-3.71405 2:-3.95038 3:-2.71068 
0.5 1:0.881594 2:1.27679 3:1.81463 
0.5 1:-1.49617 2:-0.60689 3:0.57643 
-0.5 1:-0.228751 2:0.310171 3:0.596377 
-0.5 1:0.367745 2:1.67364 3:2.67982 
-0.2239345941193954 1:-2.95036 2:-3.34563 3:-0.0355564 
-0.5 1:-0.488899 2:0.453034 3:1.03035 
-0.5 1:-0.0381264 2:0.241598 3:0.402844 
0.5 1:5.11678 2:2.2844 3:0.268656 
0.06891339549402811 1:5.42224 2:1.67604 3:-0.214211 
-0.04328017184505471 1:8.17042 2:8.58095 3:9 
