svm_type epsilon_svr
kernel_type linear
nr_class 2
total_sv 12
rho -0.0324152
SV
-0.1993581029191062 1:1.65213 2:2.40257 3:3.36565 
0.5 1:0.956149 2:0.450731 3:0.130431 
0.5 1:0.681841 2:1.19866 3:2.06844 
0.3360711415159099 1:0.0272364 2:-0.0356502 3:0.0875457 
0.3632869614031958 1:4.48186 2:3.38051 3:2.4442 
-0.5 1:0.147647 2:0.260464 3:0.331857 
0.5 1:1.47565 2:2.25121 3:3.25077 
-0.5 1:3.13246 2:1.90801 3:1.07872 
0.5 1:-0.431048 2:-2.10909 3:-3.38492 
-0.5 1:0.593664 2:0.425632 3:0.00851 
-0.5 1:0.281027 2:0.3012 3:0.226032 
-0.5 1:0.258957 2:0.159416 3:0.00395697 
