svm_type epsilon_svr
kernel_type linear
nr_class 2
total_sv 4
rho -0.00335595
SV
-0.1445007101222423 1:5.44403 2:2.73104 3:1.16029 
-0.04177210540331301 1:6.44449 2:7.70066 3:9 
0.02482960911459355 1:4.21342 2:3.66276 3:3.15725 
0.1614432064109614 1:7.5984 2:6.24865 3:4.99745 
