svm_type epsilon_svr
kernel_type linear
nr_class 2
total_sv 42
rho -0.0742963
SV
-0.5 1:0.289775 2:0.330929 3:0.467808 
0.5 1:1.82068 2:2.15499 3:2.52988 
0.5 1:4.3006 2:5.14945 3:6.06188 
-0.5 1:-1.6768 2:3.00845 3:6.5078 
0.5 1:1.64884 2:2.25756 3:2.97603 
0.5 1:4.99138 2:6.73963 3:2.78718 
0.5 1:4.85987 2:6.84722 3:9 
-0.3458557563866246 1:0.62874 2:-2.11057 3:-3.23353 
-0.5 1:-3.19811 2:2.5227 3:7.31385 
0.5 1:1.93782 2:3.2394 3:4.73368 
-0.5 1:2.47134 2:4.35286 3:4.12539 
-0.5 1:2.88672 2:4.48801 3:2.43263 
-0.5 1:1.20898 2:1.74442 3:2.43481 
0.5 1:-6.30021 2:-7.26324 3:-4.83102 
-0.5 1:4.80138 2:2.14617 3:-0.976409 
-0.0271158428321399 1:0.143747 2:0.0642535 3:-0.0292323 
0.5 1:2.68309 2:2.1409 3:1.67206 
-0.5 1:1.93797 2:5.1342 3:4.74625 
0.2133906962473508 1:4.45352 2:5.69188 3:7 
-0.5 1:-1.54994 2:1.74817 3:4.7332 
-0.5 1:0.391451 2:0.41077 3:0.368004 
-0.5 1:0.0684623 2:0.099321 3:0.112412 
0.1595809029714123 1:7.9976 2:8.4965 3:9 
0.5 1:6.06441 2:3.61327 3:-0.549581 
-0.5 1:3.88531 2:4.47335 3:2.86768 
0.5 1:2.45458 2:1.94439 3:1.50421 
0.5 1:-5.0631 2:-3.99502 3:-0.337365 
0.5 1:5.95524 2:4.94632 3:4.00557 
-0.5 1:3.27814 2:0.094088 3:-3.14503 
-0.5 1:-4.83549 2:-4.70157 3:2.45106 
-0.5 1:0.256402 2:0.391042 3:0.631451 
-0.5 1:5.31476 2:4.26421 3:3.34691 
-0.5 1:7 2:4.8703 3:3.01533 
0.5 1:4.49109 2:6.06411 3:2.50782 
0.5 1:-3.53972 2:-2.24318 3:-0.172627 
0.5 1:2.96051 2:2.34304 3:1.80809 
-0.5 1:5.90879 2:7.66193 3:8.1477 
0.5 1:4.61728 2:5.38185 3:6.21315 
0.5 1:-6.1338 2:-4.43221 3:-0.136787 
-0.5 1:5.98138 2:5.09472 3:2.09559 
0.5 1:3.07016 2:3.84771 3:4.72975 
0.5 1:1.43809 2:1.12485 3:0.867248 
