svm_type epsilon_svr
kernel_type linear
nr_class 2
total_sv 6
rho -0.0619022
SV
-0.5 1:0.483552 2:0.643951 3:0.550511 
-0.001922928179847474 1:1.3034 2:0.832233 3:0.509249 
0.5 1:1.37449 2:0.707364 3:0.307695 
0.3821542380405112 1:-0.539815 2:-0.511327 3:-0.356204 
-0.5 1:0.909525 2:0.732346 3:0.424507 
0.1197686901393359 1:5.29417 2:6.13731 3:7 
