svm_type epsilon_svr
kernel_type linear
nr_class 2
total_sv 3
rho -0.0996821
SV
0.03323908780055596 1:6.28315 2:5.64999 3:5.04575 
0.04707432137661793 1:2.37751 2:2.97459 3:3.65568 
-0.08031340917717386 1:0.000964877 2:0.00175519 3:0.00231098 
