svm_type epsilon_svr
kernel_type linear
nr_class 2
total_sv 19
rho -0.0580514
SV
-0.5 1:0.897658 2:1.52196 3:2.43311 
-0.5 1:4.3085 2:5.11046 3:6.0004 
-0.1194978823466916 1:4.97213 2:5.67002 3:6.43822 
0.5 1:-0.42803 2:-0.986233 3:-0.945646 
-0.09809932864185157 1:0.128568 2:0.129699 3:0.0520834 
0.5 1:0.0388462 2:0.255592 3:0.899329 
0.5 1:-0.424253 2:-0.523332 3:-0.429556 
0.5 1:1.47996 2:1.74217 3:2.3923 
0.5 1:2.28573 2:3.02938 3:4.11323 
-0.5 1:0.208863 2:0.230786 3:0.221591 
-0.5 1:1.36464 2:0.791193 3:0.0760522 
-0.5 1:0.0121695 2:0.175085 3:0.30892 
0.2175972109885435 1:9 2:6.80083 3:4.68247 
-0.5 1:5.58699 2:6.67109 3:7.819 
-0.5 1:1.11808 2:0.716289 3:0.19602 
0.5 1:0.0335308 2:0.2003 3:0.409735 
0.5 1:3.16083 2:2.63353 3:2.16415 
-0.5 1:0.18467 2:0.132816 3:0.00323555 
0.5 1:5.8405 2:7.38283 3:9 
