svm_type epsilon_svr
kernel_type linear
nr_class 2
total_sv 3
rho -0.089302
SV
-0.02981650848525952 1:0.194115 2:0.333166 3:0.556566 
0.04135193540445879 1:9 2:8.88556 3:8.77129 
-0.01153542691919927 1:3.76521 2:2.53102 3:1.60864 
