svm_type epsilon_svr
kernel_type linear
nr_class 2
total_sv 9
rho -0.0889008
SV
-0.5 1:0.335279 2:0.60531 3:1.0421 
-0.3589713813094903 1:-0.0725049 2:0.0359067 3:0.126954 
-0.5 1:0.191937 2:0.143747 3:0.0642535 
0.5 1:0.576747 2:1.05525 3:1.69008 
-0.5 1:1.0809 2:1.93176 3:3.18121 
0.5 1:-3.13478 2:-3.32677 3:-2.96848 
0.03889445368383371 1:9 2:7.47088 3:5.91756 
0.3200769276256569 1:3.82892 2:4.45074 3:5.1227 
0.5 1:1.65583 2:2.09162 3:2.65408 
