svm_type epsilon_svr
kernel_type linear
nr_class 2
total_sv 6
rho -0.0998915
SV
-0.1812789222101575 1:6.94994 2:7.96251 3:9 
-0.05677434222012997 1:1.35595 2:1.95082 3:2.7245 
-0.5 1:0.0469409 2:0.113147 3:0.16089 
0.5 1:2.53615 2:3.20557 3:3.97704 
0.5 1:0.848953 2:0.63564 3:0.467381 
-0.2619467355697125 1:0.000270972 2:0.000539403 3:0.000618746 
