svm_type epsilon_svr
kernel_type linear
nr_class 2
total_sv 18
rho -0.00951516
SV
-0.5 1:1.58649 2:1.94341 3:9 
-0.5 1:0.557931 2:0.580243 3:0.411064 
0.5 1:3.53641 2:4.42876 3:5.45275 
-0.5 1:2.29011 2:1.93635 3:0.894182 
-0.5 1:1.72164 2:2.15609 3:1.82317 
-0.5 1:1.11364 2:1.29676 3:0.486848 
0.4811605079422983 1:-0.18152 2:-1.04818 3:-1.28372 
0.5 1:-0.661958 2:-1.40496 3:-1.00325 
0.5 1:-3.24184 2:-2.14264 3:-0.0418553 
0.0005468802871793825 1:-2.68798 2:-1.21286 3:0.526401 
0.5 1:1.54268 2:0.60857 3:-0.14175 
0.4197228891002702 1:9 2:8.83172 3:8.66371 
0.5 1:9 2:8.87627 3:8.75274 
0.09856972267025178 1:-0.0525325 2:4.89608 3:4.4222 
-0.5 1:1.15876 2:0.828174 3:0.012919 
-0.5 1:1.26016 2:-0.958434 3:-1.13094 
-0.5 1:7.64923 2:7.13829 3:6.27412 
0.5 1:0.0334347 2:-1.32516 3:-1.90824 
