svm_type epsilon_svr
kernel_type linear
nr_class 2
total_sv 4
rho -0.0629833
SV
-0.2504473125812865 1:5.2105 2:4.42495 3:3.73811 
0.5 1:3.13921 2:2.55687 3:2.05179 
0.05727998749848382 1:2.42311 2:3.36698 3:4.4744 
-0.3068326749171969 1:0.0761779 2:0.141624 3:0.183644 
