svm_type epsilon_svr
kernel_type linear
nr_class 2
total_sv 5
rho 0.0294165
SV
0.2802101733937266 1:1.44172 2:4.75714 3:8 
0.3022060515555721 1:-2.63284 2:-3.04287 3:-2.90794 
-0.5 1:-1.73519 2:-1.33706 3:0.754946 
-0.1427060752503481 1:4.02495 2:5.96496 3:9 
0.06028985030104918 1:4.91868 2:6.39275 3:8 
