svm_type epsilon_svr
kernel_type linear
nr_class 2
total_sv 6
rho -0.0903394
SV
-0.2355529050977237 1:0.822535 2:1.57402 3:2.76383 
0.5 1:-1.18138 2:-0.987824 3:-0.46827 
-0.5 1:0.0476484 2:0.0344681 3:0.00945338 
0.1056381795424138 1:5.93429 2:7.42937 3:9 
0.1897002816035943 1:2.80918 2:2.07461 3:1.48272 
-0.05978555604828459 1:0.0418556 2:0.0328833 3:0.0118947 
