svm_type epsilon_svr
kernel_type linear
nr_class 2
total_sv 3
rho -0.100618
SV
-0.0979399221187043 1:0.00020037 2:0.000273237 3:0.000279304 
0.01322133172487736 1:7.89976 2:6.82522 3:5.80029 
0.08471859039382695 1:2.39289 2:2.80486 3:3.26148 
