svm_type epsilon_svr
kernel_type linear
nr_class 2
total_sv 3
rho -0.125974
SV
0.03797342022144461 1:8.26868 2:8.21317 3:8.1664 
0.009901898376171895 1:7.08976 2:6.22632 3:5.44938 
-0.0478753185976165 1:1.01392 2:1.01076 3:1.01076 
