svm_type epsilon_svr
kernel_type linear
nr_class 2
total_sv 3
rho -0.124398
SV
-0.04392170694082041 1:1 2:1 3:1 
0.01276785652917071 1:8.87846 2:8.81858 3:8.75973 
0.0311538504116497 1:8.13014 2:8.22937 3:8.33225 
