svm_type epsilon_svr
kernel_type linear
nr_class 2
total_sv 5
rho -0.0992457
SV
0.02310231884422503 1:9 2:8.72729 3:8.45724 
-0.05968913206199775 1:3.84062 2:3.25109 3:3.0563 
0.01590867318348942 1:9 2:8.85992 3:8.72036 
0.0002991323539896081 1:9 2:8.95827 3:8.91658 
0.02037900768029368 1:9 2:8.96056 3:8.92116 
