svm_type epsilon_svr
kernel_type linear
nr_class 2
total_sv 3
rho -0.1242
SV
0.04071882250443552 1:8.58689 2:8.49693 3:8.41485 
0.002652529587111125 1:8.48373 2:8.57539 3:8.67446 
-0.04337135209154665 1:1.0019 2:1.00062 3:1.00019 
