svm_type epsilon_svr
kernel_type linear
nr_class 2
total_sv 7
rho -0.0999007
SV
-0.4707310679465415 1:5.77357 2:6.43634 3:7.21553 
-0.2805604069786888 1:7.16958 2:7.59207 3:8.04437 
-0.2487085250747679 1:1 2:1 3:1 
-0.5 1:2 2:2 3:2 
0.5 1:3.16758 2:3.45491 3:4.03496 
0.5 1:3.06927 2:3.18607 3:3.41979 
0.5 1:6.43683 2:6.72434 3:7.08333 
