svm_type epsilon_svr
kernel_type linear
nr_class 2
total_sv 10
rho -0.194874
SV
0.5 1:2.5165 2:2.73749 3:3.10306 
-0.5 1:4.95804 2:5.07752 3:5.18716 
-0.1505877812656468 1:4.38194 2:4.39633 3:4.40186 
-0.05017020468159481 1:8.23614 2:8.23799 3:8.21338 
-0.299242014052758 1:3.15465 2:2.89771 3:2.64477 
-0.5 1:3.76548 2:3.78302 3:3.77037 
-0.5 1:3.6896 2:3.65881 3:3.60863 
0.5 1:8.3717 2:7.76312 3:7.19284 
0.5 1:2.42996 2:2.49436 3:2.61191 
0.5 1:3.78788 2:3.936 3:4.15156 
