svm_type epsilon_svr
kernel_type linear
nr_class 2
total_sv 23
rho -0.148056
SV
0.5 1:4.22777 2:4.41721 3:4.6613 
0.5 1:7.38933 2:7.0181 3:6.66686 
0.5 1:2.93971 2:4.95357 3:8 
0.4473684609672614 1:4.38078 2:4.62587 3:4.92752 
0.5 1:2.76656 2:4.76993 3:8 
0.5 1:1.42706 2:1.55488 3:1.8227 
0.5 1:9.94116 2:9.17647 3:8.41176 
-0.5 1:3.42857 2:3.6 3:3.77143 
0.2158689363743186 1:7 2:2.12836 3:1.53506 
-0.5 1:3.82979 2:4.02128 3:4.21277 
-0.04571742639804469 1:5.6 2:6 3:6.39997 
-0.5 1:4.79827 2:5.16985 3:5.53322 
0.4998729549352105 1:9.17646 2:8.47059 3:7.76471 
-0.5 1:2.75148 2:3.43755 3:4.125 
-0.5 1:5.59231 2:6.22777 3:7 
0.5 1:3.51952 2:5.14907 3:7 
-0.5 1:2.89474 2:3.15789 3:3.42105 
-0.1173929258787456 1:2.48166 2:3.97909 3:9 
-0.5 1:7.31239 2:7.92655 3:8.51291 
0.5 1:3.25804 2:5.53886 3:9 
-0.5 1:9.56904 2:9.54884 3:9.44887 
-0.5 1:3.7501 2:3.85786 3:9 
-0.5 1:6.06684 2:6.98415 3:7.89519 
