svm_type epsilon_svr
kernel_type linear
nr_class 2
total_sv 8
rho -0.146404
SV
-0.5 1:5.61815 2:6.67016 3:9 
-0.3482780361502059 1:9 2:5.81276 3:4.17863 
0.1654841884420031 1:8.25345 2:7.52294 3:6.8237 
0.5 1:9 2:8.01083 3:7.05373 
-0.3929215031532356 1:1.98546 2:2.16848 3:2.39402 
-0.322143430564179 1:2.18919 2:2.40454 3:2.64518 
0.5 1:1.86219 2:1.75924 3:1.9304 
0.3978587814256169 1:2.15723 2:3.39208 3:6 
