svm_type epsilon_svr
kernel_type linear
nr_class 2
total_sv 3
rho 0.0160298
SV
-0.1665377910377719 1:6.72414 2:6.12366 3:6.18006 
0.0126052818207553 1:4.12445 2:3.81522 3:3.58083 
0.1539325092170165 1:8.6689 2:8.76962 3:8.6689 
