svm_type epsilon_svr
kernel_type linear
nr_class 2
total_sv 10
rho -0.149136
SV
-0.5 1:2.4186 2:2.23256 3:2.04651 
-0.2373652847225542 1:10.3557 2:10.5454 3:10.6513 
-0.4990887030923369 1:2.8 2:2.6 3:2.4 
-0.5 1:1.05678 2:1.316 3:1.57895 
0.5 1:3.489 2:4.67285 3:6 
-0.5 1:2.74286 2:2.57143 3:2.4 
0.5 1:4.50546 2:3.06659 3:2.27079 
0.5 1:1.5081 2:1.4166 3:1.4577 
0.5 1:2.30962 2:2.13219 3:2.01805 
0.2364539878148915 1:6.24946 2:5.79569 3:5.3889 
