svm_type epsilon_svr
kernel_type linear
nr_class 2
total_sv 31
rho -0.209866
SV
0.5 1:3.51163 2:3.5901 3:3.73171 
0.5 1:4.34072 2:4.13186 3:3.97453 
0.5 1:3.21874 2:2.9798 3:2.79322 
0.5 1:3.85604 2:3.94455 3:4.10655 
0.5 1:5.71862 2:6.17937 3:6.6849 
0.5 1:7.21497 2:6.80843 3:6.42694 
-0.5 1:4.11442 2:4.29464 3:4.42682 
-0.5 1:4.13277 2:4.05556 3:3.94231 
-0.5 1:3.83333 2:3.76578 3:3.68182 
-0.5 1:3.37797 2:3.47147 3:3.56416 
-0.5 1:3.60172 2:3.61229 3:3.62423 
0.5 1:4.4631 2:4.84768 3:5.42335 
-0.5 1:5.32157 2:5.32313 3:5.3078 
-0.5 1:4.22267 2:4.34454 3:4.46145 
-0.5 1:4.34984 2:4.34905 3:4.34477 
0.5 1:3.92361 2:3.84281 3:3.84694 
0.5 1:2.52801 2:3.21798 3:4.0647 
-0.5 1:2.91429 2:3.08571 3:3.25714 
-0.5 1:4.37336 2:4.38753 3:4.39301 
-0.1970229613337186 1:10.1752 2:10.2648 3:10.2697 
0.5 1:3.27427 2:3.1864 3:3.25335 
0.5 1:4.22943 2:5.32229 3:6.61532 
-0.5 1:2.38321 2:2.55323 3:2.7234 
-0.4149949172340572 1:3.91489 2:4.08511 3:4.25532 
-0.5 1:3.65052 2:3.69021 3:3.73807 
0.5 1:3.78987 2:2.93557 3:2.95769 
0.5 1:2.9502 2:2.67923 3:2.70902 
0.4672573555832375 1:2.97524 2:2.73332 3:2.79904 
-0.3552394770154632 1:3.246 2:4.62255 3:7 
0.5 1:3.37934 2:3.94167 3:4.67502 
-0.5 1:2.35375 2:2.58837 3:2.82355 
