svm_type epsilon_svr
kernel_type linear
nr_class 2
total_sv 6
rho -0.162725
SV
0.2576162914445133 1:10.3005 2:10.0162 3:9.57833 
-0.09564146463425645 1:2.00253 2:2.17804 3:2.3987 
0.0003575093387345566 1:9 2:7.65153 3:6.40158 
0.5 1:5.0366 2:4.47181 3:4.00783 
-0.292009713075564 1:5.07584 2:6.40096 3:9 
-0.3703226230734276 1:9 2:5.7048 3:3.88947 
