svm_type epsilon_svr
kernel_type linear
nr_class 2
total_sv 32
rho -0.226266
SV
0.5 1:6.19823 2:6.38001 3:6.58075 
0.5 1:2.10352 2:1.97652 3:1.89484 
0.5 1:5.37774 2:3.96829 3:2.91781 
0.5 1:6.10464 2:4.45248 3:3.21058 
0.5 1:4.66757 2:5.78601 3:7 
0.5 1:4.10621 2:5.16087 3:6.49922 
-0.5 1:8.30445 2:8.28634 3:8.23292 
0.03993973741069361 1:8.66398 2:8.33092 3:8.0037 
-0.5 1:3.61407 2:3.62619 3:3.63617 
-0.5 1:3.57143 2:3.71429 3:3.85714 
-0.5 1:3.48837 2:3.34884 3:3.2093 
-0.5 1:5.31549 2:5.33423 3:5.33579 
0.5 1:3.47341 2:3.35121 3:3.34169 
-0.5 1:2.22857 2:2.05714 3:1.88571 
0.5 1:1.39996 2:1.29232 3:1.28045 
0.5 1:2.25954 2:2.52998 3:2.83191 
0.5 1:1.73171 2:1.91489 3:2.10638 
0.5 1:2.25442 2:1.48625 3:1.19199 
-0.5 1:3.40426 2:3.57447 3:3.74468 
-0.5 1:2.21298 2:2.38298 3:2.55319 
0.5 1:4.53837 2:5.20035 3:6.04789 
-0.5 1:1.92186 2:2.13572 3:2.37896 
-0.5 1:3.57626 2:3.37076 3:3.1576 
-0.5 1:3.52681 2:3.53357 3:3.54442 
-0.0399397374106942 1:3.56679 2:3.55909 3:3.55829 
0.5 1:5.45239 2:5.16144 3:4.97368 
-0.5 1:3.33333 2:3.54167 3:3.75 
-0.5 1:9.39889 2:9.32706 3:9.2215 
0.5 1:4.50149 2:4.50773 3:4.54221 
0.5 1:6.91788 2:7.13957 3:7.37608 
-0.5 1:3.52941 2:3.76471 3:4 
-0.5 1:3.05882 2:2.82355 3:2.58842 
