svm_type epsilon_svr
kernel_type linear
nr_class 2
total_sv 3
rho -0.13199
SV
-0.04597058933305079 1:1.04602 2:1.03701 3:1.02968 
0.03903554880223439 1:7.92319 2:8.26789 3:8.62955 
0.006935040530816409 1:8.02607 2:7.14195 3:6.41295 
