svm_type epsilon_svr
kernel_type linear
nr_class 2
total_sv 3
rho -0.124549
SV
-0.04415122528799195 1:1 2:1 3:1 
0.03116812349454704 1:7.71308 2:8.1171 3:8.55074 
0.01298310179344491 1:9 2:8.9269 3:8.85395 
