svm_type epsilon_svr
kernel_type linear
nr_class 2
total_sv 3
rho -0.125389
SV
0.03880879812804576 1:8.99024 2:8.98049 3:8.97077 
-0.04262385188565665 1:1 2:1 3:1 
0.003815053757610909 1:5.28157 2:4.98478 3:4.73961 
