svm_type epsilon_svr
kernel_type linear
nr_class 2
total_sv 3
rho -0.119487
SV
-0.05332428921986148 1:1 2:1 3:1 
0.03182427977524442 1:6.52722 2:6.97943 3:7.47742 
0.02150000944461706 1:7.6124 2:7.32245 3:7.06491 
