svm_type epsilon_svr
kernel_type linear
nr_class 2
total_sv 3
rho -0.118098
SV
0.06452541536438575 1:5.00733 2:5 3:5 
0.009871566240492314 1:7.54188 2:7.99044 3:8.48333 
-0.07439698160487807 1:1 2:1 3:1 
