svm_type epsilon_svr
kernel_type linear
nr_class 2
total_sv 5
rho -0.169347
SV
0.5 1:4.31501 2:3.91336 3:3.58879 
0.0926369733846079 1:5.22557 2:5.79115 3:6.38761 
-0.5 1:3.73249 2:3.62272 3:3.49488 
-0.06748768649248414 1:3.35006 2:3.3118 3:3.3003 
-0.02514928689212382 1:6.39035 2:5.84036 3:5.40084 
