svm_type epsilon_svr
kernel_type linear
nr_class 2
total_sv 3
rho -0.0767846
SV
-0.04445191339818954 1:1.86334 2:2.09485 3:2.69965 
-0.006009887414571616 1:4.09133 2:3.1852 3:2.72633 
0.05046180081276116 1:8.82702 2:8.94434 3:8.82702 
