svm_type epsilon_svr
kernel_type linear
nr_class 2
total_sv 3
rho -0.0594066
SV
0.04289164323638007 1:10.7674 2:10.6082 3:10.3977 
-0.02018937687917726 1:2.78768 2:3.00296 3:3.62627 
-0.0227022663572028 1:2.91108 2:2.64819 3:2.71297 
