svm_type epsilon_svr
kernel_type linear
nr_class 2
total_sv 10
rho -0.113097
SV
0.5 1:8.90483 2:9.35843 3:9.71996 
-0.2966213104564903 1:7.17162 2:7.16183 3:7.14019 
0.5 1:5.76332 2:5.90645 3:6.07142 
-0.4402249982206802 1:5.82266 2:5.77499 3:5.71977 
0.5 1:5.60132 2:4.22764 3:3.17261 
-0.5 1:4.77558 2:4.5571 3:4.35016 
-0.5 1:3.48837 2:3.34884 3:3.2093 
-0.2631023185120108 1:7.27898 2:7.14144 3:6.98769 
-5.137281081882375e-05 1:4.75633 2:4.63769 3:4.52278 
0.5 1:2.25415 2:2.02772 3:1.95325 
