svm_type epsilon_svr
kernel_type linear
nr_class 2
total_sv 22
rho -0.228234
SV
0.5 1:2.49491 2:2.31681 3:2.16401 
-0.5 1:3.16279 2:3.34884 3:3.53488 
0.5 1:3.82597 2:3.54842 3:3.33069 
0.08067916687762165 1:6.91454 2:6.41436 3:5.96253 
0.5 1:3.14498 2:2.73555 3:2.48217 
0.5 1:1.94391 2:2.52648 3:3.59113 
-0.5 1:3.49473 2:3.48855 3:3.49649 
-0.5 1:3.63498 2:3.64812 3:3.66304 
-0.5 1:3.69539 2:3.66878 3:3.65056 
-0.5 1:2.57433 2:2.71561 3:2.85772 
0.5 1:3.05663 2:3.34182 3:3.68255 
-0.5 1:4.65843 2:4.65223 3:4.63802 
-0.5 1:4.23355 2:4.21611 3:4.19404 
0.5 1:3.96297 2:4.20764 3:4.51242 
0.5 1:3.06671 2:2.85719 3:2.71348 
-0.5 1:1.59967 2:1.84676 3:2.10616 
-0.0170570570559127 1:2.54341 2:2.42778 3:2.39909 
-0.5 1:3.60524 2:3.60309 3:3.58616 
-0.5 1:3.52585 2:3.52001 3:3.51644 
0.5 1:4.09946 2:3.68201 3:3.68996 
0.5 1:4.48267 2:4.36541 3:4.28933 
0.4363778901782908 1:4.58543 2:4.98199 3:5.43359 
