svm_type epsilon_svr
kernel_type linear
nr_class 2
total_sv 31
rho -0.218086
SV
0.5 1:2.87422 2:2.67008 3:2.56882 
0.5 1:3.66904 2:3.20358 3:2.91152 
0.5 1:4.02777 2:3.45447 3:3.07933 
0.5 1:3.22072 2:2.79276 3:2.64312 
0.5 1:5.37442 2:5.76984 3:6.24687 
-0.5 1:3.66907 2:3.68659 3:3.71077 
-0.5 1:3.8797 2:3.94594 3:4.02338 
-0.5 1:3.74564 2:3.76154 3:3.78412 
-0.5 1:3.81938 2:3.8055 3:3.79908 
0.5 1:5.13428 2:5.15844 3:5.2863 
0.5 1:3.01839 2:2.51681 3:2.13829 
-0.5 1:4.27629 2:4.28675 3:4.2948 
0.5 1:2.68933 2:2.85849 3:3.09091 
-0.5 1:3.42856 2:3.25715 3:3.08577 
-0.05605924048494043 1:3.60337 2:3.4546 3:3.30997 
-0.5 1:4.55827 2:4.56466 3:4.55928 
-0.5 1:4.48148 2:4.47706 3:4.46239 
0.5 1:3.57892 2:3.93112 3:4.51921 
0.5 1:6.32693 2:6.77306 3:7.27593 
0.5 1:3.54281 2:4.0302 3:4.63963 
0.5 1:3.71105 2:4.19636 3:4.79386 
-0.5 1:3.57512 2:3.74496 3:3.915 
-0.5 1:3.83583 2:3.62451 3:3.39331 
-0.02833237363531418 1:3.48181 2:3.53415 3:3.61694 
-0.5 1:3.63997 2:3.65967 3:3.68701 
-0.5 1:3.77899 2:3.74044 3:3.71068 
-0.5 1:4.00325 2:4.05837 3:4.12016 
-0.2781269969592495 1:8.37119 2:8.43465 3:8.48054 
0.5 1:6.32617 2:6.14461 3:5.98414 
-0.137481388920495 1:6.0992 2:7.27016 3:9 
0.5 1:5.02492 2:4.50125 3:4.07735 
