svm_type epsilon_svr
kernel_type linear
nr_class 2
total_sv 4
rho -0.151085
SV
-0.3665350978931587 1:2.57237 2:2.71466 3:2.85728 
0.5 1:3.95907 2:4.68321 3:5.63579 
0.09642412828941729 1:8.18885 2:7.39798 3:6.64641 
-0.2298890303962586 1:6.54806 2:7.58126 3:9 
