svm_type epsilon_svr
kernel_type linear
nr_class 2
total_sv 6
rho -0.150167
SV
-0.291933471325468 1:4.04595 2:4.50803 3:5 
-0.03507081496527218 1:3.7755 2:3.45709 3:3.20513 
-0.5 1:3.99135 2:4.87102 3:6.62487 
-0.1557113661244297 1:6.11073 2:5.99029 3:6.03528 
0.4827156524151696 1:9.11149 2:8.97212 3:8.59716 
0.5 1:0.833333 2:0.625 3:4.53046 
