svm_type epsilon_svr
kernel_type linear
nr_class 2
total_sv 6
rho -0.163801
SV
0.5 1:4.52958 2:4.05413 3:3.6741 
0.5 1:3.91151 2:4.28298 3:4.72611 
-0.06619936978728445 1:3.48866 2:3.3502 3:3.21232 
-0.129555917579159 1:4.70258 2:4.73194 3:4.75225 
-0.324194692296887 1:3.78987 2:3.84351 3:3.86258 
-0.4800500203366696 1:3.72703 2:3.74382 3:3.73313 
