svm_type epsilon_svr
kernel_type linear
nr_class 2
total_sv 3
rho -0.0730667
SV
0.04364855146217157 1:8.72289 2:8.81509 3:8.9075 
-0.007574529792929902 1:2.68394 2:4.43328 3:6.60374 
-0.03607402166924165 1:0.877824 2:0.605031 3:0.455027 
