svm_type epsilon_svr
kernel_type linear
nr_class 2
total_sv 10
rho -0.0392772
SV
-0.5 1:1.81359 2:3.03005 3:4.6884 
-0.5 1:0.724675 2:1.11447 3:1.67218 
0.5 1:-0.145868 2:-0.867483 3:-0.121101 
0.5 1:6.48383 2:5.69868 3:4.95671 
0.231268468458931 1:4.59267 2:3.59128 3:2.70517 
-0.5 1:0.123053 2:0.340086 3:0.830074 
-0.3628115837623779 1:3.7091 2:1.02549 3:-1.88144 
0.5 1:-6.73178 2:-4.93647 3:-2.25707 
-0.3684568846965525 1:0.118821 2:0.27053 3:0.568343 
0.5 1:4.58123 2:3.98176 3:3.42472 
