svm_type epsilon_svr
kernel_type linear
nr_class 2
total_sv 9
rho -0.0718009
SV
-0.5 1:0.176585 2:0.150859 3:0.0695743 
-0.2929998459735104 1:0.651625 2:1.51708 3:3.06318 
-0.5 1:0.757888 2:0.427688 3:0.00448759 
-0.2562350972920778 1:0.0424696 2:0.0884307 3:0.118557 
0.4218988662949848 1:2.43591 2:1.67689 3:1.10985 
-0.3726639230293969 1:0.872371 2:0.428596 3:0.31053 
0.5 1:0.292399 2:0.143707 3:0.102777 
0.5 1:-0.679354 2:-0.270037 3:0.205632 
0.5 1:0.96605 2:1.23502 3:1.55821 
