svm_type epsilon_svr
kernel_type linear
nr_class 2
total_sv 5
rho 0.055346
SV
0.02907457001360383 1:3.876 2:4.7671 3:5.73638 
-0.1584378327804132 1:8 2:4.84902 3:2.41805 
0.1293632627668097 1:0.196907 2:0.283696 3:0.0563621 
-0.5 1:-0.163308 2:-0.394039 3:0.228954 
0.5 1:2.60641 2:1.77805 3:1.15657 
