svm_type epsilon_svr
kernel_type linear
nr_class 2
total_sv 12
rho -0.0776734
SV
-0.1562224115766108 1:5.13969 2:6.02349 3:6.9759 
0.5 1:0.35229 2:0.492752 3:0.677692 
0.5 1:1.85147 2:0.918174 3:0.259551 
-0.5 1:-0.0817976 2:0.0772022 3:0.20577 
-0.5 1:0.0875693 2:0.391728 3:0.556226 
0.5 1:1.56749 2:1.01257 3:0.625531 
-0.5 1:0.0635851 2:0.0563603 3:0.0227896 
0.5 1:3.92079 2:3.0076 3:2.17777 
0.5 1:3.12129 2:4.35262 3:5.77922 
-0.5 1:2.4208 2:1.28479 3:0.618766 
-0.04740123130235963 1:6.72403 2:6.03981 3:5.41708 
-0.2963763571210284 1:9 2:8.441 3:7.89343 
