svm_type epsilon_svr
kernel_type linear
nr_class 2
total_sv 13
rho -0.0503378
SV
-0.5 1:0.188661 2:0.211962 3:0.165312 
0.5 1:5.2772 2:6.15273 3:7.07425 
-0.5 1:-0.854334 2:-0.997788 3:-0.297265 
0.5 1:-1.48098 2:-1.35481 3:-0.904418 
-0.5 1:0.746143 2:1.55362 3:2.08286 
-0.326333049423378 1:0.995937 2:0.571646 3:0.30815 
0.5 1:8.62567 2:8.8125 3:9 
0.007081363632367188 1:8.46488 2:8.64221 3:8.82079 
-0.5 1:2.14737 2:3.39886 3:5.01462 
0.5 1:-5.28613 2:-6.37179 3:-6.40349 
0.5 1:-3.2779 2:-3.07264 3:-1.59335 
0.3192516857910097 1:3.53042 2:4.17062 3:4.87068 
-0.5 1:2.22619 2:2.65764 3:2.15687 
