svm_type epsilon_svr
kernel_type linear
nr_class 2
total_sv 25
rho -0.0872361
SV
-0.5 1:1.6086 2:1.05874 3:0.676988 
-0.3001211366778922 1:2.14999 2:2.77195 3:3.53629 
-0.06759893268673499 1:7.044 2:6.12171 3:5.26376 
-0.00748224412924426 1:5.1794 2:4.74802 3:4.40316 
0.5 1:1.59669 2:1.31631 3:1.07509 
0.5 1:-0.0751781 2:-0.969737 3:-1.51898 
-0.5 1:0.989047 2:0.723403 3:0.172879 
0.5 1:4.01828 2:3.20848 3:2.50448 
-0.5 1:0.13979 2:0.137542 3:0.0299592 
0.5 1:-0.369306 2:-1.28827 3:-1.73248 
0.5 1:-0.622697 2:-0.561057 3:-0.227581 
-0.5 1:0.43062 2:0.382605 3:0.155738 
0.5 1:-0.777919 2:-0.518736 3:-0.146588 
0.5 1:1.25993 2:1.57013 3:1.92728 
0.5 1:5.38553 2:6.23804 3:7.13379 
0.5 1:0.693457 2:0.89388 3:1.1432 
0.5 1:4.82164 2:3.03686 3:1.6521 
-0.5 1:0.179979 2:0.424191 3:0.967419 
-0.1902738089437169 1:0.75691 2:0.400943 3:0.200106 
-0.4345238775624115 1:1.14102 2:1.60029 3:2.21526 
-0.5 1:4.82543 2:3.97855 3:3.24749 
-0.5 1:4.09153 2:3.93862 3:3.88842 
0.5 1:1.897 2:2.98425 3:4.30492 
-0.5 1:0.0721846 2:0.125824 3:0.136049 
-0.5 1:0.899099 2:1.00926 3:0.95394 
