svm_type epsilon_svr
kernel_type linear
nr_class 2
total_sv 17
rho -0.100393
SV
0.5 1:-0.374237 2:1.42647 3:-1.04106 
0.5 1:-0.0258106 2:-0.242906 3:-0.366703 
-0.5 1:0.174553 2:0.0451076 3:-0.0992238 
-0.5 1:2.52337 2:1.45628 3:-0.129386 
-0.5 1:1.0098 2:1.93187 3:2.31666 
0.5 1:1.39247 2:-0.27995 3:-0.995444 
0.5 1:2.52931 2:1.33458 3:0.37203 
-0.5 1:4.96942 2:6.63962 3:8 
-0.5 1:1.13974 2:0.623501 3:-0.194801 
-0.02004650812938549 1:-0.61779 2:0.536326 3:0.00942779 
-0.5 1:0.0213255 2:0.0198396 3:0.0149182 
-0.09646361581742306 1:1.61507 2:1.06602 3:0.686277 
-0.2752617624747544 1:7.04779 2:6.12787 3:5.27287 
0.5 1:4.3148 2:5.4634 3:6.70675 
-0.001220023446236095 1:4.21847e-05 2:2.14338e-05 3:-7.63918e-06 
0.3929919098677989 1:6.63167 2:7.40473 3:8.19738 
0.5 1:1.48714 2:1.83682 3:2.2381 
