svm_type epsilon_svr
kernel_type linear
nr_class 2
total_sv 26
rho -0.0843704
SV
-0.5 1:2.40012 2:1.26412 3:0.602111 
-0.2139627648712759 1:2.24641 2:1.76377 3:1.42078 
-0.5 1:6.71526 2:6.02778 3:5.40154 
0.5 1:3.48541 2:3.92925 3:4.40374 
0.1961583656150014 1:5.47684 2:6.59431 3:7.77946 
-0.5 1:7.0531 2:6.12776 3:5.24424 
-0.5 1:5.7956 2:5.12036 3:4.49403 
0.5 1:3.61716 2:4.05281 3:5.46426 
-0.5 1:-0.203472 2:0.18878 3:0.429852 
0.5 1:1.6035 2:1.97783 3:2.39846 
0.5 1:2.75402 2:1.02948 3:0.31167 
-0.5 1:-0.15603 2:0.23116 3:0.116124 
-0.4183101918488961 1:9 2:8.30806 3:7.62309 
0.5 1:4.21709 2:2.98036 3:1.94005 
0.5 1:3.6613 2:2.5952 3:1.67676 
-0.5 1:0.510999 2:-2.48091 3:0.73968 
0.5 1:1.9483 2:0.220539 3:-0.0519893 
0.5 1:1.81497 2:0.152578 3:-0.595874 
0.4361145911051703 1:-0.314904 2:-0.266767 3:-0.126581 
0.5 1:1.62474 2:2.06929 3:2.58587 
-0.5 1:1.12081 2:0.306722 3:-0.558101 
-0.5 1:0.438303 2:1.05736 3:1.50151 
-0.5 1:0.0646067 2:0.0687031 3:0.0614355 
-0.5 1:-0.0228017 2:0.0441543 3:0.0928021 
0.5 1:6.2445 2:5.39656 3:4.60466 
0.5 1:-0.0566598 2:-0.128159 3:-0.124612 
