svm_type epsilon_svr
kernel_type linear
nr_class 2
total_sv 4
rho -0.0771319
SV
-0.0214362844758812 1:0.0707676 2:0.0910696 3:0.0778675 
-0.06260161794842799 1:0.331167 2:0.815219 3:1.75161 
0.082011336178255 1:3.93575 2:4.54929 3:5.21023 
0.002026566246054225 1:8.30192 2:7.6104 3:6.93181 
