svm_type epsilon_svr
kernel_type linear
nr_class 2
total_sv 3
rho -0.100033
SV
-0.06310679805356809 1:0.000796712 2:0.000624653 3:0.000658512 
0.03790597348981564 1:3.51241 2:4.06889 3:4.67257 
0.02520082456375244 1:7.55804 2:6.85517 3:6.17342 
