svm_type epsilon_svr
kernel_type linear
nr_class 2
total_sv 7
rho -0.0123947
SV
-0.5 1:0.72586 2:1.6267 3:3.17619 
-0.003082588294747385 1:1.63045 2:-0.240653 3:-1.91805 
-0.5 1:-1.45479 2:-1.24917 3:-0.0146586 
-0.2903124033822518 1:-1.32953 2:-1.90834 3:-1.37035 
0.5 1:-3.72641 2:-1.93236 3:0.662923 
0.2933949916769989 1:8.10596 2:8.55211 3:9 
0.5 1:-1.90837 2:-3.0015 3:-3.04179 
