svm_type epsilon_svr
kernel_type linear
nr_class 2
total_sv 4
rho -0.067533
SV
-0.5 1:1.00107 2:0.602235 3:-0.0407101 
0.4600196337404455 1:-0.595391 2:-0.497844 3:-0.235999 
0.1972207128088213 1:8 2:7.01397 3:6.0509 
-0.1572403465492672 1:3.07174 2:3.73165 3:4.47382 
