svm_type epsilon_svr
kernel_type linear
nr_class 2
total_sv 7
rho 0.0257271
SV
0.5 1:-3.90757 2:-1.11716 3:2.04193 
0.5 1:-0.997784 2:-1.77106 3:-1.95985 
0.3837214935371943 1:9 2:8.48017 3:7.96306 
-0.2583993763827006 1:-2.7522 2:0.627834 3:3.98232 
-0.4145067966446216 1:0.0255897 2:-0.214656 3:1.56921 
-0.2108153205098721 1:0.928828 2:1.67532 3:2.05698 
-0.5 1:2.425 2:2.03109 3:1.30121 
