svm_type epsilon_svr
kernel_type linear
nr_class 2
total_sv 9
rho 0.000688433
SV
-0.5 1:5.76089 2:3.7952 3:2.2773 
0.5 1:9 2:8.39095 3:7.78784 
0.09041745796440404 1:9 2:8.6325 3:8.26834 
-0.5 1:0.58776 2:1.02102 3:1.6776 
0.5 1:9 2:8.29935 3:7.60587 
-0.2228960421755125 1:-2.3652 2:0.726686 3:3.56783 
0.5 1:-6.75808 2:-10.4295 3:-9.77643 
-0.5 1:7.35666 2:5.07866 3:1.01921 
0.132478584211108 1:5.00504 2:4.53647 3:4.08696 
