svm_type epsilon_svr
kernel_type linear
nr_class 2
total_sv 35
rho -0.10027
SV
-0.5 1:0.650845 2:0.252389 3:-0.22936 
-0.5 1:0.00195656 2:0.00203484 3:0.00144166 
0.1254307238511728 1:8.48017 2:7.96306 3:7.45133 
-0.01570344290578423 1:5.64559 2:3.44398 3:0.722456 
-0.311364277291627 1:-0.733538 2:-0.0762484 3:0.608193 
0.5 1:-3.15417 2:-2.59903 3:-1.01938 
0.5 1:4.82897 2:6.31305 3:8 
0.5 1:3.31077 2:0.341997 3:-2.01855 
-0.5 1:0.284059 2:0.502984 3:0.445189 
0.5 1:-2.35717 2:-4.20691 3:-4.46116 
0.5 1:-1.12732 2:-1.28452 3:-0.968361 
-0.5 1:-0.0146705 2:0.0895288 3:0.120783 
0.5 1:1.7998 2:2.54791 3:3.4686 
-0.5 1:1.24025 2:0.488963 3:0.157678 
-0.5 1:0.0458706 2:0.0286523 3:0.0300555 
-0.5 1:1.50031 2:1.78544 3:2.16499 
0.5 1:1.24507 2:0.867679 3:0.591604 
0.5 1:-1.80873 2:-2.21473 3:-2.13842 
0.5 1:-0.764581 2:-0.324448 3:0.20669 
-0.5 1:0.0784238 2:0.0710059 3:0.053935 
0.5 1:0.900802 2:0.0475923 3:-0.228145 
0.5 1:-2.21555 2:-2.89075 3:-3.04823 
0.5 1:1.28327 2:2.33401 3:3.60742 
-0.5 1:0.347845 2:0.280007 3:0.0748557 
0.5 1:0.289226 2:0.195819 3:0.149939 
-0.5 1:0.0635282 2:0.0452531 3:0.000506605 
-0.5 1:0.0718816 2:0.118567 3:0.191652 
-0.5 1:0.0941263 2:0.0566356 3:-0.0275035 
-0.5 1:0.479735 2:0.15986 3:-0.215174 
0.5 1:0.194909 2:0.0699432 3:0.0618392 
0.5 1:1.57771 2:2.02163 3:2.54016 
-0.5 1:2.34948 2:2.65583 3:2.52288 
-0.5 1:0.49205 2:0.914783 3:1.1862 
-0.2983630036537614 1:3.48891e-05 2:1.79126e-05 3:-5.77003e-06 
0.5 1:3.08812 2:2.58113 3:2.12909 
