svm_type epsilon_svr
kernel_type linear
nr_class 2
total_sv 31
rho -0.100267
SV
-0.5 1:0.341175 2:0.478223 3:0.421429 
0.5 1:0.845196 2:0.578726 3:0.389341 
0.5 1:5.83643 2:7.35898 3:9 
0.5 1:0.382829 2:0.28627 3:0.239732 
-0.5 1:-0.93286 2:0.341411 3:1.49411 
0.5 1:1.62627 2:2.56337 3:3.71971 
0.5 1:-1.23653 2:-0.698412 3:0.15749 
0.5 1:1.49864 2:2.10226 3:2.81534 
0.5 1:0.315752 2:0.561045 3:0.996566 
0.5 1:1.61894 2:3.03324 3:4.62474 
0.5 1:0.232195 2:0.00212322 3:-0.0181945 
-0.5 1:0.00843545 2:0.0129553 3:0.00837125 
-0.02483519932195227 1:0.185934 2:0.188802 3:0.245667 
-0.5 1:2.92402 2:3.35732 3:3.86543 
-0.5 1:5.36647 2:5.98596 3:6.63853 
0.5 1:1.9857 2:1.3252 3:0.782262 
0.3376321500970877 1:6.92209 2:5.877 3:4.83561 
-0.5 1:6.85513 2:7.9153 3:9 
-0.5 1:-0.00856751 2:0.0226954 3:0.0356905 
0.00070396920404822 1:2.53519 2:2.12942 3:1.76417 
0.5 1:1.45386 2:2.58481 3:4.12212 
-0.5 1:-0.0089674 2:-0.00729527 3:0.0110915 
-0.2864821992192311 1:7.50285 2:8.24713 3:9 
-0.5 1:0.000822033 2:0.00192352 3:0.00177988 
-0.5 1:0.0115079 2:0.00782485 3:-0.00753943 
-0.5 1:3.8777 2:4.5998 3:5.37091 
-0.5 1:0.00546912 2:0.00649694 3:0.0021749 
0.5 1:3.04857 2:2.56211 3:2.124 
-0.5 1:0.314448 2:0.201449 3:0.0551288 
0.5 1:1.76947 2:1.31498 3:0.955656 
-0.02701872075995149 1:4.28829e-06 2:2.99587e-06 3:2.10029e-06 
