svm_type epsilon_svr
kernel_type linear
nr_class 2
total_sv 18
rho -0.0946477
SV
0.06508464759907236 1:2.8507 2:2.18556 3:1.63808 
-0.5 1:5.42671 2:6.25513 3:7.11859 
-0.07800255395038701 1:6.58233 2:7.28514 3:8 
0.5 1:1.96743 2:0.0595457 3:-1.1484 
-0.5 1:6.68664 2:5.54202 3:4.15785 
0.5 1:-0.159931 2:-0.503683 3:-0.757227 
0.5 1:3.06388 2:2.25103 3:1.54505 
-0.5 1:-0.909853 2:-0.648079 3:0.33165 
-0.5 1:0.332249 2:0.0888217 3:-0.198163 
0.5 1:3.03193 2:4.92138 3:7 
-0.5 1:0.546645 2:0.182997 3:-0.331377 
-0.4870820936486867 1:0.0114896 2:0.0104788 3:0.00585236 
0.5 1:0.864096 2:1.84293 3:3.46164 
0.5 1:3.68263 2:2.82559 3:2.01767 
-0.5 1:-0.058082 2:0.0273762 3:0.108323 
-0.5 1:0.0264388 2:0.0372165 3:0.0264619 
0.5 1:-0.258285 2:-0.00235005 3:0.358258 
0.5 1:1.37875 2:1.06049 3:0.801319 
