svm_type epsilon_svr
kernel_type linear
nr_class 2
total_sv 5
rho -0.0206698
SV
-0.1068374710199375 1:8 2:6.82099 3:5.57388 
-0.5 1:0.209029 2:0.452207 3:0.517341 
-0.2464153137473201 1:8.3269 2:8.66277 3:9 
0.5 1:3.38824 2:4.16879 3:5.03038 
0.3532527847672572 1:4.75686 2:3.60629 3:2.64165 
