svm_type epsilon_svr
kernel_type linear
nr_class 2
total_sv 29
rho -0.107529
SV
0.5 1:0.904876 2:-1.75698 3:-3.70667 
-0.5 1:-0.00149827 2:-0.00100822 3:-8.22013e-05 
0.5 1:1.64657 2:-3.62198 3:-7.69521 
-0.5 1:0.00502037 2:0.00693132 3:0.0094994 
-0.5 1:0.0121154 2:0.00928826 3:0.00715248 
0.5 1:8.73665 2:8.86825 3:9 
0.2181456397794469 1:8.75547 2:8.87767 3:9 
-0.5 1:6.87325 2:1.71106 3:-4.06043 
0.5 1:8.57767 2:8.78841 3:9 
-0.1971389292495089 1:-3.60758 2:2.84569 3:8.25028 
0.5 1:4.33379 2:5.47784 3:6.7147 
0.5 1:-5.18904 2:-4.2745 3:-1.28894 
-0.4041742302000307 1:0.082986 2:0.0621877 3:0.0474857 
-0.1168324803299076 1:5.86672 2:4.48162 3:-0.554948 
0.5 1:-5.90898 2:-0.171868 3:5.64559 
-0.5 1:7.35261e-05 2:0.000636735 3:0.00094383 
0.5 1:1.27693 2:-2.34275 3:-5.45224 
-0.5 1:-0.00992459 2:-0.00817401 3:-0.00463934 
0.5 1:-5.66159 2:-7.95641 3:-8.82627 
-0.5 1:1.03862 2:-5.56574 3:-7.6901 
-0.5 1:6.22078 2:5.66013 3:2.32378 
-0.5 1:0.00221857 2:0.00133773 3:0.00079253 
-0.5 1:4.78627 2:7.49676 3:5.34786 
-0.5 1:-0.0407427 2:4.49156 3:6.39529 
0.5 1:8.8067 2:7.80627 3:2.45862 
0.5 1:-0.568014 2:-0.466472 3:-0.203973 
0.5 1:0.356089 2:-0.647929 3:-1.54477 
-0.5 1:-0.0075645 2:0.41427 3:0.593664 
0.5 1:0.15295 2:0.203681 3:0.281027 
