svm_type epsilon_svr
kernel_type linear
nr_class 2
total_sv 5
rho -0.0680733
SV
-0.1449262803143683 1:-0.386423 2:0.676018 3:1.50492 
-0.5 1:0.337954 2:0.526602 3:0.469594 
0.5 1:-1.53599 2:-1.34026 3:-0.904489 
0.09337711966677173 1:8.56291 2:8.70775 3:8.85362 
0.05154916064759652 1:8.89359 2:8.78732 3:8.6813 
