svm_type epsilon_svr
kernel_type linear
nr_class 2
total_sv 32
rho -0.104951
SV
-0.5 1:9.20199 2:7.56073 3:5.21539 
-0.5 1:0.0149283 2:0.0112926 3:0.00850964 
0.5 1:8.69119 2:8.79394 3:8.89692 
0.5 1:8.75562 2:8.83693 3:8.91842 
-0.5 1:-2.19218 2:6.20889 3:10.8402 
0.02697429359725476 1:8.5613 2:8.12455 3:7.69168 
0.5 1:9 2:8.61413 3:8.22986 
0.5 1:8.77128 2:8.54347 3:8.31746 
0.04085202559449087 1:8.66894 2:8.83414 3:9 
0.5 1:1.13403 2:4.53176 3:4.45888 
0.5 1:8 2:6.90122 3:5.83062 
0.5 1:-3.60112 2:-5.86042 3:-5.28031 
-0.5 1:0.00163046 2:0.00417745 3:0.00477437 
0.5 1:7.96777 2:5.29971 3:-1.68636 
-0.5 1:0.00751596 2:0.00403449 3:0.00210806 
-0.5 1:9.53211 2:3.77685 3:-3.74392 
-0.5 1:0.00139073 2:0.00249867 3:0.00416507 
0.5 1:-8.88132 2:-8.57531 3:-6.40186 
-0.5 1:0.0067588 2:0.00681179 3:0.00697483 
0.1113147513645388 1:6.46541 2:0.632043 3:-5.64255 
0.5 1:-6.74087 2:-3.08208 3:1.1287 
0.5 1:9.16714 2:8.68141 3:1.20779 
0.5 1:8.80244 2:8.60558 3:8.41011 
-0.3843236685232617 1:0.0129306 2:0.00806526 3:0.00494015 
-0.5 1:0.0110832 2:0.00691305 3:0.00423455 
-0.2948174020330231 1:3.61339 2:-6.27713 3:-10.9975 
-0.5 1:5.85824 2:4.11951 3:0.959345 
-0.5 1:6.91179 2:9.74775 3:10.9713 
0.5 1:-10.9987 2:-7.89801 3:-0.175184 
-0.5 1:0.0011044 2:0.00200011 3:0.00354661 
0.5 1:-5.17343 2:-11.3716 3:-12.8546 
-0.5 1:3.92873 2:7.82025 3:8.96865 
