svm_type epsilon_svr
kernel_type linear
nr_class 2
total_sv 17
rho -0.096171
SV
-0.5 1:0.044994 2:0.0714201 3:0.0742763 
0.001068091804667634 1:5.866 2:6.87499 3:7.92542 
0.5 1:1.84624 2:2.21201 3:2.62502 
0.5 1:-0.59707 2:-0.904514 3:-0.728156 
-0.5 1:0.585746 2:0.301757 3:-0.0993631 
0.5 1:0.197143 2:0.92838 3:2.28959 
-0.1065230027634953 1:7.63745 2:8.31562 3:9 
-0.5 1:-0.0538225 2:0.0137178 3:0.0707525 
-0.5 1:0.325373 2:0.943327 3:1.21365 
-0.5 1:0.338536 2:0.417338 3:0.293937 
-0.5 1:0.235469 2:0.208715 3:0.0843949 
0.5 1:2.08691 2:2.51582 3:3.09547 
0.05444251929324732 1:1.28168 2:2.07269 3:3.01867 
-0.4489876083344176 1:5.95915 2:6.47729 3:7 
0.5 1:-0.931419 2:-0.890113 3:-0.689385 
0.5 1:2.71284 2:3.2398 3:3.91992 
0.5 1:3.9874 2:2.12866 3:0.0542622 
