svm_type epsilon_svr
kernel_type linear
nr_class 2
total_sv 12
rho -0.0408812
SV
0.5 1:3.63913 2:4.19227 3:4.78845 
0.5 1:-1.85595 2:-2.15237 3:-1.68235 
-0.5 1:0.435405 2:1.1605 3:1.42814 
-0.5 1:2.12241 2:2.32787 3:1.67575 
-0.5 1:0.402748 2:0.834011 3:0.861194 
-0.5 1:0.631914 2:0.255518 3:-0.240321 
0.5 1:-1.18604 2:-1.2369 3:-1.0184 
0.5 1:-0.567926 2:-0.252535 3:0.417776 
-0.5 1:0.956361 2:1.52993 3:1.83003 
0.05444167336635319 1:9 2:6.79072 3:4.65063 
0.003508346041118426 1:1.55895 2:1.94905 3:2.40073 
0.4420499805925272 1:5.42655 2:4.83175 3:4.26743 
