svm_type epsilon_svr
kernel_type linear
nr_class 2
total_sv 4
rho -0.0123502
SV
-0.5 1:0.414097 2:0.730368 3:0.792169 
0.229272921265157 1:1.10769 2:1.7941 3:2.75144 
0.2334478463250821 1:-0.165516 2:-0.309825 3:-0.397519 
0.03727923240976051 1:9 2:7.82574 3:6.6817 
