svm_type epsilon_svr
kernel_type linear
nr_class 2
total_sv 10
rho -0.101012
SV
-0.5 1:6.69824 2:6.3481 3:6.05285 
-0.4789500461803982 1:1 2:1 3:1 
-0.5 1:2 2:2 3:2 
0.5 1:3.30426 2:3 3:3 
-0.180989103924643 1:3 2:3 3:3 
0.5 1:3.12484 2:3 3:3 
-0.03129784403449785 1:3 2:3 3:3 
0.5 1:3.57677 2:3.14088 3:2.79832 
0.5 1:6 2:6 3:6 
-0.3087630058604604 1:7 2:6.55438 3:6.12418 
