svm_type epsilon_svr
kernel_type linear
nr_class 2
total_sv 4
rho -0.11528
SV
0.5 1:2.14482 2:1.72566 3:1.43076 
-0.3712384201466144 1:1 2:1 3:1 
0.08487252337524674 1:6.83355 2:7.09789 3:7.40887 
-0.2136341032286322 1:4.18567 2:3.65789 3:3.2209 
