svm_type epsilon_svr
kernel_type linear
nr_class 2
total_sv 6
rho -0.102327
SV
-0.5 1:5.51191 2:4.98996 3:4.61544 
-0.3705161604122904 1:4.90661 2:4.7189 3:4.60753 
0.5 1:6.77722 2:5.66676 3:4.7509 
0.5 1:3.63102 2:4.01245 3:4.53941 
-0.1025677650357032 1:2 2:2 3:2 
-0.02691607455200644 1:3 2:3 3:3 
