svm_type epsilon_svr
kernel_type linear
nr_class 2
total_sv 4
rho -0.118006
SV
-0.04641777596309621 1:5.45021 2:6.65017 3:9 
-0.01812008798470029 1:1.14465 2:1.09997 3:1.06871 
-0.02649622668607944 1:5.37432 2:4.69515 3:4.14686 
0.09103409063387578 1:8.52969 2:8.7624 3:9 
