svm_type epsilon_svr
kernel_type linear
nr_class 2
total_sv 14
rho -0.10062
SV
-0.05893542047154126 1:4.18254 2:4.5544 3:5.40459 
-0.5 1:6.69576 2:7.09456 3:7.53382 
-0.5 1:7.44166 2:7.80225 3:8.1875 
0.5 1:5.02351 2:5.06423 3:5.15187 
0.5 1:3.02806 2:3.09192 3:3.2535 
0.5 1:4.94212 2:5.82784 3:6.86988 
-0.4516648562993711 1:4.95385 2:4.97684 3:5 
0.5 1:5.21063 2:5.39563 3:5.6857 
-0.434581493826556 1:3 2:3 3:3 
-0.2458626653969424 1:2 2:2 3:2 
-0.0004432123094188487 1:6.54471 2:6.77125 3:7 
0.5 1:6.05464 2:5.39042 3:5.11736 
-0.2884880551141589 1:1.00001 2:1 3:1 
-0.02002429658201321 1:5.25775 2:5.62721 3:6 
