svm_type epsilon_svr
kernel_type linear
nr_class 2
total_sv 3
rho -0.174373
SV
0.05939373722837172 1:6.57616 2:5.86164 3:5.2201 
0.0284469503984398 1:6.75618 2:7.45779 3:8.21455 
-0.08784068762681153 1:2.76172 2:2.67558 3:2.66891 
