svm_type epsilon_svr
kernel_type linear
nr_class 2
total_sv 3
rho -0.175658
SV
0.03592731903674096 1:10.8255 2:10.5901 3:10.1171 
0.01157282924154362 1:6.28736 2:6.91425 3:7.58433 
-0.04750014827828457 1:2.95297 2:2.76921 3:2.6262 
