svm_type epsilon_svr
kernel_type linear
nr_class 2
total_sv 3
rho -0.0967458
SV
0.09938762950735022 1:9.95953 2:9.48897 3:8.93943 
-0.005186057863221146 1:4.59271 2:5.25599 3:6 
-0.09420157164412907 1:7.31843 2:6.00779 3:5.28617 
