svm_type epsilon_svr
kernel_type linear
nr_class 2
total_sv 15
rho -0.218422
SV
-0.5 1:2.89474 2:3.18421 3:3.47368 
-0.3761752213900753 1:2.89474 2:3.18421 3:3.47368 
0.5 1:2.66775 2:2.34671 3:2.09806 
0.5 1:1.77047 2:2.06443 3:2.40044 
0.5 1:4.28443 2:4.03452 3:3.84572 
0.008772001771387017 1:7.04894 2:6.70341 3:6.38071 
-0.5 1:2.00001 2:1.75019 3:1.50374 
0.5 1:1.79165 2:2.15213 3:2.57208 
0.5 1:1.95631 2:2.3361 3:3.06139 
-0.5 1:5.11513 2:5.1258 3:5.11513 
0.5 1:5.55539 2:5.09741 3:4.74092 
-0.5 1:2.47407 2:2.58436 3:2.74368 
-0.5 1:3.31494 2:3.4274 3:3.53299 
-0.3451490790265155 1:3.49585 2:3.48954 3:3.48901 
0.212552298645204 1:7.0853 2:7.40561 3:7.76636 
