svm_type epsilon_svr
kernel_type linear
nr_class 2
total_sv 13
rho -0.218436
SV
0.5 1:7.22348 2:8.2435 3:9.25968 
0.5 1:5.66693 2:5.93953 3:6.24367 
-0.5 1:3.67159 2:3.64049 3:3.60843 
-0.5 1:3.88442 2:3.77162 3:3.66045 
-0.3484551806474502 1:4.72291 2:4.67137 3:4.60644 
-0.2967649397547208 1:4.60071 2:4.5411 3:4.47015 
0.06455834935740483 1:6.53463 2:6.88438 3:7.24823 
-0.1931854784281552 1:3.60612 2:3.58915 3:3.58 
0.5 1:2.94044 2:2.61425 3:2.42899 
-0.2261527505270786 1:6.25 2:5.625 3:5 
0.5 1:2.3956 2:1.86219 3:1.57819 
-0.5 1:7.33333 2:6.41668 3:5.50032 
0.5 1:7 2:4.42716 3:2.56226 
