svm_type epsilon_svr
kernel_type linear
nr_class 2
total_sv 17
rho -0.196092
SV
0.5 1:4.48126 2:4.56887 3:4.69439 
0.0006238254523300865 1:4.99329 2:5.12249 3:5.295 
0.5 1:5.33092 2:5.52402 3:5.76715 
-0.5 1:6.60764 2:6.59755 3:6.56742 
0.5 1:4.06861 2:3.8459 3:3.75036 
-0.5 1:3.90144 2:3.85254 3:3.78026 
-0.5 1:3.56075 2:3.57136 3:3.58452 
-0.5 1:4.59484 2:4.63997 3:4.67699 
0.2884105239746326 1:3.48164 2:4.21172 3:5 
-0.5 1:3.73045 2:3.55544 3:3.36316 
-0.5 1:3.798 2:3.75335 3:3.68157 
-0.1789100901743686 1:3.49952 2:3.4749 3:3.4632 
0.5 1:6.1019 2:5.72291 3:5.43392 
0.5 1:6.66392 2:6.26426 3:5.89839 
0.3898757407474058 1:6.95626 2:6.59875 3:6.26725 
-0.5 1:8.16918 2:8.20492 3:8.16918 
0.5 1:2.36077 2:2.33403 3:2.435 
