svm_type epsilon_svr
kernel_type linear
nr_class 2
total_sv 26
rho -0.24661
SV
0.5 1:6.19502 2:6.60216 3:7.04101 
0.123591174847072 1:5.55794 2:5.702 3:5.87063 
-0.003393410900176678 1:2.251 2:2.42645 3:2.60773 
0.5 1:5.26295 2:5.22362 3:5.22227 
-0.5 1:7.29073 2:7.18584 3:7.04826 
0.5 1:4.41502 2:4.12229 3:3.88218 
0.5 1:6.0065 2:5.62125 3:5.30243 
0.1019062012479686 1:7.9911 2:7.75175 3:7.52074 
-0.5 1:2.915 2:3.14792 3:3.38086 
-0.5 1:3.63931 2:3.62021 3:3.60931 
-0.5 1:4.56491 2:4.63256 3:4.69207 
0.5 1:2.50601 2:2.33351 3:2.36655 
-0.5 1:5.51876 2:5.53882 3:5.51876 
-0.5 1:4.11215 2:4.22738 3:4.33545 
-0.5 1:4.11312 2:4.19048 3:4.26226 
-0.2221039651948634 1:10.0768 2:10.2154 3:10.2893 
0.5 1:6.78785 2:6.44121 3:6.14123 
0.5 1:2.14207 2:2.15803 3:2.24195 
-0.5 1:3.37927 2:3.15353 3:2.93066 
-0.5 1:3.27081 2:3.30451 3:3.35257 
-0.5 1:3.37067 2:3.39052 3:3.4192 
-0.5 1:3.55855 2:3.58222 3:3.61234 
0.5 1:3.6605 2:3.62582 3:3.80369 
0.5 1:2.9512 2:2.96838 3:3.06725 
0.5 1:4.71276 2:4.70259 3:4.71958 
0.5 1:3.32858 2:4.01391 3:4.88611 
