svm_type epsilon_svr
kernel_type linear
nr_class 2
total_sv 3
rho -0.0259712
SV
-0.04753607900968921 1:7.49404 2:6.36154 3:5.82132 
0.07452962901212917 1:9.65095 2:9.61086 3:9.48421 
-0.02699355000243995 1:1.94391 2:2.52648 3:3.59113 
