svm_type epsilon_svr
kernel_type linear
nr_class 2
total_sv 6
rho -0.0988299
SV
0.2412658046431708 1:9 2:8.91505 3:8.83019 
-0.5 1:1.75168 2:1.84113 3:1.86951 
-0.5 1:-0.0425525 2:1.31857 3:1.90801 
0.3653876099333074 1:-1.07021 2:-0.4157 3:0.41118 
-0.106653414576478 1:0.00275302 2:0.00113237 3:-0.00095769 
0.5 1:-1.01185 2:-0.572783 3:0.067197 
