svm_type epsilon_svr
kernel_type linear
nr_class 2
total_sv 23
rho -0.100706
SV
0.5 1:-1.85464 2:-0.759772 3:0.58584 
-0.5 1:0.000565024 2:0.00683583 3:0.0108507 
-0.5 1:0.000446853 2:0.000682355 3:0.00103174 
0.5 1:0.842008 2:-2.1795 3:-4.34187 
-0.5 1:0.00635121 2:0.00332676 3:0.00174014 
-0.5 1:-0.94623 2:-1.68193 3:-1.12955 
-0.1672269522466323 1:0.0025411 2:0.00460513 3:0.00815951 
0.5 1:-6.51953 2:-5.7886 3:-2.92448 
0.5 1:1.47285 2:4.26958 3:7 
-0.2935201286539552 1:-2.5911 2:-0.0127708 3:2.5719 
-0.5 1:2.57361 2:0.711552 3:-1.30546 
0.5 1:-0.97425 2:-3.06828 3:-4.61279 
0.4607470809005861 1:9 2:8.26723 3:7.54196 
0.5 1:3.22185 2:2.94849 3:2.68008 
0.5 1:-1.61717 2:-1.3358 3:-0.399351 
-0.5 1:0.000782958 2:0.00056693 3:0.000460353 
0.5 1:-0.17375 2:-1.31026 3:-1.59745 
-0.5 1:1.12665 2:1.63032 3:1.17988 
-0.5 1:-0.00343557 2:0.00143196 3:0.00511819 
-0.5 1:-0.000344078 2:-4.88837e-05 3:0.000264245 
0.5 1:0.012732 2:-1.04944 3:-1.93802 
0.5 1:0.0998955 2:0.141054 3:0.446151 
-0.5 1:5.74731e-06 2:3.41934e-06 3:8.99483e-07 
