svm_type epsilon_svr
kernel_type linear
nr_class 2
total_sv 21
rho -0.0742267
SV
0.5 1:-2.7257 2:-1.45494 3:0.405555 
-0.5 1:3.60948 2:1.39971 3:-1.27199 
0.5 1:0.992962 2:0.714721 3:0.504287 
-0.5 1:4.85432 2:6.46455 3:5.52652 
-0.04615921468280987 1:6.55289 2:5.37394 3:0.93221 
0.5 1:-2.56753 2:-1.22517 3:1.23865 
-0.4451323497085987 1:0.341536 2:5.15471 3:8.26327 
0.01917922658017234 1:2.72338 2:3.41218 3:4.19534 
-0.5 1:2.14822 2:3.78381 3:3.5882 
-0.5 1:3.80339 2:5.90544 3:5.24697 
-0.5 1:4.14835 2:1.85427 3:-0.843609 
-0.5 1:-3.17906 2:-4.49492 3:-2.67288 
-0.5 1:0.179048 2:3.00806 3:5.29834 
0.5 1:8.55056 2:8.77488 3:9 
0.5 1:4.70836 2:3.67945 3:2.77695 
0.5 1:4.04019 2:3.15732 3:2.3809 
-0.5 1:0.174688 2:0.139384 3:0.0833323 
0.5 1:0.317301 2:0.524664 3:0.858394 
0.3909983527216789 1:0.248051 2:0.155739 3:0.0930385 
0.5 1:3.97704 2:4.84541 3:5.80004 
0.08111398508955717 1:8.11484 2:8.40903 3:8.70426 
