svm_type epsilon_svr
kernel_type linear
nr_class 2
total_sv 4
rho 0.0797633
SV
-0.5 1:1.47381 2:1.65584 3:1.29141 
0.181166835514416 1:4.7178 2:4.0014 3:3.35092 
0.3043199249905272 1:0.627796 2:0.782859 3:0.96709 
0.01451323949505661 1:5.82135 2:6.89472 3:8 
