svm_type epsilon_svr
kernel_type linear
nr_class 2
total_sv 21
rho -0.0788454
SV
0.4667667575814965 1:0.271661 2:0.105528 3:0.0651486 
0.5 1:1.42541 2:1.76915 3:2.16878 
0.5 1:1.47519 2:0.334199 3:-0.436926 
-0.5 1:0.406671 2:0.561299 3:0.50884 
-0.5 1:-0.16363 2:0.135125 3:0.351839 
-0.5 1:0.836257 2:1.0759 3:0.919052 
0.5 1:1.17144 2:0.687219 3:0.393686 
0.5 1:0.405101 2:0.218182 3:0.187211 
-0.5 1:0.483091 2:0.394819 3:0.22254 
-0.5 1:0.144526 2:0.168376 3:0.0746828 
-0.5 1:0.63808 2:0.800724 3:0.821875 
0.5 1:1.06717 2:1.45546 3:1.91519 
0.007246954704139319 1:8 2:6.37706 3:4.84925 
-0.5 1:3.80592 2:0.65205 3:-3.05335 
-0.5 1:-0.107735 2:1.22165 3:2.1295 
-0.5 1:-0.843217 2:1.61431 3:3.80481 
-0.2161515313253057 1:2.46828 2:0.0708438 3:-2.36806 
0.5 1:0.123736 2:-1.79688 3:-2.71151 
0.2421378190396695 1:5.34967 2:6.03129 3:6.74444 
0.5 1:-1.52366 2:-0.332735 3:0.974901 
0.5 1:0.558359 2:0.392561 3:0.269648 
