svm_type epsilon_svr
kernel_type linear
nr_class 2
total_sv 27
rho -0.104226
SV
0.5 1:0.71778 2:1.29406 3:2.05016 
0.5 1:0.312063 2:0.20788 3:0.132214 
0.5 1:0.191088 2:0.274114 3:0.386473 
-0.5 1:0.522267 2:0.597374 3:0.437428 
-0.5 1:0.0317043 2:0.229802 3:0.239326 
-0.5 1:4.82438 2:5.21167 3:5.60445 
-0.5 1:4.67705 2:5.00125 3:5.33103 
-0.5 1:0.382996 2:0.431825 3:0.249293 
-0.5 1:0.95378 2:0.814737 3:0.37545 
-0.5 1:0.000513692 2:0.000556369 3:0.000817612 
0.5 1:0.913798 2:0.494581 3:0.281128 
-0.1733417749586253 1:6.33859 2:6.6687 3:7 
0.5 1:3.30716 2:4.05856 3:4.94712 
-0.5 1:0.000992774 2:0.00167798 3:0.00303814 
0.5 1:0.452165 2:1.14825 3:2.0187 
0.5 1:0.250777 2:0.526823 3:1.02762 
0.5 1:0.797739 2:1.11384 3:1.50093 
-0.5 1:-0.00316235 2:-0.00340473 3:-0.00144016 
-0.0001710696538020292 1:6.05824 2:6.52743 3:7 
-0.5 1:0.00495736 2:0.000120812 3:-0.00478631 
-0.5 1:5.21385 2:5.60559 3:6 
0.5 1:0.582847 2:0.869481 3:1.26991 
0.5 1:7 2:5.7709 3:4.59286 
0.5 1:0.850311 2:0.592313 3:0.401977 
-0.5 1:-0.00374698 2:-0.00223169 3:0.000208944 
0.5 1:4.32693 2:3.69608 3:3.12308 
0.1735128446124272 1:0.25485 2:0.168872 3:0.107367 
