svm_type epsilon_svr
kernel_type linear
nr_class 2
total_sv 15
rho -0.0735636
SV
0.5 1:-4.61537 2:-3.53681 3:-1.29104 
0.5 1:5.29794 2:4.82883 3:4.38153 
-0.5 1:1.04674 2:1.85197 3:1.99772 
-0.5 1:0.149526 2:0.901991 3:1.30617 
-0.3165387242163611 1:-0.884177 2:-0.209095 3:0.593536 
0.2199935487419507 1:3.11887 2:2.32801 3:1.68913 
0.3937138635274547 1:0.635096 2:0.124047 3:-0.0243485 
-0.5 1:0.594285 2:1.72296 3:2.2167 
-0.5 1:-0.00417728 2:0.418142 3:0.644999 
0.5 1:-1.02951 2:-1.16238 3:-1.04211 
-0.5 1:0.535301 2:0.445241 3:0.0469168 
0.5 1:-1.26457 2:-1.64995 3:-1.73984 
-0.5 1:4.49726 2:1.90649 3:-0.945663 
0.5 1:3.67127 2:3.26362 3:2.88548 
0.2028313119469558 1:9 2:8.43961 3:7.88263 
