svm_type epsilon_svr
kernel_type linear
nr_class 2
total_sv 3
rho -0.0968591
SV
-0.03722859192591112 1:0.0292664 2:0.066996 3:0.125452 
0.01011609239446536 1:9 2:8.81331 3:8.62727 
0.02711249953144577 1:8.66629 2:8.83304 3:9 
