svm_type epsilon_svr
kernel_type linear
nr_class 2
total_sv 8
rho -0.0681793
SV
0.1793536793956615 1:3.98961 2:5.23222 3:6.58713 
-0.05059244320377241 1:-0.304473 2:0.53481 3:1.25763 
-0.5 1:0.10482 2:0.164168 3:0.11711 
-0.07668233452336186 1:-0.00133024 2:0.147466 3:0.209968 
-0.05207890166852749 1:-0.440109 2:-1.11555 3:-0.847402 
0.5 1:-1.1495 2:-1.4864 3:-1.57743 
0.5 1:0.775869 2:0.420148 3:0.262915 
-0.5 1:0.20339 2:0.21665 3:0.174355 
