svm_type epsilon_svr
kernel_type linear
nr_class 2
total_sv 7
rho -0.10265
SV
-0.5 1:1 2:1 3:1 
-0.1941043433699841 1:1.00002 2:1.00005 3:1.00011 
0.5 1:2.27133 2:2.63112 3:3.26937 
0.5 1:4.21706 2:4.50489 3:5.01549 
-0.03917231588232415 1:7.92426 2:8.27675 3:8.63653 
-0.5 1:6.24918 2:6.61976 3:7 
0.2332766592523083 1:5.37547 2:4.16044 3:3.46662 
