svm_type epsilon_svr
kernel_type linear
nr_class 2
total_sv 6
rho -0.103334
SV
0.3915237195814641 1:4.45802 2:5.40964 3:6.62552 
-0.2129990324260321 1:6.32001 2:6.70711 3:7.12505 
0.5 1:6.80707 2:6.49971 3:6.28928 
-0.5 1:5.49079 2:5.7743 3:6.06993 
-0.04958349016172486 1:1 2:1 3:1 
-0.1289411969937069 1:5.29916 2:5.55282 3:5.82238 
