svm_type epsilon_svr
kernel_type linear
nr_class 2
total_sv 13
rho -0.112969
SV
-0.5 1:1 2:1 3:1 
0.5 1:1.50813 2:1.81859 3:2.24481 
-0.02572469563290844 1:1.00485 2:1.00564 3:1.00689 
0.5 1:5.88293 2:4.85045 3:3.9688 
0.493298475988814 1:7.10634 2:6.28036 3:5.57504 
0.5 1:6.76815 2:5.64975 3:4.72827 
0.5 1:4.23972 2:4.63577 3:5.06473 
-0.5 1:6.71265 2:6.43014 3:6.15715 
0.5 1:3.24001 2:3.48061 3:3.87336 
-0.467573780355906 1:7.3399 2:6.97949 3:6.65124 
-0.5 1:1.00008 2:1.00002 3:1 
-0.5 1:6 2:5.62928 3:5.26182 
-0.5 1:6.02382 2:5.56445 3:5.13726 
