svm_type epsilon_svr
kernel_type linear
nr_class 2
total_sv 4
rho -0.105053
SV
-0.2125949372136934 1:7 2:6.59646 3:6.19756 
0.2869202192182501 1:5.60736 2:4.47123 3:3.71237 
-0.2378616125788803 1:1 2:1 3:1 
0.1635363305743241 1:3.21562 2:3.75481 3:5.01154 
