svm_type epsilon_svr
kernel_type linear
nr_class 2
total_sv 3
rho -0.122887
SV
-0.07327135660373207 1:1.00031 2:1.00015 3:1.00007 
0.06548305453757948 1:4.81673 2:5.1067 3:5.45942 
0.007788302066152559 1:8.56183 2:8.13822 3:7.74228 
