svm_type epsilon_svr
kernel_type linear
nr_class 2
total_sv 5
rho -0.203089
SV
0.5 1:5.24799 2:4.7973 3:4.41338 
0.1258456192009492 1:3.65977 2:3.48799 3:3.42261 
0.342363704651433 1:5.3079 2:5.71862 3:6.17937 
-0.5 1:4.77971 2:4.68887 3:4.5901 
-0.4682093238523821 1:4.62645 2:4.59442 3:4.55022 
