svm_type epsilon_svr
kernel_type linear
nr_class 2
total_sv 8
rho -0.198705
SV
0.5 1:2.59865 2:2.71055 3:2.88286 
-0.5 1:6.7357 2:6.58942 3:6.42634 
0.5 1:7.1953 2:6.35742 3:5.59191 
0.5 1:5.87173 2:5.9746 3:6.09554 
-0.05408625962147393 1:10.5006 2:10.2951 3:10.0243 
-0.4425764095375029 1:2.80422 2:2.67488 3:2.55198 
-0.5 1:4.37502 2:4.33338 3:4.28854 
-0.003337330841023812 1:7.27264 2:7.1589 3:7.03451 
