svm_type epsilon_svr
kernel_type linear
nr_class 2
total_sv 5
rho -0.254675
SV
0.5 1:4.64729 2:4.89481 3:5.19229 
-0.09874909235403256 1:4.82554 2:4.93962 3:5.03736 
-0.5 1:4.41231 2:4.49865 3:4.57393 
0.02480139774242892 1:9 2:8.9221 3:8.84454 
0.07394769461160368 1:5.97685 2:5.05192 3:4.30387 
