svm_type epsilon_svr
kernel_type linear
nr_class 2
total_sv 9
rho -0.127618
SV
0.5 1:1.5676 2:1.92287 3:2.71334 
0.2684423506616014 1:8.64445 2:8.29213 3:7.94619 
-0.09087726743664726 1:3.16282 2:3.34884 3:3.53488 
0.5 1:1.49931 2:1.09889 3:1.10312 
-0.5 1:2.72727 2:3.0303 3:3.33333 
-0.1867631614372017 1:4.6129 2:4.96774 3:5.32258 
0.5 1:2.56422 2:3.99534 3:5.7771 
-0.4908019217877524 1:2.18041 2:2.28943 3:3.73206 
-0.5 1:2.65517 2:3.03448 3:3.41379 
