svm_type epsilon_svr
kernel_type linear
nr_class 2
total_sv 9
rho -0.195915
SV
0.5 1:5.73694 2:3.30066 3:1.62918 
0.5 1:4.45009 2:4.89842 3:5.42964 
-0.5 1:2.97674 2:2.7907 3:2.60465 
0.5 1:1.2 2:1.25826 3:1.74632 
0.3516679494595544 1:8.2807 2:8.63857 3:9 
-0.5 1:3.2093 2:3.06977 3:2.93023 
-0.1832798169058413 1:3.72186 2:3.62249 3:3.54111 
-0.168388132553714 1:7.06947 2:6.66107 3:6.24865 
-0.5 1:6.23639 2:5.87516 3:5.51949 
