svm_type epsilon_svr
kernel_type linear
nr_class 2
total_sv 22
rho -0.281884
SV
0.5 1:2.06167 2:1.84467 3:1.74642 
0.5 1:7.10707 2:6.68502 3:6.29116 
0.5 1:2.8601 2:2.6717 3:2.57755 
0.5 1:7.52432 2:7.06201 3:6.6258 
0.5 1:3.86622 2:3.49906 3:3.23207 
0.5 1:8.42715 2:8.14616 3:7.87161 
0.46448093648398 1:5.11404 2:5.93272 3:6.92002 
-0.5 1:5.28488 2:5.21714 3:5.13528 
-0.5 1:4.09719 2:4.12566 3:4.15462 
-0.5 1:4.11613 2:4.12929 3:4.14405 
-0.5 1:4.19233 2:4.20204 3:4.21169 
-0.5 1:4.59155 2:4.43475 3:4.27263 
-0.5 1:4.2418 2:4.22974 3:4.21266 
-0.5 1:3.94455 2:3.95643 3:3.97126 
-0.5 1:4.02448 2:4.02803 3:4.03332 
-0.06608812330694047 1:4.28321 2:4.30657 3:4.33173 
-0.5 1:4.23822 2:4.24622 3:4.25563 
0.1016071868229586 1:9 2:8.82292 3:8.64819 
0.5 1:2.18263 2:2.44982 3:3.72347 
-0.5 1:3.75 2:3.95833 3:4.16667 
0.5 1:1.92166 2:1.89711 3:2.25668 
0.5 1:1.43063 2:1.49217 3:1.6678 
