svm_type epsilon_svr
kernel_type linear
nr_class 2
total_sv 3
rho -0.195523
SV
0.05341827556185856 1:8.93214 2:8.96605 3:9 
-0.00442671628144161 1:4.83291 2:4.03262 3:3.50183 
-0.04899155928041694 1:2.58824 2:2.82353 3:3.05882 
