svm_type epsilon_svr
kernel_type linear
nr_class 2
total_sv 25
rho -0.275667
SV
-0.2031553227154996 1:8.34522 2:8.47814 3:8.57427 
0.5 1:6.1672 2:5.35828 3:4.65224 
0.5 1:2.77649 2:1.9997 3:1.51587 
0.5 1:5.87291 2:6.0926 3:6.34864 
0.5 1:1.79652 2:2.08222 3:2.41556 
-0.5 1:4.45714 2:4.11429 3:3.77143 
0.5 1:4.89494 2:3.37933 3:2.35246 
0.5 1:8.42297 2:8.61356 3:8.80625 
0.5 1:3.04494 2:2.09213 3:1.94445 
0.5 1:2.30853 2:3.27399 3:4.54594 
-0.5 1:5.44627 2:5.42763 3:5.38945 
-0.5 1:3.93951 2:3.87406 3:3.81278 
-0.5 1:4.24832 2:4.23428 3:4.22016 
-0.06221159590261391 1:4.25038 2:4.25288 3:4.25576 
-0.5 1:2.22857 2:2.05714 3:1.88572 
-0.5 1:4.47937 2:4.5741 3:4.65671 
-0.5 1:4.3865 2:4.34535 3:4.29659 
-0.5 1:4.22062 2:4.26342 3:4.29979 
-0.5 1:4.06486 2:4.09734 3:4.12743 
-0.5 1:3.99643 2:4.00639 3:4.01801 
-0.5 1:4.04698 2:4.05161 3:4.05691 
0.5 1:1.82968 2:1.95766 3:2.21541 
0.5 1:6.2035 2:6.48531 3:6.81734 
0.2653669186181129 1:7.27226 2:6.87893 3:6.50997 
0.5 1:3.41877 2:3.83772 3:4.43197 
