svm_type epsilon_svr
kernel_type linear
nr_class 2
total_sv 18
rho -0.220371
SV
0.08926187631055223 1:9.40385 2:10.4654 3:11.3354 
0.1756977425712958 1:5.76629 2:6.03412 3:6.3316 
0.5 1:3.6855 2:3.62243 3:3.63313 
0.5 1:3.88118 2:3.76774 3:3.73862 
-0.5 1:4.10373 2:4.27994 3:4.40861 
-0.5 1:3.35555 2:3.54714 3:3.72406 
0.5 1:3.147 2:2.84355 3:2.6015 
-0.5 1:4.52737 2:4.44874 3:4.3644 
0.2350403811181525 1:8 2:7.11771 3:6.27582 
-0.5 1:2.7643 2:2.92603 3:3.09163 
-0.5 1:4.78647 2:4.74807 3:4.69513 
-0.5 1:4.27756 2:4.18514 3:4.0875 
0.5 1:4.26189 2:4.47088 3:4.79634 
0.5 1:2.10014 2:2.20421 3:2.34526 
0.5 1:4.06528 2:4.94886 3:5.94461 
-0.5 1:3.67132 2:3.91409 3:4.13313 
-0.5 1:3.52565 2:3.52993 3:3.53796 
0.5 1:3.15309 2:2.7899 3:2.57102 
