svm_type epsilon_svr
kernel_type linear
nr_class 2
total_sv 16
rho -0.187772
SV
0.5 1:5.61626 2:5.32022 3:5.06194 
0.5 1:4.18991 2:3.43982 3:2.79933 
0.2196298691647579 1:5.92785 2:6.20169 3:6.51272 
0.5 1:1.85839 2:1.78076 3:1.82983 
-0.5 1:6.30375 2:6.20534 3:6.09218 
-0.2969634893338737 1:3.40954 2:3.44308 3:3.48626 
-0.5 1:4.79942 2:4.77172 3:4.73472 
-0.5 1:4.51934 2:4.49527 3:4.46536 
0.5 1:4.30772 2:4.30756 3:4.3855 
-0.4226663798308839 1:6.16793 2:6.18255 3:6.18759 
-0.5 1:3.20126 2:3.31433 3:3.42943 
-0.5 1:3.56259 2:3.54213 3:3.51614 
-0.5 1:3.41785 2:3.43282 3:3.45301 
0.5 1:5.84033 2:6.00715 3:6.25142 
0.5 1:5.74717 2:5.97041 3:6.22274 
0.5 1:3.66984 2:3.93802 3:4.28885 
