svm_type epsilon_svr
kernel_type linear
nr_class 2
total_sv 12
rho -0.140239
SV
-0.07886306234718096 1:9.80051 2:9.76546 3:9.69299 
-0.5 1:2.38309 2:2.63623 3:2.89517 
-0.5 1:2.42857 2:2.57143 3:2.71429 
0.4999369984800195 1:2.6994 2:2.46201 3:2.28952 
-0.0868790696404883 1:4.5748 2:4.55532 3:4.52912 
0.5 1:2.48291 2:2.72283 3:3.36992 
0.5 1:4.47627 2:4.96847 3:5.59092 
-0.3341948664923498 1:4.97252 2:4.85299 3:4.7198 
-0.5 1:4.39751 2:4.50674 3:4.60487 
-0.5 1:2.15461 2:2.38733 3:2.63764 
0.5 1:4.06024 2:4.2826 3:4.57273 
0.5 1:4.07569 2:3.6272 3:3.32082 
