svm_type epsilon_svr
kernel_type linear
nr_class 2
total_sv 4
rho -0.161485
SV
0.5 1:5.41886 2:4.87304 3:4.40565 
-0.2241449625393569 1:3.53235 2:2.95593 3:2.5351 
-0.1773606346336536 1:3.77451 2:3.73261 3:3.66517 
-0.0984944028269895 1:9 2:7.94498 3:7.05482 
