svm_type epsilon_svr
kernel_type linear
nr_class 2
total_sv 3
rho -0.100024
SV
0.05633405083400103 1:9.85686 2:10.1046 3:10.1211 
0.002542915135090181 1:10.6011 2:10.2917 3:9.82768 
-0.05887696596909122 1:4.70834 2:4.37021 3:4.2867 
