svm_type epsilon_svr
kernel_type linear
nr_class 2
total_sv 8
rho -0.208268
SV
-0.2251924019763415 1:6.49952 2:6.67584 3:7.57669 
0.5 1:3.11684 2:3.41709 3:3.84826 
0.5 1:4.71512 2:3.97298 3:3.46201 
0.5 1:2.69369 2:2.75745 3:2.92292 
-0.5 1:2.84121 2:2.41649 3:2.17032 
0.07856381897528776 1:9.46656 2:9.73749 3:9.90799 
-0.5 1:3.09104 2:3.10962 3:3.16066 
-0.3533714169989468 1:3.51574 2:3.49192 3:3.47288 
