svm_type epsilon_svr
kernel_type linear
nr_class 2
total_sv 3
rho -0.148162
SV
-0.0256236578522464 1:9 2:7.55915 3:6.46532 
0.1398978207042808 1:8.7426 2:8.99105 3:9.14772 
-0.1142741628520344 1:5.74787 2:6.1578 3:7.31246 
