svm_type epsilon_svr
kernel_type linear
nr_class 2
total_sv 12
rho -0.204675
SV
0.1151254750558264 1:8.9278 2:9.43255 3:9.8307 
-0.5 1:3.57919 2:3.62009 3:3.65293 
0.5 1:5.92196 2:5.98483 3:6.11479 
-0.5 1:4.60294 2:4.66031 3:4.70929 
-0.5 1:3.31286 2:3.44926 3:3.57503 
-0.360937212311338 1:3.33968 2:3.40796 3:3.4755 
-0.2541882627444876 1:4.4 2:4.03333 3:3.66667 
0.5 1:7.89436 2:8.24748 3:8.61904 
-0.5 1:9.03864 2:9.45216 3:9.65204 
0.5 1:3.12551 2:2.51276 3:2.05897 
0.5 1:2.69158 2:2.75245 3:2.86184 
0.5 1:4.30018 2:4.4818 3:4.71856 
