svm_type epsilon_svr
kernel_type linear
nr_class 2
total_sv 3
rho -0.130341
SV
0.01624024053785213 1:10.5409 2:9.65191 3:8.67956 
-0.06393181127226998 1:4.39613 2:3.74761 3:3.59613 
0.04769157073441786 1:9.03164 2:8.85796 3:8.50618 
