svm_type epsilon_svr
kernel_type linear
nr_class 2
total_sv 3
rho -0.174622
SV
0.03064846912515564 1:9.42711 2:9.36267 3:9.25865 
-0.04860455191499185 1:2.57753 2:2.65936 3:2.79194 
0.01795608278983621 1:9.08284 2:9.35572 3:9.52588 
