svm_type epsilon_svr
kernel_type linear
nr_class 2
total_sv 9
rho -0.137526
SV
0.5 1:10.6791 2:10.4666 3:10.0347 
-0.5 1:3.00727 2:3.55014 3:4.23489 
-0.1760562746099834 1:3.19525 2:3.34833 3:3.50233 
0.08309385031326165 1:5.25954 2:4.80418 3:4.44204 
0.09296242429672201 1:9 2:8.13573 3:7.34594 
-0.5 1:7.35554 2:7.37008 3:7.35554 
0.5 1:3.79958 2:5.03309 3:6.83764 
0.5 1:2.26363 2:2.13404 3:2.12311 
-0.5 1:7.19155 2:7.33568 3:7.42875 
