svm_type epsilon_svr
kernel_type linear
nr_class 2
total_sv 50
rho -0.237107
SV
0.5 1:9 2:5.45358 3:2.5514 
0.5 1:7.87291 2:8.24209 3:8.61907 
-0.5 1:4.46512 2:4.27907 3:4.09302 
0.5 1:3.3365 2:3.83163 3:4.57629 
-0.5 1:3.57895 2:3.36842 3:3.1579 
-0.5 1:7.1234 2:7.07509 3:6.99651 
0.5 1:2.70947 2:2.88573 3:3.14605 
0.5 1:5.39247 2:4.69278 3:4.1061 
-0.5 1:3 2:2.75 3:2.50001 
-0.5 1:4.42922 2:4.61635 3:4.7251 
-0.5 1:3.64873 2:3.46024 3:3.26912 
-0.5 1:3.70709 2:3.61314 3:3.54547 
-0.5 1:4.48399 2:4.32771 3:4.18399 
-0.5 1:3.73507 2:3.76343 3:3.79818 
-0.5 1:3.94962 2:3.93475 3:3.92696 
0.1404157933395586 1:9.42714 2:9.85094 3:10.2634 
0.0816238017454048 1:6.74943 2:5.61317 3:4.68265 
0.5 1:5.00913 2:4.07993 3:3.26441 
-0.5 1:2.9346 2:2.79907 3:2.66664 
0.5 1:2.24591 2:2.38037 3:2.58624 
0.5 1:6.37511 2:4.92082 3:3.76421 
0.5 1:7.65887 2:8.308 3:8.93507 
-0.5 1:1.71524 2:1.88588 3:2.05717 
-0.5 1:4.40474 2:4.5151 3:4.61428 
-0.5 1:4.08439 2:4.10131 3:4.11621 
-0.5 1:4.09456 2:4.09489 3:4.09455 
-0.4390338435587542 1:4.0712 2:4.07299 3:4.07509 
0.5 1:2.20149 2:2.09836 3:2.24443 
0.5 1:3.73074 2:3.75906 3:3.93149 
0.5 1:2.65439 2:2.2434 3:2.17107 
0.5 1:7.90196 2:8.25651 3:8.62477 
0.5 1:3.09937 2:2.45799 3:2.03664 
0.5 1:2.32513 2:2.05168 3:1.94336 
-0.5 1:4.35173 2:2.83868 3:2.51478 
0.5 1:3.46674 2:2.66183 3:2.10089 
0.5 1:2.14082 2:2.51525 3:3.08086 
0.5 1:1.96716 2:2.22997 3:2.61978 
0.5 1:3.09725 2:2.99289 3:3.23928 
-0.5 1:2.63158 2:2.89474 3:3.15789 
-0.5 1:4.08456 2:3.90228 3:3.74713 
-0.5 1:3.61478 2:3.65591 3:3.70875 
0.5 1:2.37725 2:2.73893 3:3.34399 
0.5 1:8.66499 2:9.32471 3:9.96307 
0.5 1:3.33635 2:3.41541 3:3.61489 
0.2169942484737908 1:3.13532 2:4.51435 3:7 
-0.5 1:9.37616 2:9.35692 3:9.29043 
0.5 1:7.50435 2:6.10711 3:4.86796 
-0.5 1:6.41791 2:5.51292 3:4.68676 
-0.5 1:7.25917 2:5.91429 3:5.19119 
-0.5 1:7.27797 2:7.36109 3:7.38965 
