svm_type epsilon_svr
kernel_type linear
nr_class 2
total_sv 6
rho -0.146858
SV
0.5 1:5.90733 2:5.58863 3:5.31797 
0.2917214859243648 1:5.26964 2:4.92864 3:4.67765 
-0.367555625330803 1:6.97266 2:6.98652 3:6.97266 
0.5 1:6.22379 2:6.62779 3:7.06266 
-0.4241658605935614 1:2.51163 2:2.37209 3:2.23256 
-0.5 1:7.27616 2:7.34963 3:7.39537 
