svm_type epsilon_svr
kernel_type linear
nr_class 2
total_sv 4
rho -0.0142808
SV
-0.1196446589661855 1:9 2:7.9883 3:7.17836 
0.1984694686947826 1:7.64704 2:8.4116 3:9.17535 
-0.2741043239187486 1:3.34669 2:4.44543 3:7 
0.1952795141901515 1:4.01623 2:5.00158 3:6.00011 
