svm_type epsilon_svr
kernel_type linear
nr_class 2
total_sv 25
rho -0.164949
SV
-0.5 1:4.02131 2:3.82991 3:3.63873 
0.5 1:4.01136 2:3.63267 3:3.34817 
0.5 1:5.79461 2:4.69297 3:3.77807 
0.5 1:3.85255 2:4.03706 3:4.32253 
0.5 1:6.58106 2:5.28068 3:4.19373 
0.5 1:4.05674 2:4.31373 3:4.68738 
0.5 1:3.23381 2:4.31997 3:5.97687 
0.5 1:3.71263 2:3.80438 3:4.06538 
0.5 1:2.36388 2:2.30696 3:2.34209 
0.5 1:5.62867 2:4.95649 3:4.38168 
-0.004481731460177861 1:7.59959 2:7.53391 3:7.45104 
-0.1374538351517784 1:2.30961 2:2.14858 3:2.0855 
-0.5 1:3.53383 2:3.57065 3:3.60461 
-0.5 1:3.5269 2:3.5341 3:3.54817 
0.1419355666119564 1:2.33813 2:2.48411 3:2.69793 
-0.5 1:5.19049 2:5.1777 3:5.15079 
0.5 1:2.71689 2:2.5503 3:2.54449 
-0.5 1:1.88604 2:2.0572 3:2.22858 
-0.5 1:5.30438 2:5.26397 3:5.19834 
0.5 1:3.87444 2:3.93105 3:4.12158 
-0.5 1:2.47643 2:2.33837 3:2.31577 
-0.5 1:4.3237 2:4.01832 3:3.74954 
-0.5 1:4.06568 2:3.923 3:3.80071 
-0.5 1:3.74623 2:3.66347 3:3.5988 
-0.5 1:6.74482 2:6.3055 3:6.24753 
