svm_type epsilon_svr
kernel_type linear
nr_class 2
total_sv 32
rho -0.23414
SV
0.2347061448459282 1:8.96111 2:9.52772 3:9.96974 
0.5 1:2.9505 2:2.65558 3:2.48718 
-0.3287851506875218 1:7.8812 2:7.86364 3:7.82685 
-0.5 1:6.93587 2:6.79648 3:6.64282 
0.5 1:2.84764 2:3.02538 3:3.25076 
0.5 1:4.82264 2:4.6055 3:4.44344 
0.5 1:2.88227 2:3.04405 3:3.26027 
0.5 1:5.26347 2:4.97396 3:4.7474 
0.5 1:5.5257 2:6.05097 3:6.65391 
0.5 1:4.94143 2:5.2642 3:5.67945 
0.5 1:5.79751 2:5.38656 3:5.02467 
-0.5 1:3.40096 2:3.64183 3:3.86643 
-0.5 1:2.68384 2:2.91106 3:3.14805 
-0.5 1:3.64475 2:3.64833 3:3.6498 
-0.5 1:3.79059 2:3.75003 3:3.71852 
-0.5 1:3.84761 2:3.80438 3:3.76979 
-0.4061832342514007 1:3.86219 2:3.89094 3:3.92647 
0.5 1:4.8124 2:4.66513 3:4.6255 
0.5 1:1.838 2:1.68829 3:1.62613 
-0.5 1:4.41475 2:4.28959 3:4.16096 
-0.5 1:5.17652 2:5.13466 3:5.07944 
0.5 1:2.93297 2:2.65898 3:2.58841 
-0.5 1:3.74974 2:3.90443 3:4.05587 
-0.5 1:4.22083 2:4.27864 3:4.32951 
-0.499737759907006 1:4.07635 2:4.07825 3:4.08041 
0.5 1:4.2405 2:3.97928 3:3.83316 
0.5 1:6.68154 2:7.20263 3:7.77292 
0.5 1:2.44196 2:2.38723 3:2.4055 
0.5 1:3.72398 2:3.49495 3:3.31417 
-0.5 1:3.42907 2:3.39004 3:3.3744 
-0.5 1:3.60191 2:3.62751 3:3.66029 
-0.5 1:3.736 2:3.72259 3:3.71752 
