svm_type epsilon_svr
kernel_type linear
nr_class 2
total_sv 3
rho -0.151127
SV
0.03028063873034194 1:9.43408 2:10.547 3:11.5004 
0.01420151582716132 1:10.7326 2:9.72599 3:8.66629 
-0.04448215455750326 1:2.81461 2:2.89958 3:3.02034 
