svm_type epsilon_svr
kernel_type linear
nr_class 2
total_sv 14
rho -0.171375
SV
0.08737863728725223 1:10.1079 2:9.80092 3:9.38863 
0.5 1:2.53984 2:2.31115 3:2.21479 
-0.1421818204711519 1:4.2 2:4.4 3:4.6 
-0.5 1:1.86756 2:2.00418 3:2.14441 
-0.5 1:2.40019 2:2.57147 3:2.74287 
-0.5 1:4.21074 2:4.2667 3:4.31598 
0.5 1:2.58565 2:2.51193 3:2.50033 
0.5 1:2.75317 2:2.5641 3:2.65891 
-0.5 1:3.06419 2:3.23415 3:3.40429 
-0.2500681165519291 1:3.06954 2:3.13238 3:3.2186 
0.5 1:5.51529 2:5.27152 3:5.06476 
0.3048712997358285 1:9.89134 2:10.5235 3:10.5482 
0.5 1:1.02638 2:1.46367 3:3.42117 
-0.5 1:7.13853 2:7.26691 3:7.3484 
