svm_type epsilon_svr
kernel_type linear
nr_class 2
total_sv 22
rho -0.197421
SV
0.5 1:11.7058 2:12.4733 3:12.5016 
-0.5 1:8.91395 2:8.91578 3:8.80851 
0.5 1:2.4921 2:2.45789 3:2.51741 
0.4396230615151065 1:7.87737 2:7.66775 3:7.46596 
-0.5 1:1.86047 2:2.04651 3:2.23256 
0.5 1:2.66667 2:2.33333 3:2 
-0.5 1:7.30259 2:7.36985 3:7.39282 
0.5 1:1.02857 2:2.57461 3:8 
-0.5 1:8.6 2:8.4 3:8.2 
0.5 1:6.09365 2:4.48991 3:3.37847 
-0.5 1:5.52593 2:5.58041 3:5.60916 
-0.5 1:4.23953 2:4.30979 3:4.37579 
0.5 1:9.17557 2:8.41164 3:7.64705 
0.2061724903205684 1:0.514286 2:1.54922 3:5 
-0.5 1:5.37474 2:5.46881 3:5.52856 
-0.5 1:4.60716 2:4.60132 3:4.58314 
0.5 1:2.68134 2:2.54717 3:2.45493 
0.5 1:8.46979 2:7.7646 3:7.05882 
-0.5 1:2.84763 2:3.4558 3:4.12779 
-0.5 1:4.19403 2:4.41762 3:4.58038 
0.1952733664578743 1:4.67499 2:4.04465 3:3.53048 
0.1589310817064507 1:4.86117 2:4.77348 3:4.70784 
