svm_type epsilon_svr
kernel_type linear
nr_class 2
total_sv 28
rho -0.16267
SV
0.5 1:11.2053 2:10.5255 3:9.64547 
0.5 1:5.84537 2:6.39882 3:7.00218 
0.5 1:5.49676 2:5.89344 3:6.33484 
-0.5 1:2.97674 2:3.16279 3:3.34884 
0.5 1:4.06651 2:3.73915 3:3.51774 
0.5 1:4.44067 2:4.0252 3:3.7308 
-0.5 1:3.57895 2:3.78947 3:4 
0.5 1:3.65993 2:3.25353 3:2.95378 
0.5 1:2.73948 2:4.86715 3:8 
0.5 1:5.03615 2:4.46585 3:3.99408 
-0.01136904385270448 1:4.08004 2:4.12759 3:4.13392 
-0.5 1:3.85714 2:4.28571 3:4.71429 
-0.5 1:4.66652 2:4.78841 3:4.90312 
-0.5 1:4.69529 2:4.75926 3:4.81383 
-0.5 1:4.32956 2:4.41899 3:4.50239 
0.5 1:1.60753 2:2.99228 3:5 
-0.5 1:3.25768 2:3.42823 3:3.59871 
-0.5 1:4.83282 2:4.8573 3:4.86552 
0.5 1:1.56498 2:1.37268 3:1.58151 
0.5 1:4.9558 2:5.53636 3:6.25735 
0.5 1:1.53191 2:1.3617 3:1.19149 
-0.3104602057248832 1:1.6653 2:1.73051 3:1.90155 
-0.1781707504224123 1:4.75964 2:5.69102 3:7.17274 
-0.5 1:3.35311 2:3.82707 3:4.39798 
0.5 1:5.81767 2:5.4126 3:5.05749 
-0.5 1:8.09773 2:8.38059 3:8.6043 
-0.5 1:7.29412 2:7.52941 3:7.76471 
-0.5 1:3.29444 2:3.52949 3:3.76472 
