svm_type epsilon_svr
kernel_type linear
nr_class 2
total_sv 3
rho -0.0708457
SV
0.06402550441076868 1:10.1809 2:10.0502 3:9.76406 
0.02110398613983938 1:5.81626 2:6.37479 3:6.98371 
-0.08512949055060805 1:5.17502 2:5.08267 3:5.47466 
