svm_type epsilon_svr
kernel_type linear
nr_class 2
total_sv 7
rho -0.106468
SV
0.1790154697078963 1:5.95373 2:5.46216 3:5.00666 
-0.5 1:7.95291 2:8.11224 3:8.24746 
-0.5 1:3.38881 2:3.61959 3:3.83275 
-0.007415733591358251 1:6.17225 2:6.77331 3:7.29459 
0.5 1:6.28286 2:5.76177 3:5.28182 
-0.1715997361165379 1:3.01293 2:3.56363 3:4.24519 
0.5 1:4.63771 2:5.90236 3:7.39941 
