svm_type epsilon_svr
kernel_type linear
nr_class 2
total_sv 4
rho -0.212878
SV
-0.1104452963105044 1:5.69311 2:5.78856 3:6.36915 
0.07478316712646017 1:7.40915 2:8.19423 3:9 
0.04015011471233213 1:10.017 2:9.5304 3:8.9627 
-0.004487985528287956 1:3.4054 2:3.41319 3:3.43026 
