svm_type epsilon_svr
kernel_type linear
nr_class 2
total_sv 3
rho -0.0812074
SV
-0.009944078813249008 1:4.67214 2:4.3149 3:4.27554 
-0.05742145931027798 1:4.89568 2:4.85053 3:5.22615 
0.067365538123527 1:9.63984 2:9.8485 3:9.86572 
