svm_type epsilon_svr
kernel_type linear
nr_class 2
total_sv 5
rho -0.0762257
SV
-0.4511409974987347 1:4.81782 2:5.54762 3:9 
0.2948747863575625 1:9.48126 2:9.90227 3:10.154 
0.5 1:2.55256 2:3.489 3:4.67285 
-0.3430846007389761 1:5 2:4.18303 3:3.44459 
-0.0006491881198518557 1:6.42151 2:5.50026 3:4.92781 
