svm_type epsilon_svr
kernel_type linear
nr_class 2
total_sv 3
rho -0.123823
SV
0.008912834256320563 1:8.59853 2:8.51037 3:8.42948 
-0.08329023517544192 1:1.00003 2:1.00008 3:1.00023 
0.0743774009191214 1:4.09018 2:4.4559 3:4.89585 
