svm_type epsilon_svr
kernel_type linear
nr_class 2
total_sv 12
rho -0.100872
SV
-0.04279143259056389 1:5.55492 2:5.88804 3:6.28809 
0.5 1:1.01912 2:1.04673 3:1.10351 
0.5 1:3 2:3 3:3 
-0.5 1:3 2:3 3:3 
0.5 1:3 2:3 3:3 
0.5 1:3 2:3 3:3 
-0.5 1:3 2:3 3:3 
-0.0150614798591103 1:2 2:2 3:2 
0.5 1:3 2:3 3:3 
-0.5 1:2 2:2 3:2 
-0.4849385201408896 1:3 2:3 3:3 
-0.4572085674094366 1:1 2:1 3:1 
