svm_type epsilon_svr
kernel_type linear
nr_class 2
total_sv 7
rho -0.101408
SV
-0.4064571353553301 1:5.26527 2:4.64755 3:4.29825 
-0.5 1:4.54998 2:4.72945 3:4.98861 
-0.4611560879733734 1:6.85646 2:7.22868 3:7.63785 
0.5 1:3.25844 2:3.52897 3:3.98296 
0.5 1:6.07696 2:6.16969 3:6.33905 
0.5 1:6.75081 2:6.37556 3:6.16552 
-0.1323867766712974 1:1 2:1 3:1 
