svm_type epsilon_svr
kernel_type linear
nr_class 2
total_sv 3
rho -0.10646
SV
-0.09329411494031599 1:5.70033 2:4.78129 3:4.30797 
0.08230596279538745 1:9 2:8.32926 3:7.71011 
0.01098815214492857 1:9 2:8.97888 3:8.95778 
