svm_type epsilon_svr
kernel_type linear
nr_class 2
total_sv 5
rho -0.119458
SV
-0.2008590873062385 1:1 2:1 3:1 
0.5 1:4.19906 2:3.70601 3:3.38482 
-0.3106629936267414 1:5.09261 2:4.52977 3:4.22239 
0.008408919981130943 1:7.57555 2:7.90109 3:8.25217 
0.003113160951848659 1:3.42793 2:4.10622 3:5.33197 
