svm_type epsilon_svr
kernel_type linear
nr_class 2
total_sv 4
rho -0.10971
SV
-0.1473605439032018 1:5.44511 2:6.39185 3:7.61253 
0.5 1:1.73394 2:2.01873 3:2.37154 
-0.4962681321438606 1:1.00068 2:1.00113 3:1.00183 
0.1436286760470623 1:5.15295 2:5.2833 3:5.49041 
