svm_type epsilon_svr
kernel_type linear
nr_class 2
total_sv 8
rho -0.0999379
SV
-0.220890647847702 1:5.65627 2:6.58149 3:7.72612 
-0.04520125114410813 1:6.85563 2:7.88434 3:9 
-0.3446435682746554 1:1 2:1 3:1 
0.5 1:2.58747 2:2.85549 3:3.20517 
0.5 1:4.46997 2:4.68439 3:4.96414 
-0.3253256378440942 1:3 2:3 3:3 
-0.05710301842099844 1:5 2:5 3:5 
-0.006835876468442406 1:4 2:4 3:4 
