svm_type epsilon_svr
kernel_type linear
nr_class 2
total_sv 6
rho -0.111315
SV
0.1498075722734006 1:9 2:7.84666 3:6.78934 
-0.2093945790886404 1:1 2:1 3:1 
0.5 1:2.88741 2:3.56119 3:4.50385 
-0.5 1:3.76613 2:4.19521 3:4.67905 
0.5 1:3.27008 2:3.67399 3:4.42783 
-0.4404129931847603 1:4.58335 2:5.09629 3:5.68379 
