svm_type epsilon_svr
kernel_type linear
nr_class 2
total_sv 7
rho -0.104038
SV
-0.5 1:7.69223 2:7.08459 3:6.52872 
-0.5 1:6.05227 2:5.73072 3:5.47632 
-0.1925901620218312 1:6.78434 2:6.44621 3:6.16071 
-0.2664237554746993 1:1 2:1 3:1 
0.4590139174965306 1:5.018 2:5.05592 3:5.15034 
0.5 1:8 2:6.70577 3:5.54265 
0.5 1:5.04341 2:5.10992 3:5.24706 
