svm_type epsilon_svr
kernel_type linear
nr_class 2
total_sv 7
rho -0.114058
SV
-0.0155407412246082 1:1.00023 2:1.00042 3:1.00075 
0.5 1:3.12697 2:3.33386 3:3.71825 
-0.1959750450472283 1:4.00853 2:4.10101 3:4.74349 
0.5 1:3.16795 2:3.67828 3:4.94892 
-0.2560086876317398 1:5.34023 2:6.47876 3:9 
-0.5 1:1 2:1 3:1 
-0.03247552609642324 1:6.00337 2:6.05608 3:6.56929 
