svm_type epsilon_svr
kernel_type linear
nr_class 2
total_sv 5
rho -0.121091
SV
-0.4136546332961283 1:4.00254 2:4.05849 3:4.77468 
0.5 1:3.16992 2:3.58018 3:4.49248 
-0.09154837675467262 1:4.20675 2:4.68933 3:5.22007 
-0.08349723530120949 1:1.0021 2:1.00594 3:1.01566 
0.0887002453520104 1:9 2:8.31005 3:7.67721 
