svm_type epsilon_svr
kernel_type linear
nr_class 2
total_sv 7
rho 0.00783532
SV
-0.4673779612444941 1:1.5641 2:1.46617 3:0.846151 
0.5 1:-1.10811 2:-1.6048 3:-1.40936 
0.02333781413481939 1:-0.890113 2:-0.689385 3:-0.365171 
0.5 1:9 2:6.67113 3:4.52056 
-0.5 1:5.64016 2:2.76831 3:1.03239 
-0.07708213392509111 1:2.95667 2:3.90562 3:5.01406 
0.02112228103476593 1:8.10484 2:7.22345 3:6.36898 
