svm_type epsilon_svr
kernel_type linear
nr_class 2
total_sv 42
rho -0.099418
SV
-0.5 1:2.5526 2:-0.904747 3:-1.00777 
0.5 1:9 2:8.25625 3:7.52784 
0.5 1:-1.40093 2:-2.70047 3:-2.90541 
-0.5 1:1.34827 2:1.61975 3:1.23469 
0.5 1:-6.1523 2:-2.52034 3:1.94337 
0.5 1:-3.12815 2:-0.717898 3:1.92927 
0.5 1:7.90729 2:7.36882 3:6.83967 
-0.4059606495167882 1:-5.64954 2:-1.69793 3:2.8583 
-0.5 1:4.61293 2:2.6622 3:-0.236528 
0.5 1:-6.47415 2:-4.93573 3:-1.4517 
0.5 1:1.07241 2:-1.38532 3:-3.29697 
0.5 1:5.34974 2:4.69025 3:0.0635285 
-0.5 1:-2.63309 2:-0.421055 3:2.14713 
0.5 1:-5.52355 2:-6.5035 3:-3.53486 
-0.5 1:-3.11223 2:-0.736598 3:2.08626 
0.06681758688361686 1:0.505879 2:-1.69815 3:-2.60167 
-0.5 1:5.39351 2:4.97305 3:2.71994 
-0.5 1:3.63187 2:3.75023 3:2.05157 
-0.5 1:2.10151 2:2.36658 3:1.48503 
-0.5 1:4.00119 2:-1.39517 3:0.510229 
-0.5 1:0.223374 2:0.138685 3:0.101561 
0.5 1:-5.92902 2:-3.90623 3:-0.0574431 
0.5 1:-0.966382 2:-2.5452 3:-2.93412 
0.5 1:-5.54727 2:-4.1677 3:-1.88053 
-0.5 1:2.42805 2:3.29481 3:3.44406 
-0.5 1:-4.40833 2:-2.15663 3:1.60062 
-0.5 1:2.24591 2:1.86515 3:0.182335 
0.5 1:-2.83634 2:-4.00522 3:-4.44678 
0.5 1:6.12134 2:5.21974 3:4.36873 
0.5 1:3.03285 2:3.70278 3:4.45073 
0.5 1:9 2:6.80312 3:4.78111 
-0.5 1:1.60511 2:2.08352 3:2.65612 
0.5 1:3.46399 2:2.49661 3:1.73276 
-0.5 1:0.284566 2:0.340285 3:0.492303 
-0.5 1:2.34989 2:2.41966 3:2.61856 
-0.5 1:1.32831 2:1.70529 3:2.15253 
-0.1520556800133561 1:-7.53132e-05 2:-2.05528e-05 3:6.18388e-05 
-0.5 1:3.05971 2:1.67865 3:0.0199223 
0.5 1:-0.667555 2:-1.03021 3:-0.965704 
-0.5 1:8.11759e-06 2:1.23973e-05 3:1.21437e-05 
0.5 1:8.6544 2:8.30961 3:7.96641 
0.4911987426465246 1:9 2:8.76761 3:8.53552 
