svm_type epsilon_svr
kernel_type linear
nr_class 2
total_sv 16
rho 0.00945533
SV
0.5 1:2.74062 2:3.58299 3:4.55615 
0.5 1:3.46247 2:4.24941 3:5.11279 
0.5 1:2.56692 2:3.29062 3:4.11535 
0.5 1:1.5308 2:1.8028 3:2.10862 
0.2374603893752762 1:5.31448 2:6.17893 3:7.0913 
-0.5 1:-2.95385 2:-3.48551 3:3.42379 
0.1788334800999781 1:5.56006 2:1.33008 3:-2.94018 
-0.5 1:1.74363 2:3.31075 3:3.1135 
-0.5 1:3.98968 2:3.49786 3:0.0473777 
0.08370613052474325 1:-1.9628 2:-0.31387 3:1.60055 
-0.5 1:1.01265 2:0.923565 3:0.515804 
-0.5 1:4.88902 2:5.90735 3:5.94853 
-0.5 1:3.42099 2:2.47581 3:0.0816109 
0.5 1:0.829204 2:-0.958236 3:-2.34223 
0.5 1:-1.59729 2:-2.20014 3:-2.03124 
-0.5 1:0.631457 2:0.41276 3:0.0492781 
