svm_type epsilon_svr
kernel_type linear
nr_class 2
total_sv 9
rho -0.0789381
SV
-0.4634961613148221 1:5.44403 2:2.73104 3:1.16029 
-0.07154656369575702 1:2.81571 2:3.76932 3:4.89554 
-0.5 1:0.148774 2:0.13945 3:0.0804775 
0.05053603731205189 1:8 2:6.77946 3:5.59371 
0.5 1:4.43514 2:3.22183 3:2.23595 
-0.01549331230147283 1:0.0350303 2:0.10156 3:0.130674 
0.5 1:-0.0282179 2:-0.127227 3:-0.0971747 
0.5 1:1.01526 2:0.35875 3:-0.11058 
-0.5 1:0.099321 2:0.112412 3:0.10538 
