svm_type epsilon_svr
kernel_type linear
nr_class 2
total_sv 10
rho -0.099092
SV
-0.2719673594315979 1:2.26784 2:3.23001 3:4.41926 
-8.668124608430303e-06 1:9 2:8.14355 3:7.30527 
0.5 1:-0.458576 2:-0.478241 3:-0.39376 
-0.5 1:0.190739 2:0.172946 3:0.133759 
-0.1620034427706938 1:-0.000647088 2:0.00347977 3:0.00536649 
-0.5 1:0.255158 2:0.178142 3:0.0692258 
0.5 1:1.45657 2:2.08596 3:2.88261 
0.5 1:1.94371 2:1.50246 3:1.13821 
-0.02460806451935871 1:2.53901 2:1.61582 3:0.972006 
-0.04141246515374073 1:5.17112 2:4.09262 3:3.15993 
