svm_type epsilon_svr
kernel_type linear
nr_class 2
total_sv 3
rho -0.0544794
SV
0.05217108612245216 1:9 2:8.28042 3:7.56806 
-0.0507604112077622 1:3.15398 2:1.92824 3:1.09494 
-0.001410674914689932 1:-0.300506 2:-0.350964 3:-0.104561 
