svm_type epsilon_svr
kernel_type linear
nr_class 2
total_sv 3
rho -0.101402
SV
0.03620076102429543 1:2.80226 2:2.22563 3:1.73772 
-0.07527120465777752 1:0.000693441 2:0.00104078 3:0.00202164 
0.03907044363348205 1:5.71672 2:6.33861 3:6.98324 
