svm_type epsilon_svr
kernel_type linear
nr_class 2
total_sv 18
rho -0.0936607
SV
-0.5 1:0.25178 2:0.290268 3:0.419389 
-0.3081291743291725 1:2.30207 2:2.36602 3:2.56021 
0.5 1:-1.39806 2:-0.399703 3:0.730567 
0.5 1:2.07107 2:2.41327 3:2.79205 
-0.5 1:-0.0104141 2:0.0830738 3:0.146982 
-0.5 1:0.0103755 2:0.042818 3:0.0603137 
0.2444114988014571 1:5.75002 2:7.32997 3:9 
0.5 1:5.37163 2:4.55695 3:3.80212 
-0.5 1:0.0488711 2:0.0723661 3:0.14082 
-0.4362823244722847 1:4.10753 2:3.17605 3:2.40118 
-0.5 1:1.25575 2:1.46759 3:1.81622 
0.5 1:2.86243 2:-1.27659 3:-5.20445 
0.5 1:-0.0917842 2:-0.141422 3:-0.0880815 
0.5 1:1.0247 2:1.33094 3:1.6756 
-0.5 1:6.7512 2:0.0454196 3:-6.68694 
-0.5 1:-3.47007 2:3.43234 3:8.91156 
0.5 1:6.05514 2:5.15966 3:4.33186 
0.5 1:-7.56074 2:-6.19741 3:-2.6602 
