svm_type epsilon_svr
kernel_type linear
nr_class 2
total_sv 7
rho -0.155204
SV
0.5 1:5.79287 2:6.35361 3:6.96626 
-0.5 1:5.15915 2:5.22092 3:5.25884 
0.457628907000236 1:6.43898 2:5.732 3:5.13557 
-0.2056735095979541 1:4.22334 2:4.65258 3:5.63421 
0.5 1:4.24068 2:4.61566 3:5.05784 
-0.5 1:7.01944 2:7.0289 3:7.01944 
-0.2519553974022818 1:2.6449 2:2.78242 3:2.95312 
