svm_type epsilon_svr
kernel_type linear
nr_class 2
total_sv 9
rho -0.167018
SV
0.5 1:4.00595 2:4.7382 3:5.63331 
-0.5 1:6.65461 2:6.81241 3:6.95642 
0.5 1:4.07613 2:4.09453 3:4.15285 
-0.5 1:4.84825 2:4.92418 3:4.98927 
-0.09849218934354602 1:3.57422 2:3.7034 3:3.83253 
-0.5 1:4.27609 2:4.36525 3:4.44542 
-0.2841211051525307 1:3.51496 2:3.5564 3:3.58491 
0.5 1:4.60086 2:4.44174 3:4.32653 
0.3826132944960764 1:8.33678 2:8.01276 3:7.6977 
