svm_type epsilon_svr
kernel_type linear
nr_class 2
total_sv 4
rho -0.11948
SV
-0.2072910169474436 1:1.86047 2:2.04651 3:2.23256 
-0.05413648752599774 1:1.68466 2:1.89474 3:2.10526 
0.1360536815944976 1:3.7795 2:4.40365 3:5.16442 
0.1253738228789437 1:2.21534 2:1.95477 3:1.82479 
