svm_type epsilon_svr
kernel_type linear
nr_class 2
total_sv 4
rho -0.117633
SV
0.1429260287500445 1:7.1765 2:8.03989 3:9 
-0.3496840377877884 1:6 2:5.47587 3:4.99515 
0.5 1:5.16807 2:4.18727 3:3.42569 
-0.2932419909622562 1:3.76471 2:3.52944 3:3.29427 
