svm_type epsilon_svr
kernel_type linear
nr_class 2
total_sv 3
rho -0.153594
SV
0.01332095234752487 1:9.35362 2:9.54007 3:9.69715 
-0.04566179497413962 1:1.40553 2:1.54184 3:1.70444 
0.03234084262661473 1:7.71153 2:8.33487 3:8.8139 
