svm_type epsilon_svr
kernel_type linear
nr_class 2
total_sv 12
rho -0.181781
SV
-0.4103993048520073 1:7.34578 2:7.44335 3:7.52672 
0.5 1:4.88152 2:4.96613 3:5.096 
0.5 1:5.15798 2:5.29954 3:5.49341 
-0.5 1:3.79453 2:3.96936 3:4.11037 
-0.1478705791809704 1:4.27381 2:4.31734 3:4.35716 
-0.5 1:2.06344 2:2.23086 3:2.40077 
-0.5 1:4.34539 2:4.37793 3:4.40185 
0.5 1:5.43467 2:5.16792 3:4.97539 
0.5 1:4.2879 2:4.32028 3:4.38358 
0.05826988403297809 1:7.07187 2:7.67264 3:8.32336 
-0.5 1:8.90318 2:9.00778 3:9.08568 
0.5 1:6.50317 2:6.87061 3:7.26377 
