svm_type epsilon_svr
kernel_type linear
nr_class 2
total_sv 8
rho -0.187251
SV
-0.5 1:4.17609 2:4.13903 3:4.06113 
-0.5 1:4.49531 2:4.38184 3:4.26351 
0.3647330095544073 1:6.80236 2:7.3832 3:8.14252 
-0.5 1:5.26518 2:5.27808 3:5.26518 
0.5 1:3.67836 2:3.70969 3:3.82357 
0.5 1:3.81878 2:3.47079 3:3.18916 
-0.3647330095544069 1:3.21785 2:3.09406 3:3.00028 
0.5 1:4.6165 2:3.98929 3:3.48306 
