svm_type epsilon_svr
kernel_type linear
nr_class 2
total_sv 3
rho -0.125383
SV
0.01709751757470979 1:8.98628 2:8.97257 3:8.9589 
0.0268885904994356 1:7.71048 2:8.01068 3:8.32951 
-0.04398610807414537 1:1.00002 2:1.00002 3:1.00004 
