svm_type epsilon_svr
kernel_type linear
nr_class 2
total_sv 4
rho 0.0479019
SV
0.2962237653223522 1:8 2:8.43983 3:9 
0.3277617091077634 1:4.17304 2:4.43545 3:4.92832 
-0.4099490247394872 1:5.39538 2:6.5685 3:9 
-0.2140364496906284 1:6 2:3.3194 3:1.75111 
