svm_type epsilon_svr
kernel_type linear
nr_class 2
total_sv 6
rho -0.102404
SV
-0.1998906882230553 1:7.11895 2:6.31098 3:5.63693 
-0.5 1:8.19335 2:7.41971 3:6.70813 
-0.3462275866691397 1:1 2:1 3:1 
0.5 1:5.3918 2:4.66889 3:4.03262 
0.5 1:6.71344 2:6.13512 3:5.62609 
0.04611827489219483 1:3.61069 2:5.09238 3:7 
