svm_type epsilon_svr
kernel_type linear
nr_class 2
total_sv 5
rho -0.102867
SV
-0.5 1:5.59915 2:4.69961 3:4.26008 
-0.09949055278474885 1:6.7078 2:7.22927 3:7.7941 
-0.1870509980117556 1:1 2:1 3:1 
0.5 1:3.91778 2:3.48258 3:3.23081 
0.2865415507965045 1:6.97213 2:6.56542 3:6.30039 
