svm_type epsilon_svr
kernel_type linear
nr_class 2
total_sv 6
rho -0.104688
SV
-0.1936257785550481 1:4.16309 2:4.1882 3:4.26683 
-0.3971636500363244 1:2 2:2 3:2 
0.5 1:5.92273 2:5.52081 3:5.2666 
0.5 1:4.24849 2:4.94212 3:5.82784 
-0.04773645388505592 1:5.36625 2:5.85559 3:6.40993 
-0.3614741175235729 1:7.97313 2:8.47387 3:9 
