svm_type epsilon_svr
kernel_type linear
nr_class 2
total_sv 43
rho -0.102575
SV
-0.5 1:11.7306 2:-9.57275 3:4.61463 
-0.5 1:2.31464 2:4.2345 3:4.82679 
-0.5 1:6.92625 2:1.11412 3:-5.06569 
0.5 1:3.51328 2:2.22363 3:1.16484 
0.5 1:8.22512 2:7.45918 3:6.71084 
-0.5 1:0.00419926 2:0.00331304 3:0.00274044 
0.5 1:8.82571 2:8.7388 3:8.65217 
-0.5 1:-5.07108 2:0.9746 3:6.67323 
0.5 1:-1.43537 2:-6.63261 3:-9.21533 
-0.5 1:1.09539 2:8.01431 3:8.15434 
0.5 1:3.75706 2:-4.12287 3:-9.4996 
-0.1121970139366098 1:0.0231648 2:0.0140104 3:0.00836749 
0.5 1:9 2:8.769 3:8.53891 
-0.5 1:-2.17132 2:1.74815 3:4.46238 
-0.5 1:8.88615 2:3.21264 3:-3.64478 
-0.5 1:0.0126899 2:0.00797658 3:0.00482276 
0.5 1:-4.12099 2:-6.92696 3:-4.0891 
0.5 1:-3.2059 2:-8.5061 3:-6.90881 
0.5 1:-6.96892 2:-6.10936 3:-0.984859 
-0.5 1:0.0168118 2:0.0101472 3:0.0060997 
-0.5 1:0.0059189 2:0.00419056 3:0.00299759 
0.1948263608853219 1:8.60401 2:8.80185 3:9 
0.5 1:9 2:8.87666 3:8.75351 
-0.5 1:-8.91563 2:-10.1101 3:-0.107447 
0.5 1:9 2:8.65727 3:8.31764 
0.5 1:-8.42204 2:-7.14136 3:-0.112415 
0.5 1:-1.885 2:-6.24202 3:-3.9803 
0.5 1:7.12152 2:6.80981 3:-8.29715 
-0.5 1:7.11745 2:8.97406 3:5.01369 
-0.5 1:0.00453615 2:0.00682566 3:0.0101719 
-0.08262934694871113 1:-5.44731 2:-0.120826 3:5.27637 
-0.5 1:0.00629973 2:0.00925617 3:0.0134602 
0.5 1:-6.79913 2:-8.09047 3:2.69599 
0.5 1:-10.1858 2:2.77206 3:9.81205 
-0.5 1:3.17309 2:-5.92214 3:-4.77153 
0.5 1:-8.82389 2:-7.65277 3:-0.17839 
-0.5 1:0.98579 2:7.21241 3:7.33843 
-0.5 1:3.56783 2:5.17788 3:5.81115 
-0.5 1:0.00273227 2:0.0035083 3:0.00466299 
-0.5 1:0.000397576 2:-0.00258624 3:-0.0044977 
0.5 1:8.84904 2:8.69825 3:8.54784 
0.5 1:9 2:8.90627 3:8.81265 
0.5 1:1.54836 2:2.00595 3:2.53941 
