svm_type epsilon_svr
kernel_type linear
nr_class 2
total_sv 4
rho -0.0471392
SV
0.1405344688791242 1:3.1049 2:3.96569 3:4.95068 
-0.3162017146403369 1:-2.00011 2:-1.72994 3:-0.409434 
-0.1437280314242644 1:3.86392 2:2.13062 3:1.05368 
0.3193952771854768 1:-0.768495 2:-1.12852 3:-1.21742 
