svm_type epsilon_svr
kernel_type linear
nr_class 2
total_sv 18
rho -0.0762122
SV
-0.5 1:5.69982 2:3.08331 3:1.42931 
-0.5 1:0.663921 2:0.720838 3:0.901847 
-0.5 1:1.60787 2:6.34322 3:8.9852 
0.5 1:1.43951 2:0.271569 3:-0.515417 
0.5 1:-0.66972 2:-0.934421 3:-0.697017 
-0.1220063308267661 1:5.3868 2:3.20513 3:1.68003 
0.5 1:8 2:6.84587 3:5.7295 
0.5 1:2.56461 2:3.15282 3:3.90863 
0.5 1:0.964959 2:1.87627 3:2.92908 
0.08872102045325241 1:9 2:8.67334 3:8.34964 
0.5 1:9 2:8.06737 3:7.15048 
-0.5 1:5.78128 2:3.06805 3:1.33704 
-0.4667146896264854 1:0.671983 2:0.514925 3:0.471489 
-0.5 1:0.704741 2:0.776976 3:0.974747 
0.5 1:-1.17702 2:-2.80622 3:-3.97124 
-0.5 1:1.90829 2:1.37246 3:0.0334347 
0.5 1:-1.25781 2:-0.839377 3:-0.0729024 
-0.5 1:1.10101 2:0.817641 3:0.247466 
