svm_type epsilon_svr
kernel_type linear
nr_class 2
total_sv 5
rho 0.000184052
SV
-0.5 1:-2.15839 2:2.30845 3:6.01346 
0.412607955549272 1:-2.60177 2:2.4556 3:6.545 
0.4336776623719626 1:3.04755 2:1.62328 3:-1.59834 
0.1145539153119323 1:7.81598 2:8.40596 3:9 
-0.460839533233167 1:4.50126 2:1.75266 3:-0.199148 
