svm_type epsilon_svr
kernel_type linear
nr_class 2
total_sv 38
rho -0.0991638
SV
-0.5 1:1.13356 2:2.23333 3:3.95224 
-0.5 1:3.66664 2:2.43028 3:1.51892 
0.5 1:2.70858 2:3.03171 3:3.37851 
0.5 1:4.40768 2:5.43855 3:6.56677 
0.06733518890596121 1:5.20964 2:4.37159 3:3.60559 
-0.5 1:-1.6706 2:0.342588 3:2.1898 
-0.5 1:0.00186612 2:0.00478563 3:0.00544843 
0.5 1:-0.882919 2:-1.87394 3:-1.33814 
0.5 1:-3.45308 2:-3.95519 3:-2.5911 
0.5 1:-2.53248 2:-3.85537 3:-4.33292 
-0.5 1:0.099415 2:0.074455 3:0.0332813 
-0.5 1:2.0414 2:3.07419 3:1.9609 
-0.5 1:5.17499 2:5.29364 3:4.46423 
0.5 1:0.350558 2:0.235314 3:0.193057 
0.5 1:3.26232 2:2.74688 3:2.28857 
-0.2216258249037201 1:-6.23775 2:-2.2979 3:4.18691 
0.5 1:2.94849 2:2.68008 3:4.62724 
-0.5 1:3.39397 2:4.64378 3:8 
-0.5 1:-1.99641 2:-1.5253 3:2.25973 
0.5 1:0.165028 2:-1.08195 3:-1.6276 
0.5 1:2.8079 2:2.3607 3:1.962 
-0.5 1:1.6306 2:1.16907 3:0.0233742 
-0.4489593823055317 1:0.000187363 2:0.000268475 3:0.000192483 
-0.5 1:2.44067 2:0.541994 3:-2.16531 
-0.5 1:0.223682 2:0.537217 3:1.17962 
-0.5 1:0.297033 2:0.609981 3:1.15565 
-0.5 1:1.19934 2:1.66383 3:2.28238 
0.5 1:-0.962091 2:2.27104 3:1.57517 
0.5 1:0.582336 2:0.895697 3:1.32628 
-0.3967499816967092 1:2.89956 2:0.0392739 3:-2.85423 
0.5 1:-1.43571 2:-1.8259 3:-1.55357 
0.5 1:5.99332 2:5.35752 3:4.74896 
-0.5 1:1.79478 2:2.5555 3:1.82068 
-0.5 1:0.00150029 2:0.00107027 3:1.73622e-05 
0.5 1:3.77975 2:4.52017 3:5.31467 
0.5 1:0.426366 2:2.45025 3:4.67139 
0.5 1:-1.14303 2:-0.328559 3:0.601164 
0.5 1:2.36795 2:2.72245 3:3.10718 
