svm_type epsilon_svr
kernel_type linear
nr_class 2
total_sv 45
rho -0.071631
SV
-0.5 1:0.280248 2:0.524685 3:0.932511 
-0.1212628991813442 1:2.81952 2:2.19566 3:1.71343 
-0.5 1:2.54313 2:2.34565 3:2.27847 
0.5 1:-2.10327 2:-1.65244 3:-0.531814 
0.5 1:0.98139 2:-0.351937 3:-1.56912 
0.5 1:3.97275 2:4.44487 3:4.94524 
0.5 1:8.91812 2:8.83633 3:8.75471 
0.5 1:-3.65633 2:-5.7272 3:-5.75866 
-0.5 1:3.63846 2:4.84538 3:4.14229 
-0.5 1:3.7832 2:4.70056 3:2.76398 
0.2711118332282989 1:8.70312 2:8.40742 3:8.11407 
0.5 1:9 2:8.79183 3:8.58449 
-0.5 1:8 2:8.46952 3:8.38779 
0.008579097352694267 1:-2.81568 2:-2.76584 3:-1.37593 
-0.5 1:0.287928 2:1.6794 3:1.70256 
-0.5 1:-2.60128 2:-0.0255978 3:2.56205 
-0.5 1:3.82794 2:4.33423 3:3.90576 
0.5 1:-1.56326 2:-3.54512 3:-4.89207 
0.5 1:8.40936 2:7.8227 3:7.24392 
0.5 1:8.60267 2:8.20656 3:7.81287 
0.5 1:9 2:8.56123 3:8.12648 
-0.1649107734752684 1:-1.83782 2:0.650819 3:2.62105 
0.5 1:9 2:8.72184 3:8.44466 
-0.5 1:4.57418 2:3.82108 3:2.5988 
0.5 1:0.128783 2:-3.71846 3:-5.38957 
-0.5 1:6.6441 2:-0.455279 3:-6.875 
0.5 1:-9.10133 2:2.47697 3:8.76752 
-0.5 1:1.65208 2:-0.325353 3:0.360445 
-0.5 1:2.2195 2:2.99969 3:3.9461 
-0.5 1:2.53568 2:-4.7325 3:-3.81303 
-0.5 1:2.78993 2:1.39156 3:0.626645 
-0.5 1:3.86225 2:6.7211 3:4.04407 
0.5 1:0.817174 2:5.97876 3:6.08322 
-0.5 1:1.14419 2:3.22346 3:4.19047 
0.5 1:2.55924 2:3.31121 3:4.15323 
0.5 1:-1.09961 2:-4.48292 3:-7.1247 
-0.5 1:8.01749 2:6.74681 3:4.36012 
-0.5 1:-5.09737 2:-0.113064 3:4.93741 
-0.5 1:3.07673 2:6.46658 3:7.17512 
0.5 1:-2.39148 2:-5.25664 3:-5.94219 
0.5 1:4.41685 2:5.44693 3:6.57324 
0.006482742075621272 1:7.16638 2:6.72207 3:6.2869 
0.5 1:8.76519 2:8.64814 3:8.53152 
0.5 1:0.398649 2:-2.68168 3:-4.82135 
-0.5 1:6.87463 2:6.53254 3:5.20077 
