svm_type epsilon_svr
kernel_type linear
nr_class 2
total_sv 5
rho -0.101353
SV
-0.1352619804872349 1:3.19464 2:4.38724 3:5.78925 
-0.02904305925795254 1:4.63772 2:5.622 3:6.69525 
-0.3147208165223794 1:0.00239796 2:0.00112174 3:8.15423e-05 
-0.02097414373243361 1:1.52037 2:2.75022 3:4.48665 
0.5 1:1.85888 2:2.30089 3:2.81095 
