svm_type epsilon_svr
kernel_type linear
nr_class 2
total_sv 58
rho -0.109558
SV
-0.5 1:11.7306 2:-9.57275 3:4.61463 
-0.5 1:2.31464 2:4.2345 3:4.82679 
-0.5 1:0.00573705 2:0.00381503 3:0.00260047 
0.5 1:1.95424 2:-4.29876 3:-9.13308 
-0.5 1:9.56885 2:10.5289 3:9.08431 
0.5 1:1.07269 2:0.780649 3:0.556676 
0.5 1:8.73973 2:8.86979 3:9 
0.4984557135023918 1:8.70672 2:8.80431 3:8.9021 
-0.5 1:8.5115 2:9.07467 3:6.0607 
-0.5 1:1.09539 2:8.01431 3:8.15434 
-0.5 1:0.129058 2:0.174215 3:0.0720451 
-0.5 1:0.0042113 2:0.0067553 3:0.0112787 
0.4369655089057265 1:8.27601 2:8.51574 3:8.75739 
-0.5 1:3.94996 2:4.10905 3:1.12127 
-0.5 1:0.0131677 2:0.0433674 3:0.0404337 
-0.5 1:0.015072 2:0.00924559 3:0.00558804 
0.5 1:0.368682 2:1.52433 3:2.97917 
0.5 1:-5.56563 2:-4.58472 3:-1.38248 
-0.5 1:0.281259 2:0.155255 3:-0.0430983 
-0.5 1:-0.011548 2:0.00248479 3:0.014493 
0.5 1:3.29299 2:3.38405 3:-7.13156 
0.5 1:-3.2059 2:-8.5061 3:-6.90881 
-0.5 1:-0.0940793 2:-0.00138348 3:0.091959 
-0.5 1:0.00822723 2:0.00558791 3:0.00398795 
0.5 1:0.119907 2:-3.68888 3:-6.69435 
-0.5 1:0.0103192 2:0.00966352 3:0.00991656 
0.5 1:3.8355 2:-2.19193 3:-6.68918 
-0.5 1:0.132136 2:0.118995 3:0.0446026 
-0.5 1:0.00520393 2:0.00846022 3:0.0139127 
0.5 1:-9.20025 2:-7.58736 3:-4.61561 
0.5 1:-0.289753 2:-0.358232 3:-0.262411 
-0.5 1:0.00743869 2:0.0103794 3:0.0143679 
0.5 1:6.5685 2:7.16059 3:7.76611 
0.5 1:5.26853 2:5.76061 3:6.27097 
0.5 1:5.92629 2:6.41349 3:6.91411 
0.5 1:8.16695 2:8.44381 3:8.72166 
0.5 1:8.19676 2:8.46374 3:8.73164 
-0.3588452115202088 1:0.477104 2:0.301296 3:0.184751 
0.5 1:8.53934 2:8.76926 3:9 
0.5 1:-7.43313 2:-6.60075 3:-2.5314 
-0.5 1:0.121297 2:0.0979527 3:0.095553 
0.5 1:7.64588 2:8.31956 3:9 
-0.5 1:-5.2806 2:1.88091 3:7.82321 
-0.5 1:0.0408173 2:0.0321579 3:0.0259541 
0.5 1:-7.58648 2:-5.41356 3:-0.0724975 
-0.5 1:0.0357304 2:0.0285679 3:0.0235888 
-0.5 1:0.797298 2:1.2971 3:2.01102 
-0.5 1:2.95138 2:2.33496 3:1.85869 
0.5 1:-3.09178 2:-4.99821 3:-5.17999 
0.5 1:-10.1788 2:-9.64975 3:-7.52452 
-0.5 1:0.015606 2:0.0123571 3:0.00997792 
-0.1192921373710645 1:0.0284403 2:0.0329059 3:0.0389716 
0.5 1:-9.50607 2:-6.74053 3:-0.0302798 
0.5 1:-9.52941 2:-4.56138 3:2.29799 
-0.5 1:0.0148951 2:0.012576 3:0.0111515 
0.5 1:8.59686 2:8.73096 3:8.8654 
0.5 1:8.79567 2:8.89777 3:9 
0.0427161264831549 1:5.07866 2:1.01921 3:-3.39775 
