svm_type epsilon_svr
kernel_type linear
nr_class 2
total_sv 7
rho -0.0827032
SV
-0.5 1:0.75164 2:0.527646 3:0.388252 
0.5 1:3.80595 2:4.54353 3:5.34764 
-0.01872068836552166 1:1.5505 2:1.16587 3:0.86073 
-0.5 1:2.35499 2:1.60857 3:1.04891 
-0.1928797265113636 1:9 2:7.47901 3:6.02625 
0.2116004148768866 1:6.95407 2:7.96479 3:9 
0.5 1:0.719353 2:-2.39811 3:-4.67438 
