svm_type epsilon_svr
kernel_type linear
nr_class 2
total_sv 12
rho -0.0382898
SV
0.4219218721860459 1:-1.23439 2:-1.93353 3:-1.94414 
-0.5 1:1.10928 2:0.830773 3:0.371348 
0.5 1:-0.00521794 2:-0.250688 3:-0.313025 
0.5 1:0.193211 2:1.35153 3:2.64718 
0.4022710772751573 1:1.93525 2:1.0299 3:-1.01365 
-0.5 1:0.206175 2:0.295457 3:0.21183 
-0.5 1:2.31347 2:1.1997 3:0.563195 
-0.5 1:0.417308 2:0.561716 3:0.512302 
0.5 1:1.95212 2:1.43977 3:1.05609 
0.04613911107043814 1:1.97344 2:2.72083 3:3.62307 
-0.5 1:0.0445216 2:0.200359 3:0.273119 
0.1296679394683592 1:7.67574 2:6.39126 3:5.18422 
