svm_type epsilon_svr
kernel_type linear
nr_class 2
total_sv 39
rho -0.0996899
SV
-0.5 1:0.0607557 2:0.0268725 3:0.0168562 
-0.5 1:4.32069 2:4.17282 3:4.1229 
-0.5 1:5.65879 2:5.28094 3:4.97876 
-0.5 1:0.159441 2:0.271303 3:0.273196 
0.5 1:4.72086 2:5.70432 3:6.75498 
0.5 1:0.207315 2:0.307369 3:0.448823 
0.5 1:-1.3611 2:-1.05459 3:-0.312353 
0.5 1:0.494655 2:1.65142 3:3.0847 
0.5 1:-0.821417 2:-0.896248 3:-0.594485 
0.5 1:-0.207495 2:-0.408967 3:-0.423444 
-0.5 1:-0.336237 2:0.0547224 3:0.399956 
-0.5 1:0.63854 2:0.256419 3:-0.281386 
0.5 1:0.467412 2:-0.530287 3:-1.33257 
0.5 1:-0.705169 2:-0.446702 3:0.300713 
0.5 1:-0.524007 2:-0.514738 3:-0.256069 
-0.5 1:0.184996 2:-0.0442295 3:-0.134746 
-0.5 1:2.26687 2:1.58694 3:1.07142 
-0.3675070716758191 1:1.62709 2:1.44013 3:1.34768 
-0.5 1:0.53695 2:0.716024 3:0.742604 
-0.3476631918747239 1:0.00343994 2:0.00280188 3:0.00174764 
0.5 1:2.38739 2:1.18856 3:0.390159 
0.5 1:-1.0446 2:-0.704959 3:-0.239066 
-0.5 1:-0.897232 2:0.458899 3:1.30723 
0.5 1:4.89477 2:3.15269 3:1.79495 
-0.5 1:0.0120782 2:0.0248144 3:0.0253817 
0.5 1:5.72745 2:4.51355 3:3.41199 
0.5 1:4.91787 2:3.88162 3:2.93503 
0.5 1:-1.2813 2:0.490041 3:1.54032 
-0.5 1:1.20476 2:2.08078 3:3.3322 
-0.5 1:1.76852 2:2.11689 3:2.5997 
-0.5 1:1.70104 2:1.77599 3:1.98669 
-0.4491479169182842 1:6.63696 2:5.92709 3:5.28138 
-0.3356818195311728 1:5.68512 2:5.78696 3:5.95416 
-0.5 1:0.078448 2:-0.146412 3:-0.117966 
0.5 1:3.74252 2:5.05159 3:6.49063 
0.5 1:2.1477 2:2.46363 3:2.93303 
-0.5 1:-0.00146961 2:0.0533314 3:0.0769318 
0.5 1:5.4179 2:4.78241 3:4.18691 
0.5 1:0.235852 2:0.158166 3:0.100646 
