svm_type epsilon_svr
kernel_type linear
nr_class 2
total_sv 8
rho -0.0871097
SV
0.08239625902529323 1:0.0269335 2:-0.0683087 3:0.16287 
0.3171166742950765 1:4.02159 2:2.76525 3:1.76282 
-0.5 1:0.598132 2:0.489953 3:0.276324 
0.5 1:2.64214 2:1.62553 3:0.731194 
-0.1601016317955206 1:0.185308 2:0.077214 3:0.0303578 
-0.2394113015248494 1:9 2:7.25346 3:5.60997 
0.5 1:0.629758 2:1.11068 3:1.80725 
-0.5 1:0.0496868 2:0.0359665 3:0.00150607 
