svm_type epsilon_svr
kernel_type linear
nr_class 2
total_sv 17
rho -0.0899591
SV
0.01302964031857566 1:6.74655 2:6.20943 3:5.68907 
0.03169998513396677 1:6.95739 2:5.98781 3:5.0768 
-0.5 1:0.183332 2:0.158727 3:0.202363 
-0.5 1:0.954406 2:1.28316 3:1.754 
-0.04472962545254239 1:-0.191526 2:-0.0704051 3:0.184758 
-0.5 1:-0.10852 2:0.0538656 3:0.171884 
-0.5 1:-0.0158158 2:0.0280493 3:0.0488115 
-0.5 1:0.0491786 2:0.359351 3:0.368098 
0.5 1:-0.0572227 2:0.0336223 3:0.332268 
-0.5 1:0.12176 2:0.0921224 3:0.0306976 
0.5 1:-5.02897 2:-3.61413 3:-1.60147 
0.5 1:3.38355 2:4.68057 3:6.26226 
0.5 1:-0.886105 2:-0.690952 3:-0.381508 
0.5 1:2.75601 2:2.2904 3:1.88045 
0.5 1:0.79876 2:-0.675595 3:-1.86982 
0.5 1:0.634877 2:-0.475245 3:-1.41866 
-0.5 1:0.11352 2:0.105757 3:0.0608963 
