svm_type epsilon_svr
kernel_type linear
nr_class 2
total_sv 6
rho 0.00676989
SV
-0.5 1:0.136651 2:0.416212 3:0.582706 
0.1553755721249931 1:9 2:8.00051 3:7.01979 
0.04822630481646521 1:5.71301 2:4.65112 3:3.68279 
-0.5 1:1.85022 2:1.58049 3:0.728327 
0.2963981230585417 1:-0.0627034 2:-0.0973913 3:0.0654765 
0.5 1:-0.521672 2:-0.523654 3:-0.431853 
