svm_type epsilon_svr
kernel_type linear
nr_class 2
total_sv 21
rho -0.0774407
SV
-0.5 1:-1.22179 2:-1.36092 3:3.54552 
0.5 1:8.51413 2:8.75691 3:9 
0.5 1:9 2:8.87439 3:8.7489 
-0.5 1:6.68794 2:4.20896 3:0.727898 
0.5 1:-4.79272 2:-3.35432 3:-0.593666 
-0.5 1:3.67709 2:3.2238 3:0.0436657 
-0.4319064363197757 1:-2.99048 2:0.568895 3:3.7832 
0.08423792454758504 1:8.47331 2:8.73613 3:9 
-0.5 1:-0.899233 2:0.567324 3:1.59941 
0.5 1:1.36623 2:-0.856072 3:-1.84438 
0.5 1:-1.30699 2:2.6894 3:-1.70059 
-0.5 1:-0.0383964 2:2.55218 3:3.94972 
0.5 1:-0.717768 2:-1.727 3:-1.54139 
-0.5 1:-0.758816 2:1.76768 3:3.0604 
0.5 1:-5.25122 2:-4.33063 3:-2.63445 
-0.5 1:2.8053 2:2.11903 3:-0.272889 
-0.5 1:0.732933 2:1.50579 3:1.54022 
-0.415441121293139 1:0.186973 2:2.59215 3:-0.634474 
0.2631096330653272 1:0.228498 2:-2.29335 3:-1.39159 
0.5 1:-4.6182 2:4.53643 3:4.00657 
0.5 1:5.03633 2:3.90359 3:2.92034 
