svm_type epsilon_svr
kernel_type linear
nr_class 2
total_sv 3
rho -0.0935988
SV
-0.4238350758114374 1:0.181146 2:0.0743634 3:0.0284158 
-0.07616492418856242 1:9 2:7.25042 3:5.60443 
0.5 1:2.22953 2:1.83083 3:1.48648 
