svm_type epsilon_svr
kernel_type linear
nr_class 2
total_sv 3
rho -0.0667503
SV
0.01763821083600922 1:8.67749 2:8.83843 3:9 
0.02488907593575999 1:9 2:8.87354 3:8.74728 
-0.04252728677176922 1:1.06322 2:1.32331 3:1.11922 
