svm_type epsilon_svr
kernel_type linear
nr_class 2
total_sv 30
rho -0.0749213
SV
-0.5 1:2.02395 2:1.818 3:1.74778 
-0.5 1:-1.2702 2:0.97942 3:2.90582 
0.5 1:3.76745 2:2.67962 3:1.74524 
0.07171083073798401 1:6.8149 2:7.242 3:7.67566 
0.5 1:-0.129386 2:-1.66898 3:-2.61425 
-0.5 1:1.54538 2:1.667 3:1.19502 
-0.5 1:0.200309 2:1.28859 3:1.87146 
0.5 1:-0.273297 2:-0.836464 3:-1.06991 
-0.5 1:0.0659075 2:0.482004 3:0.491932 
0.5 1:-1.43847 2:-0.503363 3:0.737357 
0.5 1:-0.794814 2:-0.687373 3:-0.162281 
0.5 1:-0.291344 2:-1.96048 3:-2.89295 
-0.5 1:-0.130142 2:1.15002 3:4.79534 
-0.5 1:1.04324 2:0.675498 3:0.423935 
-0.2078693388394108 1:0.520387 2:0.336659 3:0.226987 
-0.5 1:1.06592 2:0.947069 3:0.385502 
-0.5 1:-0.00770144 2:0.305607 3:0.476256 
-0.5 1:4.84822 2:3.25015 3:0.976755 
0.5 1:2.33826 2:3.53748 3:5.15084 
-0.5 1:0.628781 2:0.505362 3:0.292775 
-0.2499598669021981 1:6.65365 2:3.86225 3:1.0272 
-0.5 1:0.380669 2:-0.307969 3:-0.533478 
0.5 1:4.05036 2:4.76182 3:5.53168 
0.5 1:0.379607 2:1.00284 3:2.4121 
0.3861183750036261 1:0.200779 2:0.604819 3:1.46238 
0.5 1:4.09832 2:4.63825 3:5.20444 
-0.5 1:-0.120082 2:0.207827 3:0.50136 
0.5 1:-0.365038 2:-0.374659 3:-0.306582 
0.5 1:2.03108 2:1.50829 3:1.091 
0.5 1:0.807013 2:0.582755 3:0.412108 
