svm_type epsilon_svr
kernel_type linear
nr_class 2
total_sv 65
rho -0.0996185
SV
-0.5 1:2.87796 2:5.53211 3:9 
-0.5 1:0.375079 2:0.42124 3:0.572476 
-0.5 1:1.85676 2:1.51262 3:1.3059 
-0.5 1:2.15294 2:2.08444 3:2.14947 
-0.5 1:3.01835 2:2.95689 3:3.01634 
-0.5 1:-0.00188663 2:-0.000168644 3:0.00162326 
0.5 1:1.28131 2:0.522562 3:0.0415968 
-0.5 1:0.00648649 2:0.016333 3:0.0207791 
-0.1048705930808953 1:0.498604 2:0.790513 3:1.19849 
0.5 1:7.52671 2:6.80947 3:6.11483 
0.4989699578169227 1:8.66411 2:8.32957 3:7.99771 
-0.03807966284918123 1:-0.000270553 2:0.000104358 3:0.000409964 
-0.5 1:0.0167121 2:0.0129159 3:0.00471905 
-0.5 1:0.00122612 2:0.00188004 3:0.00166375 
0.5 1:-5.97951 2:-6.71832 3:-5.99408 
0.5 1:0.0831995 2:-2.55958 3:-4.64496 
0.5 1:-0.855049 2:-1.55168 3:-1.91036 
-0.5 1:0.510842 2:3.73205 3:4.34791 
0.5 1:7 2:5.52387 3:3.85144 
-0.5 1:4.84095 2:1.88096 3:-1.41589 
0.5 1:-6.88077 2:-6.25251 3:-4.50445 
0.5 1:-0.416197 2:-1.58431 3:-2.36824 
0.5 1:-5.54567 2:2.8359 3:8.07667 
-0.5 1:1.07283 2:4.32488 3:4.09572 
0.5 1:7.24895 2:6.406 3:5.60052 
0.4443880456624377 1:8.06652 2:7.60507 3:7.14991 
0.5 1:-4.08513 2:-1.78404 3:1.39193 
0.5 1:-3.15809 2:-1.9563 3:0.204841 
0.5 1:-1.96987 2:2.36138 3:3.81046 
0.5 1:0.343415 2:4.76101 3:-1.16534 
-0.5 1:0.959438 2:1.31606 3:1.76714 
0.5 1:8.56776 2:8.13901 3:7.71724 
0.5 1:9 2:8.68028 3:8.36313 
0.5 1:-2.5388 2:-4.99486 3:-4.21325 
-0.5 1:2.415 2:3.49482 3:2.3093 
0.5 1:0.0217141 2:-3.19688 3:-4.54458 
0.5 1:-3.22871 2:-2.33303 3:-0.0720018 
-0.5 1:-4.43686 2:-0.704916 3:4.07936 
-0.5 1:0.535218 2:0.698496 3:0.900141 
-0.5 1:0.373379 2:0.183071 3:0.0861962 
-0.5 1:2.98395 2:4.19853 3:5.64655 
-0.5 1:2.71466 2:3.4854 3:4.39264 
0.5 1:9 2:7.96217 3:6.94941 
0.5 1:9 2:8.65881 3:8.32456 
-0.5 1:2.96311 2:-2.38277 3:-3.60624 
0.5 1:7 2:6.08937 3:5.20289 
-0.5 1:0.112177 2:0.10423 3:0.116854 
0.1995922524507185 1:-3.31054 2:-3.91396 3:-1.29362 
-0.5 1:-0.113412 2:0.201136 3:0.350017 
-0.5 1:-2.62754 2:-5.11145 3:-3.27185 
0.5 1:-0.427674 2:-2.4427 3:-3.61487 
-0.5 1:-0.272459 2:1.42851 3:2.63656 
-0.5 1:0.114575 2:0.37091 3:0.499262 
0.5 1:-7.64842 2:-8.14987 3:-7.30323 
0.5 1:-4.52091 2:-2.00328 3:0.845719 
-0.5 1:-0.0219335 2:0.893855 3:1.66179 
0.5 1:0.0293137 2:-4.31574 3:-6.13513 
-0.5 1:4.5813 2:3.29491 3:0.0802677 
0.5 1:-0.203475 2:-0.149442 3:0.417573 
-0.5 1:6.00887 2:4.71449 3:1.46529 
0.5 1:0.730805 2:1.40858 3:2.41956 
0.5 1:7.45316 2:6.94997 3:6.45719 
-0.5 1:4.10391 2:2.3631 3:-0.206624 
-0.5 1:2.32558 2:0.703857 3:-1.16476 
-0.5 1:0.142513 2:0.221027 3:0.222011 
