svm_type epsilon_svr
kernel_type linear
nr_class 2
total_sv 34
rho -0.0594053
SV
-0.5 1:0.367778 2:0.179265 3:0.0830381 
-0.5 1:2.75338 2:3.97836 3:5.47195 
-0.5 1:2.60716 2:3.37829 3:4.29343 
0.5 1:9 2:7.96067 3:6.94621 
-0.5 1:-0.415797 2:1.83253 3:3.56278 
0.5 1:-0.780646 2:-0.964942 3:-0.75811 
-0.5 1:9.18301 2:7.16195 3:2.77731 
-0.5 1:5.56438 2:2.74298 3:-0.98366 
0.5 1:-0.438444 2:-0.500226 3:-0.396909 
-0.5 1:-1.51152 2:0.553191 3:2.42091 
-0.5 1:7.44184 2:5.44237 3:1.29757 
-0.5 1:-3.5228 2:-6.85303 3:-4.38664 
-0.2364566239633182 1:-7.44022 2:-3.3535 3:2.7693 
0.5 1:9 2:7.53996 3:5.64358 
0.5 1:0.987076 2:-1.81664 3:-3.22911 
0.5 1:-8.30886 2:-4.19775 3:1.46029 
-0.5 1:3.22082 2:3.8159 3:3.00476 
0.5 1:7.24376 2:6.49809 3:5.77314 
0.5 1:-4.08871 2:-4.37629 3:-2.54353 
-0.5 1:-0.0619297 2:0.377934 3:0.509871 
0.5 1:2.69808 2:1.92667 3:1.24668 
-0.5 1:6.89726 2:7.99531 3:9 
-0.5 1:0.228394 2:0.475563 3:0.637561 
0.3594952285349232 1:3.89194 2:3.49047 3:3.11528 
0.5 1:0.750667 2:0.393534 3:-0.380849 
0.3769613954283959 1:8 2:7.33242 3:6.67217 
0.5 1:0.827115 2:1.33676 3:2.03791 
0.5 1:-0.350318 2:-0.540964 3:-0.54495 
-0.5 1:2.03109 2:1.30121 3:0.356089 
0.5 1:3.72673 2:2.91524 3:2.1587 
0.5 1:1.46896 2:2.20356 3:3.1554 
-0.5 1:-0.0598215 2:0.115841 3:0.243471 
-0.5 1:0.288606 2:0.238404 3:0.110705 
0.5 1:2.64407 2:3.15056 3:3.70625 
