svm_type epsilon_svr
kernel_type linear
nr_class 2
total_sv 42
rho -0.100299
SV
-0.5 1:7.3424e-05 2:0.000262014 3:0.00197402 
-0.5 1:2.36398 2:3.32702 3:4.50656 
-0.5 1:1.58552 2:1.78863 3:2.12868 
0.5 1:0.479312 2:0.329887 3:0.221484 
-0.3777835110461488 1:1.60801e-05 2:2.8571e-05 3:4.99869e-05 
0.5 1:5.53557 2:4.91568 3:4.33212 
0.5 1:7.99269 2:7.49521 3:7.00505 
0.5 1:1.34694 2:1.89427 3:2.59405 
0.5 1:1.54479 2:2.10895 3:2.80963 
0.5 1:0.535063 2:0.96293 3:1.64086 
0.5 1:4.21143 2:2.82599 3:1.51568 
-0.5 1:0.0628661 2:0.222355 3:0.274112 
-0.5 1:2.88258e-05 2:3.16665e-05 3:5.44234e-05 
-0.5 1:0.0257183 2:0.0270434 3:0.0462141 
-0.5 1:1.17257 2:1.70335 3:2.39153 
-0.5 1:2.50725 2:2.03322 3:1.65554 
0.5 1:-4.49814 2:-6.8866 3:-7.77537 
-0.5 1:0.257964 2:0.115308 3:-0.0524597 
0.5 1:-6.38998 2:-8.33736 3:-8.79156 
-0.5 1:0.0124066 2:0.00927695 3:0.00462027 
0.5 1:0.23995 2:0.684485 3:0.380669 
-0.5 1:0.436734 2:0.271493 3:0.16363 
-0.5 1:-1.1725 2:3.23686 3:6.05889 
-0.5 1:0.00448522 2:0.00458759 3:0.00244038 
-0.5 1:0.00151606 2:-0.0149523 3:0.00106525 
0.5 1:1.05977 2:0.70783 3:0.456046 
-0.5 1:6.39529 2:4.55635 3:0.0509282 
0.5 1:0.905877 2:0.605983 3:0.392406 
-0.5 1:0.450277 2:0.837241 3:1.45643 
-0.5 1:0.239158 2:0.369578 3:0.603792 
-0.334589890839682 1:4.58777 2:3.70751 3:2.95488 
-0.5 1:3.5828 2:2.99875 3:2.53921 
0.5 1:0.669296 2:0.389791 3:0.213842 
0.5 1:-3.69363 2:-4.72437 3:-4.12496 
0.5 1:5.42898 2:4.5764 3:3.74067 
-0.5 1:-0.0128331 2:-0.000284649 3:0.0124304 
0.5 1:2.62989 2:3.22242 3:3.8832 
0.2123734018858287 1:-5.77747 2:-0.50179 3:4.98195 
0.5 1:4.66909 2:5.31734 3:6.00405 
0.5 1:-4.60628 2:-1.32405 3:2.42261 
0.5 1:4.47082 2:3.71594 3:3.02992 
0.5 1:3.0108 2:3.43052 3:3.87951 
