svm_type epsilon_svr
kernel_type linear
nr_class 2
total_sv 26
rho -0.0583112
SV
-0.5 1:-0.606131 2:-0.675151 3:1.75893 
-0.5 1:12.9954 2:11.0409 3:5.44263 
-0.5 1:1.37963 2:4.09319 3:5.45592 
0.5 1:8.64862 2:8.82422 3:9 
0.5 1:8.77605 2:8.88796 3:9 
0.4981889361185772 1:8.75684 2:8.67619 3:8.59588 
-0.5 1:-5.07061 2:-5.92203 3:-1.76432 
-0.2511704224612092 1:-11.9995 2:-9.84933 3:-4.06948 
0.08390908696393712 1:-4.75934 2:-7.99997 3:-4.72251 
-0.5 1:3.45049 2:3.49807 3:0.695545 
0.5 1:-3.67796 2:-9.47922 3:-10.8494 
-0.3309276006213045 1:5.79254 2:2.34225 3:-2.20294 
0.5 1:-8.60103 2:-6.46201 3:-2.91576 
0.5 1:-4.04186 2:-4.74512 3:-3.08517 
0.5 1:8.60878 2:8.80424 3:9 
0.5 1:5.73539 2:8.406 3:2.23156 
0.5 1:3.27178 2:-3.03011 3:-7.84605 
0.5 1:-2.13329 2:-3.69374 3:-3.4428 
0.5 1:-2.2874 2:2.66399 3:4.02315 
-0.5 1:5.54254 2:-1.35663 3:-5.30833 
-0.5 1:-0.200658 2:6.2179 3:8.9976 
-0.5 1:2.96127 2:-3.68089 3:-4.42846 
0.5 1:-3.63093 2:2.28086 3:4.65195 
-0.5 1:6.2339 2:10.9962 3:6.70141 
-0.5 1:-1.56825 2:2.78129 3:4.84 
-0.5 1:-4.56209 2:-5.32812 3:-1.58737 
