svm_type epsilon_svr
kernel_type linear
nr_class 2
total_sv 10
rho 0.00678514
SV
-0.5 1:0.915538 2:0.251241 3:0.0829767 
-0.2420359867398566 1:1.01566 2:1.45313 3:2.05163 
-0.439968276955023 1:5.58726 2:6.67068 3:7.81862 
0.4069265647708356 1:9 2:8.13509 3:7.28858 
0.2750776989240446 1:1.26035 2:0.98779 3:0.763726 
-0.5 1:0.948244 2:1.54215 3:2.37557 
0.5 1:8.01155 2:7.04185 3:6.10856 
0.5 1:-3.42177 2:-2.44171 3:-0.032699 
0.5 1:-2.61617 2:-2.64323 3:-1.5743 
-0.5 1:1.81202 2:0.755703 3:-0.56569 
