svm_type epsilon_svr
kernel_type linear
nr_class 2
total_sv 3
rho 0.0198027
SV
0.04280577850376129 1:8.28468 2:8.6419 3:9 
0.003536830116502276 1:9 2:8.82064 3:8.64192 
-0.04634260862026356 1:1.13928 2:1.61784 3:1.82879 
