svm_type epsilon_svr
kernel_type linear
nr_class 2
total_sv 9
rho -0.0943173
SV
-0.5 1:0.376351 2:1.07006 3:2.6235 
-0.4674800731319957 1:0.521137 2:0.371026 3:0.320391 
-0.5 1:0.0118522 2:0.0315901 3:0.0388797 
0.4657681858741582 1:3.80477 2:4.74022 3:5.76996 
-0.1334961526273588 1:8 2:5.24825 3:2.9973 
-0.3647919601148042 1:0.00566723 2:0.0192812 3:0.0289563 
0.5 1:-1.17012 2:-1.85967 3:-2.24161 
0.5 1:1.04687 2:0.722611 3:0.487865 
0.5 1:0.219258 2:0.357676 3:0.730805 
