svm_type epsilon_svr
kernel_type linear
nr_class 2
total_sv 34
rho -0.100363
SV
-0.5 1:5.29226 2:-7.00499 3:6.66855 
0.02050567821126046 1:7.65479 2:8.32041 3:9 
-0.5 1:2.56543 2:2.95374 3:2.14479 
-0.5 1:4.52836 2:4.36542 3:2.76181 
0.5 1:-1.65654 2:-5.07008 3:-6.48503 
-0.5 1:-4.22447 2:0.685543 3:5.01569 
-0.5 1:5.29171 2:6.57486 3:3.86609 
0.5 1:8.54337 2:8.69458 3:8.84699 
0.5 1:-2.59811 2:-1.74483 3:0.444709 
0.5 1:-3.58958 2:-7.29538 3:-8.31271 
-0.5 1:3.18608 2:3.92772 3:2.76635 
0.5 1:-3.33377 2:-2.38057 3:0.51223 
-0.5 1:-1.85971 2:-2.01839 3:4.14942 
-0.5 1:5.22817 2:2.09992 3:-2.00995 
0.5 1:1.0208 2:-1.58659 3:-3.53883 
-0.5 1:4.48637 2:3.24951 3:-0.255833 
0.5 1:1.07351 2:-1.83378 3:-4.41264 
0.5 1:8.1461 2:8.57229 3:9 
0.02043030530872875 1:9 2:8.70037 3:8.40131 
0.5 1:9 2:8.83571 3:8.67167 
0.5 1:8.70519 2:8.85248 3:9 
-0.5 1:4.37239 2:-4.17439 3:-8.09796 
0.5 1:8.3043 2:8.53267 3:8.76527 
-0.5 1:9 2:7.99558 3:5.8614 
0.5 1:-1.31337 2:-2.93928 3:-3.08464 
0.5 1:0.312093 2:-3.18609 3:-1.52967 
-0.4617065654471044 1:3.07388 2:3.43454 3:-3.66681 
0.5 1:0.0668596 2:-2.23488 3:-3.22871 
-0.5 1:0.578338 2:1.70266 3:3.7466 
-0.5 1:0.536918 2:0.395089 3:0.356926 
-0.5 1:0.00770269 2:0.00313195 3:-0.00244861 
-0.08035972746893492 1:1.93407e-05 2:1.17459e-05 3:8.10025e-06 
0.5 1:9 2:8.86649 3:8.73315 
0.001130309396049926 1:8.38814 2:8.48897 3:8.59043 
