svm_type epsilon_svr
kernel_type linear
nr_class 2
total_sv 20
rho -0.100332
SV
-0.5 1:0.176755 2:0.460441 3:0.592201 
-0.5 1:0.908797 2:0.851899 3:0.491645 
0.5 1:-0.464402 2:-0.252633 3:0.154316 
-0.5 1:0.0538814 2:0.050189 3:0.00824322 
0.5 1:-0.567997 2:-0.778419 3:-0.527091 
0.5 1:1.37747 2:1.8785 3:2.49303 
-0.2088559134301691 1:0.554476 2:1.16187 3:2.19133 
0.5 1:3.30716 2:4.05856 3:4.94712 
0.5 1:-0.528539 2:-0.689645 3:-0.727224 
-0.5 1:-0.0208857 2:-0.000155465 3:0.0209434 
0.5 1:0.619874 2:0.420265 3:0.277708 
-0.5 1:0.00310061 2:0.00344464 3:0.00155694 
-0.5 1:-6.45453e-05 2:0.00482622 3:0.00689347 
-0.5 1:2.53591 2:3.50093 3:4.66322 
-0.5 1:1.64694 2:1.85889 3:2.20609 
0.5 1:1.57365 2:2.07298 3:2.67091 
0.5 1:0.711403 2:0.473936 3:0.317185 
0.5 1:-0.477529 2:-0.45271 3:-0.353007 
-0.4184117354941888 1:-0.0171836 2:-0.000381145 3:0.0166443 
0.1272676489243571 1:3.32478 2:2.7387 3:2.21999 
