svm_type epsilon_svr
kernel_type linear
nr_class 2
total_sv 19
rho -0.0844734
SV
-0.5 1:4.59575 2:4.40426 3:4.2128 
0.5 1:6.30809 2:6.58491 3:6.88434 
-0.5 1:4.46512 2:4.27907 3:4.09302 
0.5 1:4.80235 2:3.91615 3:3.24259 
0.5 1:5.40569 2:4.35154 3:3.5404 
0.5 1:6.31994 2:5.15455 3:4.17293 
0.4643023411607177 1:7.45844 2:7.69771 3:7.94645 
0.5 1:7.28565 2:7.71405 3:8.14203 
-0.5 1:9.29264 2:9.23109 3:9.10889 
-0.1925007859662176 1:8.12761 2:7.97971 3:7.80753 
-0.5 1:3.59998 2:3.42857 3:3.25715 
-0.5 1:6.18751 2:5.8438 3:5.5002 
0.5 1:3.35421 2:3.30698 3:3.41854 
-0.2718015551945009 1:3.375 2:3.18758 3:3.00034 
-0.5 1:3.57447 2:3.40426 3:3.23404 
0.5 1:6.08691 2:6.5215 3:6.95557 
-0.5 1:7.31189 2:6.9739 3:6.62075 
-0.5 1:8.0643 2:7.69921 3:7.33309 
0.5 1:6.71043 2:5.68297 3:4.78648 
