svm_type epsilon_svr
kernel_type linear
nr_class 2
total_sv 6
rho -0.24817
SV
0.002797965377839774 1:3.58456 2:3.67289 3:3.82315 
-0.2672677575899086 1:3.14872 2:3.28841 3:3.42895 
-0.5 1:3.76614 2:3.59804 3:3.42963 
0.1304213969245938 1:8.89451 2:8.9472 3:9 
0.5 1:2.7223 2:2.66707 3:2.68711 
0.1340483952874751 1:4.45606 2:3.45774 3:2.72265 
