svm_type epsilon_svr
kernel_type linear
nr_class 2
total_sv 3
rho -0.244537
SV
-0.08171181773932959 1:4 2:4.2 3:4.4 
0.04572655809369076 1:6.46294 2:7.69613 3:9 
0.03598525964563882 1:8.81933 2:8.63967 3:8.46203 
