svm_type epsilon_svr
kernel_type linear
nr_class 2
total_sv 3
rho -0.190576
SV
0.05542502445528429 1:9 2:8.83429 3:8.66931 
-0.04836124231576032 1:3.76421 2:2.96305 3:2.50601 
-0.007063782139523983 1:2.74288 2:2.57155 3:2.40047 
