svm_type epsilon_svr
kernel_type linear
nr_class 2
total_sv 20
rho -0.275799
SV
-0.5 1:7.16153 2:7.14847 3:7.10968 
-0.5 1:5.43058 2:5.57457 3:5.71231 
0.5 1:5.72231 2:5.95278 3:6.22399 
0.5 1:3.69852 2:3.70658 3:3.85329 
0.5 1:2.96902 2:3.37247 3:3.9423 
-0.3612370181568101 1:7.74092 2:7.85157 3:7.94073 
0.1956566180512969 1:7.86823 2:7.65728 3:7.45442 
-0.5 1:5.4204 2:5.38267 3:5.32678 
-0.5 1:4.95348 2:4.96654 3:4.96815 
-0.5 1:4.17503 2:4.1881 3:4.19683 
-0.5 1:4.20096 2:4.2199 3:4.24103 
-0.2763316095481456 1:4.23436 2:4.22072 3:4.20866 
-0.5 1:4.28055 2:4.28972 3:4.30027 
0.5 1:7 2:6.03006 3:5.13338 
0.5 1:4.11306 2:4.52654 3:5.12347 
0.5 1:6.02884 2:6.32087 3:6.66901 
0.5 1:7.82972 2:7.45905 3:7.1045 
0.5 1:7.09009 2:6.86129 3:6.6488 
0.441912009653659 1:3.88047 2:4.16994 3:4.56964 
-0.5 1:6.72074 2:6.79555 3:6.84124 
