svm_type epsilon_svr
kernel_type linear
nr_class 2
total_sv 7
rho -0.223375
SV
0.5 1:5.1354 2:4.78584 3:4.53298 
0.475819476178064 1:6.66136 2:7.31748 3:8 
-0.5 1:4.49007 2:4.43941 3:4.37926 
-0.1440476861544167 1:4.02874 2:4.04415 3:4.05944 
0.5 1:6.06455 2:5.50488 3:5.04422 
-0.5 1:6.76475 2:6.71096 3:6.64298 
-0.3317717900236463 1:6.60266 2:6.59609 3:6.57643 
