svm_type epsilon_svr
kernel_type linear
nr_class 2
total_sv 12
rho -0.201071
SV
0.03120886732048886 1:8.43768 2:7.88374 3:7.3463 
0.5 1:3.86513 2:4.23898 3:4.68699 
0.5 1:1.6 2:1.44424 3:1.39893 
-0.5 1:4.34018 2:4.41162 3:4.47741 
0.5 1:4.91134 2:4.62081 3:4.41054 
-0.5 1:5.18669 2:5.19831 3:5.18669 
-0.5 1:4.99635 2:5.00574 3:4.99636 
0.3208415130608551 1:6.77306 2:7.27593 3:7.82412 
0.5 1:4.09428 2:3.8305 3:3.6255 
-0.5 1:2.89362 2:2.7234 3:2.55319 
-0.5 1:2.5 2:2.70833 3:2.91667 
0.1479496196186559 1:4.2882 2:4.26879 3:4.28508 
