svm_type epsilon_svr
kernel_type linear
nr_class 2
total_sv 3
rho -0.207881
SV
0.03641038849175648 1:9.69956 2:9.58198 3:9.43409 
-0.0438093977992886 1:1.77272 2:1.72679 3:1.75336 
0.007399009307532106 1:5.77075 2:6.73718 3:7.83365 
