svm_type epsilon_svr
kernel_type linear
nr_class 2
total_sv 4
rho -0.121992
SV
-0.06731746252434297 1:1.00414 2:1.00583 3:1.00812 
0.02280060735155229 1:3.70275 2:4.07021 3:4.48068 
0.01986480214688466 1:5.3622 2:5.65617 3:5.98455 
0.02465205302590603 1:7.97511 2:7.66638 3:7.38324 
