svm_type epsilon_svr
kernel_type linear
nr_class 2
total_sv 4
rho -0.121966
SV
-0.07251364294957131 1:1 2:1 3:1 
0.03374795221984826 1:5.69087 2:5.3436 3:5.04574 
0.02926909360117861 1:5.97513 2:5.39208 3:4.87749 
0.009496597128544332 1:6.12006 2:6.21719 3:6.37084 
