svm_type epsilon_svr
kernel_type linear
nr_class 2
total_sv 5
rho 0.109817
SV
0.1529407210281667 1:1.01764 2:1.00976 3:1.00521 
0.5 1:4.1192 2:5.71242 3:8 
0.02262834133274502 1:5.92132 2:6.832 3:8 
-0.1856507739217969 1:5.59158 2:4.29498 3:4.03434 
-0.4899182884391147 1:2.25955 2:3.50654 3:7 
