svm_type epsilon_svr
kernel_type linear
nr_class 2
total_sv 16
rho -0.100749
SV
-0.2872768335781959 1:6.25474 2:5.29974 3:4.67505 
-0.1280224749422811 1:1 2:1 3:1 
0.5 1:2.54461 2:2.80528 3:3.14981 
0.5 1:4.43569 2:4.64423 3:4.91985 
0.5 1:3.30426 2:3 3:3 
-1.110223024625157e-16 1:3 2:3 3:3 
0.5 1:4.33471 2:3.12583 3:3 
0.5 1:3.9501 2:4.91037 3:6.3099 
0.5 1:3.12484 2:3 3:3 
-0.5 1:3 2:3 3:3 
-0.1654385968750013 1:2 2:2 3:2 
-0.4322096176209224 1:4.0039 2:4.20845 3:7 
-0.5 1:3 2:3 3:3 
-0.3928579993546725 1:3 2:3 3:3 
-0.3559473782965012 1:4 2:4 3:4 
-0.2382470993324254 1:4 2:4 3:4 
