svm_type epsilon_svr
kernel_type linear
nr_class 2
total_sv 3
rho -0.117897
SV
-0.0641010529018867 1:1 2:1 3:1 
0.02680400625819049 1:5.45743 2:4.79408 3:4.25566 
0.03729704664369623 1:6.56542 2:6.97213 3:7.53279 
