svm_type epsilon_svr
kernel_type linear
nr_class 2
total_sv 6
rho -0.107408
SV
-0.2122853336702346 1:4.55661 2:4.24089 3:4.09341 
-0.2707981095222257 1:5.63693 2:6.31098 3:7.11895 
-0.01691655680753935 1:1.00002 2:1 3:1 
0.5 1:2.9515 2:2.41796 3:1.9858 
-0.5 1:1.00004 2:1.00007 3:1.00013 
0.5 1:3.75765 2:4.40988 3:5.36561 
