svm_type epsilon_svr
kernel_type linear
nr_class 2
total_sv 6
rho -0.109615
SV
-0.04286243719336658 1:1 2:1 3:1 
0.4549636760802161 1:3 2:3 3:8 
0.5 1:6.90336 2:6.64336 3:6.44193 
-0.2163336287651586 1:2.87079 2:3.80937 3:5.23535 
-0.5 1:4.39574 2:5.55168 3:7 
-0.1957676101216908 1:6.68544 2:7.09622 3:7.63685 
