svm_type epsilon_svr
kernel_type linear
nr_class 2
total_sv 4
rho -0.0719202
SV
-0.2748247030099663 1:1.77314 2:0.97244 3:0.492486 
-0.1954851320509306 1:5.63191 2:4.65051 3:3.77859 
-0.02969016493910287 1:7.49567 2:6.78278 3:6.11595 
0.5 1:4.27307 2:3.47033 3:2.75116 
