svm_type epsilon_svr
kernel_type linear
nr_class 2
total_sv 5
rho -0.0904446
SV
-0.264266388045271 1:5.89131 2:7.40645 3:9 
-0.5 1:0.653397 2:0.565023 3:0.295575 
0.5 1:2.24966 2:3.20112 3:4.25664 
-0.08957574586777944 1:0.23389 2:0.509393 3:1.01341 
0.3538421339130504 1:3.13065 2:2.76544 3:2.42853 
