svm_type epsilon_svr
kernel_type linear
nr_class 2
total_sv 6
rho -0.0736509
SV
-0.5 1:4.11746 2:6.38598 3:9 
-0.5 1:2.79925 2:1.60374 3:0.843284 
0.5 1:-5.88733 2:-3.33394 3:0.319701 
0.3248071806967944 1:9 2:8.24243 3:7.49388 
-0.2516626850255534 1:0.112895 2:0.201579 3:0.372769 
0.426855504328759 1:9 2:7.75424 3:6.54699 
