svm_type epsilon_svr
kernel_type linear
nr_class 2
total_sv 3
rho -0.0107229
SV
0.01706532988693553 1:9 2:7.22858 3:5.55772 
-0.04835318086861085 1:0.137233 2:-0.171334 3:-0.103034 
0.03128785098167526 1:5.75769 2:6.485 3:7.23628 
