svm_type epsilon_svr
kernel_type linear
nr_class 2
total_sv 16
rho -0.0742916
SV
-0.5 1:2.21732 2:3.9364 3:6.27178 
0.3262152737936442 1:9 2:8.87874 3:8.75762 
0.5 1:-1.46599 2:-1.12984 3:-0.335999 
-0.5 1:0.981179 2:0.898585 3:0.463571 
0.5 1:-0.279878 2:-0.313983 3:0.36432 
0.4723910431279236 1:3.17397 2:4.36565 3:5.7721 
-0.4998653883138683 1:0.13144 2:0.14461 3:0.0470338 
-0.5 1:1.21831 2:1.71752 3:1.58463 
-0.5 1:0.283728 2:0.587548 3:0.606724 
0.5 1:-0.822948 2:-0.858239 3:-0.706631 
0.5 1:-1.17124 2:-1.35365 3:-1.29362 
0.5 1:3.74095 2:3.16484 3:2.64771 
-0.5 1:0.00631358 2:-0.0845069 3:0.0588116 
-0.5 1:1.84359 2:0.86361 3:0.370654 
-0.2987409286076997 1:0.45521 2:0.624863 3:0.915764 
0.5 1:-0.943941 2:-1.0028 3:-0.891608 
