svm_type epsilon_svr
kernel_type linear
nr_class 2
total_sv 4
rho -0.00482465
SV
0.5 1:1.74425 2:2.67265 3:3.90418 
-0.2702913883279116 1:0.452933 2:0.43885 3:0.351082 
0.03281849696029186 1:9 2:8.11978 3:7.25274 
-0.2625271086323805 1:2.73714 2:4.47609 3:6.62677 
