svm_type epsilon_svr
kernel_type linear
nr_class 2
total_sv 24
rho -0.0868775
SV
-0.5 1:0.151392 2:0.353012 3:0.755933 
-0.3313268443227689 1:7.65583 2:6.35909 3:5.15243 
-0.5 1:4.47272 2:3.5762 3:2.81233 
0.5 1:2.11932 2:2.43666 3:2.78489 
-0.5 1:2.89698 2:3.88382 3:4.17508 
0.5 1:-0.890113 2:-0.689385 3:-0.365171 
-0.5 1:0.0701703 2:0.0347394 3:-0.00691153 
0.5 1:4.81355 2:5.57718 3:6.38855 
0.5 1:-0.815792 2:-0.67385 3:-0.201455 
0.5 1:-0.749242 2:-0.591187 3:-0.0499237 
0.5 1:3.57156 2:2.65162 3:1.89194 
-0.09072174441647979 1:0.593983 2:0.0170483 3:-0.569863 
0.5 1:3.06696 2:2.27398 3:1.61761 
-9.212671027649007e-06 1:0.0232901 2:-0.00825416 3:0.0386674 
-2.442268658569495e-05 1:9 2:7.38311 3:5.84807 
-0.07791777590313781 1:1.2855 2:1.63074 3:2.116 
-0.5 1:1.80382 2:2.01418 3:2.35844 
-0.5 1:1.13523 2:0.828839 3:0.236458 
0.5 1:1.57282 2:1.91294 3:2.29805 
-0.5 1:1.95753 2:3.12796 3:3.78789 
-0.5 1:-0.178033 2:0.0837799 3:0.331735 
-0.5 1:-0.371515 2:0.187221 3:0.668596 
0.5 1:5.37187 2:4.7304 3:4.13041 
0.5 1:0.30334 2:0.851319 3:1.30206 
