svm_type epsilon_svr
kernel_type linear
nr_class 2
total_sv 15
rho -0.0367663
SV
0.5 1:0.190629 2:0.480562 3:0.88917 
0.5 1:3.92506 2:4.80439 3:5.77332 
-0.2101243949911459 1:-0.126054 2:0.118972 3:0.317101 
0.3146768156848384 1:0.455347 2:1.04681 3:1.81592 
-0.1045524206936917 1:8.3127 2:8.65565 3:9 
0.5 1:-0.791703 2:-0.702901 3:-0.354959 
-0.5 1:0.104575 2:0.405839 3:0.618724 
0.5 1:0.782262 2:0.3767 3:0.116187 
-0.5 1:0.932633 2:1.11309 3:1.09558 
-0.5 1:0.124976 2:0.342819 3:0.515343 
0.5 1:3.68728 2:1.95181 3:0.925846 
-0.5 1:7.37528 2:7.90915 3:8.45225 
-0.5 1:0.404797 2:-0.598919 3:0.615737 
-0.5 1:0.277722 2:0.27855 3:0.233303 
0.5 1:3.41153 2:4.5026 3:5.71782 
