svm_type epsilon_svr
kernel_type linear
nr_class 2
total_sv 5
rho 0.00626505
SV
0.02952350500767854 1:8.79904 2:8.89946 3:9 
0.02937241957171485 1:9 2:8.62249 3:8.24603 
0.002293411132726517 1:8.88936 2:8.77889 3:8.66877 
0.0004928358209912836 1:-4.82116 2:-4.51927 3:-2.34351 
-0.06168217153311118 1:3.27275 2:3.75336 3:2.91739 
