svm_type epsilon_svr
kernel_type linear
nr_class 2
total_sv 3
rho -0.136879
SV
-0.01905679884563662 1:5.99539 2:5.61696 3:5.44627 
-0.04725399146921974 1:3.64382 2:4.05719 3:4.79337 
0.06631079031485634 1:9.30286 2:9.66102 3:9.69553 
