svm_type epsilon_svr
kernel_type linear
nr_class 2
total_sv 10
rho -0.163424
SV
0.5 1:5.55418 2:4.87292 3:4.29384 
-0.0718821289117331 1:3.10413 2:3.05338 3:3.05914 
0.05631647000161592 1:5.06573 2:4.42077 3:3.94907 
-0.09715712149124434 1:4.23538 2:3.5317 3:2.86129 
-0.5 1:4.05899 2:3.80904 3:4.11384 
-0.3115544282665995 1:6.18814 2:4.16983 3:3.216 
0.5 1:4.32232 2:5.03866 3:5.88942 
0.5 1:4.10723 2:2.17007 3:1.37339 
-0.0757227913320395 1:7.47701 2:7.61688 3:7.66812 
-0.5 1:3.53049 2:3.29729 3:3.06746 
