svm_type epsilon_svr
kernel_type linear
nr_class 2
total_sv 3
rho -0.127069
SV
0.01751566602770809 1:9 2:6.2923 3:4.0622 
-0.05095385793359336 1:2.59657 2:1.49931 3:1.09889 
0.03343819190588526 1:8.67786 2:9.02653 3:9.29009 
