svm_type epsilon_svr
kernel_type linear
nr_class 2
total_sv 10
rho -0.185977
SV
-0.5 1:3.08852 2:3.21292 3:3.35076 
-0.5 1:3.74536 2:3.73901 3:3.71769 
0.5 1:3.22021 2:3.02999 3:2.98745 
-0.5 1:4.22348 2:4.30245 3:4.37368 
0.5 1:5.16097 2:4.40729 3:3.82404 
0.5 1:5.16962 2:5.94048 3:6.86426 
-0.04439282390246246 1:4.16521 2:4.84803 3:5.53744 
-0.04956958533415151 1:3.52596 2:3.53102 3:3.53993 
0.5 1:3.3884 2:3.30675 3:3.39465 
-0.406037590763386 1:5.58963 2:4.97231 3:5.01035 
