svm_type epsilon_svr
kernel_type linear
nr_class 2
total_sv 8
rho -0.121038
SV
0.03107308248244406 1:11.0082 2:11.4346 3:11.4752 
0.5 1:5.22168 2:3.7633 3:2.71098 
-0.5 1:3.2508 2:2.88123 3:3.65781 
0.5 1:1.95574 2:2.07834 3:2.36973 
-0.03186586262535544 1:7 2:5.49823 3:4.22458 
-0.2129471387957312 1:4.54745 2:2.46814 3:2.23304 
-0.5 1:3.33434 2:2.86579 3:2.43742 
0.2137399189386426 1:3.75353 2:4.02268 3:4.37925 
