svm_type epsilon_svr
kernel_type linear
nr_class 2
total_sv 28
rho -0.227245
SV
0.2908829337547634 1:8.91282 2:9.38527 3:9.76034 
-0.5 1:8.52492 2:8.52678 3:8.48752 
-0.4719534505572022 1:2.05026 2:2.23352 3:2.4188 
-0.5 1:7.16839 2:7.12867 3:7.06386 
0.5 1:5.68245 2:5.25444 3:4.91262 
-0.3189862315333206 1:11.2123 2:11.2622 3:11.2123 
0.5 1:6.19137 2:5.83435 3:5.53402 
-0.5 1:2.6 2:2.8 3:3 
-0.5 1:2.0014 2:1.76022 3:1.55858 
-0.5 1:3.83996 2:3.65853 3:3.46253 
-0.5 1:3.62265 2:3.63443 3:3.64646 
-0.499943251664242 1:3.68815 2:3.66777 3:3.65493 
0.5 1:2.3379 2:2.62676 3:3.01298 
-0.5 1:5.38998 2:5.49929 3:5.58887 
-0.5 1:5.60387 2:5.62864 3:5.60387 
0.5 1:5.07539 2:4.29619 3:3.70306 
0.5 1:1.78435 2:1.84606 3:1.96509 
0.5 1:6.34503 2:5.58174 3:4.89043 
0.5 1:5.84543 2:6.16104 3:6.49961 
-0.5 1:3.80955 2:3.42889 3:3.05024 
-0.5 1:3.57447 2:3.40427 3:3.23411 
0.5 1:2.63369 2:2.86986 3:3.20213 
-0.5 1:3.40778 2:3.47352 3:3.53253 
0.5 1:3.87283 2:3.71172 3:3.69999 
0.5 1:4.13615 2:4.70113 3:5.38702 
0.5 1:5.09768 2:5.01631 3:4.96322 
0.5 1:6.53006 2:6.29313 3:6.07882 
0.5 1:2.46672 2:2.48321 3:2.6279 
