svm_type epsilon_svr
kernel_type linear
nr_class 2
total_sv 12
rho -0.195268
SV
-0.3959870427188617 1:6.57545 2:5.75763 3:5.5542 
0.5 1:3.78238 2:3.71038 3:3.70998 
0.5 1:3.9919 2:3.86825 3:3.82645 
-0.5 1:3.71215 2:3.5952 3:3.47416 
-0.5 1:3.8395 2:3.90902 3:3.94831 
-0.5 1:4.39053 2:4.31693 3:4.23957 
0.5 1:3.48959 2:3.2634 3:3.09171 
-0.4025568167648564 1:3.5187 2:3.52573 3:3.53718 
0.2985438594837178 1:7.88185 2:8.41955 3:9 
0.5 1:2.54438 2:2.3888 3:2.29081 
-0.5 1:2.82399 2:2.59042 3:2.36169 
0.5 1:5.04246 2:4.20681 3:3.5206 
