svm_type epsilon_svr
kernel_type linear
nr_class 2
total_sv 17
rho -0.205585
SV
0.5 1:2.70438 2:2.54437 3:2.41576 
0.3759794719725046 1:5.25763 2:5.13025 3:5.02951 
-0.5 1:6.85095 2:7.0094 3:7.15114 
0.5 1:3.49272 2:3.32775 3:3.29271 
0.5 1:2.79579 2:2.86722 3:3.21962 
-0.5 1:3.58854 2:3.49432 3:3.40859 
0.5 1:3.97595 2:3.68964 3:3.5291 
-0.5 1:4.74299 2:4.67161 3:4.59207 
-0.5 1:4.72902 2:4.75921 3:4.78007 
-0.1148407783583853 1:4.28574 2:4.28659 3:4.28536 
-0.5 1:4.10414 2:4.21679 3:4.32251 
-0.5 1:3.9903 2:3.96954 3:3.90767 
-0.5 1:3.49039 2:3.46749 3:3.4576 
-0.1957987655884604 1:3.70173 2:3.66544 3:3.63814 
0.5 1:6.29633 2:6.62194 3:6.97428 
0.5 1:5.79364 2:5.62603 3:5.48468 
0.4346600719743405 1:6.5843 2:6.76887 3:6.97023 
