svm_type epsilon_svr
kernel_type linear
nr_class 2
total_sv 9
rho -0.211196
SV
0.3461213177091069 1:8.90347 2:9.35371 3:9.71283 
0.5 1:2.14054 2:3.40024 3:5 
-0.5 1:3.3496 2:3.16472 3:2.98133 
0.5 1:2.47901 2:1.52182 3:1.30732 
0.5 1:2.75045 2:1.61516 3:1.32867 
-0.5 1:2.10662 2:2.36867 3:2.63162 
-0.5 1:2.85525 2:2.75358 3:2.7156 
-0.03869084111527678 1:3.56945 2:3.56156 3:3.56064 
-0.30743047659383 1:6.57612 2:7.02618 3:7.8866 
