svm_type epsilon_svr
kernel_type linear
nr_class 2
total_sv 6
rho -0.138937
SV
0.3469338626875527 1:5.07363 2:5.59207 3:6.17975 
0.5 1:4.13907 2:3.6223 3:3.31261 
-0.210397877858391 1:1.7524 2:1.91271 3:2.13138 
-0.0001759956165047128 1:4.87878 2:4.86994 3:4.85073 
-0.5 1:5.13651 2:5.10398 3:5.05066 
-0.1363599892126577 1:3.8232 2:3.73809 3:3.62665 
