svm_type epsilon_svr
kernel_type linear
nr_class 2
total_sv 3
rho -0.0369181
SV
-0.07620166605484761 1:5.98449 2:6.49118 3:7.29757 
-0.01324503945758218 1:6 2:4.5468 3:3.36566 
0.08944670551242981 1:9.69308 2:10.1756 3:10.2063 
