svm_type epsilon_svr
kernel_type linear
nr_class 2
total_sv 10
rho -0.159598
SV
0.5 1:3.4085 2:3.47822 3:3.61301 
0.5 1:6.88354 2:6.4117 3:5.9754 
-0.3310151345445088 1:2.89553 2:3.1544 3:3.41079 
-0.5 1:3.74817 2:3.84577 3:3.91605 
0.5 1:5.47744 2:6.21237 3:7.07242 
0.3106710068345999 1:4.98122 2:4.6922 3:4.48054 
-0.5 1:5.13749 2:5.05629 3:4.95602 
-0.4796558722900914 1:7.74735 2:7.8255 3:7.88571 
-0.5 1:3.40947 2:3.15465 3:2.89771 
0.5 1:3.51278 2:3.13359 3:2.87732 
