svm_type epsilon_svr
kernel_type linear
nr_class 2
total_sv 3
rho -0.132432
SV
-0.02809700561316434 1:1.73055 2:1.5885 3:1.48566 
0.06291990422295396 1:8.80888 2:9.08843 3:9.24196 
-0.03482289860978965 1:5.26576 2:5.59002 3:6.21723 
