svm_type epsilon_svr
kernel_type linear
nr_class 2
total_sv 11
rho -0.16661
SV
0.5 1:3.5881 2:3.2371 3:2.99548 
0.1073845026431332 1:8.32231 2:8.54579 3:8.77216 
0.5 1:3.06451 2:2.43321 3:3.12433 
-0.2977248494309788 1:1.54286 2:1.37143 3:1.2 
0.5 1:8.52323 2:8.75993 3:9 
-0.2754993633232077 1:4.22468 2:3.98917 3:4.09424 
0.5 1:2.82911 2:2.25539 3:3.00583 
-0.5 1:7.61935 2:7.70362 3:7.74937 
-0.5 1:2.7234 2:2.55319 3:2.38298 
-0.03416028988894484 1:2.17623 2:3.11897 3:9 
-0.5 1:5.04204 2:4.98246 3:5.41461 
