svm_type epsilon_svr
kernel_type linear
nr_class 2
total_sv 7
rho -0.103834
SV
0.5 1:4.02072 2:5.00472 3:6.20015 
0.1615116385359066 1:4.9589 2:3.98786 3:3.145 
-0.4379646494325467 1:3.94899 2:3.58077 3:4.00041 
0.5 1:3.25019 2:2.66172 3:2.4146 
-0.5 1:3.6527 2:3.34059 3:3.82005 
-0.07226376357595098 1:1.84308 2:2.10539 3:2.36844 
-0.151283225527409 1:3.37412 2:4.00721 3:4.66772 
