svm_type epsilon_svr
kernel_type linear
nr_class 2
total_sv 6
rho -0.149192
SV
-0.5 1:4.27319 2:4.11813 3:3.92804 
-0.05932961430812713 1:4.08747 2:3.92634 3:3.76256 
-0.06530175385901277 1:7 2:5.9552 3:5.07565 
-0.3753686318328597 1:6.51769 2:6.42755 3:6.32628 
0.5 1:4.50311 2:4.39626 3:4.31338 
0.5 1:6.88517 2:6.4156 3:5.98267 
