svm_type epsilon_svr
kernel_type linear
nr_class 2
total_sv 10
rho -0.175416
SV
-0.4210959815279345 1:7.8126 2:7.71288 3:7.59693 
0.5 1:3.79219 2:3.46974 3:3.32273 
0.3043260861974088 1:5.3333 2:5.47615 3:5.64684 
0.5 1:5.92601 2:5.08281 3:4.43809 
-0.3832301046694754 1:4.0397 2:3.90289 3:3.76525 
-0.5 1:4.46599 2:4.55906 3:4.64021 
-0.5 1:3.72465 2:3.71498 3:3.68067 
-0.5 1:3.5742 2:3.52688 3:3.47503 
0.5 1:4.18469 2:4.19183 3:4.23914 
0.5 1:5.08718 2:5.68406 3:6.3294 
