svm_type epsilon_svr
kernel_type linear
nr_class 2
total_sv 3
rho -0.118154
SV
-0.1189341303033007 1:1 2:1 3:1 
0.07137472077989242 1:3.43147 2:3.00179 3:2.67414 
0.04755940952340826 1:5.14518 2:4.80143 3:4.53931 
