svm_type epsilon_svr
kernel_type linear
nr_class 2
total_sv 5
rho -0.110791
SV
-0.003670850999175456 1:1 2:1 3:1 
0.5 1:3 2:3 3:3.79318 
-0.01319722604400246 1:5.32067 2:4.74635 3:4.378 
-0.1372158658375501 1:4.62142 2:5.74986 3:7 
-0.3459160571192718 1:1.19297 2:1.26632 3:1.3626 
