svm_type epsilon_svr
kernel_type linear
nr_class 2
total_sv 4
rho -0.111669
SV
0.5 1:2.25262 2:2.60336 3:3.00674 
-0.4409141741412931 1:1.00572 2:1.00375 3:1.00242 
-0.1488858094899904 1:5.54392 2:6.0166 3:6.50443 
0.0897999836312838 1:4.94606 2:3.96497 3:3.11467 
