svm_type epsilon_svr
kernel_type linear
nr_class 2
total_sv 5
rho -0.104898
SV
-0.2452492115211726 1:6.1201 2:6.49661 3:6.92696 
-0.4067901624841589 1:1.00004 2:1.00007 3:1.00012 
-0.3479606259946695 1:7.17215 2:8.06012 3:9 
0.5 1:4.4221 2:4.97949 3:5.87164 
0.5 1:5.05744 2:5.16376 3:5.38763 
