svm_type epsilon_svr
kernel_type linear
nr_class 2
total_sv 3
rho -0.116157
SV
-0.05577368786666446 1:1 2:1 3:1 
0.04588790727964801 1:6.88006 2:6.56695 3:6.34475 
0.00988578058701645 1:7.96403 2:8.19625 3:8.45083 
