svm_type epsilon_svr
kernel_type linear
nr_class 2
total_sv 8
rho -0.11231
SV
-0.08073787187692452 1:8.51113 2:8.03276 3:7.57508 
0.5 1:8.16247 2:8.07929 3:8.03187 
-0.0005862993169773498 1:1 2:1 3:1 
0.5 1:4.02121 2:3.04245 3:2.45514 
0.5 1:5.61696 2:4.83396 3:4.36411 
-0.5 1:7 2:6.41955 3:5.85138 
-0.418675828806098 1:3.72252 2:3.44769 3:3.21066 
-0.5 1:5.37174 2:4.9043 3:4.4927 
