svm_type epsilon_svr
kernel_type linear
nr_class 2
total_sv 5
rho -0.10067
SV
-0.3418676444831934 1:5.24772 2:4.63371 3:4.28928 
-0.1990854648791927 1:6.20259 2:6.56985 3:6.98882 
0.5 1:3.34648 2:3.56127 3:3.86864 
0.5 1:4.29275 2:3.78959 3:3.45105 
-0.4590468906376125 1:1 2:1 3:1 
