svm_type epsilon_svr
kernel_type linear
nr_class 2
total_sv 19
rho -0.203998
SV
0.5 1:10.3855 2:10.7074 3:10.7544 
-0.5 1:4.03309 2:4.07837 3:4.08493 
-0.5 1:4.20822 2:4.31198 3:4.40742 
-0.5 1:4.18089 2:4.181 3:4.17721 
0.5 1:3.32676 2:3.26641 3:3.36392 
0.5 1:2.73245 2:2.95153 3:3.29498 
0.5 1:3.50172 2:3.40415 3:3.35479 
0.4319508895650268 1:7.21428 2:5.72511 3:4.72475 
-0.5 1:6.62976 2:6.71679 3:6.7898 
-0.4415816650109267 1:3.25718 2:3.16494 3:3.10263 
-0.5 1:3.49158 2:3.47214 3:3.46312 
-0.5 1:3.61351 2:3.57772 3:3.55187 
-0.5 1:3.62793 2:3.62456 3:3.62898 
0.5 1:5.3447 2:6.23217 3:7.50276 
0.5 1:3.74715 2:3.49643 3:3.36905 
0.5 1:2.50368 2:2.54686 3:2.64757 
0.009630775445900653 1:9.96061 2:9.9932 3:9.64035 
0.5 1:2.77345 2:2.57496 3:2.47976 
-0.5 1:7.2346 2:7.31171 3:7.33809 
