svm_type epsilon_svr
kernel_type linear
nr_class 2
total_sv 24
rho -0.237499
SV
0.5 1:11.7932 2:11.8316 3:11.4089 
-0.5 1:8.26457 2:8.32967 3:8.36385 
0.5 1:2.34873 2:2.68316 3:3.13446 
0.5 1:3.38862 2:3.14269 3:2.99884 
0.5 1:4.66687 2:5.18457 3:5.75712 
-0.3451921668566368 1:10.8922 2:10.7128 3:10.4793 
0.5 1:4.47323 2:4.22739 3:4.09132 
0.05123770831586628 1:9 2:7.65361 3:6.37694 
-0.5 1:5 2:4.74253 3:4.49287 
-0.5 1:5 2:4.84695 3:4.69641 
-0.5 1:4.43483 2:4.35299 3:4.27645 
0.5 1:5.38053 2:5.11035 3:4.94712 
-0.5 1:4.92449 2:4.86774 3:4.80081 
-0.5 1:3.93629 2:3.88811 3:3.84374 
-0.2060455414592295 1:4.0852 2:4.08792 3:4.09086 
0.5 1:5.01719 2:5.14265 3:5.33242 
0.5 1:8 2:6.3536 3:4.87023 
0.5 1:3.81274 2:3.92525 3:4.06986 
-0.5 1:3.53878 2:3.55098 3:3.55325 
-0.5 1:3.57788 2:3.56308 3:3.55566 
-0.5 1:3.79933 2:3.78545 3:3.77981 
-0.5 1:4.2215 2:4.14574 3:4.07683 
0.5 1:1.77752 2:1.8131 3:1.92501 
0.5 1:5.20969 2:5.44695 3:5.72343 
