svm_type epsilon_svr
kernel_type linear
nr_class 2
total_sv 16
rho -0.0837518
SV
0.5 1:12.0738 2:11.5778 3:10.7326 
0.4592484754839729 1:8.54632 2:8.09791 3:7.65994 
0.5 1:1.40564 2:2.14054 3:3.40024 
0.0303672097632003 1:2.011 2:2.87515 3:4.61698 
0.5 1:2.10434 2:3.14659 3:5.20289 
0.5 1:1.8001 2:1.85908 3:2.73948 
0.5 1:4.33823 2:3.86622 3:3.49906 
-0.1784341386445311 1:1.79451 2:1.67466 3:1.7358 
-0.5 1:2.6405 2:2.90187 3:3.23934 
0.5 1:1.89944 2:2.99817 3:4.84963 
-0.5 1:1.70859 2:1.89073 3:2.12171 
-0.5 1:4.45897 2:4.85057 3:5.27571 
-0.5 1:5.24057 2:6.06684 3:6.98415 
-0.5 1:6.74027 2:6.91336 3:7.22793 
-0.3111815466026399 1:5.4837 2:5.95677 3:6.46839 
-0.5 1:5.86759 2:6.42473 3:7 
