svm_type epsilon_svr
kernel_type linear
nr_class 2
total_sv 5
rho 0.0823588
SV
0.04289175996178281 1:8.27458 2:9.06994 3:9.7876 
0.07039058866640474 1:2.55101 2:3.65325 3:5.55182 
-0.5 1:3.27953 2:2.94576 3:3.79611 
0.09388107570851939 1:9.59961 2:9.30237 3:8.74153 
0.2928365756632929 1:1.57819 2:1.59523 3:1.69797 
