svm_type epsilon_svr
kernel_type linear
nr_class 2
total_sv 3
rho -0.176254
SV
-0.1168458508532789 1:2.65116 2:2.51163 3:2.37209 
0.09445282128430134 1:4.40487 2:4.56734 3:4.76866 
0.02239302956897746 1:8.62868 2:8.26112 3:7.90099 
