svm_type epsilon_svr
kernel_type linear
nr_class 2
total_sv 13
rho -0.182385
SV
0.1659293480989885 1:9 2:7.04556 3:5.68234 
0.5 1:2.75577 2:3.74292 3:5.18572 
-0.5 1:2.32083 2:2.60592 3:2.89478 
-0.5 1:2.32155 2:2.60601 3:2.89479 
0.5 1:8 2:7.25632 3:6.54405 
0.5 1:3.51757 2:4.99505 3:6.87759 
-0.3874023419068999 1:6.12822 2:7.02686 3:8 
0.5 1:1.27168 2:1.36931 3:1.68722 
-0.3741426196417694 1:4.62023 2:4.87222 3:5.13958 
0.5 1:2.1636 2:2.42531 3:2.83422 
-0.5 1:4.092 2:4.53248 3:5 
-0.09570820355760941 1:3.55922 2:3.58814 3:3.60185 
-0.3086761829927098 1:3.81055 2:3.89344 3:3.99053 
