svm_type epsilon_svr
kernel_type linear
nr_class 2
total_sv 5
rho 0.0220208
SV
0.1736105674373727 1:8.27273 2:9.45451 3:10.6354 
0.1422291791185733 1:1.31694 2:1.20057 3:1.24371 
0.5 1:5.59136 2:3.0901 3:1.81387 
-0.5 1:3.25225 2:1.57649 3:1.41454 
-0.315839746555946 1:7.81938 2:6.83719 3:6.19619 
