svm_type epsilon_svr
kernel_type linear
nr_class 2
total_sv 3
rho -0.169727
SV
0.03447415490958829 1:9.12429 2:9.17125 3:9.19349 
-0.05054667093644283 1:2.04302 2:2.21277 3:2.38298 
0.01607251602685452 1:6.95342 2:7.43739 3:7.94482 
