svm_type epsilon_svr
kernel_type linear
nr_class 2
total_sv 15
rho -0.192887
SV
0.5 1:5.19229 2:5.5389 3:5.93251 
0.5 1:5.18779 2:5.43254 3:5.7151 
-0.5 1:6.76458 2:6.81154 3:6.84002 
0.3517148474921222 1:4.28955 2:4.30891 3:4.40098 
-0.02646144667959817 1:7.70995 2:7.70012 3:7.67075 
-0.5 1:3.14943 2:3.36953 3:3.58168 
0.5 1:5.12035 2:4.69857 3:4.42928 
-0.5 1:3.49749 2:3.36759 3:3.24075 
-0.5 1:4.47974 2:4.51732 3:4.54831 
-0.5 1:4.39401 2:4.41763 3:4.43623 
-0.06900742154590379 1:3.89407 2:4.03994 3:4.18095 
0.5 1:4.66071 2:4.40955 3:4.25867 
0.5 1:4.67098 2:4.35448 3:4.08968 
0.2437540207333796 1:5.33192 2:4.98816 3:4.68506 
-0.5 1:6.49006 2:5.80143 3:5.59698 
