svm_type epsilon_svr
kernel_type linear
nr_class 2
total_sv 7
rho -0.0902945
SV
-0.07783597000577125 1:9 2:7.40983 3:5.89751 
-0.1328244756829143 1:8.02049 2:8.5052 3:9 
-0.2677073999247154 1:0.0154381 2:0.0215214 3:0.0240266 
-0.0216321543865987 1:8.59013 2:8.18861 3:7.80363 
0.5 1:1.67954 2:1.06157 3:0.64193 
-0.5 1:0.114415 2:0.276014 3:0.391982 
0.5 1:3.06045 2:3.56794 3:4.12303 
