svm_type epsilon_svr
kernel_type linear
nr_class 2
total_sv 4
rho 0.0539679
SV
-0.1994405314628922 1:1.38582 2:1.64187 3:1.29286 
-0.1747338377945908 1:0.105004 2:-0.22055 3:0.145546 
0.1076818661336451 1:2.72897 2:3.1837 3:3.67901 
0.2664925031238379 1:1.27208 2:1.03557 3:0.835691 
