svm_type epsilon_svr
kernel_type linear
nr_class 2
total_sv 3
rho -0.0245629
SV
-0.04757443167124551 1:2.41591 2:1.36142 3:0.701727 
0.0192769942648863 1:9 2:7.87545 3:6.78069 
0.02829743740635921 1:9 2:8.75898 3:8.51829 
