svm_type epsilon_svr
kernel_type linear
nr_class 2
total_sv 12
rho -0.094505
SV
-0.5 1:0.0513314 2:0.12967 3:0.166261 
-0.0781411968352498 1:0.00202015 2:0.00796612 3:0.0112934 
0.5 1:-0.386177 2:-0.797573 3:-0.92495 
-0.5 1:-0.168177 2:0.158729 3:0.423066 
0.2711414635606176 1:4.48458 2:5.30256 3:6.17171 
-0.5 1:0.507698 2:0.920682 3:1.00435 
-0.5 1:5.57566 2:4.11039 3:2.89349 
-0.4022512384247474 1:1.10935 2:0.721924 3:0.474135 
0.5 1:-0.384306 2:-0.91625 3:-1.29664 
0.5 1:1.45056 2:1.70027 3:1.97907 
0.5 1:3.70217 2:2.68949 3:1.86558 
0.2092509716993803 1:2.09898 2:1.80596 3:1.5425 
