svm_type epsilon_svr
kernel_type linear
nr_class 2
total_sv 4
rho -0.0872761
SV
0.002491107247797462 1:1.02905 2:1.26785 3:1.54651 
0.04739448039441681 1:4.69166 2:3.72092 3:2.85922 
-0.1126455464876184 1:0.0242114 2:0.0347046 3:0.0391241 
0.06275995884540415 1:1.71482 2:2.36426 3:3.16276 
