svm_type epsilon_svr
kernel_type linear
nr_class 2
total_sv 8
rho -0.0574266
SV
-0.4263981003856619 1:1.7913 2:2.27067 3:2.89081 
0.5 1:1.94432 2:2.29588 3:2.82989 
-0.5 1:1.05973 2:1.1996 3:1.12463 
0.01208223662533271 1:6.12134 2:5.21974 3:4.36873 
-0.08568413623967097 1:6.56355 2:7.76308 3:9 
0.5 1:0.42333 2:0.244281 3:0.162565 
-0.5 1:0.998423 2:1.31353 3:1.55949 
0.5 1:2.9069 2:3.60896 3:4.38363 
