svm_type epsilon_svr
kernel_type linear
nr_class 2
total_sv 3
rho -0.0994335
SV
-0.1495770671567928 1:0.00873913 2:0.00498332 3:-0.000119726 
0.08849826459090947 1:1.69485 2:1.40827 3:1.15989 
0.06107880256588324 1:2.89161 2:3.31824 3:3.77691 
