svm_type epsilon_svr
kernel_type linear
nr_class 2
total_sv 5
rho -0.0789799
SV
-0.3897115028894828 1:0.279121 2:0.111797 3:0.0409758 
0.0842253784654384 1:5.98476 2:6.97925 3:8 
-0.1667100550815118 1:8 2:5.96433 3:4.13447 
0.08382138381341533 1:7.99882 2:8.49733 3:9 
0.388374795692141 1:1.35526 2:0.649335 3:-1.32361 
