svm_type epsilon_svr
kernel_type linear
nr_class 2
total_sv 14
rho -0.102273
SV
-0.5 1:4.06078 2:4.20758 3:4.6034 
-0.245988641730196 1:4.20925 2:4.33629 3:4.53796 
-0.5 1:5.27579 2:5.08701 3:4.97337 
-0.5 1:5.31114 2:5.27473 3:5.31114 
-0.02496060672802585 1:8.17796 2:7.78821 3:7.42344 
-0.5 1:1 2:1 3:1 
-0.5 1:1 2:1 3:1 
0.5 1:2 2:2 3:2 
-0.229050751541778 1:2.00003 2:2.00001 3:2.00001 
0.5 1:4 2:4 3:4 
0.5 1:3.70318 2:3.23407 3:3.06119 
0.5 1:5.59727 2:5.38449 3:5.23313 
0.5 1:4.1744 2:3.46885 3:3.15191 
0.5 1:1.42494 2:2.2292 3:3.79318 
