svm_type epsilon_svr
kernel_type linear
nr_class 2
total_sv 3
rho 0.0286788
SV
-0.008299903655404839 1:7.39825 2:6.05056 3:5.09269 
-0.06280724820337759 1:2.42533 2:3.21853 3:4.77668 
0.07110715185878243 1:7.91165 2:8.44078 3:9 
