svm_type epsilon_svr
kernel_type linear
nr_class 2
total_sv 4
rho -0.151789
SV
0.03796773076160042 1:8.43146 2:8.49127 3:8.55525 
-0.04537091474663885 1:1.39837 2:1.37569 3:1.35689 
0.002592084463813156 1:8.69603 2:8.76952 3:8.84513 
0.004811099521225274 1:8.72797 2:8.59442 3:8.46377 
