svm_type epsilon_svr
kernel_type linear
nr_class 2
total_sv 3
rho -0.118544
SV
-0.02541181514473392 1:5.09562 2:6.65813 3:9 
0.06877777137617315 1:8.16829 2:8.57979 3:9 
-0.04336595623143921 1:2.1585 2:2.01163 3:2.00049 
