svm_type epsilon_svr
kernel_type linear
nr_class 2
total_sv 4
rho 0.000955106
SV
-0.03803850701029374 1:5.6699 2:6.3415 3:7.14262 
-0.3420445699047295 1:6 2:1 3:1 
-0.1199169230849768 1:7.82927 2:8.39541 3:9 
0.5 1:7 2:4 3:4 
