svm_type epsilon_svr
kernel_type linear
nr_class 2
total_sv 7
rho -0.106539
SV
-0.5 1:6.16576 2:7.00491 3:7.96803 
0.5 1:4.49822 2:5.68028 3:7 
0.5 1:5.99858 2:6.94422 3:8 
-0.1278309024297312 1:5.51569 2:6.21609 3:7 
-0.5 1:4.91331 2:5.917 3:7 
0.2675666015004587 1:5.37438 2:5.26238 3:5.178 
-0.1397356990707277 1:1.00017 2:1.00008 3:1.00008 
