svm_type epsilon_svr
kernel_type linear
nr_class 2
total_sv 10
rho -0.0250712
SV
0.5 1:0.3767 2:0.116187 3:-0.00663898 
0.09181610495976984 1:6.12915 2:3.68728 3:1.95181 
0.5 1:2.17945 2:1.56905 3:1.09219 
-0.5 1:0.558904 2:-0.708016 3:-0.462295 
-0.1126106458346805 1:6.08531 2:7.51087 3:9 
-0.5 1:0.355498 2:0.39572 3:0.299397 
0.5 1:-1.62908 2:-1.04824 3:-0.294012 
-0.4792054591250894 1:0.374317 2:0.375433 3:0.314448 
-0.5 1:-0.00784214 2:0.267558 3:0.392951 
0.5 1:1.0986 2:1.52091 3:2.05599 
