svm_type epsilon_svr
kernel_type linear
nr_class 2
total_sv 13
rho -0.0171317
SV
-0.3233213089040325 1:4.56431 2:6.65791 3:9 
-0.5 1:0.438562 2:0.386478 3:0.17774 
0.5 1:1.1104 2:0.628242 3:0.303821 
0.5 1:-0.633655 2:-0.701202 3:-0.537339 
-0.5 1:0.369293 2:0.783698 3:0.930481 
-0.1522581603886694 1:0.326468 2:0.386784 3:0.304566 
-0.5 1:0.828058 2:0.620157 3:0.277204 
0.5 1:-1.33335 2:-1.0996 3:-0.668917 
-0.4355191133749481 1:0.198779 2:0.266492 3:0.286478 
0.5 1:2.31628 2:3.31291 3:4.51772 
-0.5 1:1.00672 2:0.956327 3:0.747758 
0.5 1:1.44883 2:2.04528 3:2.79181 
0.4110985826676502 1:4.75314 2:4.06718 3:3.43099 
