svm_type epsilon_svr
kernel_type linear
nr_class 2
total_sv 19
rho -0.0602949
SV
0.5 1:3.31726 2:2.73585 3:2.22615 
0.5 1:2.79466 2:3.62347 3:4.5739 
0.5 1:0.470825 2:0.840501 3:1.37944 
-0.4418548434889715 1:-0.0616092 2:0.101627 3:0.227449 
-0.5 1:0.795321 2:0.76969 3:0.576443 
-0.2239816732593284 1:0.579442 2:0.0557055 3:-0.477987 
0.5 1:0.0912296 2:0.170619 3:0.299654 
-0.5 1:0.0627977 2:0.0893829 3:0.0636781 
0.5 1:0.186139 2:0.303317 3:0.48109 
-0.4672786512066915 1:-1.50346 2:-1.77407 3:1.74266 
-0.5 1:7.96856 2:6.9619 3:6.00361 
-0.2191549319066902 1:9 2:8.47644 3:7.96357 
-0.5 1:0.063087 2:0.38742 3:0.041494 
0.5 1:4.36005 2:2.80425 3:1.58971 
-0.5 1:0.317397 2:0.709009 3:0.527012 
0.3522700998616798 1:-0.240259 2:-0.235297 3:-0.149117 
0.5 1:-0.410491 2:-0.341033 3:-0.192322 
0.5 1:1.99016 2:2.32762 3:2.70027 
-0.5 1:0.148146 2:0.213679 3:0.154162 
