svm_type epsilon_svr
kernel_type linear
nr_class 2
total_sv 54
rho -0.0646767
SV
-0.5 1:0.767538 2:-0.272047 3:-0.303025 
-0.5 1:0.581726 2:0.854405 3:1.26863 
-0.5 1:2.55952 2:2.36238 3:2.29533 
-0.5 1:0.168457 2:0.106575 3:0.00952177 
0.5 1:9 2:8.75639 3:8.51309 
0.5 1:8.85176 2:8.70368 3:8.55592 
0.5 1:8.86477 2:8.72969 3:8.59489 
0.5 1:-0.848278 2:-2.04455 3:-2.3663 
0.5 1:0.398225 2:0.943919 3:0.705546 
0.5 1:-6.24502 2:-5.98802 3:-2.09539 
0.5 1:9 2:8.77176 3:8.54443 
-0.5 1:-1.58249 2:-2.60415 3:-1.63145 
-0.5 1:7.04795 2:8.35014 3:6.57517 
-0.5 1:0.434917 2:0.773457 3:0.840378 
-0.5 1:4.86021 2:4.59952 3:3.4748 
-0.428805800359415 1:0.51223 2:2.98769 3:3.02888 
-0.5 1:2.29523 2:4.91076 3:8 
-0.429113177436438 1:0.918307 2:0.830635 3:0.833281 
-0.5 1:7.65125 2:7.459 3:5.65582 
-0.5 1:7.03444 2:7.00574 3:6.70837 
0.5 1:-1.99242 2:-1.32119 3:-0.357076 
-0.5 1:0.384565 2:0.31784 3:0.182408 
0.5 1:5.01506 2:5.98118 3:7 
-0.5 1:3.11601 2:0.29952 3:-2.57061 
0.5 1:0.133244 2:-1.14356 3:-2.21555 
0.5 1:-0.343861 2:-0.282466 3:-0.108764 
0.2531929595634034 1:8.68955 2:8.79277 3:8.8963 
-0.5 1:3.91004 2:1.53537 3:0.0512047 
0.5 1:5.25142 2:3.66391 3:2.38571 
0.5 1:6.00232 2:1.79014 3:-2.71946 
-0.5 1:3.64023 2:1.90478 3:0.89385 
0.5 1:9 2:8.72075 3:8.44374 
-0.5 1:-2.40135 2:0.249007 3:2.73796 
0.5 1:-2.24969 2:-3.22909 3:-2.31876 
-0.5 1:-4.44909 2:-1.37787 3:3.91759 
-0.3952739817675503 1:3.5085 2:6.1824 3:9 
-0.5 1:6.82085 2:4.84131 3:3.20682 
-0.5 1:0.485795 2:0.659258 3:0.955563 
-0.5 1:1.5948 2:2.07933 3:2.70733 
-0.5 1:1.79417 2:1.73253 3:1.80729 
0.5 1:-4.1008 2:-2.42371 3:1.25631 
0.5 1:2.53203 2:1.67954 3:1.06157 
0.5 1:0.290535 2:0.509451 3:0.857994 
0.5 1:2.5793 2:5.12652 3:3.52988 
-0.5 1:2.57192 2:2.94883 3:2.30823 
0.5 1:-5.11272 2:-6.61119 3:-7.0161 
0.5 1:-1.96403 2:-1.08444 3:-0.0254637 
-0.5 1:0.411355 2:0.390995 3:0.306258 
0.5 1:2.20356 2:3.1554 3:4.30709 
0.5 1:1.51671 2:2.25397 3:3.20178 
0.5 1:-4.00206 2:-2.6707 3:-0.231958 
0.5 1:3.77419 2:4.16595 3:4.57937 
-0.5 1:0.131058 2:0.131641 3:0.0860487 
0.5 1:3.92877 2:4.64436 3:5.40384 
