svm_type epsilon_svr
kernel_type linear
nr_class 2
total_sv 42
rho -0.0731994
SV
-0.5 1:3.37285 2:2.13787 3:1.26709 
-0.5 1:1.08895 2:0.701592 3:0.451397 
-0.5 1:3.44932 2:3.27511 3:3.21611 
-0.5 1:5.83484 2:5.34775 3:4.93507 
-0.5 1:0.557508 2:0.742342 3:0.627064 
0.5 1:2.39192 2:2.73972 3:3.1193 
-0.2341764398573841 1:3.01014 2:5.01823 3:6.64884 
-0.5 1:-0.116591 2:0.335795 3:0.698476 
0.5 1:2.7077 2:1.59133 3:0.717489 
0.5 1:3.35387 2:1.36811 3:-0.387406 
-0.5 1:0.129058 2:0.174215 3:0.0720451 
-0.5 1:0.137719 2:0.285838 3:0.260416 
-0.5 1:2.22503 2:3.13633 3:2.89188 
-0.5 1:0.891685 2:0.640521 3:0.15536 
-0.5 1:0.149672 2:0.945078 3:1.28394 
0.5 1:1.09328 2:2.609 3:4.66184 
-0.5 1:0.0368321 2:-0.074221 3:0.0491464 
-0.5 1:1.18263 2:1.04218 3:0.415695 
0.5 1:0.311223 2:0.228587 3:0.215787 
0.5 1:-1.70932 2:-1.78262 3:-1.46772 
0.5 1:1.24668 2:0.689242 3:0.277676 
0.5 1:-1.70647 2:-0.78089 3:0.287087 
-0.5 1:0.666313 2:0.685762 3:0.587616 
0.5 1:2.33395 2:1.40424 3:0.805258 
-0.5 1:0.157282 2:0.0710932 3:-0.0611777 
-0.5 1:0.146988 2:0.209962 3:0.150061 
0.5 1:1.11949 2:0.573298 3:0.275456 
0.5 1:0.86874 2:0.441033 3:-0.719876 
-0.5 1:3.36713 2:2.13236 3:1.26252 
-0.5 1:1.08771 2:0.704066 3:0.459542 
-0.5 1:3.47594 2:3.30578 3:3.25048 
-0.1213536536843589 1:5.84665 2:5.36224 3:4.95228 
0.5 1:-0.0883467 2:0.369905 3:1.16149 
0.5 1:3.95206 2:1.67532 3:-0.16785 
-0.1444699064582579 1:0.11585 2:0.156366 3:0.0646627 
0.5 1:3.1557 2:2.56418 3:2.04174 
0.5 1:2.6278 2:3.10796 3:3.63006 
0.5 1:0.787038 2:1.0568 3:1.36474 
0.5 1:1.27208 2:1.03557 3:0.835691 
0.5 1:2.82719 2:3.19253 3:3.58445 
0.5 1:1.36377 2:1.60937 3:1.88638 
0.5 1:4.2708 2:4.9163 3:5.59287 
