svm_type epsilon_svr
kernel_type linear
nr_class 2
total_sv 15
rho -0.0361737
SV
-0.5 1:0.13017 2:-0.172266 3:0.164267 
-0.5 1:0.888536 2:0.825103 3:0.4687 
-0.4998027196329247 1:0.00107381 2:-0.0623012 3:0.0696011 
0.5 1:3.60212 2:5.08686 3:7 
0.5 1:-0.0201204 2:-1.15822 3:-1.92821 
-0.5 1:2.69831 2:3.05446 3:2.86358 
-0.5 1:0.123853 2:0.377729 3:0.577633 
0.09342360386202705 1:8.10593 2:7.22566 3:6.37239 
-0.3266499793549978 1:4.92077 2:6.87261 3:9 
0.5 1:1.1941 2:1.90009 3:2.77085 
0.5 1:-1.35845 2:-2.15899 3:-2.60241 
-0.5 1:0.711216 2:1.15259 3:1.48722 
0.2330290951258956 1:-0.0981535 2:-0.271656 3:-0.332519 
0.5 1:1.01483 2:1.42352 3:1.94807 
0.5 1:2.75165 2:3.46507 3:4.2611 
