svm_type epsilon_svr
kernel_type linear
nr_class 2
total_sv 26
rho -0.0918745
SV
0.5 1:-3.28333 2:-2.56634 3:-0.935484 
-0.5 1:-0.529222 2:0.949512 3:2.05396 
-0.1235514682719881 1:-0.578223 2:0.987166 3:2.17779 
-0.5 1:-1.26587 2:0.252195 3:1.63628 
-0.5 1:0.500681 2:0.520846 3:0.142127 
0.5 1:-3.16928 2:-1.60117 3:0.557006 
-0.5 1:1.03737 2:0.0992467 3:-0.886962 
-0.5 1:0.938129 2:-0.36712 3:0.895045 
0.5 1:-0.49076 2:-1.26484 3:-1.44766 
0.5 1:-0.937742 2:-1.68124 3:-2.05861 
-0.5 1:-0.272218 2:0.683942 3:1.17712 
0.5 1:-1.07448 2:-2.08172 3:-2.71613 
0.1892163864018803 1:8.1462 2:7.3034 3:6.48231 
0.4215716043749965 1:-1.70578 2:-3.25471 3:-1.19899 
-0.5 1:0.175733 2:0.745155 3:0.714782 
-0.5 1:-0.0677955 2:0.400925 3:0.221061 
-0.5 1:0.204258 2:0.295938 3:0.215913 
-0.5 1:-0.501913 2:0.0703112 3:0.537571 
0.5 1:-1.89234 2:3.14701 3:1.46974 
0.5 1:3.2663 2:4.59182 3:6.18907 
0.5 1:-0.540964 2:-0.54495 3:-0.360899 
0.5 1:-0.504378 2:-0.713773 3:-0.805101 
-0.5 1:0.0460908 2:0.0664928 3:0.0480363 
0.5 1:5.27644 2:4.20131 3:3.25438 
0.5 1:2.56625 2:2.9812 3:3.43714 
-0.4872365225048885 1:0.0189804 2:0.0116845 3:0.000290028 
