svm_type epsilon_svr
kernel_type linear
nr_class 2
total_sv 3
rho -0.0483913
SV
0.00717790317582828 1:9 2:7.89084 3:6.81027 
0.03971821962633793 1:9 2:8.56409 3:8.13001 
-0.04689612280216621 1:2.38713 2:1.33217 3:0.683081 
