svm_type epsilon_svr
kernel_type linear
nr_class 2
total_sv 3
rho -0.0356448
SV
-0.02364648512514363 1:9 2:5.66385 3:3.03291 
-0.03640639115690122 1:0.314036 2:0.646764 3:1.29325 
0.06005287628204486 1:9 2:8.24551 3:7.49928 
