svm_type epsilon_svr
kernel_type linear
nr_class 2
total_sv 12
rho -0.0598149
SV
-0.5 1:0.992718 2:0.506579 3:0.239428 
-0.5 1:3.66432 2:4.80447 3:6.10342 
-0.5 1:3.70366 2:2.17959 3:1.16082 
-0.09866360495360395 1:1.25203 2:0.718581 3:0.387272 
-0.5 1:2.18209 2:3.54517 3:5.1873 
0.2508727212924023 1:9 2:7.16202 3:5.4441 
0.5 1:9 2:7.63682 3:6.32314 
-0.5 1:0.892004 2:1.34036 3:1.93557 
0.5 1:-5.93169 2:-4.9564 3:-3.16127 
0.5 1:-2.74685 2:-1.92479 3:-0.304643 
0.3477908836612012 1:9 2:8.54399 3:8.08982 
0.5 1:1.3933 2:2.47212 3:4.40034 
