svm_type epsilon_svr
kernel_type linear
nr_class 2
total_sv 48
rho -0.0953779
SV
-0.5 1:4.53284 2:3.21122 3:0.829838 
-0.5 1:0.0879711 2:0.0227333 3:-0.0500068 
0.5 1:8.54447 2:8.7721 3:9 
0.5 1:8.76793 2:8.65221 3:8.53686 
0.5 1:8.71985 2:8.62694 3:8.53442 
0.5 1:5.04689 2:4.12825 3:1.42687 
-0.5 1:-4.74951 2:-4.27937 3:-1.73584 
0.02857301987166959 1:4.28187 2:4.90477 3:1.53143 
-0.5 1:1.23512 2:1.33143 3:1.52204 
-0.5 1:7.08504 2:2.86488 3:-2.69449 
0.5 1:-6.47953 2:-4.32071 3:-1.22098 
-0.5 1:6.84357 2:7.15356 3:5.90573 
-0.5 1:-6.00015 2:-4.08601 3:0.680573 
-0.5 1:-2.44762 2:-5.75581 3:-5.04588 
0.5 1:-8.09156 2:-8.12231 3:-6.69839 
0.5 1:-5.48341 2:-7.56679 3:-8.295 
0.5 1:8.51184 2:8.67414 3:8.83694 
0.5 1:9 2:8.85287 3:8.70598 
0.3299778500536186 1:8.51975 2:8.63916 3:8.75913 
0.5 1:6.26109 2:6.00589 3:0.916388 
0.4553671586893246 1:8.8135 2:8.62765 3:8.44312 
-0.5 1:5.30795 2:3.40271 3:-0.171194 
-0.5 1:5.37147 2:4.32391 3:1.15593 
0.5 1:2.24191 2:4.98448 3:-0.337065 
-0.5 1:0.109067 2:0.21295 3:0.395003 
-0.4590708641667309 1:0.362505 2:0.265642 3:0.203961 
0.5 1:9 2:8.6916 3:8.38568 
0.5 1:9 2:8.70127 3:8.40495 
0.5 1:-3.44917 2:-6.12909 3:-4.83613 
-0.5 1:4.28406 2:6.19959 3:4.09654 
-0.5 1:5.39014 2:3.88878 3:0.111614 
0.5 1:-5.38996 2:-3.89472 3:-0.120199 
0.5 1:0.908631 2:6.94703 3:2.6146 
-0.5 1:0.29002 2:0.666219 3:1.38285 
-0.5 1:2.99696 2:4.21047 3:5.65575 
-0.5 1:1.71272 2:2.06159 3:2.54565 
-0.4777065222318817 1:0.100227 2:0.131985 3:0.187165 
-0.3063948210599288 1:0.348324 2:0.252777 3:0.1899 
-0.5 1:-2.17776 2:3.86225 3:6.7211 
0.5 1:6.63357 2:1.85163 3:-4.27652 
-0.5 1:3.16237 2:1.05379 3:-1.41841 
-0.5 1:5.52547 2:7.7926 3:8.77075 
0.5 1:-7.7334 2:-7.72804 3:-5.40485 
0.5 1:-4.97788 2:-7.09912 3:-5.06579 
-0.07074582115607007 1:5.13656 2:0.169587 3:-4.89663 
0.5 1:-7.28224 2:-5.59564 3:-1.58885 
-0.5 1:7 2:7.17933 3:6.69018 
0.5 1:0.398649 2:-2.68168 3:-4.82135 
