svm_type epsilon_svr
kernel_type linear
nr_class 2
total_sv 3
rho -0.00326924
SV
-0.004702433034572192 1:5.09664 2:3.51204 3:2.27492 
0.04576307055015958 1:8.34357 2:8.67112 3:9 
-0.04106063751558738 1:0.497312 2:1.0776 3:2.08941 
