svm_type epsilon_svr
kernel_type linear
nr_class 2
total_sv 21
rho -0.0592306
SV
-0.5 1:0.660954 2:1.0365 3:1.58107 
-0.5 1:2.9714 2:4.16499 3:3.67035 
-0.5 1:9.12132 2:8.38936 3:4.88875 
0.03555399989956755 1:0.530015 2:0.393988 3:0.28844 
-0.5 1:5.12138 2:3.86731 3:2.80343 
0.5 1:3.19522 2:-2.95294 3:-7.72072 
-0.5 1:7.67932 2:7.39764 3:5.50497 
0.5 1:0.361491 2:0.180116 3:0.104898 
0.5 1:5.73227 2:6.78879 3:7.88456 
-0.5 1:-0.249065 2:-0.282434 3:-0.00300149 
0.5 1:1.70735 2:2.31917 3:3.05817 
0.5 1:1.85132 2:2.38562 3:2.99841 
-0.5 1:0.301012 2:-0.380741 3:-0.245954 
-0.5 1:0.259084 2:0.225971 3:1.33188 
-0.4196449904282738 1:4.51099 2:3.62103 3:2.86286 
-0.5 1:1.35671 2:1.56926 3:1.91853 
0.5 1:2.00096 2:2.42631 3:2.90687 
0.5 1:0.373206 2:0.530161 3:0.724722 
0.5 1:8.08033 2:7.17558 3:6.29997 
0.5 1:5.47665 2:4.84891 3:4.25931 
0.3840909905287057 1:4.84108 2:5.54078 3:6.2643 
