svm_type epsilon_svr
kernel_type linear
nr_class 2
total_sv 18
rho -0.00594612
SV
-0.084010162461379 1:0.02805 2:0.0916284 3:0.272043 
-0.5 1:2.22096 2:1.33733 3:0.754602 
0.5 1:1.37439 2:1.97045 3:2.63378 
0.5 1:8.28598 2:7.57897 3:6.88578 
0.5 1:1.93183 2:1.65253 3:1.40423 
0.4403952355245111 1:7.43427 2:7.82159 3:8.21242 
-0.5 1:2.44054 2:1.60341 3:1.00031 
-0.5 1:1.42726 2:1.38126 3:1.03447 
-0.5 1:5.03218 2:4.10674 3:0.519319 
-0.5 1:-0.0579029 2:3.17106 3:4.54424 
-0.5 1:0.761517 2:1.16653 3:1.73786 
0.5 1:-3.73841 2:-2.97317 3:-1.18203 
-0.5 1:5.06726 2:7.19581 3:8.1341 
0.1436149269368676 1:-4.4051 2:-0.0977087 3:4.26686 
0.5 1:-5.25664 2:-5.94219 3:-4.16386 
0.5 1:6.516 2:5.93023 3:5.36677 
-0.5 1:-1.57735 2:1.07332 3:3.3475 
0.5 1:3.15952 2:3.52275 3:3.90678 
