svm_type epsilon_svr
kernel_type linear
nr_class 2
total_sv 61
rho -0.0995288
SV
-0.5 1:0.461956 2:0.212761 3:0.0907656 
-0.5 1:0.283813 2:0.238947 3:0.276461 
0.5 1:3.16425 2:3.57456 3:4.01517 
0.5 1:9 2:8.45357 3:7.9103 
0.5 1:4.75563 2:4.35243 3:3.96849 
0.5 1:8.89115 2:8.78242 3:8.67392 
0.5 1:1.73485 2:2.18407 3:2.70506 
-0.5 1:8.87219 2:8.93907 3:5.79039 
-0.5 1:0.0383903 2:0.0999607 3:0.10084 
0.5 1:-3.54794 2:-2.70763 3:0.206294 
-0.5 1:0.0021615 2:0.0111465 3:0.0115953 
-0.5 1:9.08313 2:4.96789 3:-0.9781 
0.5 1:6.24538 2:5.40928 3:4.62014 
-0.5 1:-0.000326941 2:0.00212351 3:0.00285828 
-0.5 1:0.0426946 2:0.037668 3:0.0151268 
0.5 1:3.48262 2:2.90906 3:2.39535 
-0.5 1:4.80659 2:7.39019 3:8.36444 
-0.5 1:-1.22098 2:2.14466 3:5.04324 
-0.5 1:0.159275 2:0.154142 3:0.115442 
-0.5 1:6.66299 2:6.23053 3:3.18344 
-0.5 1:0.0401181 2:0.0177942 3:-0.0169517 
0.5 1:-4.47153 2:-7.4891 3:-9.16542 
0.5 1:-2.41797 2:-5.48341 3:-7.56679 
0.5 1:0.121337 2:0.203114 3:0.399836 
0.5 1:3.88903 2:4.42596 3:5.00059 
0.5 1:8.08381 2:8.54097 3:9 
0.4713321571020777 1:9 2:8.75761 3:8.5156 
-0.4027259199882458 1:-9.48951 2:-6.67153 3:3.53528 
-0.08176997697480508 1:-0.0578658 2:-0.321204 3:-0.228314 
0.5 1:-0.655585 2:-5.87414 3:-6.36445 
-0.5 1:-0.00244259 2:0.00649082 3:0.0102049 
-0.5 1:0.835939 2:4.12188 3:5.38648 
-0.5 1:2.66814 2:-3.81934 3:-4.12772 
0.5 1:0.517524 2:0.998548 3:1.77552 
-0.5 1:6.6623 2:-4.2307 3:-5.93193 
0.5 1:6.38012 2:4.09901 3:2.37518 
0.5 1:4.09654 2:-0.661882 3:-4.99128 
0.5 1:1.18868 2:1.67358 3:2.28432 
-0.5 1:-0.120199 2:3.72467 3:5.38977 
0.5 1:1.37724 2:1.82886 3:2.3642 
-0.5 1:-3.99145 2:4.55367 3:6.30087 
-0.5 1:3.82161 2:-8.70716 3:-2.64731 
-0.5 1:0.0853777 2:0.209188 3:0.468689 
0.5 1:-3.81303 2:3.70333 3:4.81259 
-0.5 1:-0.0138995 2:-0.0111991 3:0.0108771 
0.5 1:-6.37494 2:-5.47389 3:-0.0642343 
0.5 1:0.969281 2:0.612598 3:0.370549 
-0.5 1:-1.91491 2:4.21742 3:6.78246 
0.5 1:-3.34509 2:-1.32989 3:1.14419 
0.01614996176900955 1:1.91906 2:2.25929 3:2.63444 
-0.5 1:3.97568 2:7.39129 3:9.58429 
-0.5 1:3.617 2:0.126043 3:-3.38576 
0.5 1:1.98083 2:2.40222 3:2.87903 
0.5 1:3.00167 2:3.56757 3:4.18485 
-0.5 1:10.1085 2:5.83831 3:-0.852638 
0.5 1:-6.86365 2:-6.93466 3:-4.13027 
0.5 1:3.54466 2:3.13426 3:2.75533 
-0.5 1:-2.6602 2:1.81014 3:5.64553 
-0.5 1:5.17408 2:5.00579 3:3.08161 
-0.002986221908039744 1:0.000618746 2:0.000481346 3:0.000175804 
0.5 1:1.47626 2:1.71824 3:1.98656 
