svm_type epsilon_svr
kernel_type linear
nr_class 2
total_sv 13
rho -0.00589867
SV
-0.5 1:0.168172 2:0.431612 3:0.995209 
-0.002331316535047154 1:2.39609 2:-0.449054 3:-3.11218 
-0.5 1:2.54553 2:4.33146 3:4.36168 
-0.5 1:9 2:10.3207 3:10.0654 
0.5 1:3.29626 2:-2.99549 3:-8.29867 
0.08095778294681188 1:7.93176 2:8.28637 3:8.64274 
-0.5 1:4.03233 2:-2.11846 3:-7.51487 
0.5 1:4.07557 2:4.96494 3:5.93084 
0.405522524150462 1:-5.92467 2:-9.03373 3:-8.58178 
0.5 1:7.7081 2:8.3514 3:9 
0.5 1:8.22241 2:8.61047 3:9 
-0.5 1:2.42625 2:1.36636 3:0.707177 
0.01585100943777416 1:2.69449 2:3.08034 3:3.49577 
