svm_type epsilon_svr
kernel_type linear
nr_class 2
total_sv 8
rho -0.0895863
SV
-0.1456207415500864 1:1.44742 2:2.34807 3:3.58471 
0.3345350636727512 1:7.64664 2:8.32032 3:9 
0.5 1:-0.469172 2:-1.0919 3:-1.47684 
0.5 1:-2.12954 2:-1.64934 3:-0.873746 
-0.5 1:0.166095 2:0.17198 3:0.12026 
-0.5 1:1.32959 2:1.68791 3:1.87421 
-0.2002540635310817 1:0.0186748 2:0.0289365 3:0.0345732 
0.01133974140841693 1:7.66725 2:7.01519 3:6.37987 
