svm_type epsilon_svr
kernel_type linear
nr_class 2
total_sv 16
rho -0.0896928
SV
-0.5 1:0.0432797 2:-0.0571244 3:0.0554949 
-0.5 1:6.59506 2:7.15188 3:7.74649 
-0.1447366457452642 1:7.06649 2:7.51429 3:7.99237 
-0.1306438836849825 1:8.14341 2:8.5673 3:9 
-0.5 1:-0.00276768 2:0.0258829 3:0.0440422 
0.5 1:1.44569 2:1.9842 3:2.62874 
0.5 1:1.30646 2:1.67874 3:2.12042 
0.5 1:2.55582 2:2.18159 3:1.84752 
0.5 1:2.32101 2:1.57142 3:1.00949 
0.5 1:1.39449 2:0.785944 3:0.435377 
-0.482585507610541 1:0.0169406 2:0.0272774 3:0.0146915 
-0.5 1:0.053524 2:0.0490361 3:0.0154559 
0.5 1:3.02017 2:2.17202 3:1.47454 
0.5 1:3.30063 2:4.77014 3:6.35795 
-0.5 1:-0.0174931 2:0.0335387 3:0.0699303 
-0.2420339629592131 1:7.64313 2:6.33511 3:5.11977 
