svm_type epsilon_svr
kernel_type linear
nr_class 2
total_sv 5
rho -0.00944357
SV
0.05743889986196712 1:2.08251 2:2.5171 3:3.24669 
0.5 1:4.24735 2:3.33872 3:2.6792 
-0.5 1:3.79876 2:3.10828 3:3.01523 
0.1713008960769038 1:10.199 2:10.2295 3:9.80514 
-0.2287397959388708 1:7.84936 2:6.88882 3:6.25644 
