svm_type epsilon_svr
kernel_type linear
nr_class 2
total_sv 5
rho -0.115081
SV
-0.2336596386495075 1:7.81692 2:7.12765 3:6.80866 
0.471157783350259 1:5.3129 2:6.12285 3:7.02585 
-0.5 1:3.98608 2:4.38435 3:4.92789 
-0.2374981447007521 1:1.86735 2:2.11255 3:2.37029 
0.5 1:4.15743 2:3.59739 3:3.3101 
