svm_type epsilon_svr
kernel_type linear
nr_class 2
total_sv 21
rho -0.126682
SV
-0.5 1:5.90909 2:7.09091 3:8.27273 
0.5 1:1.96667 2:4.13136 3:8 
0.5 1:3.66351 2:3.81762 3:4.03984 
-0.5 1:2.93411 2:3.14982 3:3.36832 
-0.5 1:5.42987 2:5.43142 3:5.41324 
-0.5 1:2.72734 2:3.03031 3:3.33333 
0.5 1:6.42063 2:5.96029 3:5.55227 
-0.5 1:5.14032 2:5.30466 3:5.45635 
-0.2404609518067002 1:4.78867 2:4.84737 3:4.88999 
0.5 1:3.72917 2:3.89774 3:4.23101 
0.5 1:4.15724 2:4.57368 3:5.16962 
-0.5 1:4.9718 2:5.54438 3:6.13265 
-0.4448402145271721 1:5.68781 2:6.05163 3:6.4121 
-0.3146988336661285 1:4.02128 2:4.21277 3:4.40426 
0.5 1:4.13978 2:4.61184 3:5.16918 
-0.5 1:2.91856 2:3.13813 3:3.35683 
0.5 1:3.95522 2:4.21572 3:4.71909 
0.5 1:1.63533 2:1.73726 3:1.89027 
0.5 1:9.49439 2:9.53003 3:9.2728 
0.5 1:5.90584 2:4.89709 3:4.04383 
-0.5 1:4.23529 2:4.47059 3:4.70588 
