svm_type epsilon_svr
kernel_type linear
nr_class 2
total_sv 12
rho -0.140997
SV
0.5 1:12.0799 2:12.1156 3:11.6047 
-0.5 1:8.02382 2:7.23941 3:6.78547 
0.5 1:1.35506 2:1.74119 3:2.50334 
-0.5 1:2.97674 2:2.7907 3:2.60465 
-0.0584892522965547 1:3.66667 2:3.33348 3:3.00162 
0.5 1:1.13556 2:1.31678 3:1.84565 
0.5 1:5.00658 2:2.81937 3:1.71229 
0.07827341118086983 1:11.4933 2:11.6284 3:11.4933 
-0.5 1:3.82712 2:4.14992 3:5.25609 
-0.5 1:2.04255 2:1.87234 3:1.70213 
0.4802158411156845 1:3.42622 2:3.66945 3:4.0124 
-0.5 1:6.67492 2:6.17674 3:6.06832 
