svm_type epsilon_svr
kernel_type linear
nr_class 2
total_sv 5
rho -0.0451698
SV
0.07966846531826931 1:10.9776 2:10.3776 3:9.58389 
0.2800091150387301 1:4.33097 2:2.89003 3:2.13617 
0.5 1:4.71631 2:3.47184 3:2.51328 
-0.5 1:7 2:3.25672 3:1.96831 
-0.3596775803569994 1:2.24114 2:3.01844 3:4.00096 
