svm_type epsilon_svr
kernel_type linear
nr_class 2
total_sv 9
rho -0.154982
SV
0.5 1:4.40867 2:4.23078 3:4.1227 
0.5 1:5.75599 2:6.1332 3:6.54793 
-0.4775837618419561 1:4.3018 2:4.41044 3:4.51313 
-0.5 1:4.9724 2:4.96252 3:4.94129 
-0.3713158877750382 1:4.64904 2:4.62964 3:4.59748 
0.1365891318944137 1:5.52125 2:5.25144 3:5.01128 
-0.5 1:7.01944 2:7.0289 3:7.01944 
0.2123105177225802 1:8.24838 2:7.52463 3:6.85457 
0.5 1:5.03088 2:5.22834 3:5.4653 
