svm_type epsilon_svr
kernel_type linear
nr_class 2
total_sv 16
rho -0.15232
SV
0.5 1:3.65097 2:3.16744 3:2.93234 
0.1151055449158638 1:6.07131 2:5.18916 3:4.39449 
0.5 1:5.26502 2:6.08302 3:6.99725 
0.5 1:6.64893 2:5.43367 3:4.45965 
-0.06058520085254476 1:3.93372 2:4.04147 3:4.14702 
-0.5 1:4.49228 2:4.56769 3:4.63559 
-0.1433875199652141 1:4.38054 2:4.41866 3:4.45158 
-0.5 1:5.04699 2:5.16561 3:5.26366 
0.5 1:1.13348 2:1.14894 3:1.34043 
-0.5 1:2.07131 2:2.75025 3:3.4375 
0.5 1:2.99817 2:4.84963 3:7 
-0.5 1:2.17402 2:2.6087 3:3.04348 
-0.3384974770898028 1:3.50555 2:3.51612 3:3.52228 
0.5 1:1.25 2:1.45833 3:1.66667 
-0.07263534700830224 1:7.30117 2:6.75024 3:6.48409 
-0.5 1:2.58824 2:2.82353 3:3.05882 
