svm_type epsilon_svr
kernel_type linear
nr_class 2
total_sv 13
rho -0.173461
SV
0.5 1:4.58598 2:4.88603 3:5.24378 
0.5 1:5.64151 2:5.02513 3:4.53317 
0.08270451353132861 1:5.44304 2:5.23039 3:5.05064 
-0.5 1:4.09659 2:3.91289 3:3.70421 
-0.5 1:5.10398 2:5.14799 3:5.17824 
-0.5 1:4.65149 2:4.77028 3:4.87529 
-0.2196550199590873 1:4.12106 2:4.00352 3:3.88329 
-0.5 1:4.36704 2:4.38105 3:4.38649 
0.5 1:5.73776 2:5.76066 3:5.8317 
0.5 1:3.4798 2:3.372 3:3.30117 
-0.5 1:3.53609 2:3.54819 3:3.55072 
0.1369505064277582 1:7.47098 2:8.21822 3:9 
0.5 1:1.9537 2:1.84337 3:1.8838 
