svm_type epsilon_svr
kernel_type linear
nr_class 2
total_sv 31
rho -0.201096
SV
-0.1939115902738422 1:5.83596 2:5.9022 3:5.95933 
0.5 1:4.28479 2:4.18292 3:4.13981 
0.5 1:4.56608 2:4.4083 3:4.31769 
0.5 1:5.02179 2:4.88993 3:4.81606 
-0.5 1:3.6 2:3.8 3:4 
0.5 1:6.05311 2:7.4765 3:9 
0.5 1:3.97563 2:3.94143 3:3.94352 
-0.5 1:4.45932 2:4.46507 3:4.40819 
-0.5 1:3.65232 2:3.65291 3:3.6502 
-0.0004277299296453507 1:3.68686 2:3.66661 3:3.6539 
-0.5 1:3.34884 2:3.2093 3:3.06977 
-0.5 1:5.23033 2:5.18553 3:5.12665 
0.5 1:2.54341 2:1.5219 3:1.34475 
0.5 1:3.79492 2:3.41272 3:3.19424 
-0.5 1:5.72936 2:5.62437 3:5.47794 
-0.5 1:2.26827 2:2.42107 3:2.58215 
-0.5 1:2.93017 2:3.09401 3:3.26054 
-0.5 1:4.04301 2:4.13087 3:4.21402 
0.5 1:2.0371 2:2.33965 3:3.51661 
0.5 1:6.43898 2:5.732 3:5.13557 
-0.1851742199216642 1:4.86119 2:5.53467 3:6.20517 
-0.5 1:3.44681 2:3.6383 3:3.82979 
-0.5 1:7.0986 2:7.10889 3:7.0986 
0.5 1:3.39151 2:3.60806 3:3.87888 
-0.5 1:3.87411 2:4.0705 3:4.2247 
-0.120486459874848 1:3.75448 2:3.76545 3:3.78449 
0.5 1:6.60538 2:7.36748 3:8.17261 
0.5 1:5.34787 2:5.51032 3:5.70418 
-0.5 1:4.0161 2:4.33759 3:5.0945 
0.5 1:1.29965 2:1.49024 3:2.39438 
0.5 1:4.40121 2:3.74047 3:3.22427 
