svm_type epsilon_svr
kernel_type linear
nr_class 2
total_sv 3
rho -0.125373
SV
0.01821588125865591 1:8.10403 2:8.15557 3:8.22414 
0.02436212298102942 1:9 2:8.98527 3:8.97057 
-0.04257800423968534 1:1 2:1 3:1 
