svm_type epsilon_svr
kernel_type linear
nr_class 2
total_sv 7
rho -0.0963352
SV
-0.5 1:5.50779 2:4.98616 3:4.61228 
-0.5 1:4.56761 2:4.8786 3:5.28896 
-0.4352559192903196 1:2.89361 2:3.24416 3:3.68173 
0.5 1:1.44678 2:1 3:1 
0.5 1:7.93584 2:7 3:7 
-0.05926742446465031 1:6.1982 2:6.37303 3:6.65276 
0.4945233437549702 1:5 2:5.46533 3:7 
