svm_type epsilon_svr
kernel_type linear
nr_class 2
total_sv 4
rho -0.117437
SV
0.5 1:1.31108 2:1.15413 3:1.06913 
-0.04738675013755973 1:1.00003 2:1.00007 3:1.00015 
-0.5 1:1 2:1 3:1 
0.04738675013755975 1:6.01255 2:6.03066 3:6.06311 
