svm_type epsilon_svr
kernel_type linear
nr_class 2
total_sv 3
rho -0.135562
SV
-0.04227185926742651 1:1.02595 2:1.01961 3:1.0147 
0.0002217387838820248 1:5.4169 2:5.79597 3:6.20173 
0.04205012048354449 1:8.65214 2:8.71839 3:8.78681 
