svm_type epsilon_svr
kernel_type linear
nr_class 2
total_sv 6
rho 0.112527
SV
0.02795119370676379 1:1.00047 2:1.00026 3:1.00014 
-0.09159841049081709 1:5.31156 2:4.18194 3:4.01451 
0.5 1:6.82051 2:7.75902 3:9 
0.04659105177407846 1:3.40395 2:4.60998 3:7 
0.01705616500997489 1:6.55364 2:7.52185 3:9 
-0.5 1:6.02579 2:6.40706 3:9 
