svm_type epsilon_svr
kernel_type linear
nr_class 2
total_sv 12
rho -0.11201
SV
-0.3975889013505701 1:4.35704 2:4.12915 3:4.04106 
-0.5 1:4.82798 2:5.23596 3:5.77026 
0.5 1:2.12291 2:1.37837 3:1.08386 
-0.1704608715494504 1:2 2:2 3:2 
0.5 1:3.88389 2:5.52443 3:8 
0.5 1:8.10754 2:8.30425 3:8.6071 
-0.5 1:5.78529 2:6.6935 3:7.79182 
0.5 1:3.35909 2:4.01534 3:5 
-0.5 1:3.01041 2:3.68836 3:4.61024 
0.5 1:5.08108 2:5 3:5 
-0.3097457794862152 1:5.15077 2:5.57293 3:6 
-0.1222044476137644 1:3.30116 2:3.61216 3:4.12889 
