svm_type epsilon_svr
kernel_type linear
nr_class 2
total_sv 4
rho 0.026937
SV
-0.3286323311253732 1:4.02978 2:4.58058 3:9 
0.5 1:5.45361 2:6.42058 3:8 
-0.07853906939521539 1:8.43799 2:7.88712 3:7.35789 
-0.09282859947941145 1:5.28696 2:4.59659 3:3.94943 
