svm_type epsilon_svr
kernel_type linear
nr_class 2
total_sv 24
rho 0.0230009
SV
-0.5 1:3.01863 2:4.67845 3:6.72541 
-0.5 1:0.862722 2:1.47741 3:2.38244 
-0.5 1:12.6692 2:8.97533 3:2.31939 
0.5 1:4.67005 2:5.31941 3:6.00668 
0.2827803638624069 1:8.6104 2:8.80509 3:9 
-0.5 1:0.823592 2:1.38842 3:2.20583 
-0.5 1:-2.83427 2:1.35054 3:5.24124 
0.5 1:-0.202827 2:0.00520473 3:0.272174 
-0.5 1:8.46563 2:5.50593 3:1.56014 
0.5 1:3.51142 2:3.00134 3:2.54169 
0.1611897003918374 1:4.39835 2:4.79874 3:5.21678 
0.5 1:7.22353 2:7.80885 3:8.40235 
-0.5 1:-3.53656 2:2.75927 3:7.70198 
0.5 1:7.10836 2:8.04576 3:9 
-0.5 1:7.06183 2:5.26438 3:3.71788 
-0.5 1:-0.829972 2:0.714075 3:2.01173 
0.05602993574575639 1:2.27811 2:1.89192 3:1.55131 
-0.5 1:5.75252 2:6.50261 3:6.17709 
0.5 1:3.64924 2:3.21416 3:2.8117 
-0.5 1:-0.0630611 2:2.75383 3:3.95911 
0.5 1:-0.265873 2:2.40745 3:5.00454 
0.5 1:2.66536 2:2.98815 3:3.33513 
0.5 1:-2.34665 2:-1.22852 3:0.320548 
0.5 1:0.846799 2:1.06947 3:1.33329 
