svm_type epsilon_svr
kernel_type linear
nr_class 2
total_sv 16
rho -0.101652
SV
0.5 1:-0.464362 2:-0.573991 3:-0.450958 
-0.5 1:0.123918 2:0.0320226 3:-0.0704405 
0.5 1:1.6069 2:2.17551 3:2.87601 
-0.5 1:0.00082646 2:0.000949883 3:0.00157278 
-0.3760482831631854 1:5 2:4.90323 3:4.80682 
0.5 1:1.54632 2:2.05739 3:2.67146 
0.5 1:2.02536 2:1.58125 3:1.21143 
-0.5 1:0.0131295 2:0.0144339 3:0.013532 
-0.5 1:2.26279e-05 2:2.98957e-05 3:4.79098e-05 
0.5 1:2.99227 2:2.48155 3:2.02951 
-0.1478087512567578 1:3.02916 2:4.23997 3:5.67842 
-0.4191876686228455 1:6.64114 2:7.80345 3:9 
0.5 1:1.32004 2:1.74018 3:2.24764 
-0.05695529695720868 1:0.00104574 2:0.00115739 3:0.0018848 
-0.5 1:-2.58e-06 2:-1.3414e-06 3:1.51107e-05 
0.5 1:2.10936 2:2.51742 3:2.97593 
