svm_type epsilon_svr
kernel_type linear
nr_class 2
total_sv 6
rho 0.0139807
SV
0.3738645747136063 1:4.32174 2:3.84317 3:3.39688 
0.05026521299864608 1:9 2:8.79276 3:8.58584 
-0.5 1:0.746561 2:0.973828 3:0.724727 
-0.5 1:3.69497 2:4.15877 3:3.93466 
0.5 1:0.67681 2:1.00926 3:1.46879 
0.07587021228774778 1:3.32003 2:3.85878 3:4.43626 
