svm_type epsilon_svr
kernel_type linear
nr_class 2
total_sv 44
rho -0.0999412
SV
-0.4635377305584509 1:11.0023 2:-7.22869 3:1.3405 
-0.003316368331325911 1:-0.0318488 2:0.0501327 3:-0.0514506 
0.5 1:-4.51383 2:-4.08584 3:-2.00171 
0.5 1:4.09492 2:-2.17097 3:-7.7204 
-0.5 1:0.00949612 2:0.0115752 3:0.00983421 
-0.5 1:0.00105724 2:0.000896027 3:0.000441546 
0.5 1:6.0192 2:5.33514 3:4.68889 
0.5 1:-8.99867 2:-4.47719 3:1.63858 
-0.5 1:0.930108 2:0.792801 3:0.384846 
-0.5 1:0.326581 2:0.417459 3:0.377686 
0.5 1:-9.29877 2:-7.66217 3:-3.00521 
-0.5 1:0.518734 2:0.443463 3:0.193384 
0.5 1:0.724642 2:0.389354 3:0.238276 
-0.5 1:-1.29665 2:6.61213 3:8.92806 
0.5 1:0.931294 2:0.341746 3:0.152127 
0.5 1:2.60627 2:-5.19852 3:-9.84703 
-0.5 1:0.373367 2:0.214045 3:-0.0601592 
-0.5 1:3.87702 2:0.618242 3:-3.11401 
-0.5 1:0.0531195 2:0.0144951 3:-0.0352302 
-0.5 1:0.00287049 2:0.0114709 3:0.0112866 
-0.5 1:1.82994 2:2.35433 3:2.01112 
0.5 1:5.55345 2:4.39022 3:3.31201 
0.5 1:-0.456261 2:-0.855717 3:-0.84057 
0.5 1:0.718164 2:1.60171 3:3.02095 
0.5 1:-0.714942 2:-0.469525 3:-0.00462013 
-0.5 1:0.556826 2:1.00434 3:1.23314 
0.5 1:0.693297 2:0.511002 3:0.380323 
-0.5 1:1.85732 2:1.65426 3:1.15492 
0.5 1:0.894776 2:0.64097 3:0.465019 
0.1639919632192899 1:4.71256 2:4.19437 3:3.70942 
0.5 1:3.48513 2:4.16038 3:5.69528 
-0.5 1:-0.158343 2:0.147213 3:0.335638 
0.5 1:1.70496 2:1.13364 3:0.724369 
-0.4206217698557584 1:6.83359e-06 2:-3.02599e-05 3:-4.44742e-05 
0.5 1:2.87875 2:1.19486 3:0.422122 
-0.5 1:0.0621198 2:0.0506957 3:0.00641074 
-0.5 1:-0.00113877 2:0.0623647 3:0.0893709 
0.2234839055262456 1:3.02977 2:4.89631 3:7 
-0.5 1:0.0397104 2:0.130563 3:0.129536 
0.5 1:4.05866 2:5.7891 3:8 
-0.5 1:-0.000480019 2:0.000325248 3:0.00102712 
0.5 1:0.00701145 2:-0.577695 3:-1.06684 
-0.5 1:0.000383274 2:0.000263277 3:9.98905e-06 
0.5 1:6.29997 2:5.46633 3:4.68557 
