svm_type epsilon_svr
kernel_type linear
nr_class 2
total_sv 17
rho -0.0938737
SV
-0.4120343314460644 1:0.0226846 2:0.0315208 3:0.0670583 
-0.5 1:0.51063 2:0.673101 3:0.960452 
-0.5 1:1.49852 2:2.10075 3:2.87536 
-0.5 1:1.63946 2:1.56871 3:1.63481 
-0.5 1:3.7942 2:5.37449 3:5.1811 
0.5 1:9 2:7.37509 3:5.82244 
-0.5 1:0.147284 2:0.221049 3:0.249659 
0.1575189459943442 1:3.39137 2:4.39444 3:5.52141 
0.5 1:-4.44202 2:-1.96659 3:0.937093 
0.5 1:2.63863 2:2.09233 3:1.62162 
0.5 1:-6.5999 2:-7.32146 3:-6.73178 
-0.4988175554480261 1:2.04024 2:0.702622 3:0.218038 
0.5 1:3.12751 2:3.79938 3:4.53633 
-0.5 1:0.757101 2:0.592282 3:0.546043 
0.5 1:1.21851 2:0.940125 3:0.720839 
0.2533329408997457 1:7.1669 2:6.57657 3:6.00341 
0.5 1:1.82318 2:1.43721 3:1.1141 
