svm_type epsilon_svr
kernel_type linear
nr_class 2
total_sv 15
rho -0.0795344
SV
0.5 1:9 2:8.79468 3:8.58959 
-0.5 1:0.636994 2:0.3719 3:-0.112821 
0.2603985485462921 1:8.66105 2:8.83019 3:9 
-0.5 1:1.52761 2:1.09939 3:0.266461 
-0.5 1:-0.0442295 2:-0.134746 3:0.197777 
0.05975853650812413 1:-1.14205 2:-0.884523 3:-0.468573 
0.5 1:0.458899 2:1.30723 3:0.710265 
-0.5 1:0.342559 2:0.955399 3:2.00165 
0.2104661317207592 1:9 2:8.766 3:8.53283 
-0.5 1:0.952253 2:2.3222 3:5.0774 
-0.5 1:-0.0633103 2:-0.196039 3:0.117435 
0.5 1:-3.09206 2:-4.57583 3:-4.4807 
-0.030623216775175 1:3.89723 2:0.135809 3:-3.64807 
0.5 1:-5.92862 2:-8.69594 3:-7.85757 
0.5 1:-4.04524 2:-0.565262 3:3.11299 
