svm_type epsilon_svr
kernel_type linear
nr_class 2
total_sv 3
rho -0.0802295
SV
-0.01845603492595093 1:2.31655 2:1.57291 3:1.02846 
0.04099200230863257 1:9 2:8.8319 3:8.66406 
-0.02253596738268164 1:0.114366 2:0.203694 3:0.375887 
