svm_type epsilon_svr
kernel_type linear
nr_class 2
total_sv 62
rho -0.10035
SV
-0.5 1:1.84506 2:4.48484 3:9 
-0.5 1:0.736346 2:0.561931 3:0.502646 
0.1180760350445377 1:9 2:8.52221 3:8.05415 
-0.5 1:0.00182464 2:-0.000117578 3:-0.00200555 
-0.5 1:-5.72793e-05 2:6.56906e-06 3:6.91863e-05 
0.5 1:1.36466 2:0.757939 3:0.415977 
0.5 1:2.58611 2:1.56264 3:0.874597 
-0.5 1:0.00807099 2:0.00814214 3:0.00327464 
-0.5 1:0.00450364 2:0.0148223 3:0.0142198 
0.5 1:-0.0627034 2:-0.0973913 3:0.0654765 
0.5 1:3.10992 2:4.15904 3:5.35265 
0.5 1:8 2:5.49431 3:-5.37059 
0.5 1:-8.01165 2:-5.24458 3:-0.025902 
-0.5 1:1.08461 2:4.20919 3:6.41714 
0.5 1:-5.69337 2:-2.25706 3:2.75491 
-0.5 1:7.37972 2:5.15217 3:2.00189 
-0.5 1:0.537434 2:0.311394 3:0.0301511 
0.5 1:1.92657 2:2.6785 3:3.54954 
0.3821435114244075 1:9.82671 2:5.23489 3:-5.15466 
0.03319703019380916 1:9 2:8.72061 3:8.44376 
-0.5 1:-0.0875124 2:5.45481 3:6.60641 
0.5 1:1.0652 2:1.82383 3:2.84213 
0.5 1:-5.15333 2:-2.85995 3:0.835939 
0.5 1:3.53203 2:2.85679 3:2.24717 
-0.5 1:0.000422077 2:0.000116001 3:-0.000242127 
0.3986609715335769 1:-3.22089 2:-4.5658 3:1.47604 
0.5 1:-5.93193 2:5.25477 3:5.02476 
0.5 1:9 2:8.10488 3:7.22369 
0.5 1:9 2:8.24032 3:7.48941 
0.5 1:9 2:8.29935 3:7.60587 
-0.5 1:-3.6035 2:1.28354 3:5.33859 
-0.5 1:-0.00281257 2:-0.00118967 3:0.00120442 
-0.5 1:-0.000189911 2:-0.000182268 3:-5.53151e-05 
0.5 1:-5.391 2:-3.84691 3:-0.0515172 
-0.5 1:7.47469e-06 2:-0.000371067 3:-0.000531489 
-0.4320775481963315 1:0.00132362 2:0.000743103 3:0.000408057 
0.5 1:-5.62102 2:-5.46534 3:2.84923 
-0.5 1:-0.00734083 2:0.0129562 3:0.0139264 
-0.5 1:-0.00191293 2:0.000269691 3:0.0020565 
0.5 1:-4.92609 2:8.1919 3:3.82161 
-0.5 1:0.463431 2:0.422107 3:0.485795 
-0.5 1:0.632634 2:0.820634 3:1.13738 
0.5 1:4.9783 2:3.45268 3:-4.04639 
-0.5 1:5.39832 2:6.41452 3:2.14735 
0.5 1:2.21346 2:1.53411 3:1.02257 
-0.5 1:-0.967315 2:4.93272 3:6.66043 
0.5 1:1.40399 2:0.644244 3:0.309594 
0.5 1:-3.61571 2:-4.20605 3:-3.34509 
0.5 1:4.27087 2:3.46497 3:2.72737 
-0.5 1:8.63864 2:7.26952 3:4.69792 
-0.5 1:0.0576912 2:0.228431 3:0.361386 
0.5 1:3.91321 2:4.42817 3:4.97322 
-0.5 1:5.002 2:7.09933 3:5.04196 
-0.5 1:0.00267972 2:0.00192124 3:3.84136e-05 
-0.5 1:1.71664e-05 2:4.65014e-06 3:6.67852e-06 
0.5 1:-7.27013 2:-6.07397 3:-2.35929 
0.5 1:1.02705 2:0.761327 3:0.553769 
0.5 1:0.942896 2:1.18838 3:1.48057 
0.5 1:6.72317 2:7.4676 3:8.22938 
-0.5 1:2.03527 2:4.46898 3:5.3351 
-0.5 1:0.000125647 2:-0.000130523 3:-0.000335184 
-0.5 1:4.80362e-06 2:6.55276e-06 3:1.09088e-05 
