svm_type epsilon_svr
kernel_type linear
nr_class 2
total_sv 3
rho 0.0618208
SV
-0.1313600553303623 1:1.53385 2:3.20402 3:5.77699 
0.1519876086513444 1:4.78852 2:6.09073 3:7.51324 
-0.02062755332098212 1:9 2:6.62147 3:4.41426 
