svm_type epsilon_svr
kernel_type linear
nr_class 2
total_sv 21
rho -0.0806821
SV
-0.5 1:0.958588 2:0.543057 3:0.291809 
-0.03259925605215474 1:2.06552 2:1.46411 3:1.02255 
-0.5 1:1.42078 2:1.21519 3:1.14496 
0.5 1:1.76915 2:2.16878 3:2.62643 
0.5 1:2.43736 2:2.09543 3:1.78888 
0.5 1:1.46611 2:1.9463 3:2.53221 
-0.4311810651063159 1:0.691468 2:0.941771 3:1.29125 
-0.5 1:-0.549917 2:0.251419 3:0.929461 
0.5 1:0.480421 2:-0.413416 3:-1.03928 
-0.5 1:1.15876 2:0.828174 3:0.012919 
-0.5 1:1.5516 2:0.691718 3:0.299869 
-0.5 1:2.39646 2:2.5959 3:2.92179 
0.5 1:3.99726 2:3.19019 3:2.48996 
0.5 1:-1.70677 2:-2.88992 3:-1.52124 
-0.5 1:-0.58589 2:0.265134 3:1.02467 
-0.5 1:4.01066 2:2.87276 3:1.25967 
0.5 1:2.58168 2:2.17141 3:1.80848 
0.4637803211584693 1:2.28778 2:2.62682 3:2.99617 
-0.5 1:7 2:6.10049 3:4.75647 
0.5 1:2.17377 2:1.56268 3:1.08729 
0.5 1:4.08104 2:3.31308 3:2.64146 
