svm_type epsilon_svr
kernel_type linear
nr_class 2
total_sv 3
rho -0.0229316
SV
-0.04192649114712797 1:1.40082 2:2.56249 3:4.26778 
0.05461361873956888 1:7.258 2:8.12249 3:9 
-0.0126871275924409 1:-0.11288 2:-0.133232 3:0.130972 
