svm_type epsilon_svr
kernel_type linear
nr_class 2
total_sv 24
rho -0.101019
SV
0.2956306603230191 1:-3.59924 2:4.32797 3:-3.51572 
0.5 1:5.41457 2:3.90559 3:2.6766 
-0.5 1:-1.2112 2:-0.152881 3:0.955888 
-0.5 1:4.57902 2:1.86409 3:-1.51463 
-0.5 1:6.89922 2:5.34867 3:2.88023 
0.5 1:1.48446 2:2.18804 3:6 
0.5 1:-4.13567 2:-1.86405 3:1.53932 
0.1474616981261492 1:7.36615 2:6.5757 3:5.81585 
0.5 1:0.293755 2:-0.986086 3:-1.51074 
0.5 1:-5.07729 2:-2.0978 3:1.65477 
-0.5 1:0.0019851 2:0.00317876 3:0.00524018 
-0.5 1:0.647454 2:1.00954 3:1.51588 
0.5 1:3.51142 2:3.00134 3:2.54169 
-0.5 1:3.17333 2:4.38788 3:5.80164 
-0.5 1:6.6994 2:7.83454 3:9 
0.5 1:9 2:8.14389 3:7.29991 
0.5 1:5.74182 2:4.32447 3:3.12429 
-0.0620931898750359 1:7.18459 2:8.08486 3:9 
-0.5 1:1.71947 2:2.47288 3:3.40574 
-0.5 1:4.24747 2:4.89623 3:5.57819 
-0.5 1:4.77368 2:5.7952 3:6.88086 
0.5 1:8 2:7.01392 3:6.05129 
-0.3809991685741332 1:0.00140368 2:0.000608346 3:5.56167e-05 
0.5 1:8.34036 2:7.68626 3:7.0431 
