svm_type epsilon_svr
kernel_type linear
nr_class 2
total_sv 20
rho -0.0864443
SV
-0.5 1:0.637276 2:1.22531 3:0.815011 
0.5 1:-1.8306 2:1.58921 3:0.0279358 
-0.5 1:-0.0189231 2:1.89399 3:2.92154 
0.5 1:-2.83368 2:-1.60862 3:-0.0332523 
-0.5 1:0.261566 2:1.91091 3:2.22625 
0.5 1:-4.00522 2:-4.44678 3:-4.08922 
-0.009958266640204865 1:5.12736 2:2.73144 3:-2.68958 
0.1756889373317883 1:9 2:8.54424 3:8.09265 
-0.5 1:1.92685 2:1.45549 3:-0.187328 
-0.5 1:0.517995 2:1.15167 3:-0.0778793 
-0.5 1:0.585091 2:0.916432 3:0.653742 
-0.5 1:-0.00622315 2:0.686053 3:0.976834 
-0.5 1:-0.390674 2:-5.15469 3:1.41286 
0.4397007118324 1:1.40639 2:-1.51914 3:-0.930228 
0.5 1:-1.0491 2:-1.24033 3:-0.409946 
0.5 1:2.36424 2:3.9607 3:8 
0.5 1:2.42267 2:1.0828 3:-0.16402 
-0.3725261382607007 1:-1.1769 2:-0.0157609 3:1.15461 
0.5 1:-1.0075 2:-0.600064 3:0.0561814 
0.2670947557367168 1:8.89768 2:8.79549 3:8.69355 
