svm_type epsilon_svr
kernel_type linear
nr_class 2
total_sv 9
rho -0.077297
SV
-0.4985753875599177 1:5.88357 2:6.60361 3:7.37384 
0.5 1:2.43296 2:2.89378 3:3.40708 
-0.3964386934257094 1:8.77685 2:8.88836 3:9 
0.5 1:4.42239 2:3.39228 3:2.49753 
0.5 1:3.9416 2:5.44693 3:7.16549 
-0.5 1:0.153287 2:0.228952 3:0.254798 
0.1064783696438351 1:0.641078 2:0.852905 3:1.1095 
-0.5 1:0.135508 2:0.127036 3:0.095815 
0.288535711341792 1:5.05917 2:4.48941 3:3.95555 
