svm_type epsilon_svr
kernel_type linear
nr_class 2
total_sv 3
rho 0.00526137
SV
0.04351304815170717 1:9 2:8.82663 3:8.65386 
-0.007936397800244268 1:1.7623 2:3.00627 3:4.69493 
-0.03557665035146289 1:1.46821 2:0.680099 3:0.32002 
