svm_type epsilon_svr
kernel_type linear
nr_class 2
total_sv 33
rho -0.0696872
SV
-0.5 1:1.81359 2:3.03005 3:4.6884 
-0.5 1:1.25017 2:1.75235 3:1.54424 
0.5 1:-2.75919 2:-2.49997 3:-1.41571 
0.5 1:-1.66411 2:-1.39147 3:-0.659614 
0.5 1:5.31099 2:5.73669 3:6.17607 
-0.5 1:4.31095 2:1.75496 3:-1.42596 
-0.5 1:0.863414 2:3.15001 3:4.19491 
-0.5 1:2.26883 2:3.9612 3:3.24855 
0.5 1:7.11438 2:8.04885 3:9 
0.3696953562882392 1:0.263496 2:-0.88451 3:-1.35512 
0.5 1:-5.77954 2:-5.13158 3:-2.59255 
0.5 1:-1.7814 2:-2.57526 3:-2.12138 
-0.5 1:0.735992 2:1.41512 3:0.941258 
0.5 1:1.16716 2:-1.07866 3:-2.82026 
-0.5 1:2.22358 2:0.614775 3:-1.12791 
0.5 1:0.20063 2:-1.7911 3:-2.53228 
-0.5 1:4.65941 2:4.58973 3:3.69805 
0.5 1:7.81818 2:8.40707 3:9 
-0.5 1:-0.949341 2:-5.26947 3:-3.75357 
-0.5 1:2.0289 2:1.9462 3:0.296954 
0.324708970386669 1:8.64948 2:8.82443 3:9 
0.5 1:-0.38898 2:-1.00721 3:-1.13151 
-0.5 1:0.892118 2:-0.861613 3:-1.22139 
-0.5 1:0.196347 2:-1.93649 3:0.137962 
0.5 1:4.19213 2:2.4007 3:0.652619 
0.5 1:3.80351 2:2.29757 3:0.724991 
0.07703102568779367 1:0.234433 2:1.79238 3:0.674585 
-0.2714353523627034 1:2.12852 2:3.38005 3:4.9994 
-0.5 1:3.36309 2:4.09827 3:7 
-0.5 1:1.53379 2:0.922875 3:-0.448168 
0.5 1:-1.39915 2:-0.9266 3:-0.134329 
-0.5 1:2.82295 2:3.98123 3:4.48097 
0.5 1:8.64457 2:8.82218 3:9 
