svm_type epsilon_svr
kernel_type linear
nr_class 2
total_sv 16
rho -0.0939382
SV
-0.470051052226666 1:3.64743 2:3.47902 3:3.42203 
-0.4998438039128706 1:7.48103 2:6.7609 3:6.08695 
0.5 1:0.637315 2:0.816232 3:1.03276 
0.4698948561395376 1:4.31818 2:3.19244 3:2.18956 
-0.5 1:-0.0370179 2:0.0349382 3:0.093122 
0.5 1:3.55907 2:2.64465 3:1.89151 
0.5 1:0.675382 2:1.0121 3:1.44922 
-0.5 1:0.0924074 2:0.0692069 3:0.0309357 
-0.5 1:0.0513863 2:0.0201957 3:-0.0144499 
-0.5 1:0.391642 2:-0.115349 3:-0.295707 
-0.5 1:3.6733 2:3.50851 3:3.45476 
-0.5 1:7.48519 2:6.76736 3:6.09596 
0.5 1:4.68231 2:3.28205 3:2.15598 
0.5 1:0.82455 2:1.11572 3:1.47922 
0.5 1:3.92506 2:3.36246 3:2.8482 
0.5 1:4.91611 2:5.6637 3:6.456 
