svm_type epsilon_svr
kernel_type linear
nr_class 2
total_sv 3
rho -0.0757427
SV
-0.0387909107972586 1:0.672948 2:0.344631 3:0.16531 
0.003312747343270219 1:8.76753 2:8.8837 3:9 
0.03547816345398838 1:9 2:8.81074 3:8.62172 
