svm_type epsilon_svr
kernel_type linear
nr_class 2
total_sv 9
rho -0.233012
SV
0.5 1:4.21349 2:4.16382 3:4.20028 
-0.09568238949088166 1:8.15404 2:8.1391 3:8.09479 
-0.5 1:5.07752 2:5.18716 3:5.2844 
-0.5 1:4.57826 2:4.55076 3:4.51663 
-0.5 1:2.74329 2:2.91443 3:3.08576 
-0.331334200728676 1:4.0805 2:4.08106 3:4.08222 
0.5 1:3.64558 2:3.48665 3:3.44579 
0.5 1:3.00043 2:2.9512 3:2.96838 
0.4270165902195578 1:7.71957 2:8.02899 3:8.34752 
