svm_type epsilon_svr
kernel_type linear
nr_class 2
total_sv 23
rho -0.276064
SV
0.5 1:8.16982 2:7.76574 3:7.3746 
0.5 1:1.88427 2:2.64453 3:3.72416 
-0.5 1:3.94872 2:3.66667 3:3.38462 
0.5 1:4.69503 2:4.88711 3:5.13602 
-0.2007332807583152 1:3.94872 2:3.66667 3:3.38462 
0.5 1:5.03012 2:5.29587 3:5.62728 
0.5 1:1.41619 2:1.54075 3:2.07345 
0.5 1:5.15086 2:4.94907 3:4.83345 
0.5 1:2.84722 2:1.81022 3:1.20935 
-0.5 1:4.23462 2:4.22434 3:4.2147 
-0.2184578479553798 1:4.22962 2:4.22768 3:4.22679 
-0.5 1:5.30984 2:5.14205 3:4.97133 
-0.5 1:4.07158 2:4.22338 3:4.36886 
-0.5 1:4.00051 2:3.96448 3:3.93094 
-0.5 1:4.01279 2:4.01321 3:4.0163 
-0.5 1:4.09321 2:4.09377 3:4.09374 
-0.5 1:4.16255 2:4.16097 3:4.16078 
-0.5 1:4.19557 2:4.19941 3:4.20467 
-0.5 1:8.61361 2:8.66797 3:8.6696 
0.5 1:3.45631 2:3.10364 3:2.83276 
0.5 1:3.59005 2:3.44453 3:3.33848 
0.4191911287136953 1:7.90652 2:8.44429 3:9 
0.5 1:8.11406 2:7.25309 3:6.44053 
