svm_type epsilon_svr
kernel_type linear
nr_class 2
total_sv 8
rho -0.243169
SV
0.1019967394499665 1:2.72582 2:2.65907 3:2.75954 
0.5 1:2.75493 2:2.72164 3:2.88154 
-0.5 1:3.10556 2:3.44866 3:3.79316 
0.5 1:2.15517 2:2.39098 3:2.85109 
0.1662241543475698 1:11.1449 2:11.2186 3:11.1449 
-0.5 1:3.28571 2:3.42857 3:3.57143 
-0.2434621176681719 1:3.88252 2:3.7728 3:3.66557 
-0.0247587761293643 1:3.26824 2:3.26741 3:3.28487 
