svm_type epsilon_svr
kernel_type linear
nr_class 2
total_sv 4
rho -0.111966
SV
0.04540313413547968 1:8.13914 2:7.7129 3:7.28526 
-0.4300112785950412 1:2.85772 2:3.00023 3:3.14294 
0.5 1:3.88127 2:4.27444 3:4.87279 
-0.1153918555404378 1:7.39129 2:7.82595 3:8.2597 
