svm_type epsilon_svr
kernel_type linear
nr_class 2
total_sv 7
rho -0.258879
SV
0.5 1:1.39543 2:1.572 3:2.01452 
0.05146015953709179 1:8 2:7.31369 3:6.65095 
-0.5 1:3.42857 2:3.25714 3:3.08571 
-0.2444777554977313 1:4.73608 2:4.62223 3:4.49665 
-0.5 1:3.94475 2:4.02267 3:4.09843 
0.5 1:4.75455 2:4.50458 3:4.3071 
0.1930175959606393 1:8.69708 2:8.39673 3:8.10146 
