svm_type epsilon_svr
kernel_type linear
nr_class 2
total_sv 3
rho -0.184644
SV
-0.03375723972867636 1:2.60773 2:2.79181 3:2.97711 
-0.01640155448148741 1:3.88317 2:3.50776 3:3.21319 
0.05015879421016378 1:9.62477 2:9.50039 3:9.33043 
