svm_type epsilon_svr
kernel_type linear
nr_class 2
total_sv 20
rho -0.26426
SV
0.1061054759328321 1:8.25661 2:7.89372 3:7.54122 
0.4424029723685424 1:6.62741 2:6.84284 3:7.07435 
0.5 1:2.66689 2:2.33864 3:2.05612 
-0.5 1:3.57895 2:3.78947 3:4 
0.5 1:5.14171 2:5.09949 3:5.11803 
0.5 1:4.04498 2:6.28695 3:9 
-0.5 1:2 2:2.14286 3:2.28571 
-0.5 1:4.19562 2:4.31107 3:4.4215 
-0.5 1:4.35097 2:4.30206 3:4.25037 
-0.04850844830137472 1:4.0031 2:4.01586 3:4.02968 
-0.5 1:4.08519 2:4.08741 3:4.0895 
0.5 1:1.50593 2:1.78419 3:2.12955 
0.5 1:1.59152 2:1.19312 3:1.23099 
-0.5 1:3.375 2:3.1875 3:3 
-0.5 1:2.89362 2:3.06383 3:3.23404 
-0.5 1:2.7234 2:2.55319 3:2.38298 
0.5 1:2.93357 2:2.57237 3:2.26114 
-0.5 1:9.28603 2:9.40606 3:9.49366 
0.5 1:7.82386 2:7.45143 3:7.09528 
0.5 1:4.55497 2:2.73136 3:1.76136 
