svm_type epsilon_svr
kernel_type linear
nr_class 2
total_sv 19
rho -0.153408
SV
0.5 1:4.44139 2:4.99836 3:5.65606 
-0.5 1:7.15796 2:7.09077 3:6.99979 
0.5 1:3.82338 2:4.00608 3:4.29159 
0.5 1:4.02303 2:4.27794 3:4.65164 
0.5 1:4.01141 2:4.46849 3:5.0282 
0.5 1:4.09552 2:4.55256 3:5.10797 
-0.5 1:1.79589 2:1.93633 3:2.14269 
-0.5 1:4.67918 2:4.742 3:4.7956 
-0.02149786364184904 1:2.58602 2:2.75025 3:2.91785 
-0.5 1:4.71952 2:4.65104 3:4.5695 
-0.1134768523634762 1:4.53234 2:4.53859 3:4.5335 
0.5 1:3.67424 2:3.88127 3:4.27444 
-0.5 1:4.15776 2:4.02185 3:4.41133 
0.5 1:5.84795 2:5.21714 3:4.65384 
-0.5 1:7.08946 2:7.09965 3:7.08946 
0.1349747160053264 1:3.58558 2:3.92097 3:4.31928 
-0.5 1:3.67781 2:3.41919 3:3.15745 
-0.5 1:2.64051 2:2.39528 3:2.17675 
0.5 1:7 2:4.3925 3:2.46039 
