svm_type epsilon_svr
kernel_type linear
nr_class 2
total_sv 3
rho -0.155232
SV
0.04768081489539665 1:9.85538 2:10.0998 3:10.157 
-0.04653824735937914 1:3.07204 2:3.06121 3:3.09416 
-0.001142567536017515 1:6.73096 2:7.70072 3:9 
