svm_type epsilon_svr
kernel_type linear
nr_class 2
total_sv 25
rho -0.190294
SV
0.2343964711776063 1:11.7543 2:10.8014 3:9.74514 
-0.5 1:7.0857 2:7.03938 3:6.9639 
-0.5 1:6.83347 2:6.71144 3:6.56924 
-0.5 1:10.6443 2:10.6723 3:10.6443 
0.4575260133157756 1:5.90435 2:5.95419 3:6.04643 
-0.5 1:4.3495 2:4.17366 3:3.96446 
-0.5 1:3.36271 2:3.56624 3:3.75352 
0.5 1:4.49402 2:4.23615 3:4.08273 
0.5 1:6.03662 2:5.69474 3:5.43779 
-0.5 1:4.82472 2:4.7962 3:4.75812 
-0.5 1:5.31795 2:5.33188 3:5.31795 
-0.5 1:5.29107 2:5.25142 3:5.18697 
-0.5 1:4.31998 2:4.35072 3:4.37336 
0.5 1:3.96987 2:3.92124 3:3.9856 
0.5 1:5.70016 2:5.87285 3:6.10381 
0.5 1:6.00735 2:6.08744 3:6.21191 
0.5 1:5.27716 2:5.49727 3:5.74408 
0.5 1:5.67525 2:5.05876 3:4.49399 
-0.5 1:6.37847 2:6.38416 3:6.3786 
-0.5 1:3.51553 2:3.68025 3:3.81808 
-0.5 1:3.88102 2:3.94229 3:3.96342 
0.3080775155066183 1:5.69102 2:7.17274 3:9 
0.5 1:4.14694 2:3.77931 3:3.50416 
0.5 1:7.51746 2:7.17528 3:6.85125 
0.5 1:3.39073 2:3.88167 3:4.51229 
