svm_type epsilon_svr
kernel_type linear
nr_class 2
total_sv 9
rho -0.211695
SV
0.5 1:5.33664 2:5.62299 3:5.94776 
-0.4247768221952573 1:3.5627 2:3.53459 3:3.5232 
-0.4546752530150787 1:4.04669 2:4.09414 3:4.13887 
0.5 1:3.13495 2:3.29304 3:3.50703 
-0.5 1:3.77746 2:3.58592 3:3.37482 
0.1490709141467169 1:7.50552 2:6.82766 3:6.22734 
-0.1234749008973441 1:4.84424 2:4.7339 3:6.01875 
-0.1461439380390369 1:7.04483 2:7.15409 3:7.22227 
0.5 1:3.68046 2:3.29919 3:3.03076 
