svm_type epsilon_svr
kernel_type linear
nr_class 2
total_sv 33
rho -0.205488
SV
-0.4058660822206956 1:5.63832 2:5.2849 3:6.28378 
-0.5 1:8.08632 2:8.16935 3:8.22682 
0.5 1:5.14533 2:4.92589 3:4.74364 
-0.5 1:6.2412 2:6.21067 3:6.16829 
0.5 1:4.65875 2:5.35449 3:6.15035 
0.5 1:5.05335 2:5.36527 3:5.72663 
0.5 1:5.1635 2:6.01116 3:6.97451 
0.5 1:5.53176 2:5.93597 3:6.39731 
-0.2481032734814928 1:9.16307 2:9.01933 3:8.81538 
0.5 1:2.69342 2:3.05506 3:3.57711 
0.5 1:3.62457 2:3.85091 3:4.14349 
-0.5 1:6.20534 2:6.09218 3:5.96573 
0.5 1:4.97122 2:4.86781 3:4.83208 
0.5 1:5.55382 2:5.70294 3:5.90735 
0.5 1:5.31167 2:5.05676 3:4.8413 
-0.5 1:2.89471 2:3.15767 3:3.4201 
-0.5 1:3.62646 2:3.57481 3:3.54248 
-0.0007126225016623772 1:3.81043 2:3.73225 3:3.67161 
-0.5 1:3.69657 2:3.6577 3:3.63027 
-0.5 1:3.88087 2:3.8806 3:3.88747 
0.5 1:6.4423 2:5.07255 3:4.02691 
0.5 1:2.51681 2:2.13829 3:1.87726 
-0.5 1:4.61183 2:4.70017 3:4.77986 
0.5 1:2.98955 2:2.70485 3:2.62202 
-0.5 1:4.01904 2:4.09219 3:4.16189 
-0.2161835551196341 1:3.40491 2:3.57473 3:3.74478 
-0.5 1:3.42022 2:3.15772 3:2.89475 
-0.5 1:3.59288 2:3.57784 3:3.5517 
-0.5 1:3.42614 2:3.45163 3:3.4777 
-0.5 1:3.71902 2:3.66736 3:3.62632 
0.5 1:4.59681 2:4.60914 3:4.65474 
-0.1291344666765171 1:4.80004 2:4.5002 3:4.20071 
0.5 1:5.79441 2:4.68255 3:3.74037 
