svm_type epsilon_svr
kernel_type linear
nr_class 2
total_sv 3
rho -0.196127
SV
0.04888564956412025 1:9.88283 2:9.94253 3:9.89106 
-0.0609486705817499 1:3.57447 2:3.40426 3:3.23404 
0.01206302101762966 1:5.26628 2:3.76711 3:2.65763 
