svm_type epsilon_svr
kernel_type linear
nr_class 2
total_sv 15
rho -0.187199
SV
-0.5 1:3.82979 2:3.6383 3:3.44681 
0.5 1:3.30629 2:3.5217 3:3.81729 
0.5 1:4.60158 2:4.92103 3:5.28191 
-0.5 1:8.38017 2:8.5325 3:8.6409 
0.5 1:8 2:4.02352 3:1.90896 
-0.5 1:3.90698 2:3.76744 3:3.62791 
0.06608151990071205 1:5.35294 2:6.11765 3:6.88235 
-0.1109020061989898 1:2.78869 2:2.64669 3:2.51983 
-0.5 1:10.7319 2:10.5972 3:10.3634 
-0.5 1:7 2:1.78747 3:1.46324 
0.4590445613656078 1:6 2:2.24548 3:1.10638 
0.08577592493267051 1:8.00772 2:8.30049 3:8.6384 
-0.5 1:3.72742 2:3.20649 3:2.80414 
0.5 1:7.69598 2:8.1103 3:8.54893 
0.5 1:7.73612 2:8.04167 3:8.3561 
