svm_type epsilon_svr
kernel_type linear
nr_class 2
total_sv 6
rho -0.136407
SV
0.1068888409794203 1:8 2:6.61679 3:5.34499 
-0.2467004838456539 1:1.24834 2:1.36957 3:1.5913 
0.5 1:1.96881 2:2.29284 3:2.76918 
-0.01342297366953273 1:5.10827 2:5.24819 3:5.36788 
-0.08294121542848762 1:4.93833 2:5.00764 3:5.05827 
-0.2638241680357462 1:2.83868 2:2.51478 3:2.86035 
