svm_type epsilon_svr
kernel_type linear
nr_class 2
total_sv 5
rho 0.0245787
SV
0.1978433043968271 1:8.66661 2:7.58382 3:6.50633 
-0.07827334282232402 1:6.19666 2:7.55368 3:9 
0.4000445821118293 1:4.1654 2:3.39522 3:2.74223 
-0.5 1:5.27696 2:3.2102 3:2.76769 
-0.01961454368633263 1:5.20047 2:3.07591 3:2.58306 
