svm_type epsilon_svr
kernel_type linear
nr_class 2
total_sv 6
rho -0.0965128
SV
-0.01704808839959987 1:10.3543 2:10.2224 3:10.0377 
-0.5 1:5.82857 2:5.48571 3:5.14286 
0.5 1:7.28847 2:5.70681 3:4.35953 
-0.462239824500388 1:5.67508 2:5.67655 3:5.64635 
-0.02071208710001197 1:2.91429 2:2.74286 3:2.57143 
0.5 1:5.15818 2:6.02406 3:7 
