svm_type epsilon_svr
kernel_type linear
nr_class 2
total_sv 17
rho -0.261037
SV
0.5 1:3.35917 2:3.53212 3:3.94333 
0.4072843216444861 1:2.47869 2:2.59027 3:2.8232 
0.5 1:3.49623 2:3.60166 3:3.88338 
0.5 1:9 2:8.84227 3:8.68519 
-0.5 1:4.56043 2:4.69576 3:4.82698 
-0.5 1:5.19786 2:5.26815 3:5.3228 
-0.5 1:4.64067 2:4.71498 3:4.78036 
-0.5 1:4.43001 2:4.43767 3:4.44015 
-0.5 1:4.01542 2:4.0326 3:4.05308 
-0.2273676842553992 1:4.24756 2:4.24875 3:4.24974 
-0.5 1:4.22026 2:4.22486 3:4.22923 
0.5 1:3.73074 2:4.03302 3:4.41318 
-0.5 1:2.2608 2:2.28073 3:2.50554 
0.5 1:3.69999 2:3.90001 3:4.3701 
0.5 1:7.08161 2:6.80617 3:6.54978 
0.5 1:2.11834 2:1.68734 3:1.66176 
-0.1799166373890884 1:7.2351 2:7.39775 3:7.5055 
