svm_type epsilon_svr
kernel_type linear
nr_class 2
total_sv 13
rho -0.24814
SV
0.5 1:4.51005 2:4.46047 3:4.49332 
0.5 1:4.6668 2:4.28531 3:3.97698 
0.5 1:3.67348 2:3.63386 3:3.63588 
0.2353427074164168 1:9 2:8.86189 3:8.72425 
-0.5 1:4.16679 2:4.24078 3:4.31138 
-0.5 1:4.47028 2:4.45556 3:4.4356 
0.1893298235686777 1:6.20701 2:5.92903 3:5.69044 
-0.4246725309850948 1:4.22849 2:4.21153 3:4.19005 
0.5 1:5.9547 2:5.94918 3:5.98502 
-0.5 1:8.49613 2:8.59251 3:8.64339 
-0.5 1:3.23404 2:3.06383 3:2.89362 
0.5 1:6.78345 2:7.30455 3:7.85361 
-0.5 1:7.5766 2:7.62193 3:7.5766 
