svm_type epsilon_svr
kernel_type linear
nr_class 2
total_sv 16
rho -0.254117
SV
0.5 1:5.8735 2:6.31706 3:6.80105 
0.5 1:3.86997 2:2.87485 3:2.11117 
0.5 1:1.91323 2:1.62619 3:1.57482 
0.5 1:3.0129 2:2.63954 3:2.42016 
-0.5 1:3.70412 2:3.83659 3:3.96778 
-0.5 1:4.76653 2:4.67715 3:4.57986 
-0.5 1:4.64473 2:4.60426 3:4.55643 
-0.5 1:4.5121 2:4.51436 3:4.51034 
-0.5 1:2.4 2:2.57143 3:2.74286 
-0.5 1:3.42878 2:3.333 3:3.2498 
-0.0457174156228202 1:3.78134 2:3.43839 3:3.0999 
0.5 1:2.09238 2:1.95419 3:1.90798 
-0.5 1:4.58333 2:4.16668 3:3.75017 
0.5 1:7.59883 2:7.8646 3:8.1399 
0.1458615519393587 1:7.7204 2:7.92003 3:8.12698 
0.3998558636834615 1:3.31465 2:3.48914 3:3.75363 
