svm_type epsilon_svr
kernel_type linear
nr_class 2
total_sv 3
rho -0.174177
SV
0.08191803510946882 1:10.502 2:10.4269 3:10.3046 
-0.5 1:2.7234 2:2.89362 3:3.06383 
0.4180819648905312 1:1.92922 2:2.14082 3:2.51525 
