svm_type epsilon_svr
kernel_type linear
nr_class 2
total_sv 6
rho -0.208067
SV
0.4140225833996997 1:7.32975 2:6.54734 3:5.82462 
-0.5 1:5.4537 2:5.39049 3:5.30948 
-0.1685511127285025 1:4.94129 2:4.89674 3:4.84165 
-0.5 1:4.45181 2:4.28326 3:4.11322 
0.5 1:3.99174 2:4.58279 3:5.41358 
0.2545285293288017 1:4.51592 2:3.56849 3:2.90035 
