svm_type epsilon_svr
kernel_type linear
nr_class 2
total_sv 22
rho -0.170982
SV
-0.5 1:2.60526 2:2.89474 3:3.18421 
-0.5 1:2.60526 2:2.89474 3:3.18421 
-0.5 1:3.57895 2:3.78947 3:4 
0.5 1:4.32767 2:6.48193 3:9 
-0.5 1:7.53391 2:7.59959 3:7.64718 
0.2399203626739946 1:8.44802 2:8.1771 3:7.91216 
0.5 1:6.01107 2:5.85537 3:5.76491 
-0.5 1:4.82486 2:4.9496 3:5.06651 
-0.413344872063671 1:4.90608 2:4.83624 3:4.75672 
-0.3265754906103231 1:7.84679 2:8.12339 3:8.38323 
-0.5 1:4.95979 2:4.96884 3:4.95981 
0.5 1:2.6307 2:2.59786 3:2.62585 
-0.5 1:4.92814 2:5.44042 3:6 
0.5 1:4.47866 2:5.68539 3:7 
-0.5 1:6.21887 2:6.33079 3:6.43254 
-0.5 1:4.35205 2:4.78378 3:5.21767 
0.5 1:3.85272 2:3.45497 3:3.16281 
0.5 1:3.08374 2:3.20554 3:3.42322 
0.5 1:4.24345 2:4.21842 3:4.22935 
0.5 1:4.54485 2:4.48405 3:4.45136 
0.5 1:7.17683 2:6.95683 3:6.75187 
0.5 1:7 2:6.43493 3:5.89047 
