svm_type epsilon_svr
kernel_type linear
nr_class 2
total_sv 3
rho -0.171722
SV
-0.0445524545996929 1:2.4186 2:2.60465 3:2.7907 
0.0005682223399426207 1:2.77046 2:3.93738 3:5.75715 
0.04398423225975029 1:9.82833 2:9.97684 3:10.0678 
