svm_type epsilon_svr
kernel_type linear
nr_class 2
total_sv 27
rho -0.210083
SV
0.5 1:6.30706 2:6.63446 3:6.98716 
-0.5 1:6.59922 2:6.74072 3:6.86725 
-0.07426787487095839 1:9.87008 2:9.96326 3:10.0125 
0.5 1:5.17361 2:5.19732 3:5.28399 
0.5 1:2.74712 2:2.70625 3:2.73329 
0.5 1:6.51072 2:6.87931 3:7.27238 
-0.5 1:3.17277 2:3.34961 3:3.52434 
-0.5 1:3.56664 2:3.59541 3:3.62005 
0.2348207341542178 1:7.37432 2:6.7772 3:6.23493 
-0.5 1:4.96433 2:4.84498 3:4.71942 
-0.5 1:4.25252 2:4.35109 3:4.44424 
-0.5 1:4.15911 2:4.22986 3:4.29749 
-0.5 1:5.33015 2:5.37516 3:5.39041 
-0.5 1:4.62089 2:4.67009 3:4.70579 
-0.4961988052491498 1:4.20487 2:4.18427 3:4.15992 
0.5 1:4.53845 2:4.51504 3:4.55728 
0.5 1:6.0867 2:6.45595 3:6.88477 
0.5 1:7.2958 2:6.9297 3:6.60066 
-0.5 1:8.16644 2:8.14385 3:8.09745 
0.5 1:5.02823 2:5.18992 3:5.37871 
0.5 1:2.52193 2:2.49883 3:2.52821 
0.5 1:7 2:5.21773 3:3.77547 
-0.5 1:2.89474 2:2.63169 3:2.3691 
-0.16435405403411 1:9 2:4.59823 3:2.96859 
0.5 1:2.77345 2:2.57496 3:2.47976 
0.5 1:4.25492 2:4.53937 3:4.90898 
-0.5 1:6.70168 2:6.86717 3:7.00431 
