svm_type epsilon_svr
kernel_type linear
nr_class 2
total_sv 6
rho -0.107495
SV
-0.5 1:6.42856 2:4.86031 3:4.52118 
0.1680170058373623 1:8 2:7.13996 3:6.31666 
0.5 1:1.23816 2:0.8 3:1 
-0.3019324026849357 1:0.685714 2:0.857143 3:1.02857 
-0.2088932888579944 1:6.49615 2:6.49624 3:6.94999 
0.3428086857055673 1:8.84885 2:8.50056 3:8.04348 
