svm_type epsilon_svr
kernel_type linear
nr_class 2
total_sv 4
rho 0.0144426
SV
-0.06599036197430258 1:7.59984 2:8.28827 3:9 
0.1709433985047908 1:8.4204 2:7.74857 3:7.06411 
0.3723216146295598 1:5.98762 2:5.07132 3:4.32831 
-0.4772746511600479 1:6.26801 2:4.52273 3:3.99403 
