svm_type epsilon_svr
kernel_type linear
nr_class 2
total_sv 3
rho -0.178951
SV
-0.07737453259347894 1:7.43182 2:7.22117 3:7.44603 
-0.03102976110830914 1:3.24314 2:3.57514 3:3.9946 
0.1084042937017882 1:9.06956 2:9.38406 3:9.42063 
