svm_type epsilon_svr
kernel_type linear
nr_class 2
total_sv 10
rho -0.206361
SV
0.5 1:5.17869 2:4.19695 3:3.41879 
0.03569947114155492 1:5.65132 2:5.47072 3:5.31635 
0.5 1:2.69664 2:2.71153 3:2.82652 
0.5 1:5.56729 2:5.45383 3:5.39195 
-0.4101786572901467 1:7.95331 2:8.055 3:8.13032 
-0.5 1:3.71951 2:3.70231 3:3.67484 
-0.5 1:4.60514 2:4.63126 3:4.64945 
-0.1255208138514085 1:2.65574 2:2.78955 3:2.95689 
-0.5 1:3.54096 2:3.51596 3:3.49024 
0.5 1:5.94393 2:6.89515 3:7.92692 
