svm_type epsilon_svr
kernel_type linear
nr_class 2
total_sv 4
rho -0.094285
SV
0.02540203830933397 1:9.94679 2:10.2053 3:10.2606 
0.02825989836023226 1:5.20517 2:5.7148 3:6.28736 
-0.1975346789047564 1:3.28306 2:2.8033 3:2.99898 
0.1438727422351901 1:3.65185 2:3.50172 3:3.40415 
