svm_type epsilon_svr
kernel_type linear
nr_class 2
total_sv 18
rho -0.217127
SV
0.5 1:1.46476 2:1.73684 3:2.02632 
0.5 1:1.46724 2:1.73684 3:2.02632 
-0.5 1:2.73684 2:2.94737 3:3.15789 
0.5 1:1.4 2:1.30689 3:1.43616 
-0.5 1:2.40169 2:2.6003 3:2.80004 
0.5 1:5.84662 2:5.50995 3:5.21257 
-0.02816421493080854 1:2.60015 2:2.44814 3:2.40545 
0.2326073873647731 1:9.85714 2:10.2856 3:10.7123 
-0.5 1:1.54286 2:1.37143 3:1.2 
-0.5 1:2.05856 2:1.89084 3:1.73055 
0.5 1:3.17396 2:2.95869 3:2.88741 
0.5 1:1.875 2:1.6875 3:1.5 
-0.5 1:3.80952 2:3.42857 3:3.04762 
-0.5 1:2.89474 2:3.15789 3:3.42105 
-0.5 1:3.57057 2:3.52531 3:3.47589 
0.2955568275660352 1:3.33348 2:2.67489 3:2.17623 
0.5 1:1.75531 2:1.27933 3:1.5256 
-0.5 1:3.52941 2:3.29412 3:3.05882 
