svm_type epsilon_svr
kernel_type linear
nr_class 2
total_sv 13
rho -0.19266
SV
0.06470450717145125 1:10.8333 2:9.75 3:8.66667 
0.5 1:9.88879 2:9.66149 3:9.35168 
0.5 1:5.20987 2:5.38192 3:5.58562 
0.5 1:0.938631 2:1.03448 3:1.37931 
-0.5 1:2.2 2:2.4 3:2.6 
-0.5 1:2.6514 2:2.51236 3:2.37414 
-0.5 1:5.52657 2:5.50498 3:5.46124 
-0.5 1:11 2:11 3:10.6562 
0.5 1:1.94422 2:2.01041 3:2.11737 
0.2035909527963619 1:6 2:4.51124 3:3.34553 
-0.5 1:2.91667 2:2.70833 3:2.5 
0.03363693374641025 1:5.77997 2:5.63924 3:5.5229 
0.1980676062857752 1:7.19275 2:7.46832 3:7.75758 
