svm_type epsilon_svr
kernel_type linear
nr_class 2
total_sv 14
rho -0.0937794
SV
-0.3200304247970833 1:-0.181224 2:0.017378 3:0.210245 
-0.5 1:-1.60551 2:0.58759 3:2.57145 
0.5 1:-2.07835 2:-0.611285 3:1.09675 
-0.1872424831539942 1:1.35794 2:-0.24307 3:-1.63841 
0.5 1:-2.18812 2:-0.76569 3:1.12163 
-0.5 1:0.656413 2:0.610789 3:0.0973983 
-0.5 1:-0.223586 2:0.945917 3:1.70507 
-0.5 1:0.222365 2:0.250449 3:0.223993 
0.007272907951079227 1:6.58786 2:7.78644 3:9 
0.5 1:1.67848 2:1.02089 3:0.599082 
-0.5 1:0.466128 2:1.84568 3:2.91994 
0.5 1:-0.538522 2:-0.718134 3:-0.599979 
0.5 1:-0.625728 2:-0.634128 3:-0.420093 
0.5 1:4.72161 2:5.45777 3:6.22174 
