svm_type epsilon_svr
kernel_type linear
nr_class 2
total_sv 24
rho -0.0701332
SV
0.5 1:0.705425 2:-0.641059 3:-1.77598 
0.5 1:9 2:8.85976 3:8.71966 
0.5 1:-3.08374 2:-4.72042 3:-4.48578 
0.5 1:1.98783 2:4.02576 3:3.15071 
0.5 1:9 2:8.77081 3:8.54252 
-0.5 1:-1.68193 2:-1.12955 3:0.28789 
-0.5 1:5.90866 2:6.48164 3:4.66603 
-0.4971675129356075 1:6.30314 2:4.51277 3:1.74638 
-0.5 1:4.33291 2:3.87521 3:2.57361 
-0.5 1:5.35679 2:4.77113 3:3.33097 
0.5 1:-0.154869 2:-1.17907 3:-1.62493 
0.5 1:-0.905438 2:-1.60894 3:-1.26953 
-0.5 1:1.63043 2:1.17629 3:0.0337615 
0.5 1:1.33351 2:2.31641 3:-0.158729 
-0.5 1:-1.27341 2:0.632078 3:2.01695 
0.5 1:1.79142 2:3.64568 3:2.96137 
0.3117782856851206 1:-1.1521 2:-0.946139 3:-0.413715 
0.5 1:2.31899 2:1.12325 3:0.0395671 
-0.5 1:0.341805 2:0.244828 3:0.107354 
-0.5 1:1.42528 2:1.01866 3:0.0158904 
-0.5 1:0.56823 2:0.854524 3:0.786498 
0.005235374355130903 1:8.76787 2:8.53604 3:8.30483 
0.1801538528953559 1:8.83464 2:8.66948 3:8.50472 
-0.5 1:0.761302 2:0.73654 3:0.453421 
