svm_type epsilon_svr
kernel_type linear
nr_class 2
total_sv 21
rho -0.0416863
SV
-0.5 1:-0.105024 2:0.982168 3:1.67125 
-0.5 1:0.213562 2:1.08469 3:1.5997 
0.5 1:2.80178 2:3.48269 3:4.25094 
-0.5 1:4.25528 2:5.32882 3:4.50479 
-0.5 1:-1.36002 2:1.28361 3:3.42126 
-0.5 1:-2.33303 2:-3.19036 3:-1.34416 
0.2689683289389886 1:3.19884 2:3.97449 3:2.33704 
-0.5 1:5.28183 2:2.88882 3:-0.568758 
-0.5 1:3.22918 2:2.86227 3:1.15738 
0.5 1:-0.54409 2:-2.16562 3:-3.31553 
0.5 1:-4.70655 2:-4.49785 3:-3.4836 
0.01166203410547758 1:9 2:8.46505 3:7.93306 
0.3255181293926134 1:9 2:8.79687 3:8.59405 
-0.06195937289171891 1:-0.212395 2:-1.90297 3:-2.05778 
-0.5 1:1.09394 2:0.581928 3:-0.215457 
0.5 1:0.866403 2:1.52505 3:2.50308 
0.5 1:-1.2834 2:-2.40229 3:-3.12381 
-0.5 1:0.494675 2:0.599999 3:0.46751 
0.4558108804546395 1:7.43712 2:8.21387 3:9 
0.5 1:-0.278489 2:-0.500691 3:-0.547265 
0.5 1:0.678164 2:0.43048 3:0.285418 
