svm_type epsilon_svr
kernel_type linear
nr_class 2
total_sv 15
rho -0.0867508
SV
-0.5 1:0.219518 2:0.495191 3:0.570144 
0.4527206679521839 1:6.23762 2:6.90526 3:7.59238 
0.07963064721745594 1:9 2:8.44829 3:7.89989 
0.5 1:-2.15764 2:-2.66154 3:-2.18461 
0.5 1:0.547495 2:1.41274 3:2.86526 
-0.5 1:0.872508 2:0.771524 3:0.309887 
0.5 1:1.41969 2:0.36002 3:-0.516901 
-0.5 1:0.784574 2:1.18151 3:0.753634 
0.5 1:-2.53769 2:-2.85393 3:-2.63614 
-0.5 1:0.0901386 2:0.251604 3:0.289684 
0.5 1:-0.0661136 2:0.315739 3:0.84251 
-0.5 1:-0.539306 2:-0.0856835 3:0.495851 
-0.5 1:-0.246602 2:0.122405 3:0.390591 
0.4676486848303604 1:-0.548379 2:-0.536979 3:-0.340293 
-0.5 1:1.22754 2:1.74318 3:1.97048 
