svm_type epsilon_svr
kernel_type linear
nr_class 2
total_sv 28
rho -0.105421
SV
-0.5 1:0.375079 2:0.95364 3:1.1457 
-0.5 1:0.000355226 2:0.000250151 3:9.53776e-05 
-0.5 1:1.47204 2:3.29428 3:3.94347 
-0.5 1:0.0145938 2:0.0119516 3:0.00684514 
0.5 1:0.200114 2:-1.74563 3:-2.81354 
0.3726285331054513 1:0.244488 2:1.78877 3:1.82003 
-0.5 1:0.000171275 2:0.000954888 3:0.00247187 
0.5 1:-2.48174 2:-2.37961 3:-0.832698 
0.5 1:2.19034 2:2.97283 3:3.92037 
0.5 1:-0.0326249 2:-0.663848 3:-0.560172 
-0.5 1:0.00977945 2:0.00520418 3:0.00267728 
0.5 1:-3.76074 2:-4.28517 3:-3.23045 
-0.5 1:0.0144699 2:0.00917987 3:0.0030393 
-0.3996748694103416 1:0.0186618 2:0.0106256 3:0.00700242 
-0.5 1:0.0013348 2:0.00256607 3:0.00480488 
-0.5 1:5.38566e-05 2:5.31245e-05 3:0.000195071 
0.5 1:0.0124113 2:-1.16767 3:-2.09346 
-0.5 1:0.00997043 2:0.00741727 3:0.00371581 
0.5 1:-1.01075 2:-1.07016 3:-0.174641 
0.5 1:0.194469 2:-0.0717069 3:-0.104943 
0.5 1:4.82145 2:5.52625 3:6.25657 
0.5 1:0.200577 2:0.815435 3:1.4381 
-0.5 1:0.000286466 2:0.000638207 3:0.00145732 
-0.01296823099285546 1:4.59234 2:3.86854 3:3.20583 
0.04001456729774502 1:2.0648 2:2.4466 3:2.86768 
0.5 1:0.479941 2:-0.873286 3:-2.08206 
-0.5 1:0.569467 2:0.349267 3:-0.0157536 
0.5 1:3.40222 2:4.41085 3:5.6354 
