svm_type epsilon_svr
kernel_type linear
nr_class 2
total_sv 5
rho -0.00474058
SV
0.5 1:-2.69529 2:-1.8711 3:-0.429411 
0.02914852031081522 1:4.39303 2:0.749757 3:-3.02647 
-0.4615997337721321 1:-3.09065 2:-4.22705 3:-1.78716 
-0.06150617551480615 1:0.618662 2:4.11428 3:5.11192 
-0.00604261102387705 1:7.76452 2:8.37995 3:9 
