svm_type epsilon_svr
kernel_type linear
nr_class 2
total_sv 18
rho -0.0471423
SV
0.5 1:-1.25993 2:-0.713491 3:0.0684185 
-0.02315194664353151 1:8.77605 2:8.88796 3:9 
0.5 1:3.98687 2:2.73433 3:1.63411 
0.5 1:0.300358 2:0.535063 3:0.96293 
-0.5 1:0.319133 2:0.714388 3:0.846379 
-0.5 1:0.214597 2:0.446836 3:0.599048 
0.5 1:2.03866 2:2.48496 3:2.99564 
-0.1119092217965287 1:8.15524 2:8.43516 3:8.71708 
0.5 1:2.96937 2:4.04495 3:5.27169 
-0.5 1:-0.775637 2:1.3424 3:3.23839 
-0.5 1:0.368286 2:0.263796 3:0.115671 
0.5 1:3.57827 2:2.65209 3:1.88559 
-0.5 1:1.05959 2:0.830803 3:0.25818 
0.2585823819867464 1:-0.325964 2:-0.217526 3:-0.0188928 
-0.5 1:8.47577 2:8.73769 3:9 
-0.123521213546685 1:8.7774 2:8.88863 3:9 
0.5 1:3.97022 2:5.3785 3:7 
-0.5 1:0.327461 2:0.254527 3:0.0923121 
