svm_type epsilon_svr
kernel_type linear
nr_class 2
total_sv 9
rho -0.100473
SV
0.5 1:0.536676 2:-0.458703 3:-0.920863 
0.03988338069577251 1:4.12312 2:3.32236 3:2.61977 
0.4521571842735059 1:3.98227 2:5.07869 3:6.3053 
0.5 1:2.46845 2:2.06892 3:1.71527 
-0.5 1:5 2:4.90709 3:4.81432 
-0.5 1:3.61188e-06 2:7.07161e-06 3:1.47224e-05 
-0.3961886872895921 1:9.38041e-06 2:1.89877e-05 3:3.96563e-05 
-0.09584117298520603 1:6 2:5.88876 3:5.7777 
-1.070469448115021e-05 1:9 2:8.89414 3:8.78841 
