svm_type epsilon_svr
kernel_type linear
nr_class 2
total_sv 3
rho -0.124492
SV
0.03563032953722648 1:8.22247 2:8.2961 3:8.38425 
-0.0443305751154759 1:1 2:1 3:1 
0.008700245578249412 1:9 2:8.46003 3:7.94702 
