svm_type epsilon_svr
kernel_type linear
nr_class 2
total_sv 8
rho -0.106117
SV
0.3218382024867893 1:3.24633 2:4.08752 3:5 
-0.03865053070490123 1:1.00722 2:1.00722 3:1.00775 
0.5 1:6.00446 2:6.0141 3:6.05757 
0.5 1:1.10186 2:1.01233 3:1.00099 
-0.5 1:1.00199 2:1.00091 3:1.00042 
-0.1804224817908943 1:4.27681 2:4.68903 3:5.11697 
-0.5 1:4.77388 2:5.07294 3:5.37837 
-0.1027651899909935 1:5.64897 2:5.82397 3:6 
