svm_type epsilon_svr
kernel_type linear
nr_class 2
total_sv 3
rho -0.129367
SV
0.02628184926318399 1:9.49218 2:9.97078 3:10.2483 
-0.04803414244674906 1:1.89081 2:1.7268 3:1.70755 
0.02175229318356509 1:7.95381 2:6.94539 3:6.00812 
