svm_type epsilon_svr
kernel_type linear
nr_class 2
total_sv 16
rho -0.206104
SV
0.1747128679114821 1:7.12704 2:7.88721 3:9 
0.5 1:1.40355 2:1.39543 3:1.572 
0.5 1:6.85555 2:7.4166 3:8 
0.5 1:3.53404 2:2.34251 3:1.86613 
-0.5 1:8.45463 2:8.53727 3:8.56527 
0.5 1:4.37494 2:4.06467 3:3.82342 
0.5 1:1.97166 2:1.33885 3:1.04119 
-0.5 1:4.02833 2:3.89579 3:3.76213 
-0.5 1:2.0622 2:2.23034 3:2.40057 
-0.5 1:5.40582 2:5.35848 3:5.28235 
-0.5 1:2.53218 2:2.37492 3:2.82948 
0.5 1:2.74847 2:2.65129 3:2.60296 
-0.2534904340659397 1:3.50483 2:3.51416 3:3.52434 
-0.4212224338455425 1:4.37528 2:4.16746 3:3.96028 
0.5 1:9.86977 2:10.4774 3:10.5033 
-0.5 1:4.47059 2:4.2353 3:4.00003 
