svm_type epsilon_svr
kernel_type linear
nr_class 2
total_sv 34
rho -0.241379
SV
0.5 1:6.49822 2:7.29219 3:8.13377 
-0.5 1:4.09302 2:3.90698 3:3.72093 
0.5 1:5.30558 2:4.83651 3:4.47939 
-0.493321193255939 1:6.92025 2:7.10017 3:7.2562 
0.5 1:4.09106 2:4.37601 3:4.71553 
0.5 1:2.84187 2:2.65952 3:2.65557 
0.5 1:4.88077 2:4.95212 3:5.09985 
0.5 1:3.57398 2:3.92415 3:4.38072 
-0.5 1:3.94647 2:4.20554 3:4.45165 
-0.5 1:3.88578 2:3.68708 3:3.47238 
-0.5 1:3.57143 2:3.71429 3:3.85714 
-0.5 1:5.57946 2:5.64192 3:5.67508 
0.5 1:5.34049 2:4.70317 3:4.10843 
0.5 1:2.73242 2:2.90915 3:3.13883 
-0.5 1:3.88796 2:3.7617 3:3.63578 
0.5 1:1.43662 2:1.36912 3:1.41508 
-0.5 1:3.08768 2:2.9187 3:2.75211 
-0.5 1:4.23744 2:4.2478 3:4.25244 
0.5 1:3.80315 2:3.84662 3:4.02912 
0.3124183657008355 1:4.24527 2:4.24471 3:4.31693 
0.5 1:2.63535 2:2.46387 3:2.31679 
0.5 1:3.81969 2:2.3531 3:2.28357 
-0.5 1:2.5533 2:2.72342 3:2.89362 
-0.5 1:3.74468 2:3.91489 3:4.08511 
-0.5 1:3.82011 2:3.99602 3:4.13099 
-0.5 1:3.56193 2:3.66415 3:3.74225 
-0.5 1:3.62033 2:3.57753 3:3.54639 
-0.5 1:3.7702 2:3.81366 3:3.86504 
-0.5 1:3.76986 2:3.77251 3:3.78328 
0.5 1:7.47292 2:7.02785 3:6.63372 
0.5 1:4.2882 2:4.26879 3:4.28508 
0.5 1:5.42317 2:5.48262 3:5.56631 
-0.3190971724448966 1:9 2:6.79668 3:5.22285 
0.5 1:3.93504 2:3.64883 3:3.44065 
