svm_type epsilon_svr
kernel_type linear
nr_class 2
total_sv 23
rho -0.197399
SV
0.5 1:11.6808 2:12.4172 3:12.4469 
0.0007557445177854844 1:7.92058 2:7.57626 3:7.24486 
0.5 1:3.35196 2:2.92116 3:2.57637 
0.5 1:3.84933 2:4.76806 3:5.84153 
0.5 1:2.49756 2:2.42139 3:2.41941 
0.5 1:5.86109 2:6.83697 3:7.89649 
-0.5 1:3.62331 2:3.63619 3:3.65042 
0.5 1:1.88346 2:1.94631 3:2.09227 
-0.5 1:5.38537 2:5.34968 3:5.29664 
-0.5 1:3.59386 2:3.70877 3:3.8248 
-0.5 1:4.78023 2:4.80151 3:4.81305 
-0.5 1:4.58177 2:4.57667 3:4.5645 
-0.5 1:3.42833 2:3.59922 3:3.76975 
-0.5 1:3.98298 2:4.09898 3:4.20992 
0.5 1:3.41519 2:3.34671 3:3.4402 
0.5 1:2.97151 2:2.88509 3:2.8599 
-0.5 1:4.36305 2:4.78793 3:5.21899 
-0.3315229479404062 1:3.55414 2:3.55999 3:3.57209 
-0.01967748524305571 1:5.34952 2:6.00424 3:6.66706 
0.5 1:4.86157 2:3.90388 3:3.24826 
0.5 1:2.86151 2:2.8526 3:2.9267 
-0.1495553113343227 1:8.06506 2:8.16918 3:8.20492 
-0.5 1:3.91161 2:4.2049 3:4.5019 
