svm_type epsilon_svr
kernel_type linear
nr_class 2
total_sv 5
rho -0.158053
SV
-0.0387346542228455 1:7.47925 2:7.06903 3:6.98508 
-0.5 1:4.23726 2:3.89737 3:3.60345 
0.5 1:1.74318 2:2.03717 3:2.55367 
0.2767038717619762 1:9 2:7.23049 3:5.58493 
-0.2379692175391311 1:2.35425 2:2.12465 3:1.9121 
