svm_type epsilon_svr
kernel_type linear
nr_class 2
total_sv 16
rho -0.203487
SV
0.4786349383139302 1:9.65465 2:9.8659 3:9.92698 
-0.5 1:8.12794 2:8.21571 3:8.27663 
0.0002624661200820603 1:5.65198 2:5.64905 3:5.69409 
0.5 1:6.9577 2:7.33746 3:7.73604 
-0.5 1:3.9067 2:3.94587 3:3.95343 
-0.5 1:3.77621 2:3.80816 3:3.8174 
-0.3622480290294417 1:4.47317 2:4.52026 3:4.56065 
-0.5 1:4.50555 2:4.54495 3:4.57738 
0.5 1:9 2:7.50435 3:6.10711 
0.5 1:2.13404 2:2.12311 3:2.21035 
0.5 1:5.42143 2:4.9889 3:4.61961 
-0.1166493754045703 1:7.36267 2:6.61402 3:6.05645 
0.5 1:1.86904 2:1.93975 3:2.14591 
0.5 1:2.3139 2:2.84628 3:3.8424 
-0.5 1:7.461 2:7.42875 3:7.33568 
-0.5 1:3.29414 2:3.05898 3:2.8243 
