svm_type epsilon_svr
kernel_type linear
nr_class 2
total_sv 19
rho -0.202189
SV
0.5 1:2.75577 2:3.74292 3:5.18572 
0.5 1:6.25901 2:5.88743 3:5.55107 
0.5 1:2.39293 2:2.9039 3:3.88034 
0.5 1:2.5018 2:3.13598 3:4.30797 
-0.5 1:7.44774 2:7.54001 3:7.57225 
-0.5 1:3.62593 2:3.74476 3:3.84158 
-0.5 1:3.23338 2:3.26526 3:3.32073 
-0.5 1:3.6569 2:3.67266 3:3.69329 
0.3792956353005296 1:3.0129 2:2.63954 3:2.42016 
0.5 1:1.79952 2:2.43592 3:3.38744 
0.302856835851625 1:9.51626 2:9.17662 3:8.7838 
-0.5 1:1.88574 2:1.7146 3:1.54521 
0.5 1:3.05623 2:2.09536 3:1.78611 
0.5 1:5.43077 2:5.01534 3:4.64734 
0.3178475288478457 1:8.84194 2:8.30031 3:7.71608 
-0.5 1:3.40994 2:3.45826 3:3.5031 
-0.5 1:3.54075 2:3.55616 3:3.57884 
-0.5 1:3.55212 2:3.57305 3:3.5998 
-0.5 1:6.62118 2:7.62946 3:9 
