svm_type epsilon_svr
kernel_type linear
nr_class 2
total_sv 3
rho -0.114841
SV
-0.0560727632547766 1:1 2:1 3:1 
0.01891973223816482 1:8 2:7.23111 3:6.53943 
0.03715303101661178 1:6.79152 2:6.64323 3:6.51422 
