svm_type epsilon_svr
kernel_type linear
nr_class 2
total_sv 3
rho -0.125262
SV
-0.05967752075630893 1:1 2:1 3:1 
0.05800423285156966 1:6.16969 2:6.33905 3:6.61742 
0.001673287904739171 1:9 2:8.90555 3:8.81143 
