svm_type epsilon_svr
kernel_type linear
nr_class 2
total_sv 3
rho -0.124738
SV
0.001481731627230982 1:7.86251 2:7.52847 3:7.22869 
-0.0536036272743844 1:1 2:1 3:1 
0.05212189564715343 1:7.0221 2:7.0472 3:7.08926 
