svm_type epsilon_svr
kernel_type linear
nr_class 2
total_sv 6
rho -0.103727
SV
-0.4462549295492936 1:1 2:1 3:1 
0.5 1:2.94753 2:2.49879 3:2.23612 
0.5 1:4.75802 2:4.39903 3:4.18889 
-0.04200111130444771 1:7.69165 2:6.52259 3:5.58823 
-0.5 1:5.22422 2:4.69442 3:4.21247 
-0.01174395914625831 1:8.47517 2:7.97554 3:7.5227 
