svm_type epsilon_svr
kernel_type linear
nr_class 2
total_sv 3
rho -0.115504
SV
-0.05409052233670717 1:1.0014 2:1.00089 3:1.00056 
0.02192254733109289 1:6.93596 2:6.72776 3:6.55105 
0.03216797500561428 1:7.20247 2:7.29166 3:7.40726 
