svm_type epsilon_svr
kernel_type linear
nr_class 2
total_sv 3
rho -0.121086
SV
-0.06691958826479283 1:1 2:1 3:1 
0.05556204589957962 1:6.13851 2:5.5892 3:5.09416 
0.01135754236521323 1:6.44291 2:7.20587 3:8 
