svm_type epsilon_svr
kernel_type linear
nr_class 2
total_sv 3
rho -0.0926389
SV
-0.0593189867793385 1:0.0279362 2:0.0259699 3:0.0149613 
0.03307286859993466 1:2.69116 2:3.64777 3:4.78852 
0.02624611817940381 1:8.42144 2:7.84662 3:7.27921 
