svm_type epsilon_svr
kernel_type linear
nr_class 2
total_sv 19
rho -0.0951622
SV
-0.3371123886818493 1:7.92766 2:6.88185 3:5.88769 
0.5 1:-0.599235 2:-0.860791 3:-0.210935 
-0.5 1:0.25911 2:0.0967008 3:-0.135936 
0.5 1:0.406151 2:-1.01311 3:-2.05902 
0.5 1:-0.661496 2:-0.813962 3:-0.487201 
-0.5 1:-0.115673 2:0.0248894 3:0.145172 
-0.4999643769205473 1:2.33146 2:1.95751 3:1.67661 
-0.5 1:0.634468 2:0.260971 3:-0.232089 
0.5 1:-1.50153 2:-0.913423 3:-0.161728 
-0.5 1:0.0411844 2:0.0443358 3:0.0396274 
-0.07594673023154667 1:0.0125836 2:0.0135324 3:0.0124066 
-0.5 1:2.06464 2:1.09901 3:-1.08179 
0.5 1:0.866403 2:1.52505 3:2.50308 
0.5 1:1.60859 2:2.29384 3:3.08707 
0.5 1:9 2:5.99976 3:0.644797 
-0.2589927379852657 1:0.041494 2:-0.376116 3:-0.142265 
-0.5 1:0.0564887 2:0.182869 3:0.246149 
0.5 1:0.0210423 2:-0.564725 3:-1.05698 
0.1720162338192081 1:6.97775 2:7.97859 3:9 
