svm_type epsilon_svr
kernel_type linear
nr_class 2
total_sv 23
rho -0.0938889
SV
-0.5 1:9 2:5.7347 3:3.13249 
-0.5 1:2.22773 2:2.15972 3:2.22441 
-0.0458314430048037 1:4.3436 2:4.95912 3:5.65916 
0.5 1:9 2:7.7364 3:6.5009 
0.5 1:2.02841 2:1.43693 3:0.990816 
0.5 1:2.98223 2:3.54725 3:4.1641 
-0.3554379387723751 1:0.01491 2:0.0131881 3:0.0087298 
0.5 1:3.02582 2:2.42136 3:1.89972 
-0.5 1:0.976834 2:0.69595 3:0.00777891 
-0.5 1:0.555373 2:0.228445 3:0.0827792 
-0.4319787860190398 1:1.88424 2:1.30209 3:0.885156 
-0.5 1:0.946717 2:1.02206 3:1.22969 
-0.5 1:3.1507 2:3.72991 3:4.41917 
-0.5 1:-0.421733 2:0.747942 3:1.30157 
0.5 1:0.698169 2:1.18912 3:1.88683 
0.3332481677962182 1:3.91765 2:3.25708 3:2.66786 
0.5 1:-0.751536 2:-1.21494 3:-1.25913 
-0.5 1:0.0593614 2:0.0557388 3:0.0329162 
0.5 1:-0.942498 2:-0.949023 3:0.0270269 
0.5 1:0.0288939 2:-1.14519 3:-1.64908 
-0.5 1:-0.0601124 2:0.596816 3:1.00628 
0.5 1:-0.56368 2:-0.886561 3:-0.898462 
0.5 1:1.47828 2:1.93498 3:2.47011 
