svm_type epsilon_svr
kernel_type linear
nr_class 2
total_sv 10
rho 0.045394
SV
-0.5 1:5.84883 2:3.29572 3:1.60886 
0.5 1:6.66335 2:7.81552 3:9 
-0.5 1:4.33821 2:5.81538 3:9 
0.1938109451328452 1:5.71377 2:7.31088 3:9 
0.2359491599365109 1:6.8373 2:7.90485 3:9 
0.5 1:-0.670811 2:0.262204 3:0.74165 
0.4010774100994807 1:-0.535979 2:0.209542 3:0.592668 
0.169162484831163 1:1.2394 2:0.457049 3:0.178468 
-0.5 1:-0.448072 2:2.12065 3:3.81006 
-0.5 1:1.20681 2:2.64987 3:3.16343 
