svm_type epsilon_svr
kernel_type linear
nr_class 2
total_sv 4
rho -0.0846431
SV
-0.005659988621845447 1:0.639938 2:1.31738 3:2.46236 
-0.4972155048824249 1:0.937364 2:0.48779 3:0.235506 
0.5 1:1.57764 2:1.16417 3:0.836267 
0.002875493504270102 1:5.21491 2:5.9176 3:6.65558 
