svm_type epsilon_svr
kernel_type linear
nr_class 2
total_sv 8
rho -0.0776381
SV
-0.04313837307686445 1:1.24458 2:1.04267 3:0.973699 
-0.5 1:2.28976 2:4.67589 3:5.5189 
-0.5 1:1.38632 2:1.29953 3:0.749979 
0.5 1:0.484667 2:0.0559248 3:-0.191411 
-0.5 1:4.18083 2:2.46529 3:1.32085 
0.2449942926150691 1:8 2:6.35919 3:4.81557 
0.5 1:2.56165 2:3.14254 3:3.80071 
0.298144080461795 1:3.2609 2:3.82892 3:4.45074 
