svm_type epsilon_svr
kernel_type linear
nr_class 2
total_sv 3
rho -0.015282
SV
-0.04670340367049049 1:0.612046 2:1.24422 3:2.28856 
0.03897038857375954 1:8.0707 2:8.53323 3:9 
0.007733015096730956 1:6.83592 2:7.90415 3:9 
