svm_type epsilon_svr
kernel_type linear
nr_class 2
total_sv 11
rho -0.0550764
SV
-0.4338338464905994 1:9 2:8.79929 3:8.5988 
-0.5 1:0.142972 2:0.252958 3:0.272868 
-0.4218815653251148 1:0.0253917 2:0.0921963 3:0.12273 
-0.5 1:0.0522093 2:0.223816 3:0.324033 
0.5 1:0.350558 2:0.235314 3:0.193057 
-0.1442845881842856 1:9 2:8.43658 3:7.88469 
0.5 1:2.50214 2:2.9925 3:3.53001 
-0.5 1:0.688344 2:0.377582 3:0.00454218 
0.5 1:1.52988 2:1.23311 3:0.982652 
0.5 1:6.01335 2:5.05261 3:4.14294 
0.5 1:1.6695 2:1.98925 3:2.34751 
