svm_type epsilon_svr
kernel_type linear
nr_class 2
total_sv 24
rho -0.0386658
SV
-0.5 1:2.01078 2:0.898949 3:9 
0.5 1:9 2:8.17323 3:7.36382 
-0.5 1:0.962199 2:0.812968 3:0.334262 
-0.5 1:0.809349 2:0.683742 3:0.281123 
-0.5 1:9.2168 2:9.20199 3:7.56073 
-0.5 1:2.84695 2:1.64302 3:-0.145978 
-0.5 1:2.54209 2:2.01642 3:0.695894 
-0.5 1:2.20083 2:1.74573 3:0.602473 
-0.07070995588004568 1:0.202696 2:1.483 3:1.50894 
0.5 1:-0.399845 2:-1.85598 3:-2.18525 
-0.5 1:3.38279 2:2.66372 3:0.963021 
-0.3359609719255499 1:-0.885837 2:0.183046 3:1.16576 
0.5 1:-0.812233 2:0.535909 3:0.204344 
0.4801502365974497 1:3.25015 2:0.976755 3:-1.37453 
-0.5 1:6.26739 2:5.04978 3:2.92778 
0.5 1:9 2:8.3307 3:7.66836 
0.5 1:-2.59788 2:-1.44272 3:0.421694 
0.5 1:8 2:7.31648 3:6.64079 
0.5 1:8 2:7.33017 3:6.66771 
0.5 1:-2.25436 2:-2.62495 3:-2.08763 
0.5 1:-6.39125 2:-5.3404 3:-3.40618 
0.02212395543040002 1:5.20585 2:2.62376 3:-0.0897781 
0.4043967357777459 1:8.67936 2:8.35937 3:8.04066 
-0.5 1:1.63348 2:2.53341 3:2.54469 
