svm_type epsilon_svr
kernel_type linear
nr_class 2
total_sv 4
rho -0.0343748
SV
0.1191983779813405 1:6.51692 2:5.07869 3:3.09853 
0.09503880802120893 1:-4.27589 2:-4.12856 3:-3.08215 
-0.5 1:5.08836 2:5.12686 3:4.32674 
0.2857628139974505 1:9 2:8.86058 3:8.72133 
