svm_type epsilon_svr
kernel_type linear
nr_class 2
total_sv 11
rho -0.0893473
SV
-0.1478365856487278 1:0.479976 2:0.14565 3:-0.231371 
0.5 1:1.2608 2:1.74901 3:2.34619 
0.5 1:2.09336 2:1.54331 3:1.11073 
0.5 1:-0.121811 2:-1.57127 3:-2.46121 
0.5 1:-1.26393 2:-1.7561 3:-1.55603 
0.3686430604186504 1:3.52454 2:6.23803 3:9 
-0.5 1:-0.322569 2:1.35955 3:2.54246 
-0.5 1:0.972385 2:1.09504 3:0.687137 
-0.5 1:-0.178183 2:0.0383398 3:0.223625 
-0.2208064747699237 1:6.35287 2:4.81501 3:3.47406 
-0.5 1:0.0713819 2:0.0728336 3:0.0667055 
