svm_type epsilon_svr
kernel_type linear
nr_class 2
total_sv 3
rho -0.0615052
SV
0.04312487374877271 1:5.17195 2:6.06442 3:7.01111 
-0.1315936327315508 1:0.108373 2:0.0667154 3:0.00165598 
0.0884687589827782 1:1.07855 2:0.838712 3:0.642543 
