svm_type epsilon_svr
kernel_type linear
nr_class 2
total_sv 3
rho -0.099082
SV
0.02571712950662993 1:9 2:8.84946 3:8.69908 
-0.0368972576523862 1:0.0113644 2:0.00346495 3:0.000949171 
0.01118012814575627 1:8.6096 2:8.80465 3:9 
