svm_type epsilon_svr
kernel_type linear
nr_class 2
total_sv 5
rho 0.0778692
SV
0.0256796125065289 1:4.13499 2:3.64708 3:3.19519 
0.01432652559484431 1:0.395405 2:0.0630528 3:-0.317586 
-0.06890164946956816 1:-2.35298 2:-3.16432 3:-2.80956 
0.002022464360336804 1:8 2:7.3004 3:6.61254 
0.02687304700785817 1:0.379574 2:1.30772 3:1.96279 
