svm_type epsilon_svr
kernel_type linear
nr_class 2
total_sv 34
rho -0.0997608
SV
-0.5 1:0.0114993 2:0.0204007 3:0.0223311 
0.5 1:4.0676 2:3.26384 3:2.56234 
-0.5 1:-0.0169867 2:-0.0108804 3:0.00444436 
-0.003533585839594153 1:3.90418 2:5.41806 3:7.14978 
0.4997692980493539 1:7.73801 2:7.11924 3:6.51481 
0.5 1:8.41331 2:7.83056 3:7.25561 
-0.5 1:0.0534008 2:0.154821 3:0.19919 
-0.5 1:0.0519145 2:0.0591852 3:0.0486874 
-0.5 1:0.00390512 2:0.00447362 3:0.00304727 
-0.5 1:0.00137402 2:-0.00463207 3:0.00404597 
0.5 1:6.57996 2:5.23002 3:4.00993 
-0.5 1:1.10284 2:1.29156 3:1.57532 
-0.3492236621592265 1:0.000331201 2:0.000396308 3:0.000334444 
0.4807350638915159 1:6.32195 2:5.65345 3:5.00369 
-0.4278298870937449 1:3.629 2:4.67536 3:5.8133 
0.5 1:8.00814 2:7.02788 3:6.07136 
0.5 1:7.95425 2:7.4383 3:6.93054 
-0.1999172268483052 1:6.05308 2:-5.77898 3:-11.2107 
-0.5 1:1.87784 2:2.44211 3:3.11263 
-0.5 1:3.19097 2:3.84576 3:4.57384 
0.5 1:-8.80698 2:-5.69052 3:2.00639 
0.5 1:8.21006 2:7.42966 3:6.66798 
0.5 1:-6.60075 2:-2.5314 3:2.77934 
0.5 1:-2.16755 2:6.02589 3:4.47037 
-0.5 1:-7.47405 2:-1.24284 3:5.79397 
0.5 1:-7.58666 2:-5.3966 3:-0.0483321 
0.5 1:7.75427 2:-3.28001 3:-9.41775 
-0.5 1:0.765409 2:-6.94206 3:-2.63914 
0.5 1:7.67822 2:0.22298 3:-7.41592 
0.5 1:-4.99821 2:-5.17999 3:-3.57441 
-0.5 1:10.0291 2:8.43956 3:5.45406 
-0.5 1:9.50476 2:6.83592 3:0.166531 
-0.5 1:9.76002 2:10.763 3:9 
0.5 1:-7.17209 2:-7.26837 3:-4.81511 
