svm_type epsilon_svr
kernel_type linear
nr_class 2
total_sv 24
rho -0.100491
SV
0.5 1:-0.377581 2:-1.2534 3:-1.62118 
0.5 1:-1.06619 2:-0.389191 3:0.41625 
0.5 1:3.64774 2:4.04439 3:4.4643 
-0.5 1:4.19333 2:5.0197 3:4.05858 
0.5 1:1.45511 2:-1.00019 3:-3.06123 
-0.5 1:1.70616 2:3.54116 3:3.22614 
-0.01189826957436105 1:-1.21387 2:-0.815208 3:0.207773 
0.5 1:-4.44544 2:-5.48363 3:-4.50101 
-0.5 1:1.88052 2:0.438013 3:-1.21671 
-0.5 1:0.0199706 2:0.0211236 3:0.0374699 
-0.5 1:1.52693 2:1.43449 3:1.43637 
-0.5 1:-1.12736 2:0.489359 3:2.00003 
-0.5 1:3.47467 2:2.01455 3:0.193645 
0.5 1:0.860787 2:1.1048 3:1.4059 
0.3156542826620112 1:6.05605 2:6.61994 3:7.20018 
-0.5 1:0.0618526 2:0.684086 3:0.970847 
-0.08264292252479455 1:0.69595 2:0.00777891 3:-0.684944 
-0.5 1:1.15537 2:1.28609 3:0.97304 
0.5 1:1.46924 2:1.80721 3:2.19351 
0.5 1:6.5696 2:5.87491 3:5.20429 
-0.2211130905628551 1:2.90404e-06 2:2.18019e-05 3:3.00488e-05 
-0.5 1:-8.95972e-06 2:2.01953e-05 3:4.15681e-05 
0.5 1:1.37086 2:1.7058 3:2.09734 
0.5 1:1.75042 2:2.10936 3:2.51742 
