svm_type epsilon_svr
kernel_type linear
nr_class 2
total_sv 24
rho -0.0397441
SV
0.5 1:0.0755969 2:0.3782 3:0.804682 
0.5 1:0.827194 2:1.11285 3:1.46913 
0.5 1:5.46916 2:4.68864 3:3.96924 
-0.5 1:-0.780616 2:0.858225 3:2.19146 
-0.5 1:0.558459 2:0.322296 3:-0.028635 
0.5 1:-0.29397 2:-1.35839 3:-1.88735 
-0.5 1:-0.681155 2:0.562495 3:1.46463 
-0.5 1:0.406081 2:1.04295 3:1.17451 
-0.5 1:0.187087 2:0.290867 3:0.157662 
-0.0623389483645073 1:8 2:6.34925 3:4.8085 
0.5 1:-0.362793 2:-0.935029 3:-1.07018 
-0.5 1:7 2:6.34723 3:5.61663 
0.5 1:-0.190261 2:-0.0801765 3:0.0973128 
-0.5 1:0.734425 2:0.85562 3:0.379507 
0.5 1:-0.363545 2:-0.474476 3:-0.500367 
-0.5 1:0.101211 2:-0.419109 3:-0.475258 
0.02140814891479089 1:3.36486 2:4.81936 3:6.72897 
-0.4590692005502838 1:0.17543 2:0.123252 3:0.0106321 
0.5 1:0.790483 2:1.43504 3:2.41506 
0.5 1:1.57946 2:2.26487 3:3.05823 
-0.5 1:-0.235041 2:0.406787 3:0.981328 
-0.5 1:0.789426 2:0.79178 3:0.663163 
0.5 1:1.46879 2:2.0807 3:2.86252 
0.5 1:1.43327 2:1.96298 3:2.58147 
