svm_type epsilon_svr
kernel_type linear
nr_class 2
total_sv 11
rho -0.0999486
SV
0.5 1:4.24058 2:3.27393 3:2.43781 
0.5 1:0.358388 2:0.480714 3:0.635573 
-0.5 1:0.00428379 2:0.0312952 3:0.0364595 
0.5 1:4.1468 2:2.92071 3:1.95963 
-0.5 1:9 2:8.07743 3:7.1701 
-0.5 1:0.000639622 2:0.000454094 3:8.21586e-06 
-0.063301103561427 1:6.5376 2:6.07946 3:5.62976 
0.5 1:1.62251 2:2.00096 3:2.42631 
-0.5 1:0.0754592 2:0.0907034 3:0.0909608 
-0.4366988964385727 1:0.000258852 2:0.000238251 3:0.000118876 
0.5 1:0.310656 2:0.806995 3:1.26385 
