svm_type epsilon_svr
kernel_type linear
nr_class 2
total_sv 5
rho 0.0394059
SV
0.04969497179904585 1:-0.101282 2:-0.403128 3:-0.617185 
0.02771793189884292 1:6.08552 2:7.51085 3:9 
-0.07741290369788881 1:9 2:6.71036 3:4.65178 
-0.5 1:0.806142 2:0.720859 3:0.516337 
0.5 1:2.6133 2:1.98092 3:1.45858 
