svm_type epsilon_svr
kernel_type linear
nr_class 2
total_sv 7
rho -0.0719611
SV
-0.1494077189244109 1:3.45463 2:4.00603 3:4.66177 
-0.2886017704514818 1:5.87045 2:6.28796 3:6.76078 
-0.1792553839247313 1:5.50341 2:4.77395 3:4.13426 
-0.2062347402650164 1:8.10106 2:8.54592 3:9 
0.5 1:5.21353 2:6.55384 3:8 
0.5 1:5.23098 2:4.14537 3:3.19196 
-0.17650038643436 1:0.047508 2:0.0442591 3:0.0254859 
