svm_type epsilon_svr
kernel_type linear
nr_class 2
total_sv 3
rho -0.0571976
SV
-0.009668406465334825 1:1.06498 2:1.72964 3:2.66409 
-0.03148426859290694 1:1.07502 2:0.585971 3:0.298 
0.04115267505824177 1:9 2:8.88388 3:8.76794 
