svm_type epsilon_svr
kernel_type linear
nr_class 2
total_sv 42
rho -0.100322
SV
-0.5 1:1.93231 2:2.13323 3:2.46777 
-0.5 1:3.21859 2:3.15904 3:3.21684 
-0.4644234382149005 1:4.60884 2:5.05338 3:5.57867 
-0.5 1:6.55011 2:5.38897 3:2.44937 
-0.5 1:0.00398729 2:0.00103789 3:-0.000212636 
-0.5 1:4.17874 2:5.04887 3:5.99021 
-0.5 1:2.09466 2:3.23109 3:2.85712 
0.5 1:-3.3261 2:-3.74259 3:-3.33997 
-0.5 1:0.129067 2:0.232798 3:0.285832 
0.5 1:4.49854 2:3.93234 3:3.40254 
0.5 1:-4.73319 2:-4.3522 3:-3.19152 
0.5 1:0.772426 2:1.4316 3:2.24966 
-0.5 1:0.200014 2:0.258181 3:0.282311 
0.5 1:2.74309 2:2.21987 3:1.77049 
0.5 1:-1.08158 2:-0.549917 3:0.251419 
-0.3393248277786899 1:6.1845e-06 2:4.99893e-06 3:2.62829e-06 
-0.5 1:4.17499 2:6.00419 3:8 
-0.5 1:-0.0088664 2:-0.00256816 3:0.0093113 
0.5 1:2.43398 2:4.66719 3:7 
-0.5 1:-0.000951262 2:9.86406e-05 3:0.0010846 
0.5 1:4.66884 2:3.96283 3:3.31236 
0.5 1:2.96969 2:4.24722 3:6 
0.5 1:4.00187 2:3.39671 3:2.83917 
0.5 1:5.61699 2:4.318 3:3.17196 
-0.5 1:1.74495 2:-0.191244 3:0.351283 
-0.5 1:1.23318 2:1.5768 3:2.06091 
-0.5 1:1.46814 2:0.503904 3:-0.875375 
0.5 1:2.97999 2:2.27619 3:1.69435 
0.5 1:-1.23475 2:-0.58589 3:0.265134 
0.5 1:2.62789 2:3.36846 3:4.19426 
0.5 1:-1.76932 2:-3.26745 3:-4.22509 
-0.5 1:0.0165798 2:0.0194313 3:0.0192809 
-0.5 1:1.90829 2:1.37246 3:0.0334347 
-0.5 1:-0.000146972 2:0.00804892 3:0.0115344 
0.5 1:7 2:6.11748 3:5.25679 
0.5 1:4.08303 2:3.45002 3:2.87367 
-0.5 1:-0.140825 2:0.666501 3:1.19747 
0.5 1:0.399771 2:0.588256 3:0.843806 
-0.5 1:0.000110171 2:5.5048e-05 3:-2.27567e-05 
0.3037482659935905 1:3.06704 2:2.71835 3:2.39703 
0.5 1:-0.216275 2:-0.79568 3:-1.09598 
0.5 1:0.27909 2:0.39898 3:0.559071 
