svm_type epsilon_svr
kernel_type linear
nr_class 2
total_sv 8
rho -0.0699317
SV
0.5 1:-5.27995 2:-6.54324 3:-5.64713 
0.5 1:-1.20454 2:-1.86707 3:-1.91343 
-0.1437612586953101 1:-3.59892 2:-7.43287 3:-8.62002 
0.203558844991223 1:6.72417 2:5.04375 3:-0.902911 
-0.5 1:2.02636 2:-4.04182 3:-7.65601 
-0.2007564744243453 1:-5.17416 2:-2.05122 3:2.50367 
-0.5 1:-0.438273 2:1.67726 3:3.4924 
0.1409588881284325 1:8.75368 2:8.87674 3:9 
