svm_type epsilon_svr
kernel_type linear
nr_class 2
total_sv 17
rho -0.0693039
SV
-0.5 1:1.22703 2:1.02561 3:0.956809 
-0.2745433149276768 1:3.83798 2:4.35596 3:4.96997 
0.4706590043336535 1:9 2:7.88224 3:6.79142 
-0.5 1:0.269258 2:0.543888 3:1.02014 
-0.1961156894059769 1:0.412343 2:0.415411 3:0.493339 
-0.5 1:0.860378 2:0.862984 3:0.956333 
0.5 1:-5.97896 2:-4.03497 3:-1.36834 
0.5 1:-2.19147 2:-3.20578 3:-2.64799 
0.5 1:2.4516 2:5.08949 3:7 
0.5 1:0.777468 2:2.47333 3:6 
-0.5 1:1.99057 2:2.19821 3:2.53774 
-0.5 1:2.6956 2:2.91467 3:2.12802 
-0.5 1:-1.93879 2:0.912369 3:3.61262 
0.5 1:-3.33529 2:-4.08254 3:-3.13701 
0.5 1:6.6126 2:5.86262 3:5.14976 
-0.5 1:-0.281582 2:1.55072 3:2.83907 
0.5 1:1.9326 2:1.61553 3:1.33713 
