svm_type epsilon_svr
kernel_type linear
nr_class 2
total_sv 25
rho -0.0934234
SV
-0.4475261054042385 1:9 2:5.7347 3:3.13249 
-0.0883280155173868 1:7.66116 2:8.32363 3:9 
-0.5 1:-0.531814 2:0.804378 3:1.81452 
-0.5 1:0.0887094 2:0.040816 3:-0.0235831 
-0.5 1:1.39189 2:0.124356 3:-1.18422 
0.5 1:0.172192 2:0.253887 3:0.368116 
0.5 1:3.59496 2:4.15043 3:4.75004 
0.5 1:2.59478 2:2.21976 3:1.88431 
-0.5 1:0.73427 2:0.631065 3:0.32017 
-0.5 1:0.107026 2:0.144442 3:0.0597314 
0.5 1:0.814847 2:1.38036 3:2.27253 
0.5 1:5.30349 2:4.24427 3:3.31358 
0.5 1:1.66065 2:1.06194 3:0.619623 
-0.5 1:5.01759 2:6.46465 3:8 
0.5 1:0.381014 2:0.616668 3:0.949089 
0.5 1:3.75122 2:3.02974 3:2.37333 
0.5 1:1.12051 2:1.73989 3:2.52697 
-0.5 1:0.21065 2:0.121894 3:0.0149708 
0.5 1:2.2622 2:1.8969 3:1.57653 
-0.5 1:2.06829 2:2.69631 3:3.46783 
-0.4641458790783746 1:3.39646 2:3.81397 3:4.33675 
-0.5 1:5.85705 2:6.40516 3:7.00611 
0.5 1:2.49511 2:3.62399 3:4.95248 
-0.5 1:0.131694 2:0.132082 3:0.110625 
0.5 1:4.32858 2:3.78462 3:3.28288 
