svm_type epsilon_svr
kernel_type linear
nr_class 2
total_sv 17
rho -0.0785327
SV
-0.5 1:0.106113 2:0.0975935 3:0.0568705 
0.5 1:0.425178 2:0.302227 3:0.2152 
0.5 1:2.60007 2:2.14658 3:1.75171 
0.2050748946849378 1:5.88823 2:5.31847 3:4.77539 
0.5 1:-2.02354 2:-1.76518 3:-0.878247 
-0.5 1:0.799722 2:1.54675 3:1.98955 
-0.0449191317473032 1:0.0732066 2:0.216142 3:0.234096 
0.5 1:-2.10413 2:-1.46263 3:-0.248468 
-0.5 1:-0.301192 2:0.286075 3:0.734737 
-0.5 1:3.9491 2:2.44549 3:1.3873 
0.5 1:-0.221008 2:-0.566121 3:-0.646443 
-0.5 1:-0.36608 2:0.174439 3:0.676971 
0.5 1:-0.867694 2:-0.777919 3:-0.518736 
-0.5 1:0.365089 2:0.549797 3:0.350691 
-0.3013781963528936 1:0.0831832 2:0.0581496 3:0.0227732 
0.5 1:3.95077 2:4.67384 3:5.45842 
-0.3587775665847411 1:-1.93418 2:-0.712529 3:1.29827 
