svm_type epsilon_svr
kernel_type linear
nr_class 2
total_sv 8
rho -0.0737347
SV
-0.5 1:1.62607 2:0.859964 3:0.418171 
0.05174216564404039 1:9 2:8.60247 3:8.20617 
-0.1112918376828367 1:0.663744 2:1.18261 3:1.97033 
0.1718535071331647 1:-0.665652 2:-0.455077 3:-0.110008 
0.5 1:1.35031 2:0.906344 3:0.58514 
-0.1123038350943683 1:1.62117 2:0.856816 3:0.415444 
0.5 1:1.66872 2:1.0773 3:0.632609 
-0.5 1:0.95394 2:0.741525 3:0.406771 
