svm_type epsilon_svr
kernel_type linear
nr_class 2
total_sv 3
rho -0.117003
SV
-0.07210811896207936 1:1.00782 2:1.01106 3:1.01548 
0.04526281238811409 1:6.12828 2:6.2493 3:6.44824 
0.02684530657396526 1:5.43503 2:4.23059 3:3.51147 
