svm_type epsilon_svr
kernel_type linear
nr_class 2
total_sv 11
rho -0.107227
SV
0.5 1:8 2:8 3:8 
-0.5 1:1 2:1 3:1 
-0.5 1:4.39146 2:4.54236 3:4.69432 
0.5 1:2.28677 2:2.17235 3:2.0992 
-0.09547875086130084 1:2.00002 2:2.00001 3:2.00001 
0.5 1:4.22444 2:4.76239 3:5.42883 
0.5 1:4.23118 2:4.92218 3:5.80996 
-0.4045212491386999 1:6.1959 2:6.43825 3:6.68754 
-0.5 1:6.59998 2:6.82484 3:7.05427 
-0.5 1:6.35502 2:6.67584 3:7 
0.5 1:5.62951 2:5.2589 3:5.08303 
