svm_type epsilon_svr
kernel_type linear
nr_class 2
total_sv 3
rho -0.125683
SV
-0.07362872863865809 1:1.05177 2:1.0584 3:1.06694 
0.06838819962919525 1:5.69849 2:5.4831 3:5.31891 
0.005240529009462839 1:6.28968 2:5.64045 3:5.0981 
