svm_type epsilon_svr
kernel_type linear
nr_class 2
total_sv 12
rho -0.10099
SV
-0.4351490416853932 1:1 2:1 3:1 
-0.5 1:4.42436 2:4.56722 3:4.71097 
-0.5 1:4.86975 2:4.93483 3:5 
-0.5 1:4.8867 2:4.94331 3:5 
0.5 1:3.91543 2:3.47542 3:3.10847 
0.5 1:5.53234 2:5.18034 3:4.88678 
0.3592657589620263 1:6.16253 2:5.36147 3:4.62857 
-0.5 1:6.26489 2:6.50833 3:6.75369 
0.5 1:5.00329 2:5.01258 3:5.0497 
0.5 1:5.41792 2:5.59168 3:5.80704 
0.5 1:3.59054 2:4.85161 3:7 
-0.4241167172766306 1:6.79811 2:6.89882 3:7 
