svm_type epsilon_svr
kernel_type linear
nr_class 2
total_sv 3
rho -0.132166
SV
-0.0836573933816384 1:1.03844 2:1.04722 3:1.05791 
0.0527762979529425 1:4.4559 2:4.09018 3:3.79545 
0.03088109542869591 1:6.19982 2:6.32555 3:6.5069 
