svm_type epsilon_svr
kernel_type linear
nr_class 2
total_sv 3
rho -0.118387
SV
-0.06396828465478435 1:1 2:1 3:1 
0.04236287281832767 1:5.41914 2:5.71246 3:6.12708 
0.02160541183645668 1:7.38237 2:6.80496 3:6.30035 
