svm_type epsilon_svr
kernel_type linear
nr_class 2
total_sv 7
rho -0.106817
SV
-0.5 1:4.29083 2:4.56523 3:5.01719 
-0.2394958285466255 1:8.09342 2:7.23357 3:6.45999 
-0.5 1:1 2:1 3:1 
0.5 1:2.62657 2:2.18679 3:2.0371 
0.5 1:4.50125 2:4.14943 3:4.02968 
-0.09175902394260352 1:1.00006 2:1.00002 3:1.00001 
0.3312548524892289 1:4.52215 2:5.09545 3:5.95244 
