svm_type epsilon_svr
kernel_type linear
nr_class 2
total_sv 7
rho -0.0829638
SV
-0.5 1:6.33034 2:5.81642 3:5.38583 
0.05607079406811136 1:2.03514 2:2.26235 3:2.51989 
0.5 1:4.31608 2:2.69491 3:2.11924 
-0.4995154586293797 1:3.66668 2:3.13487 3:2.73771 
0.01357850191192675 1:6.09973 2:6.52873 3:7.04811 
-0.07013383735065845 1:7 2:6.47831 3:5.97054 
0.5 1:7.24434 2:7.09588 3:7 
