svm_type epsilon_svr
kernel_type linear
nr_class 2
total_sv 3
rho -0.123941
SV
7.472512445574179e-05 1:8.32325 2:8.37405 3:8.42949 
-0.04880963012307387 1:1 2:1 3:1 
0.04873490499861812 1:7.75616 2:7.66442 3:7.58017 
