svm_type epsilon_svr
kernel_type linear
nr_class 2
total_sv 7
rho -0.102255
SV
-0.5 1:4.86592 2:4.44994 3:4.21444 
-0.04686459332781839 1:5.26257 2:5.22586 3:5.26257 
-1.794853392106592e-05 1:5.97277 2:5.73245 3:5.55806 
-0.1166623682156369 1:1 2:1 3:1 
0.5 1:5.89371 2:5.50436 3:5.24975 
0.5 1:3.04498 2:3.18313 3:3.58383 
-0.3364550899226236 1:4.01512 2:4.14143 3:4.85636 
