svm_type epsilon_svr
kernel_type linear
nr_class 2
total_sv 3
rho -0.112367
SV
0.06803057300753357 1:5.6342 2:4.9933 3:4.45621 
0.01144540477655373 1:5.55524 2:5.80882 3:6.13187 
-0.07947597778408728 1:1.00005 2:1.00001 3:1 
