svm_type epsilon_svr
kernel_type linear
nr_class 2
total_sv 3
rho -0.124225
SV
-0.0234844335973365 1:5.52154 2:4.63979 3:4.22693 
-0.02901688716903985 1:1 2:1 3:1 
0.05250132076637633 1:9 2:8.88904 3:8.77862 
