svm_type epsilon_svr
kernel_type linear
nr_class 2
total_sv 3
rho -0.123668
SV
-0.06565448697056492 1:1.00001 2:1.00001 3:1 
0.03923952973548753 1:8.1902 2:8.14943 3:8.11566 
0.02641495723507739 1:2.46945 2:2.68271 3:2.96378 
