svm_type epsilon_svr
kernel_type linear
nr_class 2
total_sv 3
rho -0.124902
SV
-0.04454993411156016 1:1.00259 2:1.00176 3:1.00118 
0.0285187299087296 1:8.11945 2:8.15713 3:8.20312 
0.01603120420283057 1:8.16003 2:8.57332 3:9 
