svm_type epsilon_svr
kernel_type linear
nr_class 2
total_sv 6
rho -0.107311
SV
0.5 1:1.29035 2:1.11765 3:1.03979 
-0.02953763959177406 1:1 2:1 3:1 
0.0818297243751165 1:4.9005 2:6.30739 3:8 
-0.03068537803391665 1:5.15116 2:5.5686 3:6 
-0.4996746182980262 1:1 2:1 3:1 
-0.02193208845139943 1:2.82615 2:3.07037 3:3.33548 
