svm_type epsilon_svr
kernel_type linear
nr_class 2
total_sv 3
rho -0.120805
SV
0.01243124529809839 1:5.86175 2:6.12577 3:6.43453 
0.0444758520923948 1:7.26041 2:6.94071 3:6.67958 
-0.0569070973904932 1:1.00158 2:1.0043 3:1.01101 
