svm_type epsilon_svr
kernel_type linear
nr_class 2
total_sv 3
rho -0.157194
SV
0.2122791011895624 1:7.20759 2:6.37399 3:5.61076 
-0.2108831649548029 1:5.76383 2:4.75576 3:4.12372 
-0.001395936234759655 1:2.49008 2:2.48132 3:2.58568 
