svm_type epsilon_svr
kernel_type linear
nr_class 2
total_sv 7
rho -0.218765
SV
0.5 1:6.16353 2:5.78349 3:5.45124 
0.5 1:0.842105 2:1.05263 3:1.26316 
-0.2178482512604276 1:8.8 2:8.6 3:8.4 
-0.1640088987270074 1:3.65332 2:3.66898 3:3.68935 
-0.5 1:3.44424 2:3.59464 3:3.74576 
0.3818571499874341 1:6.03541 2:6.40896 3:6.84416 
-0.5 1:2.52739 2:2.54814 3:2.63769 
