svm_type epsilon_svr
kernel_type linear
nr_class 2
total_sv 11
rho -0.198619
SV
-0.5 1:2.69894 2:2.91759 3:3.14795 
-0.5 1:3.69105 2:3.58988 3:3.4868 
-0.2201550057867611 1:3.45217 2:3.45543 3:3.4733 
0.5 1:1.91541 2:2.05484 3:2.29539 
0.2518602484390813 1:6.80204 2:7.29907 3:7.84026 
0.5 1:2.27441 2:2.38517 3:2.59123 
-0.5 1:3.01778 2:2.60037 3:2.33782 
-0.03170524265232042 1:4.57026 2:4.16113 3:3.79129 
-0.5 1:3.57746 2:3.48231 3:3.41736 
0.5 1:3.49975 2:3.02521 3:2.86866 
0.5 1:4.47091 2:3.70666 3:3.13574 
