svm_type epsilon_svr
kernel_type linear
nr_class 2
total_sv 25
rho -0.211979
SV
0.5 1:3.3153 2:2.97932 3:2.76029 
0.5 1:3.94799 2:3.90896 3:3.9055 
0.5 1:3.97157 2:3.9767 3:4.02208 
0.2439575932355873 1:3.16834 2:3.11978 3:3.12351 
0.5 1:4.96463 2:5.42554 3:5.92674 
-0.2504303563502676 1:7.69372 2:7.684 3:7.65499 
-0.5 1:3.65924 2:3.58969 3:3.52175 
-0.5 1:3.48254 2:3.50631 3:3.53584 
0.5 1:6.54083 2:7.24808 3:8 
-0.5 1:2.71535 2:2.85759 3:3.00018 
-0.5 1:4.23719 2:4.36257 3:4.48318 
-0.5 1:5.04308 2:4.97831 3:4.9024 
0.5 1:4.26171 2:4.25419 3:4.32597 
0.5 1:4.88118 2:4.48956 3:4.1977 
-0.5 1:4.947 2:5.01704 3:5.06823 
-0.5 1:4.21727 2:4.19505 3:4.16877 
0.5 1:3.10781 2:3.2988 3:3.58149 
0.5 1:3.42721 2:3.69874 3:4.0306 
0.5 1:5.35027 2:4.85656 3:4.40742 
-0.5 1:3.15387 2:3.40977 3:3.6572 
-0.5 1:3.31292 2:3.43746 3:3.55328 
-0.5 1:3.52793 2:3.52822 3:3.52524 
0.5 1:4.56217 2:4.06117 3:4.02163 
0.006472763114680027 1:9 2:7.8293 3:6.72995 
-0.5 1:6.94007 2:6.85447 3:6.73864 
