svm_type epsilon_svr
kernel_type linear
nr_class 2
total_sv 4
rho -0.185479
SV
-0.5 1:2.69894 2:2.91759 3:3.14795 
0.4533043098702231 1:2.7119 2:2.95518 3:3.29059 
0.03991649531323841 1:9.95273 2:10.0242 3:9.95289 
0.006779194816538547 1:5.82013 2:4.7422 3:3.84761 
