svm_type epsilon_svr
kernel_type linear
nr_class 2
total_sv 13
rho -0.226104
SV
0.5 1:4.04102 2:4.01209 3:4.07224 
0.5 1:6.07616 2:5.70129 3:5.38909 
0.5 1:5.91426 2:5.63515 3:5.38839 
-0.3209826219120004 1:3.22296 2:3.09257 3:2.96659 
-0.5 1:5.01818 2:4.98315 3:4.9366 
0.5 1:3.97648 2:4.00722 3:4.13698 
0.5 1:3.55989 2:3.59249 3:3.67209 
-0.5 1:3.94432 2:4.06897 3:4.14703 
-0.5 1:3.54897 2:3.56936 3:3.59543 
-0.5 1:3.57529 2:3.57372 3:3.5791 
0.2753578956887104 1:6.23304 2:6.97463 3:7.92833 
-0.3587829818055729 1:10.754 2:10.7584 3:10.5661 
-0.09559229197113679 1:1.9064 2:2.38099 3:2.85714 
