svm_type epsilon_svr
kernel_type linear
nr_class 2
total_sv 19
rho -0.200366
SV
0.5 1:5.40966 2:5.61296 3:5.84698 
-0.1388357609943959 1:3.18421 2:3.47368 3:3.76316 
-0.5 1:9.84673 2:9.85023 3:9.64097 
-0.1334918203367249 1:6.41045 2:6.40178 3:6.37572 
0.5 1:2.74286 2:2.4 3:2.05714 
-0.5 1:2.2 2:2.4 3:2.6 
0.5 1:4.65414 2:4.78293 3:4.95008 
-0.5 1:2.36842 2:2.63158 3:2.89474 
-0.5 1:4.88969 2:4.92501 3:4.94929 
-0.5 1:4.15788 2:4.02632 3:3.89099 
-0.5 1:4.1625 2:4.19601 3:4.22471 
0.5 1:1.3125 2:1.125 3:1.70974 
0.5 1:3.23614 2:2.63282 3:2.75563 
-0.5 1:4.01083 2:3.83148 3:3.62167 
-0.5 1:3.38514 2:3.38566 3:3.40009 
0.27232758133112 1:5.77639 2:6.60248 3:7.71834 
0.5 1:4.10788 2:3.64697 3:3.30391 
0.5 1:6.76647 2:7.29123 3:7.84445 
0.5 1:7.28908 2:6.76166 3:6.26905 
