svm_type epsilon_svr
kernel_type linear
nr_class 2
total_sv 24
rho -0.0750904
SV
0.5 1:-4.10776 2:-2.73248 3:-0.249621 
0.5 1:-6.17773 2:-8.9311 3:-8.73704 
0.5 1:9 2:8.89042 3:8.78096 
0.5 1:8.79457 2:8.89723 3:9 
-0.5 1:6.28628 2:1.49878 3:-3.87952 
-0.5 1:1.7664 2:1.51009 3:0.658515 
-0.5 1:-1.08908 2:-7.34066 3:-7.38316 
-0.2294907908739505 1:2.39654 2:-4.78019 3:-9.05464 
-0.5 1:10.4627 2:9.6471 3:5.27635 
0.5 1:-5.93085 2:-4.23509 3:0.911269 
-0.3163443167507272 1:0.938617 2:0.591865 3:0.360351 
-0.5 1:-0.0859379 2:5.71223 3:8.84017 
-0.5 1:0.963805 2:0.856337 3:0.34857 
0.5 1:-3.42886 2:-6.22247 3:-7.66102 
0.2891145397009127 1:-1.54017 2:-1.2681 3:-0.719874 
0.5 1:-8.77611 2:-8.38694 3:-6.49572 
0.5 1:9.38349 2:8.47529 3:-1.81944 
-0.5 1:-3.53642 2:3.44777 3:7.65676 
-0.5 1:-3.87804 2:0.406064 3:4.49104 
-0.5 1:6.12915 2:3.68728 3:1.95181 
-0.5 1:0.404797 2:-0.598919 3:0.615737 
0.5 1:9 2:8.87896 3:8.75806 
0.2567205679237646 1:8.67777 2:8.78496 3:8.89241 
0.5 1:8.68157 2:8.7875 3:8.89368 
