svm_type epsilon_svr
kernel_type linear
nr_class 2
total_sv 33
rho -0.0160251
SV
-0.5 1:4.55874 2:3.38517 3:2.4217 
-0.5 1:0.913139 2:0.97501 3:1.16897 
-0.004711713166831197 1:2.73444 2:2.54123 3:2.47556 
0.5 1:3.48392 2:3.10848 3:2.75983 
0.5 1:4.88087 2:3.96721 3:3.15118 
0.5 1:2.18376 2:1.63786 3:-0.293196 
0.1104584774203651 1:9 2:8.31177 3:7.62986 
-0.5 1:-0.8781 2:-0.550112 3:0.199173 
-0.5 1:-3.75687 2:-1.55224 3:1.22442 
0.5 1:1.91797 2:1.20353 3:-0.0940314 
0.399420502520814 1:2.0388 2:2.68205 3:4.44657 
-0.5 1:2.48116 2:2.79453 3:2.49934 
0.5 1:4.9485 2:4.31067 3:3.71024 
-0.5 1:-0.0983232 2:-1.3769 3:-1.69426 
-0.5 1:3.42877 2:3.68592 3:3.28293 
0.5 1:8.12716 2:7.2658 3:6.42712 
0.5 1:3.16484 2:2.64771 3:2.19054 
-0.5 1:-0.446959 2:-1.28756 3:-1.09177 
-0.5 1:7.47335 2:4.79087 3:-0.241034 
-0.5 1:0.570831 2:1.07266 3:1.86255 
-0.5 1:0.17925 2:0.456516 3:1.04027 
0.5 1:-7.65349 2:-8.78312 3:-4.21953 
0.5 1:-5.35397 2:-7.58675 3:-5.37959 
-0.5 1:4.60872 2:6.69912 3:9 
-0.5 1:2.02149 2:2.2286 3:2.56724 
-0.5 1:2.98193 2:-5.39978 3:-9.33393 
0.5 1:-4.02056 2:-7.42485 3:-9.60099 
0.5 1:5.65993 2:5.11203 3:4.58753 
0.5 1:5.69322 2:5.15211 3:4.63347 
0.07111871480407735 1:-6.8883 2:-0.242212 3:6.54563 
-0.5 1:9.5111 2:10.5532 3:7.21955 
0.4237140184215759 1:1.37899 2:1.14822 3:0.948582 
0.5 1:9 2:8.32826 3:7.66237 
