svm_type epsilon_svr
kernel_type linear
nr_class 2
total_sv 98
rho -0.102393
SV
-0.5 1:0.120323 2:0.266289 3:0.549545 
-0.5 1:0.0217678 2:0.0370399 3:0.0372983 
-0.5 1:10.6612 2:12.9954 3:11.0409 
0.5 1:8.80999 2:8.71523 3:8.62078 
0.5 1:-9.15605 2:-7.1566 3:-2.60873 
-0.5 1:5.92176 2:8.96951 3:9.36813 
-0.5 1:-0.606329 2:1.02557 3:2.29396 
-0.5 1:6.38887 2:2.20488 3:-2.84825 
-0.5 1:-1.80212 2:3.2333 3:6.99419 
0.5 1:-1.60357 2:-1.90124 3:-1.44946 
-0.5 1:0.287357 2:0.246321 3:0.125832 
0.5 1:7.70176 2:7.2884 3:2.05432 
0.5 1:6.64434 2:6.76044 3:1.15823 
-0.5 1:-0.593547 2:-1.15465 3:-0.739094 
-0.5 1:6.80611 2:8.45648 3:4.9725 
0.5 1:2.20369 2:-4.39553 3:-8.32601 
-0.5 1:0.379548 2:1.37781 3:1.53954 
0.5 1:9 2:8.25733 3:7.52259 
0.5 1:9 2:8.52471 3:8.05171 
0.5 1:8.59982 2:8.20132 3:7.80617 
0.5 1:9 2:8.73836 3:8.47776 
0.5 1:0.902163 2:-2.19269 3:-3.6083 
0.5 1:0.497432 2:-2.50551 3:-3.58963 
0.5 1:-8.11947 2:-10.0157 3:-8.22096 
0.5 1:-8.82476 2:-4.45839 3:1.55096 
-0.5 1:-1.01819 2:0.803158 3:2.32853 
0.5 1:-0.157807 2:0.16647 3:0.856924 
0.5 1:-4.59801 2:-4.51662 3:-2.2469 
-0.5 1:0.0751774 2:0.155887 3:0.162168 
-0.5 1:-4.79383 2:-1.23178 3:3.33388 
0.5 1:-3.06383 2:1.61094 3:5.4345 
-0.1472270844565826 1:-0.000907544 2:0.0042129 3:0.00754119 
-0.5 1:0.230701 2:0.383931 3:0.624645 
-0.5 1:1.0611 2:1.3385 3:1.71419 
-0.5 1:-0.025902 2:5.20489 3:8.00262 
0.5 1:-7.02059 2:-8.01604 3:-5.26435 
-0.5 1:0.942567 2:0.375929 3:-0.366021 
-0.5 1:6.38507 2:7.2268 3:6.49476 
0.5 1:0.636509 2:0.361545 3:0.198913 
-0.5 1:5.977 2:4.32918 3:-0.340836 
-0.5 1:0.834476 2:0.771422 3:0.169838 
-0.5 1:6.38733 2:8.0044 3:8.18792 
-0.5 1:-2.3504 2:1.15042 3:4.4452 
-0.5 1:0.185151 2:0.209586 3:0.196488 
0.3491055351933123 1:8.789 2:8.68391 3:8.57931 
-0.5 1:5.23489 2:-5.15466 3:-9.83533 
0.5 1:-0.986418 2:1.79731 3:2.59049 
0.5 1:-5.91902 2:-6.33102 3:-1.64702 
-0.1366547996130734 1:6.60641 2:2.44034 3:-3.69002 
-0.5 1:0.0168382 2:0.0094156 3:-0.00558577 
0.5 1:8.56087 2:8.12359 3:7.68999 
0.5 1:4.98045 2:2.41231 3:-0.973071 
-0.5 1:-0.0011487 2:-0.0014613 3:-0.00105727 
-0.06522365112365824 1:4.98448 2:-0.337065 3:-5.11329 
0.5 1:-2.37403 2:4.03752 3:3.91699 
-0.5 1:9.11471 2:-1.20428 3:-7.34924 
-0.5 1:-0.0879606 2:-0.344179 3:0.147379 
0.5 1:9 2:8.39123 3:7.78787 
0.5 1:9 2:8.42477 3:7.85449 
0.5 1:-6.08533 2:-3.23487 3:1.71243 
-0.5 1:1.71243 2:5.54973 3:5.7897 
0.5 1:4.15226 2:2.87249 3:1.795 
0.5 1:0.893465 2:0.604955 3:0.39638 
0.5 1:1.16814 2:0.838505 3:0.58633 
0.5 1:-3.71846 2:-5.38957 3:-3.90658 
0.5 1:3.62012 2:2.51647 3:1.55887 
0.5 1:0.765636 2:0.519067 3:0.340735 
0.5 1:1.00124 2:0.718816 3:0.502734 
-0.5 1:1.5545 2:-6.21069 3:-4.70429 
0.5 1:2.84923 2:6.91034 3:0.655393 
0.5 1:2.18261 2:1.92768 3:-2.44252 
-0.5 1:0.228637 2:0.142158 3:0.121221 
-0.5 1:2.02017 2:2.64814 3:3.42158 
0.5 1:9 2:7.99157 3:7.00687 
0.5 1:7 2:4.4755 3:1.85052 
-0.5 1:0.115882 2:0.089822 3:0.0829001 
0.5 1:2.20812 2:-3.83592 3:-6.72048 
-0.5 1:0.00153095 2:-0.000737649 3:-0.00238631 
0.5 1:7.59748 2:6.63357 3:1.85163 
0.5 1:5.97876 2:6.08322 3:1.04221 
-0.5 1:-0.533404 2:-1.03765 3:-0.664203 
0.5 1:-1.86849 2:0.574078 3:2.90265 
0.5 1:3.57291 2:4.76736 3:6 
-0.5 1:0.00333771 2:0.0108049 3:0.0145439 
-0.5 1:6.45287 2:3.54024 3:0.0420157 
-0.5 1:7.2219 2:4.62667 3:1.26614 
0.5 1:-0.517972 2:-1.23493 3:-1.74762 
-0.5 1:0.177157 2:0.22972 3:0.244285 
0.5 1:3.395 2:2.76816 3:2.2071 
-0.5 1:7 2:8.06693 3:7.88039 
0.5 1:-7.09888 2:-5.0816 3:-0.0904525 
-0.5 1:-0.272548 2:-0.00243794 3:0.269113 
-0.5 1:6.53794e-05 2:0.00494675 3:0.0076315 
-0.5 1:-0.000805708 2:-0.00107018 3:-0.000413726 
-0.5 1:7.07713 2:8.8379 3:6.93411 
0.5 1:7.77456 2:7.37226 3:6.97517 
-0.5 1:0.00185312 2:0.0011049 3:0.000658377 
-0.5 1:0.00251157 2:0.00169972 3:0.00113858 
