svm_type epsilon_svr
kernel_type linear
nr_class 2
total_sv 13
rho -0.0934363
SV
-0.5 1:0.231343 2:0.190791 3:0.224242 
0.5 1:3.72615 2:3.0633 3:2.48108 
0.5 1:3.45473 2:3.89962 3:4.3757 
0.4516857654481126 1:3.70074 2:4.13639 3:4.59915 
-0.5 1:0.0516312 2:0.021336 3:-0.0269138 
-0.2153450416631878 1:0.0278494 2:0.0112611 3:-0.0105913 
-0.5 1:-0.0234385 2:0.0896986 3:0.186771 
0.5 1:1.91824 2:2.91392 3:4.13592 
-0.5 1:0.178122 2:0.371954 3:0.723679 
-0.5 1:6.7567 2:5.70951 3:4.74652 
-0.2363407237849232 1:6.42081 2:5.64809 3:4.94665 
0.5 1:0.420979 2:0.314397 3:0.256605 
0.5 1:-1.60897 2:-4.80297 3:-6.31222 
