svm_type epsilon_svr
kernel_type linear
nr_class 2
total_sv 16
rho 0.00524944
SV
0.08745895414691245 1:8.11591 2:8.55711 3:9 
0.1513646192545266 1:7.64871 2:8.32132 3:9 
-0.5 1:2.59269 2:1.05535 3:-0.975325 
-0.5 1:2.79456 2:3.43119 3:3.32062 
-0.5 1:-0.884659 2:0.997805 3:2.70157 
0.4062087965874164 1:0.353964 2:-0.327818 3:-0.84884 
-0.5 1:0.849836 2:0.83386 3:0.280052 
-0.5 1:0.691183 2:0.977363 3:0.693828 
-0.5 1:1.65013 2:2.8885 3:4.59886 
-0.149074885126543 1:1.30172 2:0.773179 3:-0.392194 
0.004042515137687002 1:6.23703 2:7.10998 3:8 
0.5 1:-1.23449 2:-1.24358 3:-0.823577 
0.5 1:-0.421371 2:-0.926203 3:-1.04699 
0.5 1:3.52096 2:4.01399 3:4.54406 
0.5 1:4.24847 2:4.76282 3:5.30702 
0.5 1:-0.850067 2:-0.481203 3:0.0564532 
