svm_type epsilon_svr
kernel_type linear
nr_class 2
total_sv 10
rho 0.0452118
SV
0.119187959145939 1:1.34616 2:1.91546 3:2.60004 
0.5 1:7.31775 2:8.15299 3:9 
-0.5 1:-2.46686 2:-2.81086 3:-2.11901 
0.5 1:0.53616 2:0.484266 3:-0.103956 
-0.5 1:-0.516068 2:-0.608954 3:0.598174 
0.5 1:-8.14987 2:-7.30323 3:-5.24856 
0.1578230819244565 1:6.13466 2:4.39829 3:0.0879385 
-0.5 1:4.81173 2:6.00887 3:4.71449 
0.2229889589296055 1:8.46051 2:8.73005 3:9 
-0.5 1:2.96346 2:4.34682 3:4.20544 
