svm_type epsilon_svr
kernel_type linear
nr_class 2
total_sv 75
rho -0.115472
SV
-0.5 1:12.1611 2:-7.99006 3:1.48169 
0.5 1:6.83073 2:7.9013 3:9 
0.5 1:-4.4074 2:-4.93918 3:-3.46892 
-0.5 1:-0.00598155 2:-0.0115482 3:-0.0124277 
-0.5 1:0.0590994 2:0.0459236 3:0.0362623 
-0.5 1:10.0534 2:12.9297 3:11.539 
-0.5 1:5.92513e-05 2:4.15325e-05 3:6.56314e-05 
0.5 1:5.28173 2:5.7102 3:6.15268 
0.5 1:8.09781 2:8.54801 3:9 
0.5 1:-10.9725 2:-8.57641 3:-3.12628 
-0.5 1:-2.23713 2:4.01379 3:8.68251 
0.5 1:0.697202 2:1.09196 3:1.59201 
0.5 1:4.05502 2:-5.12526 3:-9.97035 
0.5 1:1.54212 2:-6.74199 3:-10.9327 
-0.5 1:4.58093 2:1.25003 3:-3.03819 
-0.5 1:0.128186 2:0.0971967 3:0.0741768 
0.5 1:-11.9319 2:-8.99508 3:-2.7434 
-0.5 1:0.0911773 2:0.0680197 3:0.0516438 
-0.5 1:5.07704 2:1.76062 3:-2.40884 
0.5 1:-7.38446 2:-1.89745 3:5.13554 
0.5 1:1.88882 2:5.33134 3:-7.93623 
-0.5 1:6.90531 2:10.7929 3:9.63529 
-0.5 1:-0.0103961 2:-0.00685385 3:-9.85521e-05 
-0.3399630032893318 1:0.0845041 2:0.0664508 3:0.0534894 
-0.5 1:8.90754 2:7.35375 3:4.19853 
-0.5 1:0.0519369 2:0.0344888 3:0.00953674 
-0.5 1:-4.74412 2:1.80171 3:7.08977 
-0.5 1:0.0806315 2:0.070286 3:0.0677243 
0.5 1:-6.74087 2:-3.08208 3:1.1287 
-0.5 1:-0.0667046 2:-0.0118102 3:0.0451997 
-0.5 1:-0.00966145 2:-0.00794069 3:-0.00476475 
0.5 1:8.60443 2:8.80206 3:9 
0.2826098787134767 1:2.29775 2:-9.51489 3:-10.7896 
-0.5 1:0.0559685 2:0.0767458 3:0.118489 
0.5 1:7.44206 2:8.21618 3:9 
0.5 1:8.04386 2:8.51974 3:9 
-0.5 1:2.14975 2:9.11549 3:8.74394 
0.5 1:3.37311 2:2.40494 3:1.64855 
-0.5 1:0.0327054 2:0.0458144 3:0.0651822 
0.5 1:8.61276 2:8.80604 3:9 
0.2887815075915289 1:8.64768 2:8.82353 3:9 
0.5 1:3.27178 2:-3.03011 3:-7.84605 
-0.5 1:0.0255023 2:0.0323488 3:0.0411018 
-0.5 1:0.0340514 2:0.0402942 3:0.0485753 
0.5 1:-4.99877 2:-7.08605 3:2.2908 
-0.5 1:0.14165 2:0.105591 3:0.0857557 
-0.5 1:10.9977 2:7.26701 3:-1.17414 
0.5 1:0.402644 2:0.589455 3:0.8409 
0.5 1:-6.50179 2:-0.200658 3:6.2179 
0.5 1:0.510522 2:0.709786 3:0.964106 
0.2685716169843226 1:-10.1886 2:1.42728 3:10.9124 
0.5 1:-5.83212 2:9.69859 3:4.52449 
0.5 1:6.86711 2:7.92018 3:9 
-0.5 1:-7.34934 2:-4.12318 3:6.23645 
-0.5 1:0.0966421 2:0.0630573 3:0.0455912 
0.5 1:3.41418 2:-6.44862 3:-11 
0.5 1:4.42316 2:3.43015 3:2.58054 
0.5 1:3.64952 2:-4.61273 3:-8.97332 
0.5 1:-5.71392 2:-5.75602 3:-3.81199 
0.5 1:1.06893 2:0.807651 3:0.598966 
-0.5 1:0.0249267 2:0.0317596 3:0.0406271 
-0.5 1:0.0353919 2:0.0416411 3:0.0501466 
-0.5 1:0.223006 2:0.169185 3:0.0933877 
0.5 1:0.832878 2:0.62749 3:0.476979 
-0.5 1:-0.000322906 2:-0.00031395 3:0.00037942 
0.5 1:4.14522 2:3.32462 3:2.6018 
-0.5 1:0.0345172 2:0.027354 3:0.0226497 
0.5 1:6.22524 2:5.37238 3:4.57667 
-0.5 1:0.00017559 2:0.000246582 3:0.000366843 
-0.5 1:0.0269213 2:0.0302314 3:0.0351569 
0.5 1:2.89875 2:3.22085 3:3.56456 
0.5 1:6.54749 2:6.94375 3:7.34674 
-0.5 1:-0.000222559 2:-0.000664859 3:-0.000873848 
0.5 1:3.64741 2:3.08812 3:2.58113 
-0.5 1:0.0262487 2:0.0289359 3:0.0329543 
