svm_type epsilon_svr
kernel_type linear
nr_class 2
total_sv 14
rho -0.0610178
SV
-0.5 1:1.269 2:2.40327 3:4.11746 
-0.5 1:0.263059 2:1.36322 3:1.91082 
-0.5 1:1.16598 2:1.85079 3:1.92481 
0.5 1:-5.42153 2:-3.52056 3:-0.365949 
-0.5 1:-1.01242 2:1.81646 3:3.9293 
0.5 1:0.568435 2:0.990512 3:1.65323 
0.5 1:0.554724 2:1.01326 3:1.5719 
-0.5 1:-0.0635167 2:0.243077 3:0.506137 
-0.1343278297849822 1:3.35471 2:2.5644 3:1.91125 
0.5 1:6.46453 2:7.71134 3:9 
0.4238065537811708 1:-0.42336 2:-0.477529 3:-0.45271 
-0.5 1:0.17038 2:0.3581 3:0.397337 
0.2105212760038113 1:6.06054 2:6.62376 3:7.20319 
0.5 1:-0.386255 2:-0.283639 3:-0.0815307 
