svm_type epsilon_svr
kernel_type linear
nr_class 2
total_sv 12
rho -0.193858
SV
0.5 1:9 2:7.15233 3:5.45905 
0.5 1:1.61207 2:1.5803 3:1.67476 
-0.2697506826690671 1:10.255 2:10.4057 3:10.487 
-0.5 1:5.39994 2:5.51383 3:5.60812 
-0.5 1:4.11765 2:3.82355 3:3.52957 
-0.2987599469358843 1:4.3987 2:4.32728 3:4.2483 
0.5 1:2.07315 2:2.25954 3:2.52998 
-0.5 1:3.375 2:3.1875 3:3 
-0.5 1:5 2:4.22558 3:3.52082 
0.5 1:5.16742 2:5.11203 3:5.146 
0.5 1:8.32395 2:8.54234 3:8.76905 
0.06851062960495113 1:5.47156 2:5.82378 3:6.20126 
