svm_type epsilon_svr
kernel_type linear
nr_class 2
total_sv 7
rho -0.163449
SV
0.5 1:7.00486 2:6.08887 3:5.26343 
-0.5 1:7.07275 2:6.98381 3:6.87407 
0.5 1:4.57829 2:4.88012 3:5.23955 
0.07130342057632084 1:8.45349 2:8.7257 3:9 
-0.4174511805964354 1:4.86554 2:4.84096 3:4.80042 
-0.1953425719637699 1:3.21496 2:2.81344 3:2.54123 
0.04149033198388447 1:5.625 2:6.25 3:6.87495 
