svm_type epsilon_svr
kernel_type linear
nr_class 2
total_sv 3
rho -0.193697
SV
-0.05405558992706073 1:3.12271 2:3.09841 3:3.09421 
0.01863778749512821 1:9.98486 2:9.50725 3:8.94965 
0.0354178024319325 1:9.01303 2:8.91436 3:8.70596 
