svm_type epsilon_svr
kernel_type linear
nr_class 2
total_sv 25
rho -0.177272
SV
-0.5 1:6.08949 2:6.1734 3:6.24576 
-0.5 1:6.15156 2:6.22268 3:6.28178 
-0.5 1:5.80752 2:5.84804 3:5.88006 
0.5 1:4.66945 2:4.61023 3:4.63056 
-0.5 1:5.92211 2:5.92863 3:5.92425 
-0.5 1:7.1449 2:7.0267 3:6.89669 
0.5 1:5.33213 2:5.11808 3:4.93877 
-0.5 1:7.16625 2:7.1871 3:7.19413 
-0.5 1:3.57011 2:3.57675 3:3.58671 
0.5 1:5.03982 2:5.16215 3:5.39942 
-0.1130609752056829 1:4.21913 2:4.23181 3:4.24334 
0.5 1:4.64649 2:4.68803 3:4.79773 
-0.5 1:4.73733 2:4.66752 3:4.58443 
0.5 1:5.2472 2:4.93362 3:4.69151 
0.5 1:6.57237 2:6.08259 3:5.66212 
0.5 1:5.64246 2:5.75909 3:5.93205 
0.5 1:3.34903 2:4.22943 3:5.32229 
0.5 1:6.28324 2:5.89868 3:5.54198 
0.5 1:4.62417 2:4.50811 3:4.42128 
-0.07340568532780861 1:3.06383 2:2.89362 3:2.72345 
-0.5 1:3.13814 2:3.3458 3:3.54314 
-0.5 1:3.53676 2:3.54887 3:3.55135 
-0.5 1:3.57213 2:3.55785 3:3.55085 
0.5 1:5.63986 2:5.99269 3:6.44772 
0.186466660533491 1:5.31117 2:4.84612 3:4.45578 
