svm_type epsilon_svr
kernel_type linear
nr_class 2
total_sv 3
rho -0.151922
SV
0.02737318581006642 1:9.68956 2:9.33219 3:8.94724 
-0.04521092833698897 1:2.15462 2:1.97172 3:1.88579 
0.01783774252692256 1:8.86648 2:8.93312 3:9 
