svm_type epsilon_svr
kernel_type linear
nr_class 2
total_sv 23
rho -0.180961
SV
0.5 1:5.43908 2:6.22524 3:7.09808 
0.1884427009220432 1:7.47703 2:8.22921 3:9 
0.5 1:3.73171 2:3.94328 3:4.23014 
0.1669611111886064 1:4.08632 2:4.08698 3:4.16816 
0.5 1:2.51177 2:1.99322 3:1.93834 
0.5 1:3.74629 2:3.25442 3:3.00338 
-0.5 1:4.21053 2:4 3:3.78947 
0.5 1:3.86681 2:3.53331 3:3.37086 
-0.3554038121106486 1:1.62877 2:1.56584 3:1.67543 
-0.5 1:3.8049 2:3.70523 3:3.59316 
-0.5 1:3.9812 2:3.91051 3:3.85 
-0.5 1:3.2093 2:3.06977 3:2.93023 
-0.5 1:4.47568 2:4.41845 3:4.35631 
0.5 1:2.82563 2:2.66327 3:2.6844 
0.5 1:2.08833 2:2.2649 3:2.61566 
-0.5 1:2.7234 2:2.55328 3:2.38346 
-0.5 1:2.84978 2:2.92513 3:3.03625 
-0.5 1:3.57948 2:3.54189 3:3.51639 
0.5 1:2.77956 2:2.19458 3:2.13087 
0.5 1:4.15743 2:3.59739 3:3.3101 
0.5 1:2.54968 2:1.77113 3:1.30831 
-0.5 1:3.95833 2:3.75 3:3.54167 
-0.5 1:2.82353 2:3.05882 3:3.29412 
