svm_type epsilon_svr
kernel_type linear
nr_class 2
total_sv 5
rho -0.178453
SV
0.01040007153824193 1:6.49822 2:7.29219 3:8.13377 
0.5 1:3.32467 2:3.57398 3:3.92415 
-0.5 1:2.85193 2:3.0228 3:3.53143 
-0.04476795869629395 1:2.89473 2:3.15783 3:3.42071 
0.03436788715805204 1:3.42547 2:4.37073 3:5.60201 
