svm_type epsilon_svr
kernel_type linear
nr_class 2
total_sv 6
rho -0.167997
SV
0.5 1:2.30268 2:2.63673 3:3.0928 
-0.399365964815961 1:5.36772 2:5.32325 3:5.25142 
0.5 1:2.55669 2:2.65419 3:2.82479 
-0.39590551062512 1:2.89771 2:2.64477 3:2.40553 
-0.5 1:2.94155 2:2.99353 3:3.08056 
0.295271475441081 1:9 2:7.84176 3:6.75317 
