svm_type epsilon_svr
kernel_type linear
nr_class 2
total_sv 3
rho -0.0136024
SV
0.03569232281048281 1:7.03228 2:7.65503 3:8.31723 
0.03809840051622117 1:8.56349 2:8.78075 3:9 
-0.07379072332670399 1:3.09411 2:3.49883 3:4.73983 
