svm_type epsilon_svr
kernel_type linear
nr_class 2
total_sv 7
rho -0.101315
SV
-0.4283085168554909 1:4.14708 2:4.33907 3:4.70906 
-0.2266686333063272 1:6.30406 2:5.62948 3:5.10008 
0.5 1:1.68877 2:2.02407 3:2.45654 
-0.4995312334193021 1:3 2:3 3:3 
0.5 1:3.55467 2:2.63653 3:2.20527 
-0.3454916164188794 1:2.00031 2:2.0002 3:2.00017 
0.5 1:6.28928 2:6.49971 3:6.80707 
