svm_type epsilon_svr
kernel_type linear
nr_class 2
total_sv 5
rho -0.117605
SV
-0.2500244388374561 1:5.84126 2:6.74007 3:7.81842 
0.5 1:1.62602 2:2.03394 3:2.59142 
-0.5 1:1.00071 2:1.00115 3:1.00225 
-0.05532474843805121 1:1.08351 2:1.10432 3:1.13731 
0.305349187275508 1:5.01637 2:5.05744 3:5.16376 
