svm_type epsilon_svr
kernel_type linear
nr_class 2
total_sv 4
rho -0.0372921
SV
-0.5 1:4.00151 2:4.0432 3:4.68002 
0.2903355243806518 1:1.69407 2:2.48077 3:3.62366 
0.01573972435098323 1:8.39148 2:8.66897 3:9 
0.1939247512683648 1:8.50666 2:8.02508 3:7.56619 
