svm_type epsilon_svr
kernel_type linear
nr_class 2
total_sv 4
rho -0.118443
SV
-0.4046594147530024 1:1 2:1 3:1 
0.5 1:2.26196 2:2.73631 3:3.67611 
0.2266386940302507 1:7 2:6.41984 3:5.85187 
-0.321979279277248 1:6.31563 2:6.66371 3:7.23703 
