svm_type epsilon_svr
kernel_type linear
nr_class 2
total_sv 3
rho -0.121241
SV
-0.02533810880256595 1:7.00944 2:5.50544 3:4.6277 
0.05876364104882875 1:8.78051 2:8.57706 3:8.40161 
-0.03342553224626277 1:1 2:1 3:1 
